{
  "engine": "nn",
  "version": 2,
  "feature_encoding": "ray_wall_body_inverse_v1",
  "epsilon": 0.005,
  "epsilon_decay": 0.995,
  "min_epsilon": 0.005,
  "gamma": 0.95,
  "learning_rate": 0.0005,
  "hidden_layers": [
    64,
    64
  ],
  "batch_size": 64,
  "replay_capacity": 10000,
  "target_sync_interval": 200,
  "seed": 42,
  "training_steps": 230240,
  "last_loss": 0.05118188816315793,
  "network": {
    "layers": [
      {
        "weights": [
          [
            0.23200125482851836,
            -0.11503092536092006,
            0.24327538210896038,
            0.42660507470710607,
            -0.6863908810968454,
            -0.37571432158068313,
            0.3041487275360996,
            -0.1396725465387605,
            -0.04318177612930256,
            -0.5453253387670749,
            0.5139075309673395,
            0.04308028652049898,
            -0.2353483117729879,
            0.6014371819246163,
            0.12941318976809105,
            0.41180080289674287,
            0.36191031356719283,
            -0.5967903893549813,
            -0.09672885833700769,
            0.45754671964002225,
            0.08155365229308356,
            -0.6407509742336773,
            0.5984094788996336,
            -0.2859705072070395,
            -0.015879122251338147,
            -0.6086074833389015,
            0.38430031411988447,
            -0.1445941113224593,
            0.5218249810729588,
            -0.3286410669719807,
            0.7478679571359647,
            -0.21056758951886703,
            -0.6355961969858086,
            -0.2067851266635819,
            0.13537536387975638,
            0.06234990414553941,
            -0.7342621826236463,
            -0.1555736844576577,
            -0.16506935852758514,
            0.37172314708687226,
            0.5241245020428946,
            0.36753961586727846,
            -0.9491819258071282,
            -0.19766733202447379,
            0.42658419364300665,
            -0.007966059056348635,
            0.5734413152295345,
            -0.2715546297272236,
            0.520808777398728,
            0.04009152892994054,
            -0.1201868030408255,
            0.16067951922232696,
            -0.6406836579683076,
            -0.3834242752392917,
            -0.6879200922394447,
            -0.6908831396642701,
            0.3145821914979661,
            0.5786403763935303,
            -0.5598914767428048,
            0.23621714661513085,
            -0.29192252136259716,
            -0.5117636679004409,
            -0.05605496676705074,
            0.19327406839693662
          ],
          [
            0.33095633332323315,
            0.1458244771046803,
            -0.06863530152605965,
            0.03677879758293549,
            0.42296678854332564,
            -0.5276411560664581,
            -0.3249536428937114,
            -0.09260971225837758,
            -0.5620924500927659,
            0.20280823666055173,
            0.40089930061510864,
            0.30712340364329277,
            -0.40876272288557824,
            0.021523655655069356,
            0.46169219353750157,
            -0.07822025670195974,
            0.3599257709674171,
            -0.7307572416595725,
            -0.41816127938756864,
            -0.37503841954734757,
            -1.0661676430978737,
            0.596724574541086,
            -0.046586861027282524,
            -0.4880057967078721,
            0.49257559587954597,
            0.32751278221862856,
            -0.12184964796114126,
            -0.3438047062377815,
            -0.8285694458145003,
            -0.07187389374511576,
            -1.2096553583504905,
            -0.3567394888786897,
            -0.321587908108803,
            0.331030062534833,
            0.3832334711046902,
            -0.06710698909785998,
            0.002033783428943234,
            0.675536605326066,
            0.10725950304219985,
            0.3042599972085786,
            0.08811938201924446,
            0.2902978520951993,
            -0.6296461677443564,
            -1.1087496513083694,
            0.8227476326087713,
            -0.2515795283644478,
            -0.1785452814820492,
            0.5542647549383468,
            -0.2672827851569815,
            -0.4829761142630053,
            0.0745800892179128,
            -0.04637449420828344,
            -0.3900514808104395,
            -0.11859916051255999,
            0.4075883093770517,
            -0.589880425473908,
            0.08997788888307669,
            0.026311864425823835,
            -0.2239183269120156,
            0.39197760968493917,
            0.40290169179963486,
            -0.032921536425236264,
            0.631163120031418,
            -0.3376415112360819
          ],
          [
            -1.0541874333057444,
            -0.9911152628721003,
            -0.7807068205836007,
            -1.2952317600159047,
            0.2733945088354923,
            -0.21055482684993734,
            -0.7933790388911951,
            0.10452774453222945,
            0.24455720037151377,
            0.13700062459067916,
            0.8408867209798899,
            0.9987916732389047,
            0.5061502269380369,
            -0.2252840458375233,
            -0.9004967086869824,
            -0.5071640396734185,
            -0.4062890841651907,
            -0.43006253794481775,
            -0.12457738260362174,
            -0.2999402329466038,
            0.6113379718562312,
            0.003887102729992633,
            -0.4808142625129808,
            -0.08003801265893294,
            -0.7528584035174819,
            0.11383307079357433,
            -0.8618761675825689,
            0.720413679982115,
            0.1315279662620056,
            0.2502951412643294,
            -0.4912655490497384,
            -0.6968907622788867,
            0.2589849223740633,
            0.006899686838027635,
            0.8247522790553824,
            -0.10096158083304253,
            0.2258634520580551,
            -0.25033308752146244,
            0.6124376446519258,
            -0.023560623255386434,
            -0.528634507756928,
            -0.10362358890600096,
            0.20611070588015118,
            -0.03946367540146304,
            -0.2085128404276682,
            -0.70158909675074,
            -0.5000811266465511,
            -0.07089811582955499,
            0.46409987797601504,
            0.020451200120221433,
            -0.265733297881108,
            -0.4106475050582452,
            0.07543080313269043,
            -0.0750643677457428,
            -0.19961563567704677,
            0.42907421150477243,
            0.16549893231645835,
            0.3291251726568186,
            -0.12809129738628108,
            -0.7695228480676062,
            -0.7587093244536285,
            0.7377032492479451,
            0.6122373273548364,
            0.09046300455413725
          ],
          [
            -0.6153882956638892,
            0.6842222496631161,
            -0.35352420754994834,
            -0.2055957646646137,
            0.06747921035814258,
            -0.4352777780033696,
            -0.0761991362929814,
            0.40485787071038515,
            0.22019372440012905,
            0.36140372335328635,
            -0.7595930422093752,
            0.02215999770914185,
            -0.36390496435165154,
            0.32506564383782227,
            0.021274129296785762,
            -0.324450371998573,
            -0.5820504435378019,
            -0.1937853884127975,
            -0.15003752863011435,
            -0.4352114705011599,
            -0.15296035733936178,
            -0.07378870612466817,
            -0.030060512526758086,
            0.3035220276369454,
            0.0454303992761786,
            1.0362408506506875,
            0.32827431340436913,
            -0.33637122800975683,
            0.12218182728599605,
            -0.40316816144080164,
            0.49345526491291786,
            -0.6664615074039779,
            0.015452956034864586,
            0.1828573217648045,
            0.8398196480901718,
            0.4883075593120941,
            -0.018878911332891685,
            -0.11046267408872155,
            -0.5796305332969329,
            0.39869782299386486,
            -0.34527322130334254,
            0.33955413108197097,
            -0.6607437390558559,
            -0.19799081694241638,
            -1.2201828393969227,
            0.06291478723570505,
            -0.058420301944804555,
            -0.38381702014858926,
            -0.46041466438762657,
            0.08879801871207936,
            -1.2278396338280302,
            -0.6006692421136279,
            0.943062193806218,
            0.17070538715142933,
            -0.17188323733312474,
            0.4666702623062064,
            0.6734531709188103,
            -0.8623378462418166,
            0.15068786098085057,
            0.20973699057513734,
            0.4496052956056052,
            -0.40511902861816496,
            -0.2821538588647168,
            0.5773670141595459
          ],
          [
            0.051972047709761354,
            -0.3441601334703797,
            0.6405080390904757,
            0.39073837820473006,
            -0.512387862108025,
            -0.5344093552343545,
            0.09832558366322379,
            -2.03591870519791,
            0.37662607333846393,
            0.1968397555706143,
            -0.16044052666888894,
            0.1952824708751266,
            -0.18902627387500523,
            -0.05203559066144686,
            0.00715458951595831,
            0.034639893243429955,
            0.270053268269977,
            0.8961205390382172,
            0.6389143054477776,
            0.4520087707627485,
            -0.4431906636471477,
            -0.2743350909781425,
            0.1192348573263473,
            0.35365083923603663,
            0.4559218379054544,
            -0.7440461203323602,
            0.034775723347093966,
            0.09770544525901143,
            -0.2007674454890861,
            -1.256403031520719,
            0.06474083884385402,
            0.05220082629878967,
            -1.6723339311221743,
            -0.020180410641324975,
            -0.13188555053714643,
            0.02890476188761704,
            0.5288795223104082,
            -0.45485139630273774,
            -0.2608616473356232,
            0.1798298279596934,
            0.48542294882956943,
            0.07219259353824452,
            -0.710114628456286,
            0.378041308824263,
            0.4111239266109924,
            -0.7109669403473646,
            0.4058999011819571,
            -0.20771133542179832,
            -0.1964016005455518,
            -0.6685322123691332,
            0.16516647685897048,
            0.6109388958236736,
            0.3385248325296441,
            0.29754528013607195,
            0.3904850162827951,
            0.20693434110594014,
            0.7138658656141588,
            0.13177049715632505,
            -0.11955907465496897,
            0.09491431031800208,
            -0.28677967701742596,
            -0.18771878895272795,
            0.5055510535815804,
            -0.08855514180183809
          ],
          [
            -0.08979665930602031,
            -0.15777414904249576,
            0.341824810607147,
            0.32516009946671737,
            0.1814285498253194,
            0.45482796640285306,
            -0.6934066419555242,
            -0.21770705198865561,
            -2.9497316325749163,
            -0.24650519769600304,
            0.08499452757609018,
            0.11086602944171704,
            -6.918546954729464e-05,
            -0.4938639945339911,
            -0.14422469613528388,
            -0.42221723532576805,
            0.10186417943494823,
            0.4639587974518221,
            0.21441424230935477,
            0.44457557788537155,
            -0.36795950133347693,
            0.03826991191195877,
            0.31505838178692747,
            -0.3101566703431517,
            0.31786306992434193,
            -1.0304228311259864,
            -0.2943050310096007,
            0.11080531487446225,
            -0.049596699044198535,
            0.4050358715470475,
            -0.06705739299084379,
            0.14735952491707313,
            -1.0459272683600829,
            0.19394913982173562,
            -0.418958043467016,
            -0.36309418017514977,
            0.2742003665104774,
            0.022754013080059258,
            0.0071888212644564365,
            -0.2931550421567501,
            0.06824212956588646,
            -0.01975389455618392,
            0.4787539247243739,
            -0.3426655178791797,
            -0.13848555945034413,
            0.6375665952427281,
            0.39861279290183665,
            -0.6867496000046334,
            0.23568766237672367,
            0.5560903025522043,
            0.12447930231885108,
            0.3590646287916942,
            0.18585183447912493,
            0.5969000049286014,
            0.34240973713225237,
            0.5431105168640946,
            -0.42662067052381025,
            -0.8240743214624568,
            0.16544323193138163,
            -0.15856216108002,
            -0.09944091832486399,
            0.6803605188447461,
            -0.1879872855099714,
            -0.07973246942384139
          ],
          [
            -0.39059160518213104,
            -0.58478373999449,
            0.17377439792084193,
            0.49312168851653704,
            0.44299337221577473,
            -0.5802484396114552,
            -1.0876028704796545,
            0.09477864299054244,
            0.04539745667426745,
            0.031986642450686074,
            0.009981544526605877,
            0.015519982204737805,
            0.38546564199281264,
            -0.11745328127605721,
            0.38467083646221323,
            -0.1371372938427618,
            -0.5950005588320147,
            0.2428271274597582,
            0.25861016415194654,
            -0.5916350258032144,
            0.11168450139327533,
            -0.10924720303923668,
            -0.1413608272964917,
            0.3000089819469699,
            -0.5392796780007513,
            -0.4237423354434469,
            -2.5021350315042867,
            -1.1478484311759085,
            -0.4063331442112235,
            0.19497090008316836,
            -0.18914818342950224,
            0.022571062038056974,
            0.40556715026671347,
            0.2464342350259672,
            -0.6435983197533275,
            0.30974457762165375,
            0.12000935574029704,
            -0.5083267095921873,
            0.09249621075191297,
            -0.21508934943308053,
            -0.3714892537521883,
            -0.03198457722215668,
            0.112767197245509,
            0.6018914672158237,
            -0.21737444201694456,
            0.04437902209347444,
            -2.4375855581228913,
            0.4204288241306033,
            0.17407808205449016,
            -0.7321056483168822,
            0.38236756699192803,
            -0.5270928743042688,
            -0.1578758056100965,
            -0.4810727503004535,
            -2.1439086422075553,
            0.3055627126883882,
            -0.34877598964141426,
            0.09885704737024081,
            -0.07519717882170432,
            0.4443529538125214,
            0.06965874831836842,
            -0.10669638388455573,
            0.6553899513650054,
            -0.09215981188291358
          ],
          [
            0.30229553518295466,
            0.7020019661199941,
            0.22175051222872755,
            0.1401242314796799,
            0.4022142203572693,
            0.9760876250062539,
            0.04121087904337985,
            0.11007695656711888,
            0.26888800436579835,
            -0.1461300417575437,
            0.15862098429638127,
            0.17288721376801763,
            -0.0669293523093452,
            -0.08385691694926847,
            -0.6783185782924446,
            -0.510160843342502,
            -0.8419030995837296,
            -0.19985121581591614,
            -0.9208537021238591,
            0.4642538992546072,
            0.407594136346376,
            -0.5338209640251144,
            0.05396826480273759,
            -0.4453835567562468,
            0.22133429335214994,
            0.3032652173927455,
            0.2814476672659095,
            -0.18780339514006364,
            0.4276767229177478,
            -0.4730761970465025,
            -0.14094441019255982,
            0.9395131039246748,
            0.08829054749059469,
            0.18340878615940356,
            0.005495288739540754,
            0.19570270425224864,
            0.1208826444404498,
            -0.05824060506091155,
            0.22902221210380344,
            0.14892373010281898,
            -0.3003211689111794,
            -0.09442612951297637,
            0.23987900406055165,
            -0.014879423820001281,
            0.17223554014027062,
            0.4995197832591347,
            -0.33835654373789564,
            0.2057762396238446,
            -2.5837711134179653,
            0.10801612265178899,
            -0.2959888205340794,
            -1.7294241522752443,
            0.3432638997791256,
            0.447087116371539,
            -0.26010126849286413,
            0.20317974312220796,
            -0.6700981434721509,
            -0.29286916538210594,
            0.8626882713940526,
            0.22374859037037195,
            -0.5996685783492575,
            0.1441891690427325,
            -0.11144154069861002,
            0.2526265886056858
          ],
          [
            -0.5581280747384427,
            0.21217025974825546,
            0.048522021420312,
            -0.05115799328818187,
            0.33162512473373046,
            -0.5898167466154763,
            0.3226476146008341,
            0.8314893369016039,
            0.023574412015378826,
            -1.2535934613962518,
            0.1148053721930092,
            0.27787455739858025,
            0.6702450632712158,
            0.05827348466567921,
            0.2272004600348574,
            0.2897984370779807,
            -0.15113098705557304,
            0.7457587408660364,
            -0.15383610290809818,
            0.2904603081312617,
            -0.11172327367985241,
            0.42311574380839523,
            -0.7327162691340763,
            0.2294901381834822,
            -0.329232336582453,
            1.0323710071557621,
            -1.2920668228026322,
            -0.7779836735608312,
            -0.5971388258605057,
            -0.6255933303690238,
            -1.3049146424934501,
            0.27402853958566764,
            -0.4473153973529755,
            0.300652546426331,
            0.27990919382683577,
            -1.3687234497390768,
            0.491340221649928,
            0.7127802788998806,
            -0.31238476212100597,
            -1.4584279756707548,
            -1.7711846020867532,
            1.1942889043241354,
            0.2072995810476818,
            -0.2012415400428987,
            -0.07213881497378148,
            -1.9346960337479564,
            -0.03644731701825985,
            0.12129476611034097,
            0.15169454942278945,
            -0.353317406947266,
            -0.2336541570152862,
            -0.35174994303506907,
            0.17306661304905716,
            -0.614453075412795,
            -1.0992204810117008,
            -0.28413393091644873,
            -0.10066354387100415,
            0.5704089753779626,
            -0.5613151878578962,
            -0.9965627825490533,
            0.11744550233249974,
            -0.35259927343609754,
            0.21331621278400312,
            -2.332971056237098
          ],
          [
            -0.22300111102635578,
            0.3912316831077859,
            -0.9088363397330049,
            -0.03911374873245754,
            -1.6110193985572419,
            -0.13212561670836773,
            -1.8892320936536233,
            -0.01564541414962116,
            0.5539285853387712,
            0.5649913921625037,
            -3.1024241680450357,
            0.17484624828342332,
            -0.1881238445707825,
            0.4401669621639122,
            -1.1388450866834423,
            0.6947393622406397,
            0.9174201664265392,
            -0.26303397678151547,
            -1.0342717917794206,
            0.3907181415866639,
            0.0028741164024968166,
            -0.5374895203707721,
            -1.5373363899765,
            -1.1984889321866272,
            -0.3864659898700137,
            -0.4752553551431403,
            0.1376307724660321,
            -2.0371789525691377,
            -0.18923620799009291,
            0.41054388662208946,
            0.6436366468916731,
            0.32831427788261147,
            -0.5843039491302028,
            0.5821065743959978,
            -0.6048883626284594,
            -0.001478395727821945,
            -0.39330044933263253,
            0.7001960913818084,
            0.3175529128271959,
            -2.24599102379328,
            -0.9019985800219162,
            -0.08819606305436647,
            0.038789444057769656,
            0.8920323720789155,
            -1.170475993656966,
            -0.9272492675510537,
            -0.03472087436466033,
            -0.6906373926984635,
            -0.33882700242907027,
            0.5211265760181084,
            -0.33922812177893125,
            0.9276798604897339,
            -2.0893854014186672,
            0.26731096262556303,
            0.32889189314822875,
            1.0394741824680325,
            -0.43043712413796176,
            -0.6736358809137701,
            0.38691998173586867,
            -0.6401064851031053,
            0.4384225358503688,
            -0.002775697379739587,
            0.1420403386974933,
            0.7201519047543957
          ],
          [
            -0.6030683482868496,
            0.6674128034750746,
            0.5610988884565904,
            0.03665640698670445,
            -0.054179980369685486,
            -0.13203119483771977,
            0.5244777362280922,
            -1.1881476528403225,
            0.4863120100626567,
            -0.5120079289964813,
            0.17152295329605596,
            0.33161377475920534,
            0.36364309758483004,
            -0.29330341535829285,
            1.180518536013699,
            1.115542588151843,
            0.0031710298802590277,
            0.11135925254863249,
            0.06506612357216127,
            -1.4203018693573621,
            -1.9053985001952523,
            -0.9869936965090662,
            -0.1560826162123223,
            -0.7122931684005777,
            0.444415100539391,
            -0.5852712010091041,
            0.27407458034146853,
            0.5106593492782173,
            0.08534229885322954,
            -2.178628799232206,
            0.44787749154784845,
            0.25032729858203684,
            -1.2206192823906163,
            -1.4407195005802782,
            0.1755502184531631,
            0.44894672821919235,
            1.101208941529073,
            0.27034115908020073,
            0.7157203603353022,
            -0.3571859199318288,
            0.8262605072101457,
            -0.7538199519403579,
            0.683646437203529,
            -0.3222713157343028,
            -0.6147344581011943,
            -0.1866664866985726,
            0.20540206989509002,
            0.7299548227611471,
            -1.228393830938991,
            0.2376618439773556,
            -0.0423974494492145,
            -0.10344959314443504,
            0.19593318428305145,
            -1.9724759134071537,
            -0.09399148222280986,
            -0.14988122726681502,
            -2.40564155895629,
            0.18872739872587035,
            -0.5643096761552552,
            0.23330362022709455,
            0.39910350033461706,
            -0.314658485943934,
            -2.609118533591929,
            -1.532687711124995
          ],
          [
            0.7217890532983499,
            -0.00523144236459836,
            -0.26884417247143855,
            -0.2181101458733837,
            0.2546070532179015,
            -0.4494705067762939,
            -0.36536017673695675,
            0.2674950371119462,
            -2.54773615367312,
            0.039331789237711995,
            -3.3011786996459915,
            -1.7121310113893213,
            -1.8355089654661947,
            0.2315007978258253,
            -0.45458083214893,
            0.5759716071937857,
            -0.14654836055787893,
            -0.09289819651639862,
            -2.245433741937356,
            -1.4084385968353452,
            -0.2773097699185639,
            0.7079746704617597,
            0.6920865601527287,
            0.35655601576772955,
            -0.8986377911167271,
            -0.09552500286233097,
            0.6939979290966868,
            0.19445200030549814,
            0.15174079624658396,
            -0.14984928560862218,
            -1.5826268552100196,
            -1.184698506634754,
            0.36674098517153636,
            0.3318002567858054,
            -0.9687759518435628,
            -0.4311684006722528,
            0.611990740887129,
            0.4555760069690792,
            0.47410510858676114,
            -1.1640230132213205,
            -0.13749200284490024,
            0.5177153261852625,
            0.3279214180983698,
            0.2688653958550145,
            -1.1026687398804682,
            0.044386103806689246,
            -0.10235629103660206,
            -1.0696944656315355,
            -0.027529875692810037,
            0.5957147643378808,
            1.0843620853338807,
            -0.017232111737465618,
            -1.6616406108794575,
            1.2307662715886012,
            -0.09796357254824006,
            0.042687469367101924,
            0.8355872957942072,
            0.6839285172186218,
            0.19035896305852693,
            0.6314171423429169,
            -0.03356566603030041,
            -0.29116173032069614,
            0.22001735891829477,
            -0.8860375213004061
          ],
          [
            -1.3447999859570094,
            0.7491601406324412,
            0.77760642435774,
            0.17581947345485824,
            0.20667275753332703,
            0.9231578134129635,
            -0.23041562059932402,
            -0.06877922755231962,
            -0.5327670411320479,
            0.5261794719001497,
            -0.14107250841410524,
            0.029513954338850786,
            0.14310104501026608,
            0.17825745183254732,
            0.452201064433648,
            0.11262362944436466,
            0.6205353068699941,
            -0.5796008239932214,
            0.2457752225322282,
            0.1936173395264623,
            0.08447173817713685,
            0.032413674759918513,
            -1.0063603154072007,
            -0.01390969762940947,
            0.06632894297940366,
            0.43432456031643973,
            -0.6714836795384568,
            -0.5206697260173885,
            0.29885221600373146,
            0.01122709940709398,
            0.15231400621505106,
            0.07841560230190113,
            0.46505211777241845,
            0.4741545377266433,
            -0.5731750148265651,
            0.27823589206888344,
            0.9871480694076538,
            -0.13658464662709746,
            0.2963322498461128,
            -1.8035804736160377,
            0.0654112708561899,
            0.2808869238655725,
            0.16387725340593645,
            -0.6656895743635207,
            0.08541012168351257,
            0.07822749492684877,
            0.3751006652888691,
            -0.04155031739028803,
            0.37529959442428296,
            0.4028017337119278,
            -0.17784213659422773,
            -0.30950436048853525,
            -0.6845881937549204,
            0.658664884526809,
            -0.8979386090274714,
            0.5916562343560149,
            -0.7335701126448426,
            0.5498119664605016,
            -1.0541839070923846,
            0.2250935048585836,
            0.39843204465517984,
            -0.6364877654628571,
            -0.3105580981572438,
            0.09982739040158671
          ],
          [
            -2.5435481664253703,
            -1.5450040109562047,
            -0.6732125712837682,
            0.2009449263539787,
            0.008695780872205128,
            0.11371176683991897,
            0.37463226227478763,
            -0.3132795142120089,
            0.7770168498098953,
            -0.11666258819240867,
            0.40191447578719663,
            0.4632437496410706,
            -0.3284686831120421,
            0.4181382465387799,
            1.0793735564992324,
            -0.22720623182717256,
            -0.18434994803383614,
            -0.2561008847401921,
            -0.22031155592951893,
            -0.3042825570609101,
            0.7296600445952548,
            0.2920379185705482,
            0.4790210960222447,
            0.0866106875387472,
            0.11296599506234983,
            -0.8521759561918477,
            0.19938536129330595,
            -0.041045926681913425,
            -0.3138073648245006,
            -0.27902790761566004,
            -0.10987826678025849,
            0.5864857816691577,
            0.23718389586341443,
            0.29517823461927795,
            -1.2750237059873815,
            -1.58893944065862,
            -0.15644315764344818,
            0.39502197774016634,
            0.7596351373108742,
            -0.53196322968232,
            0.044690219942480645,
            0.12442836809025518,
            -0.6985884804386129,
            -0.816614349926177,
            -0.7299255596907746,
            -0.20636582939256662,
            -0.3846556983522103,
            -0.06707926141014044,
            0.055911781909103994,
            -0.22914889696023005,
            0.3494349313185811,
            -0.03717687020368803,
            0.03768380669783878,
            -0.15064236076747406,
            0.4588109021799592,
            -0.42777756932726163,
            0.3971663066357072,
            -0.28238320742971895,
            -0.6312564017276657,
            0.19900190749972874,
            -0.27946888470014825,
            -0.3834686473842498,
            0.05340795294732824,
            -0.4787774873740741
          ],
          [
            -0.2706983646571607,
            -0.5855484256117371,
            -0.39037712916585965,
            -1.5585932904699182,
            -0.24395366090849757,
            -0.02341585319738723,
            0.4079384867003642,
            0.32862368682210424,
            0.12851247031449362,
            0.24724933454732653,
            0.16931906880693573,
            -0.5703224454971753,
            0.18413703896638864,
            -0.8116967331178571,
            -0.11849854338764444,
            0.22519881404252143,
            0.09895831862561413,
            -0.6105406761241632,
            0.32088774645700835,
            -0.17859549334815278,
            0.7701795909910404,
            0.053516571621264504,
            0.5414889135926858,
            -1.7566776362101084,
            -0.16403136358871365,
            -0.08662740308550686,
            0.18198920680889322,
            -0.4515967391773945,
            0.2718838877298121,
            0.3501041423112702,
            0.13392813541202414,
            -0.06212602561154424,
            0.7989981414632829,
            -0.4163854352688698,
            -0.5532581018891228,
            0.7273928153767246,
            -0.3067085883171753,
            0.3786855952029716,
            0.21539530950539001,
            0.09030227052303975,
            -0.25498088226875687,
            0.023799063776278467,
            0.34218294396388216,
            -0.0940469550633358,
            -0.04248109931505391,
            -0.17009529232406942,
            -0.8091034917396619,
            0.12987196879496712,
            0.29252865931081506,
            -0.6757220270031403,
            0.14239367280409024,
            -0.09766938864187719,
            -0.23637919015377726,
            -0.14334984082687668,
            -0.16479711498109345,
            0.3103600088982766,
            0.4491423829239836,
            -0.7162830230926415,
            -1.2666124585237162,
            0.10338140346604294,
            -0.6683377527250292,
            0.906734948669995,
            0.33833291075185373,
            -0.12423235596310016
          ],
          [
            0.5094845478238125,
            0.6260480473384823,
            -0.07387358096420302,
            -0.08267712296612384,
            -1.286985281789001,
            0.6095576342533622,
            0.07207146824357709,
            0.09118235261769599,
            0.6132435940773516,
            -0.2774487437737186,
            -0.15404900560871768,
            0.18740754531959447,
            0.37873315806965263,
            -0.1558122190082559,
            -0.6221196296224258,
            0.12250147377086663,
            0.961348972161421,
            -0.572699279989014,
            -0.5754034312299122,
            -0.16733991381484578,
            -0.4977636015546104,
            -0.14768139053347043,
            -0.08520876349149828,
            -0.8220167959124869,
            -0.11731160841018766,
            -0.25854922761222393,
            0.07467926359138063,
            -0.6429092431038477,
            0.33848137179020776,
            -1.037221754701992,
            -0.3924731036043137,
            0.3548662757887036,
            1.2660485168633204,
            0.6703958122348525,
            0.43249782246455437,
            -1.1147144726892637,
            0.185251349060296,
            0.2585137934832523,
            0.7319487560614134,
            0.08278814732130173,
            0.18454852176328337,
            -0.28393754000644544,
            0.046386292080674116,
            -0.3424637466049478,
            -0.06819620936306396,
            0.2540121095237144,
            0.217817047562945,
            -0.01074193596639881,
            0.42811064509671387,
            -0.060294512763170265,
            -1.2360780053154594,
            0.2568000938615125,
            -0.048962354184082256,
            -1.2406950694616263,
            -0.6137177925160541,
            -0.2830851879062712,
            0.11558410502936005,
            -0.27274770093137346,
            -0.508767199188507,
            -0.3158741845794965,
            0.09228110766454088,
            0.2514512963838182,
            -0.6604300421326321,
            -0.026461249409167185
          ]
        ],
        "biases": [
          0.20799583861217485,
          -0.14978841975745127,
          -0.1311236667168853,
          -0.24681112526055854,
          -0.17949746470035402,
          -0.04096319234493607,
          0.5989251178817987,
          0.2527623638288087,
          0.41425370183098587,
          0.19473241104895891,
          -0.5772751691508011,
          -0.6944885234822779,
          0.37465518437465545,
          0.17358828218691405,
          -0.017978150024689023,
          0.08942166970562544,
          0.32453071020632696,
          0.19763447235352277,
          -0.14840474386540312,
          -0.1426762078473036,
          0.09622138642569213,
          0.4963380178405823,
          -0.2180036132425007,
          -0.022183719839203114,
          0.29661274863749987,
          0.20817391821370718,
          0.11231552833184703,
          0.14400851823009203,
          0.12694558006125342,
          0.07092415349669008,
          -0.12600841334497795,
          -0.09132975192406677,
          0.3266109159460083,
          -0.07655881161588261,
          -0.3186450988675742,
          -0.08650814493684092,
          -0.2881653121067865,
          0.4670267437721602,
          -0.19656990370425131,
          -0.3364058302096057,
          -0.1569483247151015,
          -0.21332613440633474,
          0.28282473458426094,
          0.24392367525051448,
          -0.017553929148766172,
          -0.061560786757414394,
          0.20381459169127947,
          -0.08587439578938737,
          0.24800070400008603,
          0.4702955435133088,
          0.17017019334314892,
          0.1770046293017464,
          -0.15975804406476662,
          -0.34654400715778977,
          0.07293258397022138,
          -0.8369479974093883,
          -0.37240859747079214,
          0.20442513417895028,
          -0.0711602208574807,
          -0.39749804993757565,
          0.48173322204270924,
          -0.2975356843070496,
          -0.45838731269896366,
          0.03758952262937109
        ]
      },
      {
        "weights": [
          [
            0.142099603778168,
            -0.2772810757419702,
            -0.8648255324119837,
            0.3857633137438225,
            0.14968872245374568,
            -0.09113309124653159,
            0.4598174095649747,
            -0.22898474012995898,
            -0.206232239398002,
            0.10842388668323429,
            -1.5471640615048075,
            -0.030278024326554347,
            0.05470061095338793,
            -0.5864789348319016,
            0.38902377349968487,
            0.14530458824669054,
            -0.13437809777401322,
            -0.7250832149153529,
            0.32500564423084166,
            -0.1895653719003502,
            -0.07677804467183195,
            -0.9938562102245752,
            0.023361756811500895,
            0.029650864529977103,
            -0.403783681594737,
            -0.24881521729941458,
            -1.0265427558069034,
            -0.2018101930294033,
            -0.2641969053512047,
            0.25539216208942817,
            -0.42083946017854956,
            0.08600254012336336,
            -0.2811102855257469,
            0.10356184879534151,
            -0.656613277790758,
            0.3097286194691991,
            -1.119100040907151,
            -0.05455989858266234,
            -1.2254002489008378,
            0.2985404063790831,
            -0.058043611144205226,
            -0.007007033456850386,
            -0.6149206991095177,
            -0.05738795773368166,
            0.21349893444386564,
            0.33386689898238303,
            -0.4860938859693168,
            -0.03113536254422408,
            -0.1095001242875659,
            -1.4357571597347683,
            0.04755821947107552,
            -0.12823709564794253,
            0.29054499330270767,
            0.5279261404812982,
            0.05972704678145656,
            0.06015923779167737,
            -0.2111011149951682,
            0.019426022578408097,
            -0.5702104623546258,
            -0.10978800940155144,
            -0.287682306558358,
            -0.05835221538747713,
            -0.3452915425628961,
            -0.4151227166084177
          ],
          [
            -0.047113125565842094,
            -0.2174172853214081,
            -0.3602001295281139,
            -0.5374099439373334,
            0.08847773154901478,
            -0.6813350216966308,
            -0.3702452270564751,
            0.6330844702735594,
            0.10342470148071245,
            -0.049218123813014346,
            0.41365585935681265,
            0.35469333277544757,
            0.25507338328023443,
            -0.05827738405683931,
            0.1957849187030217,
            0.22628989005651887,
            0.3193658650019837,
            -0.9323983850455743,
            -0.4416598837979866,
            0.0769108166124068,
            -0.09971336991893864,
            0.25234742988087455,
            0.6545566394717537,
            -0.0954627508097644,
            -0.16419595274607535,
            0.2898060564425657,
            -0.12082091597754645,
            0.2591859147735355,
            -0.6397069381159296,
            0.07413965661941785,
            -0.25899461467977747,
            -0.12005210881372712,
            -0.17209285620886025,
            0.15425054299591393,
            0.01695746386639683,
            -0.3163908504402057,
            0.20664011406927862,
            -0.3501025563777223,
            0.9190662087583581,
            -0.39671442074165086,
            -1.5913890853881085,
            -0.059502650801806695,
            -0.9494706952695477,
            -0.6269518585185758,
            -0.1516055835470888,
            -0.0888820489547137,
            -0.09116364081130987,
            -0.0024004980102404834,
            -0.1457411470841223,
            -0.9195029346974435,
            -1.4848935212285204,
            0.1587267701290416,
            0.4588633286828176,
            -0.06241473170592405,
            -0.6805152151446041,
            0.9494616429420198,
            -1.2868547083606832,
            -0.07712708452731636,
            -0.3268220107027232,
            -0.7634189992148079,
            0.605407057389195,
            0.1975285844826795,
            0.13334261262806085,
            -1.3033823365370536
          ],
          [
            0.27693811260240037,
            -0.8364306799508768,
            0.09931990431141301,
            -0.37503666721923656,
            0.20657938248498,
            0.5113096213409097,
            -0.30172859745941316,
            -0.18773339005963796,
            -0.03952003742624913,
            0.19136674396207776,
            0.11761553523120655,
            -0.18438174542052643,
            -0.3791155028591893,
            -0.06255856802422859,
            0.4616547729795171,
            0.43384613269266065,
            0.3985156416943206,
            -0.051602423450020814,
            -0.7159212248351108,
            0.09075613311139025,
            -0.14701165549739098,
            0.19265699097673908,
            0.039765975640737514,
            -0.09200262026857627,
            -0.030008738370567462,
            -0.5849174694376403,
            0.0755931128431264,
            -0.3897692627959849,
            0.06251807399750528,
            0.3962589791263575,
            -0.5604952434642827,
            -0.005548956739762965,
            0.2463253704322808,
            -0.48692762916304816,
            0.16833182506577973,
            -0.15971478636671874,
            0.2893170138863247,
            -0.06414210204041576,
            0.09959218051140341,
            0.2714554321922771,
            -1.147287885063671,
            0.34208352507019757,
            -0.00543436173519735,
            0.15626779433330673,
            -0.3668529029536458,
            -0.060335510264772546,
            0.10204385422421625,
            -1.4291162221958782,
            -0.41123424903089123,
            -1.951034482737303,
            -0.5307868567316185,
            -0.3123218183871486,
            -0.010143562355373361,
            -0.028851516827656194,
            -0.14864521000782865,
            -1.7705483940896034,
            0.309206155358005,
            0.2736545046064564,
            0.34194901590115173,
            -0.44512687232372256,
            0.3140340626877828,
            -0.22043578063193586,
            -0.3696177786842876,
            -0.41674863069315754
          ],
          [
            0.019268982958539724,
            -0.5738975982030131,
            0.04929400946067312,
            -0.5597593508179056,
            0.59745236139945,
            0.4904331824408632,
            0.21226481091156818,
            0.10844462419263061,
            0.03606781492385107,
            -0.043266601889941574,
            0.05883637882075358,
            -0.07720161222763526,
            0.0718342222601089,
            0.46357934830520214,
            0.0733742746974758,
            0.16123774579985206,
            0.25520803892739835,
            0.1722503105641771,
            0.08756931831132705,
            0.23274512975709294,
            0.44258247356177205,
            0.6600620135036944,
            0.47239037243597815,
            0.31238809836988757,
            0.5020994951127987,
            0.15901342654939066,
            0.17363804917045345,
            -0.43154290945469764,
            0.5983893593797452,
            0.009260768283782328,
            0.06734178788986711,
            -0.7926710005868448,
            -0.1085803109978183,
            -0.2859492406696465,
            0.2521422007074999,
            0.4327818156421292,
            0.5352781180779002,
            -0.04778810757483785,
            0.051752400389061606,
            0.031648808950253925,
            0.15747290700405922,
            0.0594122986559057,
            0.3611788373978693,
            0.27800472729918657,
            0.38595905166854255,
            0.09855153026510684,
            -0.17407219827854958,
            -0.4512600599674817,
            -0.24221539462780436,
            -0.9445228632531466,
            -0.9833391547053878,
            0.2793343018355639,
            -0.43264120957168223,
            -0.22198779142891964,
            0.275438042299824,
            -0.38103033156923777,
            -0.23182277747314084,
            0.37603447300451975,
            -0.9402481262917837,
            0.40449406799506427,
            0.32383160015499995,
            0.49852309607245543,
            -0.03300222521403352,
            0.2719928505992738
          ],
          [
            0.27856424043670264,
            -0.053922594712058305,
            -0.16187468331616825,
            0.2592212633966117,
            0.12704562384050014,
            0.23465125142380874,
            -0.3449663955898031,
            -0.24750389244200377,
            0.15914907849295287,
            0.15494684028047104,
            0.3721743644795937,
            0.13770829454213895,
            0.1308189732008968,
            -0.24697449908489114,
            0.03325107235619632,
            0.07250988707258957,
            -0.14215549081434817,
            -0.12006309085872204,
            -0.4939639911492521,
            0.38098617616396646,
            -0.35146866338848726,
            -0.05759067961522726,
            0.037591424452476804,
            -0.1831729462484957,
            -1.1832926592471915,
            -0.4337191473527401,
            -0.3348249190730073,
            0.026460862980594996,
            -0.24771426880691466,
            -0.47307770137429295,
            -0.5104934513827198,
            0.28558217712854544,
            -0.22939086464112196,
            0.07533650585979872,
            0.021292388198696117,
            0.013653458079624413,
            0.08112729458758759,
            -0.13121812992597148,
            -0.1842055235916205,
            0.44862010696478777,
            -0.05126177165637727,
            0.1677567371894467,
            -0.010881470626716749,
            -0.6799119013599785,
            0.21153379988230323,
            0.34248689254643944,
            0.3115024997554814,
            -0.5456024942060429,
            0.10125365469290269,
            0.20366864480573849,
            0.009518707019732944,
            -0.5693916514031176,
            0.047809284757260616,
            -0.031208166865116124,
            0.15408008871758389,
            0.3212396084547587,
            -0.2562888776321332,
            0.09321719148969199,
            0.673788056458853,
            0.19155421907506612,
            -0.4560816508631338,
            0.2428927114528077,
            0.33864038428408777,
            0.009541445443116131
          ],
          [
            -0.11499018309758426,
            0.7564942406988528,
            0.2843431580633199,
            -0.5203226345617024,
            0.05575606852188081,
            -0.5434425045459206,
            0.2823992495102126,
            0.6518280178738273,
            0.15300011135980446,
            -0.2988313814517859,
            -1.0640325209722756,
            -2.0114408240299064,
            0.1358628678802778,
            0.20578457851880538,
            0.055795326518630346,
            -0.052681213322286265,
            -0.37458873148443256,
            -0.03231280172567193,
            -0.26841192309469236,
            0.3085223478401375,
            -0.5132559453696612,
            -0.8243165030775274,
            -0.1759931798158487,
            0.040080679866081825,
            -0.016531204164474428,
            -0.47948411606230684,
            -0.2283916927494527,
            0.5549353720557472,
            0.09167834695443847,
            -1.9001440475611369,
            -0.2546164105624131,
            0.2136450390543806,
            -0.13758248521601857,
            -0.07314879295201075,
            0.06061476166879359,
            -0.04007310709137392,
            -0.10655787844522302,
            -1.228147679914926,
            0.01791831910833896,
            0.15168217141831905,
            -1.1692900048460733,
            0.2749984003075268,
            -0.5026613327193745,
            -0.47724487430340984,
            0.429166671277672,
            -0.10511449284451342,
            -0.30299695219523926,
            -0.19861237594781309,
            -0.2767589015513561,
            -1.3121015835886491,
            -2.3322470474089574,
            0.531617357204133,
            -0.007738004375456181,
            -0.219330862694607,
            -0.014479130029811679,
            -0.749109237496126,
            0.23838305664871334,
            -0.5575837311144162,
            -0.024228662478791085,
            0.38397982422193394,
            0.011383940195389804,
            0.11948162855350825,
            0.3392022428631945,
            -0.04632695713525077
          ],
          [
            -0.12059307395788055,
            0.16497009108159819,
            -0.7918779946066026,
            -0.30246029677752373,
            -1.3122529608813454,
            0.02611789474250545,
            0.0844230509864971,
            -0.2951351752895892,
            -0.13129316165787472,
            -0.1202754934141067,
            -0.29995737868755473,
            -0.78400134512225,
            -0.28922124230487634,
            0.36333317925012387,
            0.1056486450799349,
            0.47225481004512915,
            -0.433869311501181,
            0.20656882933035645,
            0.4337141952593378,
            -0.5005302428544315,
            0.2774902541791808,
            -1.5786666755119034,
            0.18673824025533672,
            -0.11677672233486666,
            -0.7249063137413315,
            -0.21848770105234327,
            -0.2627657635501396,
            -0.2379125468919061,
            -0.27339719486217656,
            -1.477750448898738,
            -0.045905978995005904,
            0.3783430470289205,
            -0.11738180396640083,
            0.11171187018268314,
            0.2058386447676715,
            0.48130818223663685,
            -0.028132395667080794,
            0.34080625407495957,
            -0.8299304888310703,
            -0.027138270138383422,
            -1.3185005061026165,
            -0.2936943617222518,
            -1.3466675253018499,
            -0.012365763467749818,
            -0.11968089277564416,
            0.48358291263213604,
            0.384472171809026,
            -0.36724349324061767,
            0.4979749424062887,
            -0.5354565989240183,
            0.6702939793931773,
            -0.03907827901194752,
            0.0036112103671074643,
            -0.4297389088415854,
            0.120675942938368,
            -0.5118057931908556,
            0.3664844788667079,
            -1.0214070288882195,
            0.08755706358925039,
            -0.5200449666849977,
            -0.43868883634630723,
            0.3696739640665636,
            0.039870043815288234,
            -0.7362140199778693
          ],
          [
            0.11286823568172198,
            -0.21643881787777114,
            0.24565061157636045,
            -0.34257806710130834,
            0.4560509622100882,
            0.044395969228539424,
            -0.5054335885235329,
            0.31272896009564133,
            0.2685303618417973,
            -0.024368293968284032,
            -0.46616554920545367,
            0.2811634297343292,
            0.14859619410319333,
            0.0832218185399176,
            0.39991731653479473,
            -1.2818309998670994,
            0.10708096480046399,
            -0.17126843564703312,
            -0.23286225757706908,
            -0.46518304168884117,
            -0.13845309608170572,
            -0.12133081862105587,
            -0.0801974157391646,
            -0.7214152436570843,
            -0.110038321551111,
            0.11579217248080276,
            -0.6179316884222074,
            -0.40941476232058704,
            -0.22878827972667598,
            -0.18207736751992898,
            0.24830099670910263,
            0.302528382983778,
            -0.12583994358025793,
            0.11692726857821202,
            -0.20973325327342976,
            -0.29023979615583,
            0.5716015113744578,
            -0.06554345767174904,
            -0.298563778493601,
            0.45121659914927215,
            0.043798855688062965,
            -0.4433280886800895,
            -0.15348415265468252,
            -0.09183441963432254,
            -0.18555755530144097,
            -0.2680057604867386,
            -0.15934498264367944,
            -0.02999660112018041,
            -0.4708778859892557,
            -1.0736755003249732,
            -0.641296361267843,
            -0.030688782288573316,
            -0.01344487989447847,
            0.059175879315478075,
            0.3132508757518277,
            0.21775650161360904,
            -1.4043922014393926,
            -0.020773442673123317,
            0.22114079336566347,
            -1.0617255013974072,
            -0.22397672094443252,
            0.21942115476911248,
            0.46011680534240856,
            -0.17336671033941722
          ],
          [
            -0.820521837877137,
            -0.21950272461785184,
            -0.1850008958349459,
            -0.17153008505840225,
            -0.25123541049840964,
            -1.1109222002132524,
            0.5785344004174064,
            -0.2889255918965492,
            0.5035576846917389,
            0.11025735599492213,
            -1.0115814405327308,
            -1.4456010794566827,
            0.04781559813046233,
            0.3315463031356538,
            -0.4475163987766797,
            0.06592553743303499,
            -1.303085165471614,
            -0.2974641806004769,
            -0.35095413311656926,
            -1.2052369324350651,
            -1.237052935816844,
            -0.28305987174825226,
            0.025916078476344487,
            0.014422254222861423,
            0.2827937976770401,
            0.18591208233954742,
            0.01462724562338127,
            0.057965270948586584,
            0.08551791695154679,
            -0.4504799633766216,
            -0.3408197264144851,
            0.19831109971409933,
            -0.2952159024440858,
            -0.1597099319177758,
            0.11149956166329081,
            -0.3016506848508952,
            -0.034571304330733785,
            0.10169477927104807,
            -0.25863124951930827,
            -1.0332167270290578,
            -0.42524784134612664,
            0.4857540441680455,
            -0.5785179732263023,
            0.5797426971912879,
            -0.19390539529114975,
            -0.3407311294804156,
            0.5312105632569905,
            -0.0010948599117044933,
            -0.4578739902871054,
            -0.07226980086419431,
            -0.36990481080241344,
            0.31480356951464095,
            -0.2127682467422578,
            0.37700093702358645,
            -0.03548192636621723,
            -0.724969271264404,
            -0.553250873562047,
            -1.3191777226046806,
            -0.11446685606519805,
            -0.576780954476345,
            0.18019944386078024,
            -0.31083460493619997,
            0.3670418515024949,
            -0.49214717536245106
          ],
          [
            -0.22136701938087108,
            -0.07567240291396189,
            0.25433595048195334,
            0.12768638456204143,
            -0.41669832122599876,
            0.22592473519398065,
            0.39308979922662496,
            -0.21184529063547022,
            0.05680610945537336,
            0.05783819581352425,
            0.324671079354515,
            0.1184323471237331,
            0.16139721603999665,
            -0.30661363180573975,
            -0.351631862521553,
            0.0981568884975372,
            0.33088929370951486,
            -0.6492817394603878,
            0.0436910705238933,
            -0.203642985859033,
            0.051257620007411096,
            -0.12094435807400172,
            0.12146179841879416,
            0.11213851103796091,
            -0.09378955740785147,
            0.1909302353040349,
            -0.4495145415167893,
            0.1840636858678457,
            -0.1982995909220216,
            0.2821237211550013,
            -0.2560272655701936,
            -0.27824194393009216,
            -0.3680821252221115,
            -0.4619949283556709,
            -0.08158966073190911,
            0.4312292925639717,
            -0.4828991265480873,
            0.1910894321263885,
            0.13464439533228406,
            -0.14315975222730132,
            -0.1169123858075924,
            0.31444366321993455,
            -0.2702324583855945,
            0.2965966760134179,
            -0.1278197536472404,
            -0.04730164968713126,
            -0.6274763678223991,
            0.49200427378186984,
            0.1134644511553553,
            0.23184899336874149,
            -0.03126608546429544,
            0.4109613200144329,
            -0.43069440776900164,
            -0.015712060549298842,
            0.004366517527996459,
            -0.027937766026969107,
            -0.018665505981036473,
            -0.42111461892789165,
            -0.25359533707523724,
            0.07964100627822328,
            0.18450630370128213,
            -0.15882799054617092,
            -0.34490546544877076,
            0.17837117608439906
          ],
          [
            0.5933201842951994,
            -0.014339919739722028,
            -0.2637020200742629,
            -0.08683610018829366,
            0.5298616199527333,
            -0.5486392981924809,
            -0.886146356008217,
            0.38175334504685265,
            -0.041801030756460376,
            0.2596097041983404,
            -0.7353811880184628,
            0.2985721038415495,
            0.12317233759677905,
            -0.14962957823624617,
            -0.24876398644215147,
            -0.09723338164471633,
            -0.5648957137814226,
            0.7384231301071984,
            -0.3174664707567824,
            0.3293197683102439,
            -0.15148553648726615,
            -0.275869259932286,
            -0.2305529315132839,
            0.47934927894204854,
            0.5264720966821179,
            0.4838688750816251,
            -0.1525086932487448,
            -0.05836589516561871,
            -0.5187628305278299,
            0.15714498816697156,
            -0.011664701850723092,
            0.19706606864555046,
            0.04721537213162182,
            0.6004124708787288,
            -0.1532123008658311,
            0.01482977403540458,
            0.03534663006514053,
            0.0021171832192324143,
            -1.0088927292041483,
            0.04758163356507892,
            0.440045303684031,
            0.8558888753618321,
            0.23693425603289006,
            0.15981088648511826,
            -0.03492885814164057,
            -0.02441860898202012,
            0.2468166204297593,
            -0.6963337074844056,
            0.06263914053079546,
            0.06396528640766604,
            -0.24255798754785415,
            0.24443401693363984,
            -0.062296850728926816,
            0.024804082006658894,
            0.21522278565222203,
            0.5784792470788187,
            0.4853495863304388,
            -0.374197699000396,
            0.18827947285151095,
            0.7757183423707588,
            0.318749935765435,
            0.4082918364635921,
            0.02358080985526638,
            0.2363845728811838
          ],
          [
            -0.49397263028822674,
            -0.07867570861153914,
            -0.10843104510350689,
            0.16929494711432166,
            0.19384960917405591,
            -0.174260394054014,
            -0.6543777579026011,
            0.5204221636944886,
            -0.14824817988124378,
            0.3425624733123489,
            0.0437241180208644,
            0.051903260792035125,
            -0.21714023927851067,
            0.7011578534803005,
            -0.32952048708570975,
            -0.24039388366073602,
            -0.6560759909016198,
            0.12190744751429523,
            -0.02958528603503774,
            0.4645587355135543,
            0.2107563227984568,
            0.16693259800228846,
            -0.5398506665293696,
            0.22185327276070396,
            0.4901802743246952,
            -0.1741893215979547,
            0.0683793985225439,
            0.1350912863781529,
            0.30162264503859787,
            0.45119871976896553,
            -0.5827224921595392,
            0.07617174026400307,
            -0.8803434864888836,
            -0.06422103771175496,
            -0.27116613797729766,
            -0.5882782618376228,
            -0.021762836733157407,
            0.03848748038912766,
            0.318715572548173,
            0.21149790846331876,
            0.22668260416646002,
            1.1001356509366609,
            0.4197849983027667,
            -0.1742757303931092,
            -0.2450563712264842,
            0.5409793909243448,
            -0.018050434662575183,
            -0.02439981318100916,
            -0.4611696522220455,
            0.5470674017090532,
            -0.12479372422790354,
            0.3586995903345524,
            0.020924287605755747,
            -0.32785397920631904,
            -0.29512234268681714,
            0.17502770052401795,
            0.35091200876371825,
            -0.18575062423359812,
            0.1692526711605662,
            -0.12059035673880109,
            -0.6424847236157749,
            -0.0044539208355196215,
            -0.5817208270873916,
            0.0017822039157929688
          ],
          [
            -0.3249823438637826,
            -0.08397817956129361,
            -0.0945930557504651,
            -0.29456028404325457,
            -0.010433797261312168,
            -0.607710562278995,
            0.16264801483700403,
            0.14875297145921143,
            -0.09845060138359989,
            0.03887648984637807,
            0.1839845318581493,
            -0.42305047494022596,
            0.19592802203043225,
            -0.298443430537673,
            0.07750327631992154,
            -0.11431094227157204,
            -0.14621850598355735,
            0.3605105802072545,
            -0.511651254169517,
            0.018986740542808248,
            0.16371489348350243,
            -0.023985193212419768,
            -0.18085089309429347,
            0.013233514195851542,
            0.027325129643101336,
            0.2595889036132607,
            -0.45683432034399174,
            0.10958781406638143,
            -0.5113795061070066,
            -0.05339982668416899,
            0.009856127108867636,
            0.2564694517204658,
            -0.42485716968336373,
            0.49984517733792166,
            0.26409490665478236,
            -0.06498703614996498,
            -0.17098157169045228,
            -0.060387146566461006,
            -0.050729252917660055,
            -0.24790976418577879,
            -0.618409953983566,
            0.05542513934484662,
            0.36166445154204496,
            -0.047865494951474956,
            -0.3899550420864197,
            -0.4425534704395705,
            0.45883337700909466,
            -0.28212875299852247,
            -0.3891461941919446,
            -0.20884604936181342,
            0.6266078495921966,
            0.017260166948171587,
            -0.3457299562735861,
            -0.3921046590475745,
            0.16288944014311801,
            -0.38274265070967745,
            0.1094026600535198,
            0.20473727183132667,
            -0.10573139039306129,
            0.05976853073676409,
            -0.3888722628992737,
            0.1291519810211883,
            0.156770012955427,
            -0.49470070974720465
          ],
          [
            -0.17212663752411023,
            0.1755130465382725,
            0.42140921270897636,
            -0.886681934045424,
            -0.08214984355870289,
            -0.6307777407347835,
            -0.1007018760733471,
            0.3620579625757052,
            0.46376237982273105,
            0.3603971980942631,
            -0.7411533914621803,
            -0.05671030627795696,
            -0.19698277230092961,
            0.10827516818458684,
            0.09681833461750661,
            0.2278983859017916,
            -0.5509472191970297,
            -0.19102206476852607,
            0.07448827879224502,
            -0.4116141786965397,
            0.12328616538816907,
            0.32879786336181815,
            0.09830012954228025,
            -0.480662005427605,
            0.5497787528851588,
            0.1553881664029635,
            -0.31407039115207325,
            0.27853064969728847,
            -0.7189988609147433,
            0.04866814924830699,
            -0.26445871640089946,
            -0.09539341591298882,
            -0.33411921241252884,
            0.05251531313107812,
            0.1226780697600746,
            0.09218715936171164,
            -0.25445525169621086,
            -0.3867401247443071,
            -0.3292897480738384,
            0.21645719042092504,
            -0.08060648338525757,
            0.08194192866449064,
            -0.07204810141695973,
            0.06509951161359122,
            0.06603311020378133,
            0.1370938965432698,
            -0.08933874840997648,
            -0.026334380945400217,
            0.2018558694369726,
            -0.8936370784173229,
            -0.3454617973672378,
            0.16638772512858266,
            -0.2940010809534242,
            0.012994846586322242,
            -0.4538454617489426,
            0.14293523647928602,
            -0.042293498509601235,
            -0.7157666809957617,
            -0.15976046228496252,
            -1.0028112563695721,
            0.05625901455118093,
            0.1683577834159493,
            -0.09380046327706165,
            0.32907039634459756
          ],
          [
            -1.3591277199909442,
            0.08301263724642612,
            -0.06792645797451999,
            1.0356047864013789,
            0.3101736873753197,
            -1.189772889985595,
            -1.6183065023671803,
            0.2311373716078283,
            -0.09734624735627416,
            -0.7939652189478654,
            -0.13716453735906198,
            -0.34760861223763556,
            -0.30402909163259134,
            0.42295378437823195,
            0.35047856733836114,
            0.47582159907850813,
            -0.8576538890590223,
            -0.11784284146443767,
            -0.5360767929032693,
            -0.20249635315526465,
            0.04305547257915387,
            0.21103102067473928,
            0.0885779969288763,
            -0.40298446087939493,
            0.4524124275646498,
            -0.2970997844497264,
            -0.30490000414466994,
            0.2805690124285841,
            -0.8337985182161085,
            -1.4306276763079444,
            0.01542695247269384,
            0.13479780165913768,
            -0.41036664500711256,
            0.14898676347799458,
            0.3566270863939526,
            -0.1864538337377253,
            0.2669490184139345,
            -0.36346276634391533,
            -1.5100713947716062,
            0.11997477996035893,
            -0.35652853353658476,
            -0.20250856822865174,
            -0.16420762618974022,
            0.14695935957644737,
            -0.29815122445582837,
            0.1362403965317916,
            0.17114509787305332,
            -0.18336040217401264,
            -0.06353527852936752,
            -0.6663756980619586,
            -1.2588017271974155,
            -0.4032692364088888,
            -0.5526073729719204,
            -0.07998185945088243,
            -0.33049056819404715,
            0.4172484403759065,
            -0.7599077284196696,
            0.331131496673054,
            0.4847759655574246,
            -0.2377913144157078,
            -0.22957322082329162,
            0.10566501702678625,
            0.14761519754653588,
            0.20202441736884993
          ],
          [
            -0.5198992003001248,
            -0.5358091025023572,
            -0.1674730970049167,
            -0.4399794764560004,
            -0.6550075235157757,
            -1.2363079288709846,
            -0.16145593792754293,
            -0.3708991815517751,
            -0.4989494157655374,
            0.07154437024435527,
            0.42621237769831016,
            -0.27514677086373573,
            -0.3505878434150528,
            -0.23774832396688236,
            0.12135500279658,
            0.5332657536550807,
            -0.8136472487336449,
            -0.5074012197981002,
            -0.13829728074012476,
            -1.799150942678079,
            0.0035690213023377142,
            0.44171302952156993,
            -0.34370408869453983,
            -0.3122401380810939,
            0.016024473179003622,
            0.23649115793461917,
            0.3597759083432992,
            -1.9239501027008155,
            0.6559395904858746,
            -0.46336964089513644,
            -0.35469281359406435,
            -0.04012212447993499,
            -0.08540027737458641,
            -0.4306918059398668,
            -0.2777183517214887,
            -0.0717952746400927,
            0.09516360598237993,
            -0.20372866783229496,
            -0.24398314908553642,
            -0.5224399604572559,
            -0.027920835931744263,
            -0.08563650783311051,
            -1.8827852333040132,
            -0.45536761067164344,
            0.030653084733754672,
            0.3355252746649573,
            0.525130778149834,
            -0.6691949212891776,
            0.2435886837776039,
            -1.2225905788027611,
            -1.9284059942688105,
            0.00891417048862721,
            -0.8599824895823901,
            0.5224029256145611,
            0.08015973238992814,
            -0.6153039522334662,
            -0.4561621302664281,
            -0.4263133466138564,
            0.5284652379526761,
            0.11440549172645685,
            -0.25189702097964317,
            -0.31073953367783796,
            0.37330730113501254,
            -0.5602875278401569
          ],
          [
            0.08755054214190836,
            -0.6410935818278918,
            0.1701652682478249,
            -0.9210598550029817,
            -0.6956998101523841,
            0.2637830684514771,
            0.4063318224869049,
            0.36558246137798317,
            -0.09268297030568545,
            -0.7688532216261073,
            -0.4472539610675699,
            -0.6838327502950368,
            -0.24451652131281554,
            0.37317024942811966,
            -1.1798307347870673,
            0.13017828391408537,
            -0.04545207863261313,
            0.09186093868666688,
            0.23079549011605074,
            -0.36250122175379856,
            -0.2334322727885712,
            -0.3464716927868815,
            -0.25936939615064514,
            -0.20248706444878461,
            0.056573727977646836,
            -0.1762666740234299,
            0.20987742928335842,
            -1.7889275867862187,
            0.05790065861996984,
            -0.514018794521355,
            -1.2232091474323006,
            0.031117123620016,
            -0.023663357645284638,
            0.18263407892336478,
            0.3329284087843948,
            0.46982606466155746,
            -0.03826514346723554,
            0.05135010488416059,
            -0.03563157435132582,
            -0.18373835137553612,
            -0.17737049345018843,
            -0.8179414145593262,
            0.16622031398199613,
            0.16718831949411325,
            0.2203217343114355,
            -0.40325460626282383,
            0.31056495643074444,
            -0.1148336586829356,
            0.16678727071022156,
            -0.0003962174713132679,
            -0.19808163711211457,
            0.47620095002357254,
            -0.5456850886748573,
            -0.5676617105472666,
            0.13269194773985568,
            -0.22582528630137652,
            -0.4265182391265705,
            -0.029747380482541233,
            0.490002202794797,
            -1.3661786207118367,
            -0.14159213330052678,
            -0.2693724846444662,
            -0.033798157622295905,
            0.2862729169264881
          ],
          [
            -0.18967081987843226,
            -0.43815445294725724,
            0.5122602542563425,
            -0.39530176976750847,
            -1.0625834279978033,
            -0.051506582359736604,
            -0.1936978387118501,
            0.15657706629581652,
            -0.23987438081347146,
            0.01621556782590036,
            0.018991213894908293,
            0.06475677734942888,
            -0.045901310939296704,
            0.01963033204496409,
            -0.3324458530680017,
            0.03089425873676553,
            -0.386037865184404,
            0.1971830159858083,
            0.6557472395326494,
            0.1640636447900574,
            0.21409000920749122,
            0.07077468264833904,
            0.07502411336292701,
            0.09114686313141779,
            -0.17532930933299998,
            0.25530383182599786,
            0.05422863041324225,
            0.40438692000493265,
            0.02622474979060162,
            -0.713803694504197,
            0.057524535281480854,
            -0.0533827014383158,
            -0.19747824642522083,
            -0.24257021624721598,
            -0.05785752390615769,
            0.1347923636308159,
            0.3020147585723146,
            -0.21497164980793335,
            -0.0769789498824161,
            0.05157838368955983,
            -0.7038867654245771,
            -0.11057981231792875,
            -0.2835866250520586,
            0.3455191755657469,
            -0.06248943623409486,
            -0.27930156004676293,
            0.20605154482881388,
            -0.6307174712083341,
            -0.08192601531359738,
            0.014865860907916497,
            0.4201642149150282,
            0.2604454391530512,
            -0.4487105431923955,
            0.6590767105734511,
            0.8392884037739928,
            -0.3161639479956427,
            -0.28781806055791387,
            0.2147839191767896,
            -0.5502801093535401,
            0.1917926356525229,
            0.3121547944329602,
            -0.61385780647178,
            -0.20659955726604373,
            -0.36432616438700954
          ],
          [
            -0.06349564237541436,
            -0.4741455115645274,
            -0.0646149443075903,
            0.536598926426189,
            -0.263895490294571,
            -0.09183443276938331,
            -0.4137321114819598,
            -0.07802097014718284,
            -0.7422539367755712,
            0.3493115551575403,
            0.20503874977106068,
            0.07464918719486287,
            0.3314015501038887,
            0.3292832251915549,
            0.11640135614160158,
            -0.10948862255402952,
            -0.15456025572543738,
            -0.019557993770661246,
            0.05912535837605142,
            0.002212242675143217,
            0.374646300088528,
            0.40184556050131076,
            0.06668206960664162,
            0.07559224164545382,
            0.382588980629054,
            -0.5161537818254551,
            -0.25497288763297554,
            0.2901257509861441,
            0.15329544318114488,
            -0.43854671135184964,
            0.3455475445583145,
            0.12256021887368905,
            0.08811371286133664,
            0.08273903078148251,
            0.2752957579358424,
            0.20836613235583498,
            0.07580998164873144,
            -0.26446668858977473,
            0.009958756205196834,
            0.0043806202905469094,
            -0.74904305892226,
            0.05971888576522094,
            0.3107650378724643,
            -0.645372386159027,
            0.005710739023898312,
            0.003066298325161759,
            0.0807373681745563,
            -0.6928438943838949,
            -0.06280005348260741,
            -0.4839935684767826,
            -0.12339236135453786,
            0.06693645480367559,
            0.2600261470953031,
            -0.473247872323623,
            0.21389683708985557,
            0.15911916774637216,
            -0.33313051627745005,
            0.4581291751344247,
            -1.3330782672906194,
            0.026219978078248295,
            0.25708042505152934,
            -0.14100872747939613,
            0.22436666152056087,
            -0.7503564655085497
          ],
          [
            -0.03714207830338853,
            -0.2985581572052453,
            -0.14543534726764634,
            0.5896866300148984,
            0.09914899553384905,
            0.09293422875879337,
            -0.3835019569931799,
            0.5221773954816517,
            0.2680654103769652,
            0.45629378353423533,
            -0.8551218780774277,
            0.19751356855557575,
            0.23384319017804972,
            -0.37279536866540164,
            0.5587458107132026,
            -0.13266297645395692,
            -0.12447016340813576,
            -0.3835909130195108,
            0.4784900289442887,
            0.26646079451220717,
            -0.10523473868738016,
            -0.6893372878984546,
            -0.2684667452279421,
            -0.11236130786554338,
            0.7631768355656888,
            0.029585045620924396,
            0.6795959532952653,
            0.3518899432172196,
            -0.3112037859019302,
            -0.09295648690934219,
            -0.042874698708882934,
            -0.2669261514659112,
            -0.03211168653592741,
            0.09190747310399072,
            -0.7219340456919444,
            -0.6165329707610587,
            -0.8577752181867536,
            0.47255727094115296,
            -0.3522926474320355,
            -0.48241297068530875,
            -0.25665893636762604,
            0.14748894156036355,
            -0.10622901769378211,
            -0.6282510977813325,
            0.41923809550913116,
            0.14497020257466814,
            0.590721965556961,
            0.7126120707459281,
            0.10542204877053205,
            -0.29134035831044064,
            -0.057219815866081374,
            0.44306967897877586,
            0.2779846634582244,
            0.2995737934855133,
            0.09638863437060766,
            0.4157091903172291,
            0.2499938366369691,
            -0.33684883959829626,
            -0.2334907502166523,
            -0.008218077365517894,
            -0.012232103428804096,
            -1.0538683012540584,
            -0.62175664818886,
            -0.6871768648118108
          ],
          [
            -0.2395913726841733,
            0.1049499304752641,
            0.6601795524288342,
            -0.04251087010894836,
            0.13983448784996197,
            -0.19968400136947914,
            0.3651858857215805,
            -0.4665245118262098,
            0.35497959254850486,
            -0.5214502635565293,
            0.37466493956187413,
            -0.3788062970026096,
            -0.08701499479980378,
            0.021899425117126465,
            0.6897358112910348,
            -0.12437754859598982,
            -0.27785651280496054,
            0.042919430600969644,
            -0.12293363256718849,
            -0.19200494145895017,
            -0.314145904861463,
            -0.3314977659413324,
            -0.34896126414935585,
            0.11503377610457795,
            -0.030109949070249144,
            0.6180595272706882,
            -0.7782284008522228,
            -0.1524822526727416,
            0.39799206799524445,
            -0.018230059716391293,
            0.29154483027235967,
            -0.0019191570188028854,
            0.2355754190516591,
            0.12487831646814332,
            0.0108049248088059,
            -0.5696780766268963,
            0.41151719524159663,
            0.12008021508904615,
            -0.3907782868372336,
            -0.20327784959203882,
            -0.27614187520923994,
            -0.5135172176218417,
            0.005878821053022586,
            0.03539024665882833,
            0.4297831803961933,
            0.17952895118001586,
            0.02159505987439956,
            0.02207005864215038,
            -0.7145006292669935,
            0.05179758408746022,
            -0.738045187837267,
            -0.41056236687962533,
            -0.2551340115099815,
            -0.08320806946776196,
            -0.21049383501290836,
            0.07516195896075482,
            0.125992615207909,
            -1.407209471215047,
            -0.11805934548482569,
            0.396054724621063,
            0.03912188640243769,
            0.5110047505845562,
            0.08781499312931144,
            -0.14733899976928155
          ],
          [
            0.4575799517070484,
            0.3380753192042108,
            -0.3438762284575078,
            -0.035053405810775116,
            -0.0209396079337896,
            0.11869240761023817,
            -0.7231371023717952,
            -0.588247961045172,
            -0.585998876861058,
            0.06961852016618404,
            -0.07344514104653613,
            0.019643139244337936,
            0.14265739267218272,
            0.3067019186246771,
            -0.32995117263192364,
            -0.07559322488277416,
            -0.7426561971844616,
            0.1595165237198039,
            -0.1644657296466345,
            0.5378778317856332,
            -0.054103177942135254,
            -0.1374711907725117,
            -0.4002844406117926,
            -0.04286693248655617,
            -0.5564136396444856,
            -0.01106712681425999,
            -0.7989311775543774,
            -0.5408842021008905,
            -0.33503624695261514,
            -0.3291685397290495,
            -0.4864456681513305,
            0.1565175558855505,
            -0.37793001275041266,
            0.21318644580859206,
            0.1911121253372587,
            -0.04855500538642942,
            -0.27535546471910355,
            -0.46167715223585304,
            -0.39876308025769014,
            0.16159762996088564,
            -0.4315553664225246,
            -0.5920536271953645,
            -0.44670682679834384,
            0.3743202557665846,
            -0.15648329588398885,
            -0.11646204810251251,
            0.26496956773576985,
            0.40820601451440724,
            0.2812718442438803,
            -0.14323428798851626,
            0.30202135677611114,
            -0.6489704318754446,
            -0.26047152508252724,
            -0.7663298617754007,
            0.5099582583272172,
            -0.2536157769424982,
            0.10591728115075608,
            0.29583765956028885,
            0.4757399107259254,
            -0.23766575593956074,
            -0.5677399783054043,
            0.6461617141923578,
            -0.36276888712503896,
            -0.038038330298457414
          ],
          [
            0.11736110082101621,
            0.06638512250163753,
            -0.3929750400825005,
            -0.36354685994483016,
            -0.22905086384402237,
            -0.1505502028908814,
            0.17725526778425996,
            -0.08419434532780502,
            0.06604816335950169,
            0.323001845937427,
            -0.8443212425195509,
            0.39552042637752155,
            -0.33403670764029025,
            0.5060347809469462,
            -0.36385788494782817,
            -0.11198627767942264,
            0.20694151084870752,
            0.37415334452126076,
            0.07233355734293984,
            -0.0382121835573405,
            -0.011086453621048214,
            -0.22718766157816359,
            -0.06344541751413844,
            0.07688809045061931,
            0.4484576081631189,
            0.2274151628533922,
            -0.2137353288559067,
            -0.42475771849668026,
            -0.11378763458017419,
            -0.05416554449100246,
            0.3241316250767715,
            -0.7802490241600034,
            -0.22135992384348602,
            -0.47624345308556476,
            -0.21551395241017418,
            0.2465590330044753,
            0.03711984661686806,
            -0.22964830220945945,
            0.33863729172335255,
            -0.02679081806949708,
            0.24119663738000738,
            0.39436379259103577,
            -0.1715474868411357,
            0.03413213014928622,
            -0.1875179958612819,
            0.3033283926192339,
            -0.5082464500449818,
            -0.09271596732234379,
            0.5538785756073109,
            0.060534991369035375,
            0.47113486075643085,
            -0.24270178017100766,
            -0.34971938544142417,
            -0.14654243403114345,
            0.261917000761223,
            -0.5259728104338757,
            0.1673735393825369,
            -0.1436967764624852,
            -0.6082931763966563,
            0.0026158830505406223,
            0.4648872938823783,
            -0.09824018305679819,
            -0.3093698881444207,
            0.5894591135424139
          ],
          [
            0.4328575554834059,
            -0.6810290723904698,
            -0.08922046664128518,
            0.21028633405774233,
            0.07475699486455953,
            -0.38365904316665617,
            -0.34435509781267737,
            0.3600529131792784,
            -0.009395467082153063,
            0.10825005385158429,
            0.5447055888133707,
            0.7964399604782897,
            0.07697563997781903,
            -0.0716187114965497,
            0.08070320714894057,
            -0.13105017223651533,
            0.07270866125837773,
            0.38049407778939504,
            0.46869939591051785,
            -0.1237066053332932,
            -0.3925985076061065,
            0.21257358321329642,
            0.4796601917011792,
            -0.3846882771499125,
            -0.3841572810993851,
            0.10854578258501721,
            -0.7587036557795923,
            -0.3591695606162335,
            0.623446269581584,
            -0.23148839704960977,
            -0.23504103326140435,
            -0.5473065643127639,
            0.04613042122206727,
            0.12389406871977564,
            0.3801396474346207,
            -0.074793919811909,
            0.029883098591301605,
            -0.4511526829498113,
            -0.20261029205104208,
            0.053480332412390134,
            -0.6065803408716722,
            0.166608883721339,
            0.7405510391852311,
            0.06899969505097378,
            0.2610405845755165,
            -0.0017785631168442163,
            -0.046505426024999276,
            -0.27706402533572705,
            -0.016936250175269126,
            -0.4392865726129861,
            -1.2312834423110393,
            0.02830079010113673,
            -1.1241822956889005,
            0.33528887203374663,
            -0.3118372228673975,
            0.3261766214138443,
            -0.19938771223901958,
            0.38059093582970677,
            0.09484756113985371,
            0.3700204537229009,
            -0.24419890209296116,
            -0.14528080067835458,
            0.18027575765265894,
            -0.02112726895792763
          ],
          [
            0.2014096135479535,
            -0.636492964979051,
            -0.21892476304893668,
            0.44045386060616903,
            0.02773757409523439,
            -0.3768143406642694,
            -0.38266839109793255,
            0.21973616144880997,
            -0.4921534657140386,
            -0.3538625376897467,
            0.11565936128264726,
            0.0075597874924369654,
            0.05614766130299805,
            0.06049539736631073,
            -0.26727783276192724,
            0.07384839258518683,
            -0.003209190761302113,
            -0.47289125763107887,
            0.3219033101336996,
            0.06536029553597782,
            -0.384394805902374,
            -0.5219428390272113,
            0.1511404118194112,
            0.28389424639597954,
            -0.3098749097665857,
            0.15709007094314414,
            -0.017189776823007978,
            0.24280819629319308,
            -0.30728891532822794,
            -0.339658008298534,
            -0.10696089647490799,
            0.5121527591123604,
            -0.07848922137920009,
            0.0919439100444095,
            -0.7332645820883533,
            0.031735148065738336,
            -0.20318552276242444,
            0.06715586752194047,
            -0.28477809637181956,
            0.35710764741188133,
            -0.46042268344221343,
            0.29161284651412445,
            -0.13589352692631138,
            -0.5167073765362288,
            0.41672206430121445,
            0.12867526305209837,
            -0.2030891162707783,
            0.07602277196709986,
            0.19095903587206875,
            -1.6376026958069136,
            -0.2669001300458859,
            0.10270497833937242,
            0.1439358688994195,
            0.07105235058103689,
            -0.35297125097080595,
            -0.07826512418531685,
            -0.3591184839582548,
            0.24813651008951124,
            0.02365342921364234,
            0.3901768038476369,
            0.05511234339837154,
            -0.275766872314116,
            0.3607086760454566,
            -0.24882047685304082
          ],
          [
            -0.25962188138308123,
            0.3730239080035292,
            -0.028764309115706488,
            -0.8642771284640489,
            -0.339018718351108,
            0.28789219897860907,
            0.2377282568619293,
            -0.32645131058146915,
            -0.12559451968000757,
            -0.04049901946245411,
            -0.37322766027405285,
            0.3709005083597336,
            0.29200864772231283,
            -0.032297545050873025,
            -0.14314180409973076,
            -0.335990428628708,
            -1.2899589237377007,
            -0.5322206400219186,
            -0.8876797498914218,
            -0.1421146366531469,
            0.2450406458006285,
            -0.6293004886057902,
            0.5222881007604777,
            -0.25570025490706855,
            -0.34709742573839064,
            -0.2309736259911185,
            -0.42124512556479493,
            -0.6276802005431213,
            0.13660450292901816,
            -1.4438451635966152,
            -0.04786393172407879,
            0.17889350853678346,
            -0.41876055175470644,
            -0.20742738038353167,
            0.21936740585075637,
            -0.026600991852596612,
            0.059876067453269906,
            -0.37351259325052866,
            -0.7480717429292458,
            -1.298730199884038,
            -0.1364597545358201,
            0.016682596293162797,
            -0.06412570255910806,
            -0.07071611085630183,
            -0.15352589703472597,
            -0.9280798273450613,
            0.18901249001383547,
            0.15883192647723826,
            0.06057284292532197,
            -0.5206203534824515,
            -0.17171467743410943,
            -0.01109171804642494,
            0.21279103786009748,
            -0.11299247708829037,
            -0.556536894766153,
            0.5087547253472398,
            -0.02494574471413245,
            -0.6421019867624267,
            0.25937173061540014,
            -0.3603419722768738,
            -0.21696042734603105,
            -0.295573127123425,
            -0.015481977540001393,
            -1.3519901691989433
          ],
          [
            -0.7152781887661486,
            -0.3089782094444771,
            -0.6350964800630933,
            -0.5790692090969546,
            -1.1674850453910643,
            -0.4302285208612481,
            -0.24009658016646843,
            -0.19124276130143167,
            -0.12725791297694558,
            0.18020842977101154,
            -0.3734711065847628,
            -0.7121606398741895,
            0.029583736501007624,
            -0.5573634410717406,
            0.27283392741075274,
            0.44208004067607376,
            0.3540742540708782,
            -0.6005936881289865,
            0.4696933315035887,
            -1.5974221904719856,
            -0.21208637684510082,
            -0.005596107405497154,
            0.2323301318684889,
            0.09016718237913557,
            -0.11012397979552484,
            -0.5922418577868604,
            -0.01779289850135066,
            -0.06166911691670352,
            0.25963326922383057,
            -0.00046156721374236015,
            0.3145549203388846,
            -0.25499652846033566,
            -0.18439640009019895,
            0.48709411924611495,
            -2.6583274913479333,
            0.22666597004665334,
            0.35618558472548184,
            0.03128195009617831,
            -0.7637852573843777,
            0.24535967845150694,
            0.44030114790087793,
            -0.3889349038654106,
            -1.6360929347563635,
            0.18997766608590755,
            0.5424738805702644,
            0.044331883053215844,
            0.06882960061582101,
            0.04899700331395924,
            -0.07651170206324079,
            0.2745685838596825,
            0.5672115121321152,
            0.28381736959241466,
            -0.12161661001592715,
            -0.12388723005291927,
            0.4139739002560585,
            -0.3030342023484537,
            -0.42112337156436724,
            0.8073847846177898,
            0.3861905426460111,
            -0.5044044301247691,
            0.0955893218148234,
            -0.2529357729598298,
            -0.09229240298575184,
            -1.5438244795827327
          ],
          [
            -0.2740233933236356,
            -0.12059145512675483,
            0.02057330201593243,
            -0.8322790204534246,
            -0.012641832498292973,
            -0.0029436954465084223,
            0.011832046297862803,
            0.10538433980670207,
            -0.5672496740574132,
            -0.08458724044283142,
            -0.3430414085322016,
            0.04582221204981063,
            -0.4258301535064338,
            0.13038440785638983,
            -1.0995458967875271,
            0.28263138622170264,
            -0.1243349002238372,
            0.1343293489124822,
            0.17486120785448672,
            0.23240458476024659,
            0.30716021698281243,
            -0.43994100581723633,
            -0.6262456330146319,
            0.7033972029405817,
            -0.11199321550938383,
            -0.04497808465199302,
            -0.053217177506200905,
            -0.07283925805476983,
            0.19425590603706053,
            -0.08551857500178502,
            -0.25251777381189255,
            0.37441619958816147,
            -0.47271320793023786,
            -0.16121410850474463,
            -0.9186268691539377,
            -0.26314264166277634,
            0.05818528381077954,
            0.01075871198996846,
            -0.8866654637640756,
            0.005359331661834892,
            -0.4217566401835593,
            -0.686542590308194,
            -0.6973324112710318,
            -0.006728941167305199,
            0.029664437426953273,
            0.09820642948016337,
            -0.1599840465665602,
            0.04382021979788239,
            -0.13280226971092898,
            0.788002449089894,
            0.06359416333855253,
            -0.29868669933333647,
            0.04860387595819414,
            -0.5190808144846788,
            0.3356003834337504,
            -0.13349009014296312,
            0.43324249432588674,
            -0.3123005696219781,
            -0.20249244171456163,
            -0.06757385157799342,
            -0.5381871150852819,
            0.011122991274395583,
            -0.15198720609236635,
            -0.8493782580173951
          ],
          [
            -0.18849292533520087,
            0.3964135693883301,
            0.07005736490515245,
            0.44797819137905115,
            -0.40714666641165903,
            -0.061496121048013656,
            0.1331331325026974,
            -0.31808013150354114,
            0.35326806644483305,
            0.025687710188222388,
            0.19765433852988273,
            0.11510595258951802,
            -0.2311497948807069,
            0.6117957085852098,
            -0.2510572549729237,
            0.3838884355882679,
            -0.5975764703644133,
            -0.2440993117212351,
            0.004662404362943482,
            0.2377873149523869,
            -0.04315696498587581,
            -0.39933134943506776,
            0.03842486368213953,
            -0.26299772242517405,
            0.19324873334893045,
            -0.043759343466265095,
            0.36622447120413454,
            0.10284677648102296,
            0.19063800041632523,
            0.1997090342834027,
            -0.09448096344055419,
            -0.006062292089203987,
            0.054146804767183344,
            0.12129374446868631,
            -0.1848151184934039,
            -0.13445597403761742,
            0.43957810573501843,
            -0.3786765950875402,
            0.14968027306755027,
            0.09598553401798154,
            -0.7450825988840019,
            -0.1261824035129507,
            0.2093465588354363,
            -0.02877826310470985,
            -0.3065269844779564,
            -0.053545815130953744,
            -0.11305283721125206,
            0.6529371924585057,
            -0.3439331651350969,
            -0.17092349827160463,
            -1.2433137411412998,
            0.4698754559271501,
            0.05811036920982669,
            0.06157689335300339,
            -0.740939065501326,
            -0.2895138277869954,
            -0.2089142971316024,
            -0.31318429894281175,
            -0.34528166148780287,
            -1.5174286371446406,
            0.12327038588376478,
            -0.14984202558051485,
            0.12393927891259074,
            -0.34127086193742184
          ],
          [
            -0.6365923959154062,
            0.3378497867218909,
            -0.05031447884946551,
            0.6173354463313672,
            0.23913444834134429,
            -0.5093212769729593,
            0.2501599635150942,
            -0.5551527683370053,
            -0.18931606543726562,
            -0.02687803736771558,
            -0.7840148418372445,
            -0.12024488119638337,
            -0.030149994065157913,
            -0.07336386499259837,
            0.2548668155235818,
            -0.5344782224274529,
            0.6012592708780438,
            0.045780825928811684,
            -0.19875997790519212,
            -0.2123335319138783,
            -0.2674362699556582,
            -0.5400093624296441,
            0.28464111685844423,
            -1.3289800631610655,
            0.08975488075067088,
            0.04795268535861575,
            0.6007174203050326,
            0.14383498542425116,
            -0.5181534705117499,
            -0.33999409327149926,
            0.036082663665917315,
            0.015414173361743512,
            -0.19692665904854428,
