{
  "engine": "nn",
  "version": 2,
  "feature_encoding": "ray_wall_body_inverse_v1",
  "epsilon": 0.005,
  "epsilon_decay": 0.995,
  "min_epsilon": 0.005,
  "gamma": 0.95,
  "learning_rate": 0.0005,
  "hidden_layers": [
    64,
    64
  ],
  "batch_size": 64,
  "replay_capacity": 10000,
  "target_sync_interval": 200,
  "seed": 42,
  "training_steps": 240029,
  "last_loss": 0.042596850333529696,
  "network": {
    "layers": [
      {
        "weights": [
          [
            0.03961814347148552,
            -0.2001323914044493,
            0.10831388078955732,
            0.362940423664707,
            -0.2979633917314064,
            -0.5676277706510385,
            0.34124781164750495,
            -0.12075320098689243,
            0.13386264277585955,
            -1.326526264130534,
            0.16013199996766792,
            -0.02064474172554756,
            -0.213510324576928,
            0.2580857853795035,
            0.3835141995891477,
            -0.12803163934039885,
            0.14446363510690635,
            -0.46843117489308256,
            0.42463935191759505,
            -0.44691085506082395,
            -0.29003560791251753,
            -0.24322583907283596,
            0.3568087817124882,
            -0.2945360906163597,
            0.0077266338990526,
            -0.21563413972244133,
            0.1396862334046784,
            -0.44401920383032367,
            0.34064407822287923,
            0.24522859810673533,
            0.5582317524032511,
            -0.44130022067471325,
            -0.5323237064954619,
            -1.3415745541221784,
            0.13941523753185683,
            0.04489719438970871,
            -0.4772294981054096,
            -0.12993908959125036,
            -0.7052687022636575,
            0.5449333876508037,
            0.3197468709955375,
            -0.21352602804327644,
            -0.4206882424635262,
            -0.2282378943419344,
            -0.8245436118099799,
            0.4197533581436112,
            0.46773492801166155,
            -0.06334339550687353,
            0.43500775189048607,
            0.0979647286784476,
            0.05408246284825023,
            0.41022799702362284,
            -0.23432612649815157,
            -0.0637118142616259,
            0.10892277247768907,
            -0.3141548186985335,
            0.13694071798995136,
            0.8276795685510318,
            -0.2589569354737036,
            0.008131091223434387,
            -0.9231661633080999,
            0.1412895913520961,
            -0.08406293030400519,
            0.3936230502573466
          ],
          [
            -0.18461913768790073,
            0.39180913272488876,
            0.5011055919739585,
            -0.10522392895921256,
            0.5466060435517782,
            -0.08806018839185066,
            -0.09235677965156784,
            0.042233741762811305,
            -0.35554399334165604,
            -0.0617609412696075,
            0.08708083987997034,
            0.3191294804365358,
            0.03964168326938565,
            0.032980967067022346,
            0.03973794914446241,
            -0.3928572385656147,
            0.8115988822619532,
            -0.4488151632827508,
            0.008374241419050793,
            -0.06586132307443182,
            -0.37761344411032655,
            0.337850397496855,
            -0.5988624092529922,
            -0.40123402182475515,
            0.15304509237068134,
            0.8020251220751434,
            -0.5869191122037811,
            -0.17461577846732218,
            0.016067758892157637,
            -0.2686281184125885,
            -0.4704756623501747,
            -0.08102563699330227,
            -0.43432215734252877,
            -0.2996173841481011,
            -0.3783528768461005,
            -0.22319714922486497,
            -0.229753229661116,
            0.22810472571958795,
            -0.03445834408123948,
            0.4260280374267868,
            -0.5959982405369199,
            0.00913043897408268,
            -0.3306207436280697,
            -0.5863473274095582,
            0.4572754233462486,
            -0.643452495051268,
            0.36992159034055244,
            0.5735574443404464,
            -0.6959587430961592,
            -0.5790883826367796,
            0.10409845033335702,
            -0.06103707741781566,
            -0.27865031936563006,
            -0.05113316245894198,
            0.7480403667924308,
            0.4933542736595901,
            -0.3772778647133994,
            -0.6198336438495164,
            -0.04748670616817162,
            0.5534042135299748,
            0.48529108719753805,
            0.36173374297969235,
            0.4907799294625561,
            -0.891960953613054
          ],
          [
            -0.6980519911870405,
            0.010682057306587193,
            0.25471109486598054,
            -0.4405840951877212,
            -0.10378397991457869,
            -0.21237771372557823,
            -0.21279967018324825,
            -0.24437991047397184,
            0.41902832020529857,
            0.4272218535200964,
            0.5800377477642937,
            0.8775305325552456,
            0.004190604567652143,
            -0.47621667424987074,
            -0.4490051080447898,
            0.07613200532199998,
            -0.051556805587558305,
            -0.6758072778115068,
            -0.29374369275830275,
            -0.17823398226845402,
            0.7045035992859636,
            0.3235792878037978,
            -0.2453117423091891,
            -0.07454031249670635,
            -0.8053630060219893,
            -0.107991247289169,
            -0.26577584151405614,
            0.6427847962500284,
            0.1668924839283777,
            0.35392520427226964,
            -0.5576500528486674,
            -0.6949787529351871,
            0.5136393255490637,
            0.024828088515014717,
            0.6651996313307397,
            -0.7330597827633767,
            0.10659275791813586,
            -0.2608090288358764,
            0.6209796458954252,
            0.08123122297196579,
            -0.10617541480202715,
            0.21280659040213667,
            0.029220765313943537,
            0.18508423209493954,
            -0.4524047214758344,
            -0.4437728832423472,
            -0.3716707515358745,
            -0.19659450208863255,
            0.5885788191648686,
            0.4568200915987199,
            0.28655518773169936,
            -0.4694832977124757,
            0.30605278932812735,
            -0.2687104819510653,
            -0.1477415098938192,
            0.16145505289479553,
            -0.34348982428339253,
            0.5078235059041293,
            -0.2565344928500631,
            -0.3316927230702051,
            -0.7078982234942479,
            0.5403246584761647,
            0.3085599813736598,
            -0.7137444584505334
          ],
          [
            -0.2212889967256972,
            0.5151895275797131,
            -0.5412344461197183,
            0.07819176994518871,
            -0.04775931129936818,
            -0.040060412993168815,
            -0.12717275321206611,
            -0.21911123682280975,
            0.2509322654609444,
            0.4647602588389338,
            -0.34264494989735605,
            0.11871848356269482,
            -0.65304546489609,
            -0.12735154528825368,
            -0.668904403760897,
            -0.239376785958605,
            0.04603443011206278,
            -0.3034284970383762,
            0.062038332330035674,
            -1.1190418360540169,
            0.01673457891531384,
            -0.6346949919453161,
            -0.4723281079631233,
            0.09658222260735633,
            0.3182502463894112,
            0.6915542317117271,
            0.1412546465560068,
            -0.510087924057794,
            -0.24678179011560164,
            -0.0734597342065702,
            -0.334573976509961,
            -0.2854021231736967,
            -0.02559890975648324,
            -0.3351421984802704,
            0.7424524097614467,
            0.6189607691251011,
            -0.3963099471147338,
            -0.4718974270551079,
            -0.10419103693977738,
            -0.27658161486122596,
            0.3823221168935836,
            0.5051243537790135,
            -0.34566215513348275,
            0.06608161681641897,
            -1.3628603579464689,
            0.33426372533436594,
            -0.8697158091461789,
            -0.12065127589599493,
            -0.2686692582300833,
            -0.1947157869461701,
            -0.49269501787428627,
            -0.6291333727266407,
            0.7932200463356113,
            -0.19846082388559386,
            -0.38020815120169815,
            -0.07991349137791733,
            1.1089094180087604,
            -0.2086504074830613,
            -0.5875314970707989,
            -0.33059267554245597,
            0.9297057178620215,
            -0.23375840860970362,
            0.35114973415136136,
            0.17216418073221926
          ],
          [
            0.23777084982761088,
            -0.44560549105774716,
            -0.3107055543935317,
            -0.03511543847402748,
            -0.1417532036977382,
            -0.47126779541135005,
            0.44939997390670094,
            -1.5106794149338998,
            -0.05222344771299387,
            0.32334303197514785,
            -0.038510302023409305,
            0.3019315631570936,
            0.05223326706992837,
            -0.4547055868437003,
            -0.01413119143198608,
            0.4526467378118673,
            0.15724871021428719,
            0.6091386660529658,
            0.2710798935129599,
            0.02221605979785014,
            -0.5421114975709371,
            -0.42944483830273417,
            0.39983934109824054,
            0.15515832107659497,
            0.013943096979778323,
            -1.5677463785025303,
            0.4366188017117032,
            0.30264743241281894,
            -0.6462415109357806,
            -0.43447778276654553,
            -0.3626256564533826,
            -0.03707245391551533,
            -0.33200866273396173,
            -0.40003281247276884,
            -0.459551049321358,
            0.5279315036779325,
            0.3596108527224516,
            -0.5773023862809349,
            0.2813933895561127,
            0.43505949149094486,
            0.2381998020338151,
            -0.001344855007478512,
            -1.3790165939557593,
            0.27081045059047676,
            0.6551615314751597,
            -0.40892074222769303,
            0.37589786562656147,
            -0.32970907300248004,
            -0.13245709648494544,
            -0.21666179502070013,
            -0.15486670597657218,
            0.5215916267479614,
            0.2815681408698633,
            0.3823867887097416,
            0.023134576318931118,
            0.21619156513935983,
            0.5947946277260601,
            0.3348678144472734,
            0.28967196292623393,
            0.04103177110696442,
            -0.4529166152687865,
            -0.28971721025747804,
            0.25530330218007874,
            -0.6099478396234801
          ],
          [
            0.10663445839240458,
            0.11335077290543553,
            0.005544412398959949,
            0.21753978211063976,
            0.4396006456361918,
            0.4551308818920986,
            -1.6359864565523876,
            0.26067646878304157,
            -0.8475425478951529,
            -0.3070864567367377,
            0.29471471829053475,
            0.01852725833754882,
            -0.4083180092501013,
            -0.5244049180357235,
            -0.45280405002938356,
            -0.47426639774258333,
            0.15160324364319056,
            0.21908867167576657,
            -0.03358511404174897,
            0.32420738888510764,
            -0.5183144700176718,
            0.17513896386953925,
            0.010478690988238216,
            0.050750051666289896,
            0.4391001363246775,
            -0.4167815101200632,
            -0.76793568452123,
            0.2037601771966726,
            -1.2562418750340054,
            0.5828245422535966,
            0.028919035734176757,
            0.06301697517140518,
            -1.050377525030817,
            0.4564034524077866,
            0.22780898134483923,
            -0.24912506012866603,
            0.10699735578494979,
            0.3340691641993633,
            0.36021970775090945,
            0.06520177060351946,
            -0.09935606575431222,
            0.19729174863022278,
            0.36499803395431607,
            -1.2520696291801656,
            0.009147516812085543,
            0.34364403988029407,
            -0.41235346517288435,
            -1.4853111463004538,
            0.2790272059500441,
            0.1751182779476175,
            0.13108951176270434,
            0.2760314132315432,
            0.3001493369457188,
            0.5493820906320098,
            0.23318995142764642,
            0.6307384020796452,
            -0.06927878509905405,
            -0.34476872730124675,
            0.4362094187606398,
            0.05132623197619849,
            0.3068428354145371,
            0.5492998492769366,
            -0.3217001382215252,
            -0.3526365560752044
          ],
          [
            -0.9561643379992872,
            -0.24612211403051165,
            0.23913144425247285,
            0.5964470527836496,
            -0.4073478034240004,
            -0.4305075009281593,
            -0.6339942237895808,
            0.06792013759110944,
            -0.11301543028765153,
            0.11378554638937399,
            0.14230517663165615,
            -0.03691822122356198,
            0.2968422675853885,
            0.48601900990857955,
            0.19451293317225138,
            -0.42075247001992394,
            -0.29781545448471913,
            0.24354314122087212,
            -0.011234824864926676,
            0.37013240611564735,
            0.3187283080682207,
            -0.12102159928851201,
            -1.2267613421318768,
            0.3218307090542618,
            -1.1599254292513963,
            -0.1620736188594027,
            -0.36743698804536096,
            -1.6052340105558907,
            -0.15695125404370414,
            -0.1026434802263882,
            -0.12655791547044762,
            0.34852366305186,
            0.6884166802286437,
            0.4683228386850682,
            -0.17278402678968025,
            0.4347700357641427,
            0.18090627125394151,
            -0.5968070306636625,
            -0.13347539238387007,
            -0.3887210521049933,
            0.007074235229293518,
            -0.16960800633966386,
            0.2168670670402723,
            0.39281110243589207,
            -0.4538740303120568,
            0.05069592842364573,
            -0.0359274696414123,
            0.1711638520133593,
            0.05843559625260313,
            -1.6311329819738438,
            0.30486911212816503,
            -1.3386833919277463,
            -0.11770057080711124,
            -0.7122394301033848,
            0.011028106142892347,
            0.17908665190386366,
            -0.1164870337872225,
            0.2712869229931976,
            0.20369956699031283,
            0.5740771495106494,
            0.07353995219599603,
            -0.6689392256894054,
            0.6834188942896584,
            -0.03175228025450885
          ],
          [
            0.4093462834458753,
            -0.08690991588604027,
            -2.055481597675822,
            -0.33537616724871705,
            0.7661105698481434,
            0.8575690906228538,
            0.3304108809194664,
            -0.0030892747460505906,
            0.4691311838557357,
            -0.21199727737183488,
            -0.07545920538522245,
            0.15276507333195505,
            0.002930037284645457,
            0.12221062070405289,
            -1.05662707554167,
            -0.7191817781305649,
            -0.01016437261900607,
            0.03455307597413177,
            -0.13733668779405958,
            0.7318920169776298,
            0.4201198124252017,
            -0.23946365328031605,
            0.12523388755144252,
            -0.31552982159868204,
            0.058371611000920864,
            0.18859168152649539,
            0.44330541799222795,
            -0.3145553878316324,
            0.6682361900105521,
            -0.09495734754047086,
            -0.5255044300761347,
            0.7989430550087049,
            -0.5047328350471003,
            0.5694571729610604,
            -0.9286713132508552,
            0.3867268212165673,
            -0.9048807083994538,
            0.2009214917809291,
            0.05864031912760649,
            0.1472992771671739,
            -0.11569165433255074,
            0.4326390067865161,
            0.44348971919858443,
            -0.39291865596226844,
            0.218091564231939,
            0.4557796199165867,
            -0.36242647039567355,
            0.2619371875038569,
            -1.2871275006402134,
            0.21319440291573435,
            -2.039047562358718,
            -0.5418665284615996,
            0.6606393051416815,
            0.5936509778294766,
            -0.0280762249357101,
            -0.35569798895099336,
            -0.6056781900717269,
            -0.22793819245855473,
            0.5721544266813149,
            0.4436930849476141,
            -0.17065227486755227,
            0.32168143436103497,
            -0.5966048706234027,
            0.05822276907080554
          ],
          [
            0.6519762218344954,
            0.024868899415768114,
            0.6540964866964945,
            -1.4932947062360884,
            0.7502260829149752,
            -0.6474459740763511,
            0.20483123963174463,
            1.2761895585438507,
            0.1503430937668538,
            -2.3691406572828453,
            -0.03503677578580071,
            -1.251163471560575,
            0.6500703543363292,
            -0.575789735972389,
            -0.9262603683072285,
            0.073178480037417,
            0.563650240424625,
            0.7504681285369117,
            0.5256351295611428,
            -0.0517360553926934,
            0.07415644359043873,
            0.5099028913677701,
            -1.6169050389767063,
            0.16942085806899057,
            0.3999344334991858,
            0.5501967742235091,
            -0.3680034477934863,
            0.25055664010612033,
            -1.4372375871419423,
            -1.554265458959884,
            0.18607726590888232,
            0.23997431285421697,
            0.5856076323443673,
            -1.6784725926679367,
            -0.46599306865043916,
            -0.4435750651333908,
            0.6741264695180882,
            0.2378510393547414,
            0.7361870880432516,
            -0.6945859030312657,
            -1.5568062810201564,
            0.8788494113903191,
            -0.2554152215822669,
            0.1606336127978502,
            -1.239760103075382,
            -2.816164255858144,
            -0.3848808880094761,
            -0.7626086957003042,
            -0.12987343989470776,
            0.710255855826307,
            -0.06974569485379951,
            0.23441784594606652,
            0.26926459213028825,
            -0.13655068589198002,
            -1.5934967808882243,
            -0.36659779416672095,
            0.8040972904071241,
            0.10528299741089163,
            -1.22272587191039,
            -0.23691227458490133,
            0.5741797141583239,
            -0.4259808715495514,
            0.08367917169275402,
            -2.6213275445827056
          ],
          [
            0.8023641715678039,
            0.3135480062200684,
            -0.17097970858687142,
            -0.11673079655586532,
            -1.8857579140147738,
            -0.20034641569471634,
            -0.23531025783880483,
            -0.9680925479114972,
            0.14217480068133287,
            0.19211255559293694,
            -2.2275972078978135,
            -0.6109028677359524,
            -0.10947609759535656,
            0.3575423236256229,
            -0.008496833855687284,
            -0.00048643653591803074,
            0.7988988468700159,
            -0.15471980376120104,
            -1.1088659797408584,
            0.4120783948118743,
            0.22934276133165984,
            0.1842705703655458,
            0.7714268852314808,
            -0.7837037744137311,
            0.4182542140233233,
            -0.23752449731915115,
            0.6750566976486188,
            -0.9706028107129101,
            -0.5082853136312626,
            -1.2336384044164115,
            0.5370476967384707,
            0.22830547469511295,
            -0.6501315702932853,
            0.35461577428336766,
            -0.7383007532660542,
            0.15671878526745855,
            -0.7472622332211442,
            0.30588517331036885,
            -0.13651342634639674,
            -1.1027869832384456,
            0.022157049943936354,
            0.3510964646217147,
            -0.3499820789664741,
            0.9791972628016692,
            -1.2360708665819529,
            -0.04872704329833351,
            0.17005431655130862,
            -1.0240969753373796,
            -1.739576703332729,
            -4.1028627639924,
            -1.000750862001134,
            0.41067149014398996,
            -0.7815114099663899,
            -1.8922957799768265,
            0.7482238032316958,
            0.6704879478750605,
            -0.14117982666591372,
            -1.3262125981232697,
            -0.5438630093567819,
            -1.9382768184438743,
            -0.11792490963798086,
            -0.3125165390108728,
            0.02856157278305359,
            0.5131784340723078
          ],
          [
            0.011535397833195881,
            0.1012203861670166,
            0.36877203725567187,
            0.14127996208784305,
            -0.1036736560291562,
            -0.022718094871266917,
            0.492513990594234,
            0.20257455976584543,
            0.2375790084755492,
            -0.13135915177090912,
            0.5344093218587515,
            -3.021261208312057,
            0.19104777628900188,
            -1.9929518579018979,
            0.8886163605926407,
            0.2128012776688587,
            -0.37086948989651825,
            0.32939917038034566,
            0.5257555002751058,
            -0.49430716416629805,
            -1.1910165586065253,
            0.08145618196677352,
            -1.2472125165575487,
            -1.0398092299992938,
            0.32386702890880115,
            -0.7731547232287884,
            -0.3751650588688937,
            0.2825337577099089,
            0.2813866434969678,
            -0.4850748905464647,
            0.2577780525079278,
            0.8499832221707985,
            0.22834225584485868,
            -0.19615482863893755,
            0.3875450636956667,
            -2.680268176260126,
            0.6431007598238062,
            0.05015082934516596,
            0.32061756754997345,
            0.006317506688214889,
            0.6997226419652952,
            0.5174111803526819,
            -0.003156180840981914,
            -1.0869584514974373,
            0.16021201725018394,
            -0.862816629281866,
            0.801874061671836,
            0.3919556460645171,
            -1.9659169160892431,
            0.4620634851570679,
            0.40950506226292377,
            -0.015189127586388167,
            0.37786650947821476,
            -3.058383202080299,
            -0.18998647314754927,
            -1.4297628622016967,
            -2.530925280507551,
            -0.23353000841888688,
            -1.0313865027846454,
            0.15936244294227891,
            0.6986279533919002,
            -1.2858369415462028,
            -0.8293175731791607,
            -0.05053771144533531
          ],
          [
            0.14622473412730827,
            -0.9849140996486684,
            -0.9595222005401572,
            0.19057270086159714,
            0.3310564707749189,
            0.43662154453372193,
            -0.09063301999147229,
            0.1181409462994166,
            -0.4652863900087117,
            -0.26860586623870325,
            -1.358321667981611,
            -1.1507614116750777,
            -0.15498143244103196,
            0.6692486559866219,
            -0.30756950211997824,
            -0.24884675137534257,
            0.21512326646918647,
            0.3424710586804759,
            -1.234266429872907,
            -0.6024790478512284,
            -0.30117130494335687,
            0.7157061073782169,
            -0.1848813925899912,
            -0.3037640206089615,
            -0.4022515000480076,
            0.20821145768955698,
            -1.043378410775227,
            0.236572176256023,
            -0.17463173527717066,
            0.19844839310712672,
            0.204122923612097,
            -0.2700518353974379,
            0.310386476767223,
            0.27319478301430594,
            -0.37308888095792725,
            -0.2938655024726941,
            0.5121501273819286,
            0.15364944816506718,
            -0.25000863212544355,
            -0.9662021025937176,
            0.3791910577886241,
            0.6479863944713509,
            0.5200875569275563,
            -0.572661407303127,
            -0.13034820135765324,
            -1.291346271903874,
            0.43374517129372625,
            -1.6146840162970022,
            0.30339880558972826,
            -0.2570467688904381,
            0.6024809756085526,
            0.07504356504102558,
            -2.124703912052487,
            0.05010378712015118,
            0.16616496086723825,
            -0.07940136318577969,
            0.14026954473629155,
            0.5269488947915947,
            -0.22318225035090153,
            0.6309919352946511,
            0.21913347436542796,
            -0.41451901321806905,
            -0.16396586695897983,
            -1.089904325101051
          ],
          [
            -0.677423847188378,
            0.011888198724891637,
            0.4323580595653614,
            0.36264585122586956,
            -0.34024609679851187,
            -0.013197640804016109,
            0.30134286831064133,
            0.26794173855149195,
            0.29003321140778804,
            0.2655540177249273,
            -0.022070750135436357,
            -0.3824807589606106,
            -0.18593356744414502,
            0.03557218678602142,
            -0.33256687094749426,
            0.12966372316819838,
            -0.18441277858410396,
            0.015247081951611575,
            -0.016967971372449958,
            0.14416096797847658,
            -0.2208323529124938,
            -0.010363562563076118,
            0.22872017977812492,
            -0.3929231226312905,
            0.04683766981990407,
            0.2571886424823372,
            -0.5781328776122874,
            0.5785761011263576,
            0.5624629679739722,
            0.7872763891232603,
            -0.42204574590567634,
            -0.33824769497621376,
            0.2662982424970692,
            -0.7605766279368985,
            0.5663583272293885,
            0.4608247292886238,
            0.48077581610423625,
            -0.05419830058407841,
            -0.13137832846933434,
            -0.33362724949702005,
            0.34862670496954823,
            0.0180486160751338,
            -0.31075275433666893,
            0.07750609710709402,
            0.20102113750181663,
            -2.0532422859008457,
            0.43531270057547783,
            -0.7695068782427311,
            0.14726611393834318,
            -0.1399941411844323,
            0.4406092318194806,
            0.6113142458027511,
            0.253594706242995,
            0.01490451717380248,
            0.00047420651284011295,
            -2.080027228063057,
            -0.9551573449096608,
            0.10452639836140616,
            0.18377141131867428,
            0.18058756151017602,
            0.4569424588759736,
            -0.2161440387869255,
            -0.22306003608123084,
            0.49802570399185875
          ],
          [
            -1.1542790113766566,
            0.6693376437888896,
            0.06925272679665241,
            -0.57910433226815,
            -0.7812617924236577,
            -1.0111283955003982,
            0.19910545291411255,
            -0.17924650201817197,
            0.054556416383335755,
            0.0382424402196155,
            0.5025169959458412,
            -0.494891250116309,
            -0.7193395056443206,
            0.08966772977571622,
            0.9756859533979058,
            0.07252296987821844,
            0.012784273573959583,
            0.14629871347012077,
            0.20422335652266704,
            -0.5236216939556945,
            -0.23101388409784582,
            0.3658998997631449,
            0.9039138144946295,
            0.5044894121893441,
            0.35550024445417255,
            0.41430005939553594,
            -0.5213502200711791,
            0.15377563997795743,
            -0.08965281305487721,
            -0.41893434459920925,
            -1.2869074263873213,
            -0.004689238239377873,
            0.02496078649567598,
            0.31825590018362304,
            -0.01242841296369039,
            -0.26173839129963605,
            -0.6278269039229136,
            0.5466078138250396,
            -0.18752847721363666,
            -2.1102010148786623,
            0.10249926092823401,
            0.5978960980530542,
            0.15578023727175302,
            -0.6465008929100595,
            0.7041549447403906,
            0.4569973323351947,
            0.284900623972245,
            -0.6277178121630267,
            -0.15507213019295454,
            -0.7682011984145392,
            0.3190548089696126,
            -0.5498251935978384,
            0.7180129689093508,
            0.9799424875070112,
            0.4663708771743297,
            -0.619571596651229,
            0.034306988312071234,
            -0.46500909763788356,
            -0.31786664571347073,
            -0.05831608625180404,
            -0.003810040297430569,
            -0.36227016426220726,
            0.26469926589833936,
            0.611976733729022
          ],
          [
            -1.1768544235850096,
            -0.038965392392288786,
            -0.5005891675245147,
            0.3984326306401599,
            -0.19972037403059337,
            0.012047999946241833,
            -0.053631762505971445,
            -0.08510733237828248,
            0.22994945113457743,
            -0.1928185300419527,
            0.05981583537119243,
            -0.2903433594229005,
            0.24333429831641767,
            0.6716401239952788,
            -1.4195703572438403,
            0.5237981772625324,
            0.40746486443484575,
            -0.7982968090103819,
            -0.19721349393699447,
            0.15781913235373726,
            0.5736484675737082,
            -0.08475949729513378,
            0.6289919272945643,
            -2.2209428893758325,
            0.31364457200580464,
            0.29946992036050096,
            -0.6866597553093791,
            0.09991397545418125,
            0.17268668820013192,
            -0.29701940754634837,
            -0.32865102242615934,
            -0.15912939807563387,
            0.24695814990166,
            -0.12591036296597832,
            0.20689572927901836,
            -0.26481844512080593,
            0.8013044378235525,
            0.350919471139681,
            -0.037086204509376976,
            -0.8604375528090628,
            -2.9914020974026023,
            -0.030584490890258696,
            -0.10433792470455468,
            -0.39324412235958156,
            0.212720795102915,
            0.35226573041416076,
            0.5059629202851051,
            0.2856929205913316,
            0.31565797817488095,
            0.1174571063346395,
            0.27853215317385266,
            0.008722045564969626,
            -0.11181856580147681,
            -0.08091457567409562,
            -0.9713847214891944,
            -0.740962009202623,
            0.23339054438492868,
            0.5882593119914997,
            -0.7391078317994201,
            0.2626459361255934,
            -1.267484429960034,
            0.20942580091728907,
            -0.18065863022534817,
            1.2083034183756205
          ],
          [
            0.6323280425254251,
            0.40070150380830466,
            0.7178622808725313,
            0.4289627806593614,
            0.15137869716271815,
            -0.9831864312847342,
            -0.08494194480945869,
            -0.19937057141419404,
            -0.06851432750079875,
            0.2702138694739548,
            0.07161556143630424,
            0.12615451374033584,
            0.4311087800827517,
            0.2906962691748612,
            -0.371795066317207,
            0.09587994881104794,
            0.5100101074180695,
            0.555984666489494,
            -0.47516555960971935,
            -0.1117295493310446,
            0.004615669694584412,
            -0.25500997047907115,
            0.3146700041900369,
            -0.018585950556746587,
            -0.4953426809890054,
            0.417267378260844,
            -0.6831178281723913,
            0.28389160551911075,
            0.6950376211030522,
            -0.3203777584338887,
            0.2005848747449106,
            -0.04633964035608075,
            0.04978778626062734,
            0.5133346853472294,
            0.4147119081448453,
            0.4272568593795288,
            0.5996081689807596,
            0.32739615927785787,
            0.1828194060337421,
            0.4375486657737346,
            -0.9706054193770509,
            -0.18952204732653877,
            0.28483334347482797,
            -0.0171762511268341,
            0.34819904867228924,
            0.31983645138909567,
            -0.9376293950212289,
            -0.15920441241713165,
            0.7524617369697078,
            0.5684504983314558,
            -0.39751667778544997,
            0.05693810046488021,
            -0.8638001801972531,
            -0.8876697521166441,
            0.26303674735629573,
            -1.3252757481538517,
            0.7255125471355629,
            -0.176764585982761,
            0.48178368916653974,
            0.4422697407684851,
            0.0277217633622858,
            0.09046270702645022,
            -0.7503649425502806,
            0.7040496164994192
          ]
        ],
        "biases": [
          0.2167596924089077,
          0.2347369685568262,
          0.2026916829309964,
          -0.20491646433547583,
          -0.23610795459098854,
          0.23310543285293198,
          0.5605999858886981,
          0.15397008965380032,
          0.24583207234754703,
          -0.2487581802656524,
          -0.048783269635526066,
          -0.5943794218375986,
          0.277004017548448,
          0.16385640612186228,
          -0.016602953603818443,
          0.2764146847110038,
          -0.23556070882418054,
          0.29619015940347243,
          -0.08498961518769992,
          -0.12248836903731312,
          0.4159338070428855,
          0.4489945854178595,
          0.015928559144904805,
          0.14500706112787934,
          0.3234158622447941,
          0.29169165646764295,
          0.11685275356666926,
          -0.06615949827506386,
          -0.35048479560847695,
          -0.19707372984861726,
          0.16560975500752803,
          -0.1186049082289065,
          0.34876836108050524,
          -0.03480414927795113,
          -0.24168769330291012,
          -0.1632024964236656,
          0.0041057382293317145,
          0.3927998941679267,
          -0.2282399841530533,
          -0.22871318522748257,
          0.04138163523598945,
          -0.35869132466917936,
          0.4501036350020664,
          0.20904746582942163,
          -0.21069673088624336,
          -0.19465545003484966,
          0.02552095947651018,
          -0.05892544324252275,
          -0.1569228750870302,
          0.3178332854119928,
          0.3926602773695573,
          0.30974684732600943,
          -0.6166384371913024,
          -0.15397313412555044,
          -0.06381529632520203,
          -0.24628498590112852,
          -0.44481442216949724,
          -0.30950989262126527,
          -0.09763485311027799,
          -0.4486863222363175,
          0.11731491263496807,
          -0.2903823088074762,
          -0.34368952645714257,
          -0.45282685380975685
        ]
      },
      {
        "weights": [
          [
            -0.7074694475059354,
            -0.013655608016058111,
            -0.43680671247626157,
            -0.3990097609316564,
            -0.6584014823613648,
            0.2057075774014045,
            0.454041123284403,
            0.08870628090885486,
            -0.3288096788546817,
            0.27337197590972623,
            -0.21650494966350978,
            -0.03894179788712713,
            0.34674195458820845,
            -0.054612299440277116,
            -0.07510613847074277,
            0.1535346541040308,
            -0.8585624143111958,
            0.30211320569874694,
            0.0605827180802618,
            -0.06214158385925556,
            -0.1777477942698135,
            0.2866960474704437,
            0.12498169973001244,
            -0.04042967557770599,
            -0.10234520480449473,
            0.1256314356782967,
            -0.1507621007127298,
            -0.40980733894887383,
            0.3448070398101483,
            0.3837496569779756,
            -0.747626509639125,
            0.3758740561080447,
            0.03783769678987537,
            -0.0614378128091626,
            -0.7587359728429508,
            -0.5062168393875206,
            -0.07607412792083716,
            0.10305087359878648,
            -0.9288819232955937,
            0.11161200293711941,
            -0.016773701456098633,
            -0.23237254923924644,
            -1.0261697914894872,
            -0.06927041282035452,
            0.419576274419595,
            0.24150777059323725,
            -0.06782240217553716,
            -0.056816373722899126,
            -0.05823451804605958,
            -0.2730707417260105,
            -0.5742251200402023,
            0.04132191538565877,
            0.5019800667304359,
            0.6229000145431864,
            -0.059440411169850646,
            -0.14062088955021554,
            -0.4094659049853191,
            -0.21667528450877688,
            0.14139985228550303,
            -0.12106523098377447,
            0.01989886844708135,
            -0.12636560146433093,
            -0.2545372817926235,
            -1.0795242619452379
          ],
          [
            0.18694874185794874,
            -0.03471121063851255,
            -0.342475847198745,
            -0.29786977576602897,
            -0.09853528750344256,
            -0.14618016728743852,
            -0.2932114994298965,
            0.25889263188081263,
            0.2726888599453906,
            0.3263986424248622,
            0.21407762782356365,
            0.02184282412114179,
            0.3779360921485262,
            0.19501476720443053,
            0.28126058871148235,
            0.3147060642901345,
            -0.15618211006205437,
            -0.044653285330004754,
            -0.16279865796317902,
            -0.5954914618461016,
            0.24761188479244867,
            0.219330687617225,
            0.6641962399094156,
            0.08803869775017417,
            0.096732452961899,
            -0.2748730381235488,
            -0.47539790769560847,
            -0.034886878982534855,
            -0.385549895607866,
            0.2895591120480886,
            -0.5349445654232085,
            -0.019294059168299852,
            0.154735668227208,
            0.4880572166309476,
            -0.057693410831673404,
            -0.28924413276831007,
            -0.16927675941491344,
            0.21618669535118498,
            0.524873262184565,
            -0.05344833634091377,
            -0.5119880991041825,
            -0.12422762299217549,
            -0.8449916323530634,
            -0.8158670763213174,
            -0.19111863577895633,
            -0.0006979515576407442,
            -0.16341611143824536,
            0.3738601805422164,
            -0.2654611553799834,
            -0.15345071567268043,
            0.04088041347237097,
            0.19872036212792477,
            0.341911425396294,
            -0.3253213232946374,
            -0.4387559637254834,
            0.21674538871616644,
            -0.4296500045847919,
            0.12287063709801145,
            0.07035196188955017,
            0.08208689391172982,
            0.25349339554835293,
            0.1828275113043589,
            0.3130063776449972,
            -0.13092309624285342
          ],
          [
            -0.3957978489160432,
            -0.3309395486507204,
            -0.10706742113760118,
            -0.31345282910082767,
            0.03606986106497253,
            0.21724903694285264,
            -0.7451016849624817,
            0.06599028577778747,
            -1.026830119634297,
            -0.49209335246094904,
            0.35798039649209357,
            -0.7153646498802855,
            0.19511799963565937,
            0.057599964681569644,
            0.4835395575393006,
            0.2882192753626221,
            -0.9744775917586218,
            -0.2519266661627448,
            -0.12050845819402645,
            -0.6576548079520173,
            0.31932511840163846,
            -0.28995828967101306,
            -0.23374313246024506,
            -0.9447621386862474,
            -0.031318831939851126,
            -0.14041450920660747,
            0.15161362924146798,
            0.5222951970990318,
            -1.2171343027642332,
            -0.6324962482928183,
            -1.9519141814322671,
            0.24573271992938675,
            -0.8238815946357,
            0.1427010774351556,
            0.043066193117920495,
            0.04940294229360053,
            -0.1683808375114127,
            0.014462301881907395,
            -0.4533653866421014,
            0.05675547100560025,
            -0.39465008562190707,
            -1.1483929771396477,
            0.9018632833102644,
            -0.22759846573915812,
            -0.28396975675340685,
            -0.47605002338570845,
            -0.10149822074459991,
            0.05505451379044522,
            -0.16082722459338597,
            -0.15635814057002495,
            0.1971816853335988,
            0.06754704432261187,
            0.37811724899915033,
            -0.21059164142700923,
            -0.04343571794764845,
            -1.1701293441859002,
            0.43772496304090497,
            -0.19816575418195798,
            0.17747373016788728,
            -1.0550041695767967,
            0.3496953426643329,
            -0.11488623468853656,
            -0.3940488934625559,
            -0.3111677028920615
          ],
          [
            -0.39611886743229036,
            -0.6884976563837806,
            -0.6786821791980617,
            0.23783108521832902,
            0.17412584230751027,
            0.19958037417101915,
            0.35810093991146824,
            0.056674284119953774,
            -0.9693790885598899,
            0.2700458800387177,
            0.1091463622684027,
            0.1789816823189169,
            -0.13786918592735073,
            0.557558259799564,
            -0.11266488858236964,
            -0.216619309831937,
            -1.2733500107800333,
            0.16459954686359574,
            0.1457958921724734,
            -0.08295014071889917,
            0.13907300953379526,
            0.5134814346444329,
            -0.2618981615557353,
            0.2940817897881612,
            0.4350765978203863,
            -0.011064166172007811,
            0.3416360984887909,
            -0.07593135465674644,
            -0.8937260934219756,
            0.38698894566227304,
            0.29750152984437067,
            -0.2608767083453025,
            0.23114239140671433,
            -1.1974423673374022,
            0.3914267133777364,
            0.13161141054263667,
            0.09381609005129186,
            -0.08538702246091771,
            -0.31248974449747663,
            0.164223953657664,
            0.5743225912900917,
            -0.2805800219270268,
            0.2947881412953746,
            0.20508656041987475,
            -1.5562727485106223,
            0.33116211123416983,
            0.11700477477406733,
            -0.3357127195600962,
            -0.3179065479357604,
            -0.1220388016865139,
            -0.1055134711311086,
            -0.836278158326625,
            0.29388288464757056,
            0.46333481414281374,
            0.457655973635334,
            0.45036815324384544,
            0.23399749473540302,
            -0.48632717995377533,
            -0.257568020229806,
            0.37302097044579074,
            0.18347638914715914,
            0.3042651530152004,
            0.18674124143629714,
            -0.016397778460846682
          ],
          [
            0.5589988826114357,
            -0.09684307565572546,
            -0.2141018730501533,
            -0.19077542114898838,
            -0.20895586414008294,
            0.15852465156448714,
            -0.11989018371701471,
            -0.22109338137456558,
            0.5817502884421865,
            0.026967799160442053,
            -0.25010160026887585,
            -0.35255814777601546,
            -0.22134485725168943,
            -0.23731612633122431,
            0.007017468985755454,
            -0.27220282448023153,
            0.30143352239776283,
            -0.13312870884437045,
            -0.3464674036800003,
            -0.1436175439743121,
            -0.061944237672161805,
            -0.33947458682470794,
            0.3916660222095685,
            0.11745205187811704,
            0.18324746915580067,
            -0.3062457096052401,
            0.23416230871262436,
            0.191573352551698,
            -0.3799347789502634,
            -0.050491582569102064,
            -0.048809266688788516,
            0.1359683307869976,
            -0.36676277919238226,
            -0.19114977262200428,
            0.23327232208997517,
            0.02444477731697979,
            -0.14483746582965604,
            0.08068062190272023,
            -0.23778272939626563,
            0.24810048711360982,
            0.2084779839098053,
            0.23389179773330085,
            -0.01638731247806597,
            -0.9912562105799778,
            -0.053131509090718045,
            0.30343456564031673,
            -0.2724539736509981,
            -0.4401869675697894,
            -0.13899456938850357,
            0.13304565997874962,
            -0.4267462323928844,
            -0.6445127341734213,
            0.06704431947654431,
            -0.5498932277270904,
            0.09851230731965206,
            0.009990708945510561,
            0.1205043597240634,
            0.4995455237553392,
            0.6637246627405425,
            0.299811820729789,
            -1.172567040547172,
            0.08400753989007365,
            -0.02385377146047143,
            0.386978484620364
          ],
          [
            -0.20023266945089083,
            0.743856441418993,
            0.08705326155785051,
            -1.4684487705750835,
            -0.31259177901146296,
            -0.018153308581038516,
            -0.06705523868420597,
            0.49011442564495833,
            0.04173048330762374,
            -0.001250821365666919,
            0.23964278402767442,
            0.1394571368715979,
            0.19146487993521516,
            -0.09400881579994669,
            -0.026895843358443708,
            0.007765138164790881,
            -0.017889646179399667,
            0.29093798634006934,
            0.024724969080942575,
            0.17229974017510388,
            -0.07698576258502525,
            0.1561761729780682,
            0.08597545818473758,
            0.02669605048415037,
            0.3300351200281478,
            0.037538592789915275,
            -0.27297185595805196,
            0.2636564991021323,
            0.09482739103723338,
            -0.19279580096921217,
            0.016664710427949588,
            0.14451723074801578,
            0.26326541995493496,
            0.06023371697296427,
            0.5089275676112945,
            0.25037939484235755,
            -0.4046801303057228,
            -0.5283724150381692,
            -0.4216121421745501,
            -0.335283001820165,
            -0.6220620883497259,
            -0.01968183314540761,
            0.412338271995335,
            -0.1649010774638898,
            0.3519983510797772,
            -0.4332292231536158,
            -0.39381138136591554,
            0.2525985954639165,
            -0.08149266872647169,
            0.20060676307730244,
            -0.21281916105233853,
            0.3544882487932804,
            -0.07429101174918681,
            -0.15475011238603706,
            0.13968290926753535,
            -1.0273901494163018,
            -0.09049339910675396,
            0.14985732343213135,
            -0.002162225847512583,
            -0.2993614026613457,
            0.041845058487547084,
            0.4254367712371875,
            0.19771977474072727,
            0.168503395925971
          ],
          [
            -0.40450893366832835,
            -0.012303412710660488,
            0.13738265623865095,
            -1.3260078616496636,
            -0.3951008226286771,
            -0.13578305301517712,
            -0.06257244763142861,
            -0.16670743622127562,
            0.30097364238206337,
            0.24613973034361536,
            0.2462506661261946,
            -0.34853691153353905,
            0.22012609961569443,
            -0.1390853127379036,
            0.34524511575387795,
            0.4595718721173885,
            -0.5258171284617517,
            0.5735675132613751,
            0.0456732038885919,
            0.08881445072028014,
            0.0894592810155256,
            -0.5224765566171604,
            -0.4134868051063253,
            -0.41924428283565046,
            -0.16230226241400397,
            -0.9657499981552845,
            0.09274386566447103,
            -0.30068021009968,
            -0.6375229626662745,
            -1.0897590396771522,
            -0.7346463246195845,
            0.4948488806748053,
            -0.15274279336404764,
            0.3824153600694572,
            -0.38361736596592,
            0.21823698455686974,
            -0.17480586918757335,
            -0.48557936907283294,
            0.45749364877167353,
            -0.09527946488069469,
            -0.691251862733071,
            -0.30026358470890874,
            -0.48649885405061727,
            -0.20009720893524632,
            0.0982455256168798,
            0.07485368275865155,
            0.4136991956022724,
            -0.2274740128770479,
            0.13931164991938608,
            0.2469333752973737,
            0.3605228196346182,
            0.21295372785384,
            0.13901740291077233,
            -0.08022534879860407,
            -0.04202588768659659,
            -0.03964011898144865,
            -0.20538697785559462,
            -0.8369281081173118,
            -0.6318896002953712,
            -0.8801471060657445,
            -0.22323937487533144,
            -0.010486367645391532,
            0.3497833373101511,
            -0.09019744994963005
          ],
          [
            0.11853507745583537,
            -0.8094161572634153,
            0.005942309873098724,
            0.5011846907128855,
            0.8015774514441704,
            0.10633785637462057,
            -1.2644784328032843,
            -0.3541833142808263,
            0.32389805360201224,
            -0.7451151004597456,
            -0.35250639569932585,
            0.09672058815599834,
            0.09759514622475014,
            -1.240463904747501,
            0.37776561933186076,
            -0.7459741713929824,
            -1.4777252491187556,
            0.1721865923351468,
            -0.5888256526463578,
            -0.30654937422600154,
            -0.17775621045134993,
            -0.3439873510402934,
            -0.9060032907892879,
            0.07220681895431601,
            -0.6611406491627956,
            -0.3733120047417292,
            0.03869381953614981,
            -0.44712196942947796,
            -1.6034770746227869,
            -1.0358331918984311,
            0.12468750918627558,
            0.08544490515525839,
            -0.29034597112524957,
            0.017105036356542015,
            -0.03506504235203339,
            -0.08663492889617871,
            0.09645786443468372,
            0.28038547692480004,
            -0.3209181186803213,
            0.2874883647669052,
            0.4398190774111558,
            0.07246146356024796,
            -0.24448123391648088,
            0.2434705553695708,
            -0.2063919734540088,
            -0.009134978231613314,
            -0.04749848994484648,
            -0.19046963323949723,
            0.037447747931381614,
            -0.33663800430533997,
            0.026261668356892125,
            -0.397159172837534,
            -0.49523029345365543,
            0.10566175954078313,
            0.06444086122173218,
            -0.40854613332242135,
            -0.43245481171933225,
            0.7092809647622131,
            0.22461981078741358,
            -0.5825666190381505,
            -0.8399894356078116,
            0.10246409082464683,
            0.42348281452461783,
            0.3462181453863098
          ],
          [
            -0.04891951112623408,
            -0.20525505331103805,
            -0.14874363353298398,
            -0.9586499807023935,
            0.017183857142917962,
            -0.08185366022551578,
            0.14529883375235814,
            0.07167968882228075,
            0.21244461431745523,
            0.2698405583459062,
            -0.272333479054461,
            -0.5758027962475059,
            0.2646939723227628,
            0.09391430145449528,
            -0.08611896629959508,
            -0.07893369362220493,
            -0.17953556287498315,
            -0.08204760876218664,
            -0.6116934271312933,
            -0.20048833750487643,
            0.011623172936722536,
            -0.30257776465826663,
            -0.055243016815159834,
            -1.0997381231689038,
            -0.20869553452873216,
            -0.06356896120404375,
            0.06700389589602669,
            -0.11515098956523985,
            -0.004614751830337071,
            0.09542137729451751,
            -0.2142963813639607,
            0.2331890701986156,
            0.09454549784558451,
            0.04131406473814829,
            0.22320047440999094,
            -0.11028501512179768,
            0.29005286137634134,
            0.016599158686767077,
            0.06503988169191045,
            -0.9641716931640018,
            -0.41848295723771056,
            0.13089476841312161,
            -0.30096748462048445,
            0.09234413261805312,
            0.4334925326210309,
            -0.006177168187412338,
            -0.03908342485235063,
            -0.14882604149560372,
            -0.5206777775648835,
            -0.11402196142848653,
            -0.2681897809221695,
            0.5391743932142635,
            -0.37458125604569326,
            0.15380940038158397,
            -0.30799484297990704,
            -0.4223356946944253,
            -0.3464210770454392,
            -0.542271080825649,
            -0.6489599488044996,
            -1.36758767084331,
            0.27222677644239196,
            0.15729034361944683,
            0.6149837620006371,
            0.05977817868123879
          ],
          [
            -0.8917024859589282,
            0.09453350662771047,
            0.44738086196429255,
            0.010142570200066715,
            -0.08822881810253638,
            0.35249621505735224,
            -0.25393392587565355,
            0.2564383106066043,
            -0.20696760300157327,
            -0.3153465328762079,
            0.05072225692894105,
            0.27916937371375755,
            0.07108142319734445,
            0.03931505869786357,
            -0.1179167027314937,
            0.4302891151862257,
            1.0902426500979137,
            -0.5215269496549871,
            -0.0581922714554867,
            0.29406440482095325,
            0.4485779148714343,
            0.3352220744649599,
            0.11580412599786799,
            0.7910735359671576,
            0.1310934042247676,
            0.2282407110280636,
            -0.772298250551291,
            0.3508935293183716,
            -0.22299276148229955,
            0.4890623213334306,
            -0.08106983865764524,
            -0.29273494163781244,
            -0.14219873694636692,
            0.2678986477295928,
            -0.021176828022048465,
            0.38604030058049454,
            -0.5863234253280619,
            0.39123723189110343,
            0.09342252492835058,
            0.23198744814901398,
            -0.24985031179035638,
            0.5403473290712862,
            -0.2498962056174917,
            0.06582737943843187,
            -0.3728469191135268,
            0.607089096497489,
            -0.252262893616538,
            0.01207093345646766,
            0.13940767121445727,
            0.1688753484288098,
            -0.20738402829368202,
            0.35040018058748634,
            0.09485690544956651,
            -0.024830861401248076,
            0.1847011702313955,
            -0.5478650907465714,
            0.3733176008918645,
            -0.22262492328735953,
            0.08891815468974537,
            -0.14262914381544564,
            0.755988940921129,
            -0.6549420283562243,
            0.1855040025733221,
            0.022061301905114225
          ],
          [
            0.30410585047129407,
            -0.2504124249269286,
            -0.049239261688930475,
            0.20173270442514876,
            0.30384623267124417,
            0.11867657262693562,
            -0.3240225681154751,
            -0.032571018882694515,
            -0.28590794039493256,
            0.2982884520310777,
            0.1081119041551517,
            -0.3331953520559821,
            -0.2726106804891877,
            0.09989386148981379,
            0.041737741185365315,
            -0.15468890528613857,
            -0.4431729971206795,
            0.02914482445245605,
            -0.5311193541733013,
            0.2737808270931824,
            -0.10541278469535946,
            -0.01092290492730309,
            0.034698347372001254,
            0.030720314327176253,
            0.05829974910216232,
            0.07710696189651138,
            -0.04174531931288194,
            -0.12555636513177004,
            -0.7829747040705974,
            0.08690478557791849,
            -0.07392243112649671,
            0.08058487713541551,
            -0.6126748750688096,
            0.5054724791097871,
            -0.2358291999503925,
            -0.04971806713534892,
            0.32207508703094345,
            0.06634999478357415,
            -0.2675912922994255,
            -0.10728617510195332,
            -0.03776847340032182,
            0.4766370124420674,
            -0.266399973078702,
            -0.6024064065271469,
            -0.08033423303241774,
            -0.23579434783958514,
            -0.08727177690020735,
            -0.40062647194206125,
            0.2300371962980024,
            0.0782830220296326,
            -0.18412908734668115,
            0.21595285595593872,
            0.11186995563040059,
            -0.020684629912760124,
            -0.20853648512964537,
            -0.14441002087882387,
            -0.2644825674098731,
            -0.4393207190336167,
            0.2948224952758743,
            0.3874880017301462,
            0.050603988554283975,
            -0.21615852732402568,
            0.04076043296407633,
            0.07996107898070662
          ],
          [
            0.2853413779288415,
            0.17099126942378767,
            0.030673879256527682,
            0.7768805913609651,
            0.6352095830871743,
            -0.007196498142958535,
            -0.008928503840431656,
            -0.05107251210643324,
            -0.5046004726635536,
            -0.2644618976610181,
            -0.1733490305298321,
            0.08464937944644446,
            -0.11716571695992152,
            0.12493555164304684,
            0.003258254750603947,
            -0.18208138473991237,
            0.594400184778093,
            -0.5207985580997119,
            -1.4528891434254039,
            -0.27268085062165903,
            -0.10713267461612552,
            0.029636552548308888,
            0.22821973430467332,
            0.3889775567232096,
            0.004311812101832725,
            0.27395437349867935,
            0.2491551100162714,
            0.3083952950892739,
            0.09108332030131541,
            0.6589970192891436,
            0.22828372867235788,
            -0.3384128399669876,
            -0.20702232754078354,
            -0.18266974800031516,
            0.22641603431563895,
            0.13102420842351278,
            0.1284804102763051,
            0.4394393524777925,
            -0.4737031210975449,
            0.2515288205848833,
            -0.40450051627763556,
            0.6425191787204845,
            -0.28565984091407637,
            0.004575623981587807,
            -0.4822369343898603,
            0.9845815759875864,
            -0.30703532210440126,
            0.16948733828598395,
            -0.26721679046952207,
            -0.4033755177631099,
            0.19758569486749245,
            0.36159656111410854,
            -0.6990518143287617,
            -0.3142507611518533,
            -0.40964538299009046,
            -0.45097508178225093,
            0.2286967200197988,
            0.5996928193652694,
            0.3100455784304784,
            -0.058371593898144364,
            0.3222708038151773,
            0.20729817903095268,
            -0.19674201664840815,
            -0.47696748231604713
          ],
          [
            0.0939998187129099,
            -0.027338340099023705,
            -0.5025949207889148,
            -0.4956093467974733,
            -0.0637056495181731,
            -0.34367815288846265,
            0.22537789924326265,
            -0.30984761941150013,
            -0.03058704848624276,
            0.1841085904291134,
            0.16549550389379128,
            -0.18659548739746706,
            -0.011273883065786654,
            -0.055290212711460646,
            0.2673087450531103,
            -0.13518135796574104,
            -0.016029944784804854,
            0.35688677879833863,
            -0.33091829789660343,
            -0.6371636059269478,
            -0.07174472637799123,
            -0.522856072372331,
            -0.04648484834068108,
            -0.17450542037206518,
            -0.06599659011483189,
            0.17185445557685083,
            0.3039049630182198,
            0.04947346284845154,
            -0.4565131184251151,
            0.19818580263309613,
            0.0294859026794405,
            0.38375781424605737,
            -0.037471367272104844,
            0.0800847879527498,
            0.26773915460225245,
            0.44317347607754015,
            -0.08918209140209288,
            -0.2465286157396723,
            0.3745543228279005,
            -0.05757773746128932,
            0.08740135821061648,
            0.19626561185307734,
            0.4218759476084086,
            0.2700076050559683,
            -0.3357166271380492,
            -0.13150646604789154,
            0.25947554666027756,
            -0.5832893437230988,
            -0.1517361586809641,
            -0.16647431775636373,
            0.10654533865291452,
            -0.39195243388636253,
            -0.5443171839304859,
            -0.10827297452972419,
            0.01083434146766616,
            -0.2500563754397104,
            -0.17732081104412709,
            -0.2435202212298849,
            -0.16067455223830593,
            -0.5105013217174316,
            -0.13625070413098278,
            0.1472722602313414,
            0.11131190131943709,
            -0.14842285867444333
          ],
          [
            -0.3861166228757187,
            0.29882717473186615,
            0.008852299768576617,
            -1.0703925815022852,
            0.10939178444090417,
            -1.0169015629031524,
            0.538444418380177,
            -0.12121469769665574,
            -0.2146050335446024,
            0.6180327839267478,
            0.1448458867815675,
            0.11579212913924299,
            -0.08970939130427484,
            0.15073318756619894,
            0.31978850561705596,
            0.16579258135306862,
            -0.8936646572796538,
            0.18792492008747044,
            0.04102719157906564,
            -1.1053484330781558,
            -0.19684696298243287,
            -0.03137522843822822,
            0.11744942594717843,
            -0.05782683791817047,
            0.3355496106159735,
            0.04451871994978796,
            -0.5194669956095892,
            0.32199621882167795,
            -0.9573527517245545,
            -0.26193069090096166,
            -0.9244184109205149,
            -0.010530414840665022,
            -0.4994332489607959,
            -0.46026781454697163,
            0.059282041014338115,
            -0.3131625409020499,
            -0.40385094273776256,
            -0.4454928591019481,
            -0.12706158989453284,
            0.14061379803524854,
            -0.8349909904457726,
            -0.15580958183800572,
            -0.11210166382712444,
            -0.006500630516020618,
            -0.20993340296941332,
            0.10006321218212338,
            0.019861030649270587,
            -0.5229492006390944,
            0.2142948698142889,
            0.12320306565676324,
            0.5082769416611818,
            0.15509196479219228,
            -0.4949062951432955,
            -0.05270846004363616,
            0.22637841981200701,
            -0.24125736858900743,
            0.16442701196426884,
            -0.29360688806347923,
            0.10327934126002705,
            -0.5761011996237732,
            -0.054071704414938984,
            0.3910332019011958,
            0.23703009436184314,
            -0.23949065964812097
          ],
          [
            -1.2347313345816766,
            -1.2613237513292925,
            -0.671817338089523,
            -0.2048065209752728,
            0.1726727144554794,
            0.2419915737757077,
            -0.8007499839270096,
            -0.0024189300590645585,
            -0.20366725745147138,
            0.3298190996295944,
            -0.05727499630908152,
            -0.4682614734555248,
            -0.10471960055412823,
            -0.3161726623251048,
            0.1176418127111725,
            0.3517442617848303,
            -0.017385518564327813,
            0.026631121930546033,
            0.401776288844718,
            0.046012827847318694,
            -0.04271719690289095,
            -1.1384034714619014,
            0.01824881647454146,
            -0.40522484639191153,
            -0.14168801828015604,
            -0.10622225612670862,
            -0.3695856643025815,
            0.48237006484653383,
            -0.6155958990208545,
            0.11737391369191928,
            0.15022025519591323,
            -0.10470102979020318,
            -1.6320362003052562,
            -0.2125065439612458,
            -0.3826086753031118,
            -0.03144565260812809,
            -0.4002088476383982,
            -0.47750119142319664,
            -0.03728275369084309,
            -0.22060576691138747,
            -1.111818866452071,
            -0.6176745863046198,
            0.33007874678244864,
            0.07572593939449616,
            -0.3538804370115228,
            0.24858926203482548,
            0.2360233199230222,
            -0.597390218409551,
            0.033030937552897155,
            0.09687785501255367,
            0.28655614394967854,
            -0.7954322007096586,
            0.17792029448633329,
            0.7394898561013581,
            -0.07725199401864963,
            -0.637635879295473,
            -0.09204254566365354,
            -0.39425881368596705,
            0.5460952333836194,
            0.01305831662420126,
            0.17594521743991476,
            -0.16523780526759288,
            -0.2753376765409752,
            0.8966535705365689
          ],
          [
            -1.28067939656544,
            0.03501539764292686,
            -0.3998874909374262,
            -1.393771367500681,
            -0.6320487333802076,
            -0.8556903836927755,
            -0.5989468693657759,
            0.2767798386698222,
            0.45017102463936287,
            -0.08878671787028578,
            0.19408011081034426,
            -0.06582905460578774,
            0.3204183901647415,
            -0.05198486034079688,
            0.27813342258205076,
            0.5921093179999111,
            0.34208443602367083,
            -0.6283383333528952,
            -0.13623652337635736,
            0.27967120016208724,
            -0.15773388897315074,
            -0.6746850283167162,
            -0.33467448950782636,
            0.356550256802747,
            0.3786441752515643,
            -0.7503551739114858,
            -0.33702497110888396,
            -1.3112706145763244,
            -0.031035658584780974,
            -0.604469203059715,
            0.13260784580034668,
            0.16236287217929174,
            -0.09845586149417261,
            0.1255772748982228,
            0.37935281556952916,
            0.29135289694639754,
            0.7558182823852084,
            -0.12801456753322538,
            -0.49508058166282903,
            -0.3011714105003955,
            -1.0954803049338233,
            -0.44590105943997715,
            0.6894232907175121,
            -0.20317686463038873,
            0.2893006970306863,
            -0.20938622390988815,
            0.13191717116814952,
            0.16255574699379824,
            0.45402920285243575,
            0.24950822264126155,
            -0.2999817367129468,
            0.36968051808910296,
            -0.021689764456198062,
            0.1332249764683531,
            0.0812574260566369,
            -0.4129007180422056,
            0.3955003170181988,
            0.022372643621272403,
            0.052147042330837404,
            -0.29904643491777216,
            0.05195784636533546,
            -0.3699504548543624,
            0.3076932732994852,
            -0.15514882492460808
          ],
          [
            0.20810946843978267,
            -0.5577186082174745,
            -0.5824583760734741,
            0.05872067818211781,
            -0.2969223609257434,
            0.688992578762069,
            -0.9705952975244637,
            0.0963682734522286,
            0.0008024893561738285,
            -0.3566629227999315,
            -0.2705596490164181,
            0.0753684635417607,
            -0.379811255251909,
            0.8409377622905001,
            -0.1317684506007699,
            0.3342132878530936,
            -0.1691006694364502,
            0.09696268050346785,
            0.47804810800992936,
            -0.7296420688105887,
            -0.046782552703230416,
            -0.0965418766245776,
            -0.28452344486132475,
            -0.39740807222927105,
            -0.7992663287857469,
            -0.2722805720669695,
            -0.8349301118439316,
            -0.1852343034127909,
            0.12254263530405353,
            0.8156531143718448,
            -0.4288614025514388,
            -0.4039664305865525,
            0.0032402953998257183,
            -0.5229943818837695,
            0.14962583544370767,
            -0.4649670443137752,
            0.503138593581653,
            0.5492572585048814,
            -0.11070556526456932,
            0.18718998511336382,
            -0.3930892884469728,
            0.24059317471986144,
            0.17292580303772,
            0.264626073400293,
            0.23415454807775288,
            0.8140562475949396,
            -0.059853113172005416,
            0.09311752804331164,
            0.39855636762329455,
            0.13492971021262526,
            -0.20641474949978092,
            -0.30393654417148364,
            0.01996547970260818,
            -0.266174742591694,
            0.024007004688428087,
            -0.2887085627124162,
            0.2846146076719523,
            -1.0791406968200246,
            0.18497592993253137,
            -1.2589788226166756,
            -0.02115521578044081,
            -0.17169465186768063,
            -0.13221244334362448,
            0.8629070179246934
          ],
          [
            -0.012441532284996542,
            -0.5854115987501427,
            0.40741831588859095,
            -0.34384345841815134,
            0.27615999689438214,
            0.0036583071294612212,
            -0.08913738806293237,
            0.3744774042596666,
            -0.0859452834157635,
            -0.0065245931437210546,
            -0.15557339554127997,
            0.18063849339766164,
            0.10845320903596313,
            -0.039424330040348655,
            0.2860802777425491,
            0.11307332149648779,
            0.14023857828245082,
            0.028436641894513132,
            0.08739645224089969,
            0.2143826918062167,
            0.103508320214229,
            -0.3188273556052289,
            -0.2348830652454741,
            0.1279257744319631,
            -0.16735697490403526,
            0.1750964477409189,
            0.4912613817802101,
            -0.10381468516089294,
            0.3739029198866897,
            -0.16806789227362195,
            0.5293247967821195,
            -0.05824994221483839,
            0.09758409451925883,
            -0.13569840063206812,
            -0.11252824722533913,
            0.4633694108925454,
            -0.49694186179446587,
            -0.21175626869936642,
            -0.05598460776026315,
            0.36010427423495606,
            0.38822789155390663,
            -0.6777061427301335,
            0.461703794879226,
            0.3743834439189473,
            -0.07057702694815328,
            0.17210961808339567,
            0.4803620635673918,
            0.20105691843320508,
            0.2385462293540086,
            0.06585629962749032,
            -0.333156630675852,
            0.02185886484485036,
            0.34685194470945097,
            -0.32183821487090597,
            0.7741389355825934,
            -0.692620794163775,
            0.14865661356501494,
            -0.3025604701418654,
            -0.29388118209554165,
            -0.6347966352135527,
            0.06102100036960563,
            -0.16521776341639435,
            -0.4792657145601552,
            0.127551775140752
          ],
          [
            0.10969395009215782,
            -0.19267728289191202,
            0.5191161395124761,
            0.0308775968817304,
            0.16413452101490134,
            0.03901170102072514,
            -0.11220037986823152,
            0.23788120481635142,
            -0.6684903374004784,
            0.014967030868664327,
            0.06517716694274332,
            -0.2663266914982066,
            -0.020412898621018628,
            0.16430042161947025,
            -0.1520445139365297,
            -0.137674588543605,
            -0.3203596115756083,
            0.07519336838256462,
            -0.10086006814039397,
            -0.41863220108830684,
            0.21598485471594941,
            -0.04155065893138306,
            0.019395977838549953,
            0.2653823914999106,
            -0.14422042822254535,
            0.110439182989347,
            0.0844675842542742,
            0.1512144702699566,
            -0.1284853207154004,
            0.1026272978539282,
            -0.0540304876055565,
            0.11496522357481885,
            -0.20088057948031388,
            0.11158879397769891,
            0.0364314511552981,
            0.1357155265782422,
            0.3351577481130405,
            0.34641672836142956,
            -0.2079845938942453,
            0.02431892361806649,
            -0.14646534160299665,
            0.22242985822131772,
            0.044232025018163514,
            -0.5833160054020816,
            0.19997781247834429,
            -0.1649425016227689,
            0.05141660276805944,
            -0.042186484764459124,
            -0.3981181824037895,
            0.08343066897970859,
            -0.5657074416439808,
            0.058753061715405924,
            0.594692820089818,
            -0.08476564436790657,
            -0.23847808895096895,
            0.1743041406289963,
            -0.11406255910974195,
            0.09027768161520429,
            -0.1355995470989941,
            0.07884049393121212,
            -0.5574840083643681,
            -0.1395474152401643,
            -0.3892292065853783,
            0.2783061000822699
          ],
          [
            0.20359487653690736,
            -0.16891940644682388,
            -0.7047688075896044,
            0.009470633574422786,
            -0.07246816292854472,
            -0.09318568478124879,
            -0.10145602393191928,
            -0.2770815234513238,
            0.42518542351802463,
            0.5764253765685179,
            -0.5197655632864439,
            -0.8291571945240259,
            0.28799366843775015,
            -0.058505077810641334,
            0.0054006066848460875,
            -0.3981393468611307,
            0.547678647734241,
            -0.028769594205891934,
            0.20516422040384594,
            0.28573287674058206,
            -0.26645022318583633,
            -0.04851705139311123,
            0.10052782818391752,
            -0.7347310197182696,
            -0.3781979213284247,
            0.24471647952111614,
            0.3035826308739159,
            0.35114056429634627,
            -0.06446021615480302,
            -0.18420208921254352,
            -0.10842869107041461,
            -0.19182048934384585,
            -0.1612956400157375,
            0.2247134914543035,
            -0.5395162068711672,
            -2.0178847918201446,
            0.27465591672832645,
            0.19776569294677518,
            0.31547474980551093,
            -0.7380623970900875,
            0.41383246297154774,
            0.07407984775434105,
            0.15864259631000607,
            0.2385266250586256,
            0.4399188076832843,
            -0.025285096291020406,
            -0.09691647023877671,
            0.513140496528128,
            -0.8604113545879621,
            -0.023360154189801995,
            0.5101813956065242,
            0.5892516831809715,
            0.11102424682502976,
            0.360067298944216,
            0.04838187368534455,
            -0.05989018079113048,
            0.16097252508315546,
            0.04991807339422024,
            -0.2901888767056851,
            -0.09834449450913205,
            0.28366212150125253,
            -0.23240374572783873,
            -0.48378245759879734,
            0.0794849927574329
          ],
          [
            0.10680953768902508,
            0.10906657281800021,
            0.11912565996923018,
            -0.7772018413001741,
            0.6401226719044,
            -0.29669693372280104,
            -0.17182146734555762,
            -0.09073653695296126,
            0.10363018143128244,
            0.0027221661798710033,
            -0.021503538640738094,
            -0.17379759359182287,
            0.03910784523538797,
            -0.4105547951976723,
            0.6369772868719783,
            -0.17860928257287945,
            -0.34513496226747925,
            0.25084225061977233,
            -0.003066318087560208,
            0.11165940366731056,
            -1.4254867065208776,
            -0.11494713834089328,
            -0.6406899800501782,
            -0.021007046692926808,
            -0.1483603666964229,
            -0.16205923511039955,
            -0.13080665325366203,
            -0.3009916011062203,
            0.4662754254527239,
            0.07362690059518125,
            -0.13053701220150332,
            -0.10255163436561879,
            0.3017378488106839,
            0.19926494010343523,
            0.47762613270403076,
            -0.16265518564710055,
            0.37376678243865363,
            -0.15796990848599657,
            0.08938349997377418,
            -0.12926292487383928,
            -0.10831109381236192,
            0.012738692645689016,
            -0.07266223936535968,
            -0.20799452338802332,
            -0.07460096908832399,
            -0.27547346215037555,
            -0.09915761236134323,
            0.08833888723897801,
            0.06020468160035115,
            0.5940999416434599,
            0.030712366634919754,
            -0.4298364296935804,
            -0.3322577720194617,
            0.07381473302816896,
            0.35936883182403667,
            -0.255306381606251,
            -0.11904931319345245,
            0.013264835137220068,
            -0.22338792854666473,
            -0.17287253076765283,
            0.45967697647467265,
            0.5162449109712859,
            0.4955054787376255,
            -0.28184716950559824
          ],
          [
            -0.2499710286187446,
            0.22629432558152857,
            -0.008322084600170514,
            -0.8791827100160918,
            0.06483745588383516,
            0.08309668616066578,
            -0.8502883723936768,
            -1.1436048346651273,
            -0.6125947837858942,
            -0.14702082457768237,
            0.0020309354502524024,
            -0.10005573376011999,
            0.02797257144699388,
            -0.04846629663672689,
            -0.0017377941219006176,
            -0.274129848994992,
            -0.23930829944512236,
            0.08662182806003291,
            -0.04875771083170276,
            -0.023158611297304687,
            0.12469863926893296,
            -0.3968708857440822,
            -0.6151789666813722,
            0.02970072387760778,
            -0.11494819218095746,
            0.044997798924430295,
            -0.7165165857301153,
            -0.061042119975829784,
            -0.8732698753867886,
            -0.5786641740700896,
            -0.2748928092831351,
            0.21502574512095218,
            -0.26202477120923356,
            0.3004774997739022,
            -0.1362126897345476,
            0.19384013818776924,
            -0.6641654026615227,
            -0.05056626651686587,
            0.036261517550054516,
            -0.060072214282905795,
            -0.5552303509094213,
            -0.1221551698619814,
            -0.3174927342195798,
            0.444228116675823,
            -0.6405432508767827,
            -0.48646381052143617,
            0.0683423768682312,
            -0.21906064799408648,
            0.18175925743945018,
            -0.9067669104503823,
            -0.31075324587512965,
            -0.39142231636523844,
            -0.3628823120083032,
            -0.5450255310607051,
            0.5604807515639799,
            -0.5645176027642674,
            -0.06483859849201594,
            0.2605983932710889,
            0.4818909472981108,
            -0.6490148057884516,
            -0.4039060308969688,
            0.3626751322371169,
            0.0457672660895936,
            0.3489029715896061
          ],
          [
            -0.85180529959877,
            0.630270515751853,
            -0.6527096730880223,
            -1.0847949446377665,
            -0.5130123923311738,
            -0.8179216287861939,
            0.11299423722532552,
            -0.13485442011973087,
            -0.10579142378255017,
            -0.013444005225609795,
            -0.18159348452181434,
            0.29846353501748096,
            0.14925483132056377,
            0.23440934734213698,
            -0.4596054230673269,
            0.19250482775675154,
            -0.7224117506173285,
            -0.029992299060861143,
            -0.04560877795251458,
            -0.1266300042501427,
            -0.3031627143384389,
            -1.019626195500584,
            -0.37829882576469304,
            0.022570621504627693,
            0.5498403005304847,
            -0.39309762726529335,
            -1.010756444997301,
            -0.9361206197762202,
            0.019082391018066035,
            -0.6196849542851732,
            -0.43086793675652546,
            -0.3243657119130613,
            -0.24665771595421562,
            -0.26452753768918896,
            -1.755753170007701,
            -0.09446027731155685,
            0.4644518028486437,
            0.1291266896563142,
            0.2095144318672795,
            -0.1437040944721105,
            0.36798970574925527,
            -0.06055348065626541,
            0.33492888957820965,
            -0.28521732573981473,
            -0.3495695720551663,
            0.23184595270651262,
            0.5085199237431952,
            0.1252736010104069,
            0.3876535733210195,
            -0.16845474150534864,
            -0.2609885792655852,
            0.0973306928624127,
            0.005619852239646651,
            0.49921468076021375,
            0.04339057529332149,
            0.3419245670988898,
            0.4144377846467545,
            -0.3665425843907583,
            -0.04944010629193231,
            -0.5872975977762653,
            -0.2368873393492935,
            -0.027357262940170247,
            0.04850555678721187,
            -0.16023701647319888
          ],
          [
            -0.13731078540384892,
            -1.066035971648632,
            0.2000075504767303,
            0.4793687194097728,
            0.1898566376980224,
            0.048895670637348544,
            -0.053536054963745285,
            0.22346213875876544,
            -0.5886778394345368,
            -0.6867073957407882,
            0.6709126867386277,
            0.2649622244879776,
            -0.16501216282997733,
            0.026497175644545373,
            -0.028778589472649836,
            0.0959129525494598,
            -0.2014825378720938,
            0.04090597160572343,
            -0.020963039737827063,
            -0.17366293742397496,
            0.043362776222094904,
            0.21277515214512116,
            0.0657125647298522,
            -0.15855481818555622,
            -0.14720853063929282,
            0.6418747891105664,
            -0.11549714268634835,
            -0.6018597303834626,
            -0.08381936847190469,
            0.1765474943235317,
            -0.2940872137704921,
            -0.2446828369572788,
            -0.004225211886350191,
            -0.009111190736103475,
            0.018127825939608176,
            0.11626165725329386,
            -0.1001068116224845,
            -0.12485334896863917,
            -0.07105485837500958,
            0.4302256753198669,
            -0.1620623498424372,
            -0.3273823613472079,
            0.05392045477735364,
            -0.3194417629999482,
            -0.06064124706196619,
            0.045307809054756315,
            -0.16595420858446322,
            0.1681810149659803,
            0.1288941577308498,
            -0.16535918583025788,
            -0.10288982160617755,
            0.10224539222941273,
            -0.29684810095952824,
            -0.05095917786461823,
            -0.2942816983446357,
            0.22689882485868276,
            -0.0782063865739542,
            -0.17932208008855263,
            0.2791106554843451,
            0.09433225675935529,
            -0.9055383434609832,
            0.3832425773070445,
            0.19294318841007904,
            0.09594816403419598
          ],
          [
            0.00027323411024911216,
            0.27764115867292727,
            0.09674255080339951,
            0.22075576303385408,
            -0.3158053123509594,
            -0.017667785415377467,
            -0.18658270618870346,
            0.13865649254735124,
            -0.08390857391191084,
            0.29412852246850496,
            0.35898285364508487,
            -0.21665228064785577,
            0.31075316272251535,
            0.2877144313863275,
            -0.04784749147329189,
            0.28341087954659167,
            -0.5553366859222126,
            -0.6693820729327801,
            0.3540970023419416,
            0.30840931925642145,
            -0.1538405225669423,
            0.14232329937453636,
            -0.2912785748424053,
            0.07532997490431138,
            0.37010599891141155,
            0.2687095990441694,
            -0.18741985934151828,
            0.18475429801151008,
            -0.39797760671981686,
            0.198991261483857,
            -0.5351975637597839,
            0.5029325846701084,
            0.13643179421105386,
            0.3507074414653361,
            -1.393364200357758,
            -0.369599681790592,
            -0.07274476364108541,
            0.1893515011429693,
            -0.1558682877217522,
            0.3048488248205423,
            -0.14379599788309697,
            0.24483381169245158,
            0.44790617064828564,
            0.09321009253433628,
            0.3524366789163949,
            -0.23071054049444306,
            -0.0231655196893361,
            0.23680814547882437,
            0.308865689073312,
            -0.16798937620928603,
            -0.6848859509614644,
            0.14305088049399298,
            0.12968234513660573,
            0.1626492685059994,
            -0.6675525492520095,
            0.06180314411763465,
            0.12687602925737157,
            0.1771426012392065,
            -0.08892058465216172,
            0.2109774945783793,
            -0.31966802640259145,
            -0.09032719936469624,
            -0.017552997653937974,
            -0.7109227431411335
          ],
          [
            0.0647186355589327,
            -0.21701089327733328,
            -0.3576140899159433,
            0.36735790397611523,
            -0.5067083758912179,
            -0.3211739694519558,
            -0.3962446063739024,
            -0.8235366019846394,
            -0.07905995523319506,
            -0.527227227922097,
            0.13942010659767567,
            -1.255594293926007,
            -0.018325161571036544,
            -0.12716666212777483,
            0.2428982751292016,
            -0.08069456746028743,
            -0.02618553721244354,
            -0.0005344533613429344,
            -0.17038875204938858,
            0.1983743734758566,
            -1.910763314645262,
            -0.31400094067882967,
            0.9992385520973417,
            0.1538118098552421,
            -0.15711408312298958,
            -0.17811912141026312,
            -0.0334004225710307,
            -0.5479420662392517,
            0.582588884647887,
            -0.8986192581307405,
            0.04867823284772271,
            -0.3500232666230833,
            0.22124511525125057,
            0.054400424569682825,
            0.2569075220254547,
            0.012345394204475372,
            -0.5145598568299031,
            -0.4121051915791629,
            -0.4235717295089041,
            -0.44401948661065466,
            -0.19208051873272983,
            -0.17319939222628242,
            -0.3341382475749701,
            -0.15493447685958459,
            -0.6842231215410384,
            -0.2803171964032297,
            -0.20111751096487593,
            0.27489082380094987,
            -0.14780796411874392,
            -0.5951223605944881,
            0.48081267118336807,
            0.06664594425795246,
            0.045249811493733416,
            -0.6303922865140761,
            0.17099227332340933,
            0.5435277356626496,
            0.07112234779294994,
            0.44548895646974335,
            0.22580364274689838,
            -1.9031397721501042,
            -0.39584633310455186,
            0.10266472799341955,
            -0.13100333551709933,
            -0.9104572990378399
          ],
          [
            0.036246395864495705,
            -0.26182432820233736,
            0.2423369165648121,
            -0.39963446563268284,
            -0.2570535892552972,
            -0.23208074828435957,
            -0.04016681067652842,
            -0.2549953463099185,
            -0.19876130754527938,
            -0.09657613931573544,
            -0.07629065592655666,
            -0.3867316751587246,
            0.3075280255615379,
            -0.23727259904817008,
            0.061512423663232285,
            0.21461733356792065,
            -0.5277943851391783,
            -0.1950396920670903,
            -0.02656321986346834,
            -0.8017869128533124,
            0.13465842234633796,
            -1.5282775487699212,
            0.16919520140244707,
            0.6433703178513814,
            -0.32476143925309225,
            -0.2711594454161742,
            -0.07198914219002954,
            -0.15828873847005992,
            0.019955265650474067,
            -0.5761818752887362,
            -0.08435570472398696,
            -0.4523818741444884,
            0.10691522443750871,
            0.24938155189193614,
            -0.93758602863398,
            -0.321132448899253,
            0.22422016805157774,
            -0.09053695826778682,
            -0.7085575562463755,
            -0.16226557421871438,
            0.0025128869381847658,
            -0.8701372184262988,
            -0.4617741964380457,
            -0.35005142465345307,
            0.10672937633202974,
            -0.2448904176104367,
            0.029745448210557274,
            -0.17778250869411297,
            -0.3441084032630652,
            0.17931870811219633,
            0.2897828392852448,
            0.3082513425304902,
            -0.43363958453564994,
            0.30599977727895067,
            -0.35406743989064304,
            -0.9576863077695964,
            0.1595150012036887,
            -0.367967205760639,
            -0.12649499936530376,
            -1.4503671405922705,
            0.10599073586463992,
            0.16159007191048153,
            0.1282656351896399,
            -0.16495732377161476
          ],
          [
            -0.5822622788207344,
            0.10004069418897646,
            -0.14313807612227983,
            -1.640430069473873,
            0.45578058223457757,
            0.25744869322624797,
            0.363773558313887,
            0.42405926946856715,
            -0.3527971767487939,
            -0.3041743155402505,
            -0.14192431593286248,
            0.2926289983266359,
            -0.11666940503807098,
            -0.047156161272899386,
            -0.3523916722019847,
            0.2578535755093138,
            0.5078029717788318,
            -1.2742720051541419,
            -0.09729788008363681,
            -0.22375673647126149,
            0.059535049681195586,
            -0.23512566638709073,
            -0.17564450449191296,
            0.407062301532394,
            0.32558082374868846,
            -0.20743871204188913,
            -1.308725845214645,
            -0.06756176016735604,
            0.30903180320249274,
            -0.6479605687364567,
            0.022014553722311894,
            0.1838566326075789,
            -0.1991333804892137,
            0.07471978922016298,
            0.28833301266427924,
            0.08503915987848155,
            -0.2781508877111035,
            -0.9200050568099496,
            -0.6472946921198273,
            -0.27964767642412175,
            -0.1181103244055766,
            -0.05979443791074596,
            0.09650930520939237,
            0.09133209877132231,
            0.2510923121208736,
            0.0028947380343432826,
            0.10698425798699567,
            -1.3693152472956218,
            0.06229017392636667,
            0.4103001540165663,
            0.28870693914160184,
            -0.14880110201572172,
            -0.3569673185545836,
            -0.11365575394673688,
            0.3450160305289275,
            -1.6503848071977947,
            -0.37983476963041973,
            -0.4001253201416399,
            -0.49739481909551087,
            -0.16024659499838698,
            -0.07426910355254338,
            -0.4201001083472662,
            0.2052261377425392,
            -0.3640497130210053
          ],
          [
            0.0173719846756795,
            0.1612072927236441,
            -0.6454942225441727,
            -0.11956822453417945,
            -0.27321029026717725,
            -1.393051600979125,
            -0.018406572358553374,
            0.14310409060454848,
            0.2011538132578443,
            -0.4272075748222377,
            0.4504623165949029,
            -0.08333262467202343,
            -0.35393714356742223,
            0.7896868609419084,
            -0.1746113793400555,
            0.17683155617479018,
            -0.9931624366152335,
            -1.0298822260792913,
            0.7336246170271722,
            0.41642289720487896,
            -0.3114615975181569,
            0.17612645796086665,
            0.10934616208234141,
            -0.4277892619787088,
            0.011222492130293901,
            0.18173198010583588,
            0.4797412405032292,
            0.4105777653524437,
            0.3717077032867599,
            -0.05646597754128555,
            -1.2683929166809527,
            0.10715689903475535,
            -0.04799000317486509,
            0.16578820655821405,
            -0.12055486331572841,
            -0.23383433802983492,
            0.8373480122583369,
            -0.17545692262372356,
            0.12951510913450864,
            0.20841882830230585,
            -1.3803980491221866,
            0.028542410542721566,
            -0.9443897853158291,
            0.31943116363419494,
            -0.2631667620990722,
            0.4889380738711464,
            0.013877269980039774,
            0.15343078242991348,
            -1.3362603099706172,
            0.17525980329716073,
            -0.6508677113707992,
            0.7000933164492437,
            -0.18847182491443434,
            -0.33838208848451296,
            -0.3951240608629831,
            -0.49089489762370675,
            -0.8778949735292051,
            -1.3724587141508695,
            -0.40532329586027654,
            0.1544577667487527,
            -0.19325187860585374,
            -0.2963977483084224,
            0.10950420275519457,
            0.29387946507994694
          ],
          [
            0.09144756654100943,
            0.21058599757571933,
            0.3250880653573,
            0.4494177850457111,
            -0.2597899586309041,
            0.2040239439321341,
            -0.5740982214023832,
            0.08990535011556156,
            -0.4027300720480861,
            -0.20344079010962096,
            -0.4593133743873049,
            0.2656631473772901,
            -0.05923275520949734,
            0.016644486005237196,
            -0.03725494350964155,
            -0.29008511147475924,
            -0.5999589932003844,
            0.47137036575028474,
            -0.008038496933161773,
            0.7338808568233374,
            -0.06299921580473573,
            0.26318044895964815,
            -0.7550954256824833,
            -0.9184692393597287,
            0.11584349383870761,
            -0.23981857171826515,
            -0.1564375020084905,
            0.2030098473027592,
            -1.2694327347818233,
            0.3223019783547752,
            -0.2542911180167953,
            0.2593382725807595,
            -0.704597446570604,
