{
  "engine": "nn",
  "version": 2,
  "feature_encoding": "ray_wall_body_inverse_v1",
  "epsilon": 0.005,
  "epsilon_decay": 0.9999,
  "min_epsilon": 0.005,
  "gamma": 0.95,
  "learning_rate": 0.0005,
  "hidden_layers": [
    64,
    64
  ],
  "batch_size": 64,
  "replay_capacity": 50000,
  "target_sync_interval": 200,
  "seed": 42,
  "training_steps": 6130566,
  "last_loss": 0.04588324237470759,
  "network": {
    "layers": [
      {
        "weights": [
          [
            0.15168422372378398,
            -1.7212672968071214,
            -2.7801834348795356,
            0.22845896380833508,
            -3.418962753076805,
            0.07617782872071482,
            -0.44767284295096244,
            -1.5889458001455685,
            -0.751357215143924,
            -0.7344715173742189,
            0.34628744559620595,
            0.1928072325602757,
            0.4262524569000876,
            -0.6704556056296799,
            0.19582707228723117,
            -1.1599299052161447,
            0.5643478125557577,
            -1.2229390241204967,
            0.309842670406147,
            -0.6507052991719873,
            0.15795514875281466,
            -0.20217184435944585,
            0.2284296941951889,
            -0.06398453860175626,
            -0.044665009616540775,
            0.43738936401424894,
            0.03390793742511372,
            -0.8467988279980816,
            -0.25654191554362776,
            -1.2697590607869447,
            -0.0033024268821737744,
            -1.0130660227005035,
            -0.15853838186834576,
            -0.5253241165115815,
            0.006877916078519021,
            0.2811234725039682,
            -0.8209841379894427,
            -1.5376029964531805,
            -1.206830234960812,
            0.06332057323661804,
            0.8463894979997113,
            -0.44544857535217175,
            0.29083597538521594,
            -1.4666218401344024,
            -1.0401825693693179,
            0.5211018937459991,
            1.5888038134668119,
            0.8230863006917043,
            0.3322739051093482,
            -0.742949554710678,
            0.39605399193191193,
            0.07530958466870158,
            0.00875205550625746,
            -0.4341086182697611,
            -1.207640818897774,
            0.4740902778915834,
            -0.11879211532338046,
            0.804959420624261,
            0.5592005328355969,
            0.8248940963949011,
            0.05661831842436941,
            -0.629640145030248,
            0.28469578441692345,
            -0.38825060873996503
          ],
          [
            0.12783377980126476,
            0.0847967701924498,
            0.05782695268348621,
            0.33030235882374565,
            -1.8057163853592546,
            0.008871577022664247,
            -0.8396586202870098,
            0.27800918045674544,
            -1.126069038788767,
            0.38369292376413383,
            1.5237255430165346,
            0.06808603142479094,
            -0.948322504946696,
            -0.5659663254786808,
            0.024609663256864433,
            -0.03579337977125712,
            0.42610223609132514,
            -0.014670268948643657,
            -0.1326610059802433,
            0.06180752815755175,
            -2.6334101741012845,
            0.40337972544287737,
            0.46971323300393425,
            -1.3079969209721234,
            0.33698059105196937,
            -0.04524355303192015,
            -1.4036996094992746,
            -0.27671639224753997,
            0.1171149864289979,
            -0.0318532356095306,
            -0.0904495459595997,
            -2.4477863912693363,
            -1.664735897276619,
            -0.3975109389401854,
            0.017911893007756672,
            0.14209462492906536,
            -0.9136384385418149,
            -1.3315620088167828,
            -0.2217333694427177,
            0.5198637133171305,
            -1.5043743216495757,
            -0.021253115764579677,
            -1.886523565640425,
            -1.5976122502535088,
            0.04164110525290149,
            0.5737143443827013,
            -1.6026276481849735,
            0.1066421027979721,
            -0.35606484797285337,
            -1.0517139562562712,
            0.684478308289147,
            0.1930226885433137,
            -0.3848933938138053,
            0.07341833157808579,
            -1.9691529093175324,
            0.03357433441787455,
            -3.181157414579931,
            -0.24876079323530975,
            -1.4160232650578668,
            -0.36785422399926165,
            1.5327254255918745,
            -0.9331894870507712,
            0.5304303962657656,
            -3.87835742275336
          ],
          [
            -3.8533735502862596,
            -0.28148652206211233,
            0.3922186969963574,
            -0.9997218067852391,
            0.39934643069730197,
            -0.262194509980543,
            -0.2311894222072757,
            0.8372677838166547,
            -0.32999792782816134,
            -0.004532792151120636,
            0.03667835729546474,
            0.8270838483274442,
            -1.7764115975964037,
            -0.35869886735901046,
            -1.6924460463125877,
            0.41934446901475914,
            0.2672815442101963,
            0.6209762555668739,
            0.2429242353248871,
            0.6871845411373346,
            -0.025005084685619444,
            -0.36304483826203143,
            0.8885376447956824,
            -0.40960847484263163,
            -0.5747094240211993,
            -0.4885187554240424,
            0.6789192104734786,
            0.23875674361888263,
            -0.006309276170914495,
            0.11289814339035335,
            -1.8795452395295709,
            -0.3197606467127962,
            -0.4946052204937109,
            -1.6870105710635637,
            0.018137088224334044,
            -0.3392491154562778,
            0.5329773211443978,
            -0.4344642568841306,
            1.6226776849184135,
            -0.9297531523471858,
            -1.169102674405195,
            -0.46069627033238525,
            0.23622160434841305,
            0.21011919863573308,
            -1.5926634227694334,
            0.6804174052644297,
            -1.3527921891405088,
            0.9637794039208074,
            -0.15420583880977753,
            -0.36478586294015164,
            -0.11530629062672439,
            -2.18310949183942,
            0.4058948773567231,
            0.26324276414569986,
            0.14031620993632932,
            0.6458379733001581,
            -0.8924248764666001,
            0.51250008784146,
            0.28237387474525577,
            -2.0602853202956792,
            0.2439093348951314,
            0.12213859428354594,
            -0.7778464848554647,
            -0.39264587806664075
          ],
          [
            0.3114417822397043,
            -0.18485636799367453,
            -0.4302445314975768,
            0.4034522216188985,
            0.40182043426813596,
            -0.23029250039941004,
            0.3646552549394607,
            -0.7037927565886962,
            -1.3492353699142388,
            0.48990237447736856,
            0.03129553874497516,
            0.09182639502689881,
            -0.13547119085480472,
            0.832429713116651,
            -0.22595145688769422,
            -1.6125225035002833,
            -0.31954603806990123,
            0.246062922363476,
            -0.7642166664072714,
            -0.17452952528727778,
            1.1807322718061737,
            -2.370376979391048,
            -0.4500052791477663,
            0.5493487720407161,
            -1.7889565825840104,
            0.33640831335790883,
            -0.6704911451129957,
            -0.23332763672053314,
            -1.5281987582038088,
            -2.0160113889641913,
            -0.6090720269996908,
            -0.25576242434679813,
            -0.8720671182629344,
            0.4565375244280737,
            0.5659328218087687,
            0.3860983834745452,
            -0.2001031347498445,
            -0.9926906333029998,
            -0.36668812068838746,
            0.5290513064553185,
            0.9518976873474815,
            1.8676776142045992,
            -0.19898815834547043,
            0.07773585238061011,
            -0.34345103647467273,
            0.20629414750983535,
            -0.7055585118287858,
            -1.479498027768044,
            -0.67223508487433,
            -0.16858908701553385,
            -2.5851147458030463,
            -1.0854556686480619,
            0.98162154300761,
            -0.061325246801037826,
            0.10104738997712795,
            0.3969879837681271,
            0.23053809816596704,
            -3.284869153888318,
            -0.004216229045002818,
            0.29373721311251916,
            -0.10901710051059481,
            0.12580895720933252,
            -1.5347525942431233,
            0.2766275313468624
          ],
          [
            0.1608067771987551,
            -8.039622893987557,
            -1.8466496310521916,
            0.3034525632620719,
            -0.09711345969249294,
            -0.7382005079937412,
            -0.1362113928517464,
            -10.480887480808585,
            0.3926099792647546,
            -0.4403350843228885,
            -0.029745714546803696,
            -0.013027972906839583,
            -0.056469387809082915,
            0.2724861122119575,
            -2.0545943890400173,
            0.782638806618413,
            0.3497909548183839,
            0.7402670731393697,
            0.6607074040398768,
            0.06144660611147752,
            0.25053913692115076,
            -0.04844802683686587,
            0.5855128778324317,
            0.7656141341479912,
            0.47662019593064625,
            -0.7040276966015778,
            0.46401764440220095,
            0.8249829468801119,
            -1.5344336010540767,
            -2.307000673718264,
            0.6899294707893467,
            0.8102835754791529,
            0.0437273696029931,
            -4.74870323173548,
            -0.03177840227276334,
            -0.14199623556256666,
            0.14016874494471168,
            -1.8170712558017623,
            0.04264820487284541,
            0.1612777689091913,
            1.5899264947970786,
            -0.6309025064551123,
            0.04103863476457798,
            -0.8677997105931147,
            0.47229785006392594,
            0.08982196196573687,
            1.1570917435338066,
            0.10223600908336834,
            -2.607183022464961,
            -0.08204531796871549,
            0.2846480144360894,
            -1.5027126694793096,
            0.04237904672447901,
            0.5923567226899473,
            0.03384794215679986,
            0.05951934401721892,
            0.9718621064159558,
            0.52552751198357,
            0.6791333434437281,
            -0.8329868384099387,
            -0.7015967359636132,
            0.6648044371714166,
            0.13672695474635327,
            0.029646435331944675
          ],
          [
            0.18783634982012784,
            0.5246631214969621,
            -0.22640123653416971,
            0.1623248921495446,
            -0.1914271368037367,
            0.23170020716914516,
            -0.12030062055511295,
            0.09963828153639884,
            -1.0874866348457115,
            -0.20453344609755217,
            0.9721256770855689,
            -0.19101915081953383,
            -4.9437916941488345,
            0.604649178488331,
            0.551671665472768,
            -0.354612938636103,
            -0.17063615172898805,
            0.020847591949182627,
            -0.12114999693576037,
            0.09440875440168997,
            -8.41922384960912,
            0.19401019168640865,
            0.5561900731939923,
            -0.017620188413265653,
            -1.244782790953805,
            0.3680170001871932,
            0.6959144758206184,
            -0.3790677653842466,
            0.7420749532644737,
            -0.8378581753660663,
            0.1730966986170588,
            0.1369460715977447,
            0.2685140651381668,
            0.7609272482081803,
            -0.12068236185259223,
            0.22517004674087038,
            0.16346320140375883,
            -0.7208822080578408,
            0.2774176884389635,
            0.5689010203764944,
            -0.6331437321198098,
            -0.17847233046143782,
            0.4241714939521262,
            -0.3757372372049402,
            0.1767910476734025,
            0.949442737604559,
            -0.7860736699700118,
            -1.5727986121313646,
            -0.5719396380226772,
            1.4277304394567536,
            0.15208458780554,
            -0.0034014545950590527,
            0.3363175963881829,
            0.23530096202629802,
            -2.2694862855305,
            0.8764861522741142,
            0.4807677451336263,
            -3.4208003419336457,
            0.7494727764925191,
            0.0899250019688751,
            -0.14517108432580433,
            0.6550041812166846,
            -0.07737463806744875,
            -0.5006168229130735
          ],
          [
            -4.510358585881225,
            -0.13611446460098703,
            -0.05845025051850489,
            0.49953432473930515,
            0.19324379923989216,
            -0.3656713804766212,
            -0.8674539764362617,
            -0.02799683497543194,
            -0.23433188793224954,
            -0.1481740037793854,
            -0.24901599233330052,
            0.9197247339279564,
            0.4712837310402107,
            0.10685388132419531,
            1.0690653924798257,
            0.5411147488634696,
            0.27447608748681807,
            0.07076541463022372,
            0.6939391932157961,
            0.08201951030133778,
            0.014009432892379372,
            0.008911655898149257,
            0.3237219631353613,
            0.7680458710563889,
            -2.0191752564491043,
            0.3337343619310609,
            0.19073441037978983,
            0.350559812618923,
            -0.11399270315561326,
            0.26460184152457783,
            0.25349819155431114,
            -1.6599684427219021,
            0.062183185499568874,
            0.13917799103997217,
            -0.04440125849477493,
            0.6695609894520685,
            0.5854607123967668,
            -0.6788393669239463,
            -0.19489175931638852,
            0.42766951387687824,
            -1.5058735642713301,
            -0.5129379098560031,
            0.10959180548746711,
            0.42299600055198644,
            0.45286000928145687,
            -2.876072594814059,
            -1.39457015233144,
            -0.4184555693709394,
            0.4152773067305713,
            -0.1516534253263838,
            -0.1557391021642163,
            0.3550206474047636,
            -4.542759154879847,
            -5.621786865732745,
            -0.06338781156115125,
            -0.019403984948044403,
            -0.5313950889761251,
            0.33003458967407634,
            0.4829461309039416,
            0.4041329136104578,
            -2.023228310804503,
            0.21575586663651675,
            0.6609078478765692,
            -0.34564092262566465
          ],
          [
            0.19845189095399804,
            0.6912988129968713,
            -0.051115226656960305,
            0.10737765999857778,
            0.492365276492989,
            0.3898584898500529,
            -1.1137325875115285,
            -0.834420303097846,
            0.01722401689511129,
            -0.1778048763824028,
            -0.22770681290313302,
            -0.1582381819135104,
            -0.44362502332231035,
            0.5277083817080459,
            0.26919963911225836,
            0.9594448700382902,
            0.2141696738683451,
            -0.0145058506112786,
            -7.1823762112589655,
            0.3374243009224734,
            0.5408632153480539,
            -2.558241986476937,
            0.6769214232083197,
            -3.1027666995200662,
            0.5369317840593203,
            -0.002460621340705575,
            0.8884680878315133,
            -0.05520539941773603,
            1.107895312302359,
            -0.09961204066820614,
            -2.1807805075846374,
            0.8427638854099573,
            0.4624422882975533,
            0.7599197779876556,
            0.37560283680586853,
            0.059596342486746376,
            0.034228218211969384,
            -0.7302956424726778,
            -0.03592425405482962,
            0.6308193275108254,
            1.4110458294764692,
            1.4087741073141402,
            -0.6125762499587755,
            0.20845872148771052,
            -0.09305750328413014,
            0.5714195694547674,
            -0.8352929263055224,
            0.4189086596791922,
            -1.4107357511289604,
            -0.0708068936848587,
            -6.476804970679262,
            0.6018543974144874,
            -1.1038362447005512,
            0.33719015175075195,
            0.35786125104053995,
            0.7039208814700446,
            -1.3695016532946307,
            0.5952019989501205,
            -0.14475882109296537,
            -0.08488638176243812,
            -0.17086015781068142,
            -1.2048853668444617,
            0.2594016600808814,
            -0.17446487956370269
          ],
          [
            -1.1078448595839439,
            0.352133823281126,
            1.846907128946773,
            0.37645867667232796,
            -4.258007854073773,
            -5.556267582496879,
            -0.15161037339840464,
            1.0763911184340822,
            -1.3554968759367616,
            -2.4912317145750276,
            2.0754936363730474,
            1.4220139514693861,
            -1.0664533334748632,
            -2.6377840075689067,
            0.5837931044148267,
            2.1069722694790203,
            1.0231779128235503,
            1.4780517681773493,
            0.6380039032741253,
            -6.146199289538229,
            -0.10776824319230861,
            0.2739724871829114,
            -4.082224690118545,
            0.06530622470470751,
            0.8866706190163108,
            -3.402413550062102,
            2.1888217752864514,
            0.11400992547830494,
            1.2116089060214095,
            -4.3289850650402535,
            -0.2331431803000559,
            0.11989427697127515,
            -0.39639054352895414,
            -5.3774250811988225,
            0.4414720948091933,
            -6.167589048760052,
            -0.2555411380158513,
            2.0411356364452415,
            -0.5924800334764921,
            0.1829226856921174,
            2.0573071271026926,
            2.4353068869281835,
            -5.699814892002646,
            -4.478324786459443,
            -1.442939733900795,
            -3.180766015524258,
            -4.98455797337135,
            -5.599610080645269,
            -3.39016634833198,
            1.161024141632804,
            -5.845129471709877,
            -2.77828201060983,
            -3.855467225665717,
            -0.3470504293244459,
            -2.61898715577568,
            -0.9330513566295627,
            0.48672919851792235,
            -0.7855623097828166,
            -4.382280138708161,
            -0.9267504268602043,
            -1.4899924996358835,
            -0.8887702358456568,
            -4.216926441205446,
            -1.6393537181246856
          ],
          [
            0.09495625492967996,
            0.0897317803173315,
            -0.05914185556496927,
            -0.2852871612820588,
            -3.860100726750582,
            -3.5834765848371144,
            -0.42873374217204335,
            -18.279469854929363,
            -6.0999602864364695,
            0.9157360824258495,
            -4.667523939895374,
            0.6432804256857673,
            -4.264418340974691,
            -3.0282514490709707,
            -0.8988310624324485,
            0.9402294403945503,
            0.5399877640245696,
            -1.4347685642619163,
            -6.100019775689591,
            -4.709417805002425,
            0.9407483255655255,
            -0.35287074770382615,
            -3.8153987900163076,
            0.20190151062470188,
            -3.536878043479513,
            -3.4359957921826583,
            -0.1946210001182002,
            0.48846068660709446,
            1.1442943103032488,
            -1.1338732867572967,
            -2.1715311352200595,
            -1.899822331037586,
            -1.6262315135563177,
            0.6663968812655348,
            -0.12371768802225472,
            -3.7650897693244714,
            0.6988123259291456,
            0.9260345054013615,
            0.5859923954208512,
            -4.300781484101557,
            4.566666105257938,
            0.8692321817667813,
            -4.742434854268461,
            0.14132527512319457,
            0.17700199437425435,
            -1.0186564486559821,
            -0.21545455145401785,
            -3.13068300200874,
            0.1875007839723824,
            1.6584368576770367,
            0.24539580229422855,
            -3.7343497976332034,
            -1.6244315576223844,
            -2.5850566813620004,
            -1.6646124103499076,
            1.145684933034669,
            -5.923696285281275,
            -4.664224056344272,
            -1.2427740807907806,
            -6.07093224008996,
            -2.925906833916997,
            0.49723551194666576,
            -3.6174730516048212,
            0.49205294007257566
          ],
          [
            0.3267397168220694,
            -0.20515017596892546,
            0.20910306147627503,
            1.3435318966917877,
            -0.4873740291011275,
            0.6758443636857975,
            -0.21829490941108926,
            -1.8279076328385366,
            -4.149903566666912,
            -9.01097936002022,
            1.2859373039206536,
            -3.172440399366481,
            -1.2707553156172973,
            -3.754496167404117,
            0.23749163148510843,
            -0.8343496126254414,
            0.9760151296600098,
            -0.14466653530544496,
            -5.706595434804004,
            -5.270868860865127,
            0.3330323398541475,
            -1.8902161551362526,
            -2.251860835887502,
            -2.600750883845293,
            0.5008876986224938,
            0.8175674018144727,
            -0.05788063791297536,
            0.3065228494260733,
            1.4263843110418193,
            -1.6444291309297991,
            0.27499522491131845,
            -1.9819094061558538,
            -0.7715990549971892,
            -0.6932356211360214,
            0.6453088021401437,
            -4.144217561128692,
            -4.498583070453381,
            2.0767116209025005,
            1.3947712347002883,
            -3.9616264549139943,
            5.094700709091201,
            0.9841447231638131,
            -0.5373793950296325,
            -3.437403106144842,
            -2.9707968819698882,
            -3.106419157847377,
            0.751826755203529,
            -1.3835643109065239,
            -0.7616976052218085,
            -0.3474919558949377,
            0.6607323399424156,
            0.06404791451337548,
            -1.9327207306525906,
            -1.5573857267903009,
            -1.164391934931805,
            -1.682525442559906,
            1.1899511684745068,
            -5.1055322047557565,
            -1.6074760159235062,
            -3.6873177755261928,
            -4.877938519500511,
            -3.4220877785346815,
            -3.2456556402002867,
            -6.089952010088251
          ],
          [
            0.25262114115550194,
            -4.141157937068741,
            0.5238685698572573,
            -0.467026921060751,
            -2.968842958857859,
            -3.222743607074494,
            -3.365317266876602,
            0.46113179995230696,
            -4.500999765007446,
            0.21803337858178173,
            1.1014253659535536,
            1.0798847962657439,
            -3.1707140737886372,
            -3.9470695822206774,
            -4.926365817678937,
            1.2552076826905958,
            1.3349327182823274,
            -5.33392272475584,
            -5.78811150336799,
            -7.22966039261909,
            -1.0065769761562522,
            1.1390320424010676,
            -2.791526735520577,
            -0.16510255164400217,
            -2.80794490011719,
            -2.368631272857643,
            1.8881510878430001,
            0.2600021020537192,
            1.6898939215484703,
            -4.198732000429748,
            0.09400849647506435,
            -1.0903155100052908,
            -0.8714956236634083,
            0.47763414129404325,
            -2.196720720234251,
            -4.644238319859884,
            0.13515533703261182,
            0.24664521365540507,
            0.33058312757682984,
            -4.531275942964867,
            3.8046966811435063,
            1.0950802873484855,
            -4.781898729979795,
            -1.4674491413372843,
            -2.557171813459743,
            -2.6409903781234156,
            -0.016406887237110864,
            -2.3938037665782876,
            0.2724232864208623,
            0.4114574816121275,
            -0.10641489704130992,
            -2.8633981837214075,
            -5.764303067349498,
            0.43239589119806465,
            -0.07650244709369575,
            0.2818098029458576,
            0.46108013755257,
            -2.77746380065241,
            -4.018649885292772,
            -0.1421442845912403,
            -5.423942011530084,
            -2.296065247242054,
            0.07803852217230586,
            -2.2274760424024316
          ],
          [
            0.20176448479508627,
            0.04617109642036697,
            -1.6195788177925294,
            0.013243035282226529,
            -0.7783120720413408,
            -0.1894146421175048,
            -0.051010965613703135,
            0.31590094381946016,
            0.7142624764492022,
            0.017685432221066683,
            -0.11969224907179052,
            0.1888134519881438,
            -1.1002280682658192,
            -1.180185065323046,
            -0.031650469110246215,
            -0.9673189726492621,
            -0.15597243944158654,
            -0.5707521515179645,
            -1.0139294944021628,
            -0.23097802684581506,
            -0.49001385536915626,
            -0.14594027508021554,
            -2.5140029193042683,
            -1.0231617273003892,
            0.11897816552469422,
            0.3411490255664809,
            0.483579321660903,
            -0.2592796173203497,
            0.20835788078922313,
            0.766447044934571,
            -0.3973831500888141,
            -0.14268351062676188,
            -0.30868765028177125,
            -0.5718742013542909,
            0.09293795508755548,
            0.2032116650348681,
            0.1304166820854002,
            0.06339142645358424,
            0.14777467789507248,
            -2.987996707507957,
            0.4512504984775378,
            0.004989353263453977,
            -0.4785770267811638,
            0.09027877513366192,
            0.014715084612009419,
            -1.2057254805434807,
            -5.698760870922281,
            -2.1011194997899163,
            -2.764436335570286,
            -0.6800429648141311,
            0.3881043406402698,
            0.10630928704180401,
            -0.15202356799708266,
            0.07485801359886547,
            -0.019258003693612,
            -0.4530509433681227,
            -0.977657829764465,
            -0.3086522080752952,
            1.0689923383591458,
            -0.7474803320568922,
            -0.07358954287966975,
            -2.11095761051809,
            -0.6236270866307735,
            0.08075106427750228
          ],
          [
            -0.23810925030167412,
            -1.7119960661623592,
            -0.09752874477932784,
            -0.2832504408446481,
            0.28774780509930575,
            -1.5518412827645398,
            -0.05554767589938127,
            -0.05728646027238038,
            -2.5401908100312336,
            -0.08198815471262903,
            0.286150886394811,
            -0.025255552797410607,
            -0.17912882414334091,
            -0.14257723594153252,
            -0.3363132824201999,
            0.422144440612842,
            -0.07236611423956804,
            -0.19361872409136613,
            -0.08855330129092205,
            0.15905629611333064,
            -0.1718712218599714,
            0.19522724693705681,
            -0.14319426939155974,
            -0.4530360382391071,
            -1.0066943007051992,
            -0.05434280445432883,
            0.9332573004429652,
            0.24437963329383794,
            -1.135303560681174,
            0.20854902570237463,
            -0.9127066641563009,
            -2.7242652602264332,
            -0.3744357935059984,
            -1.124946711831931,
            0.2631746756064734,
            0.15770954159890652,
            0.13788685715831198,
            -0.20586936869277295,
            -0.07127532258218221,
            0.09114536393538676,
            0.20127487912112024,
            0.10325084620153217,
            0.02773326915041105,
            -0.1227720529504761,
            -0.05510603133251068,
            0.08805732561147248,
            0.24104778725150086,
            -0.03145064955912201,
            -0.0062350824834613424,
            0.3770822843703723,
            -0.11141881853144946,
            -3.1317566948900457,
            0.13151924701853504,
            -0.1629124042165736,
            -2.0686500717482903,
            -0.09827950227974022,
            -2.575963451528648,
            -0.04549099939631339,
            -2.362616612584943,
            -1.277893780199574,
            -0.9389843848107682,
            -0.08397412865574334,
            -0.9102475430700193,
            -0.44216936915288796
          ],
          [
            -0.3133049342282591,
            0.12117906193917753,
            -0.09195091777245445,
            0.08209465321739376,
            -1.0929543023586115,
            0.01288282412481193,
            -0.1643152855433446,
            -0.30722551101605194,
            -0.8236482057035741,
            -0.013558794520549205,
            0.1195727287712912,
            0.48354252000481635,
            -1.822741983447309,
            -0.06298537063669646,
            0.16760107431451257,
            -1.159478262123568,
            -0.087637289594765,
            0.25952232949972076,
            -0.05579878902645979,
            -0.12773207560667077,
            -0.5396148898181791,
            0.13339526974159926,
            -1.3638818671452952,
            0.013538278093790948,
            -0.2817808191126685,
            -0.18559087237777924,
            0.48219500634185875,
            -2.432683270073852,
            -0.06747587059494832,
            -1.2059426195888083,
            0.1549899934871692,
            -0.02906143980000744,
            0.12816228060198132,
            -0.1813485185756048,
            -0.20126432831429283,
            -2.0923973184393088,
            -3.0449220395640806,
            0.12728374909482187,
            0.3695921852293469,
            -0.08321903918294313,
            0.4094211821921501,
            0.17168722212459225,
            0.08359060166898606,
            -0.8258830601290044,
            -2.557691538464767,
            0.05320652137010847,
            -0.036632309523047496,
            -1.0770075692725147,
            0.685883451240811,
            0.0624524513864601,
            -1.4404228253269002,
            -0.32907378115142305,
            0.1036487187836728,
            -0.6878793847696747,
            -0.863908449977912,
            -0.2928837735564704,
            -0.3489475291804723,
            -0.3265766361658424,
            -1.0790800324100092,
            -1.824622565240547,
            0.4021170707519943,
            -0.5385241380213579,
            -2.478823437061773,
            0.05761455280352455
          ],
          [
            -0.1893894529004555,
            -3.095502941612473,
            -0.2885763110779678,
            0.3619546605552516,
            -0.30797303515836455,
            0.32168663760541794,
            -1.7784487153153614,
            0.5316944805301979,
            -2.30135539070547,
            -0.1940276939951113,
            0.16967181630602168,
            0.17009017137538174,
            -2.819258727853619,
            0.4367533993785013,
            -0.05334583723613626,
            0.27440353901486947,
            0.01932528591967597,
            -0.04120772779316392,
            0.8724279258648097,
            -1.0163934578068623,
            -0.12614975111299126,
            -0.5817469404512785,
            -2.1718227449800427,
            -0.5948348868358501,
            -2.2190133344606413,
            0.22085298675411524,
            0.38715611211608314,
            0.15435689422865945,
            -0.7781785754999059,
            0.3424597019220109,
            0.12763143286671663,
            -0.6311512794669798,
            -0.6384812827863628,
            -0.7669700972966536,
            0.5240915034458292,
            -0.08614965512616914,
            -0.18717674387801575,
            0.5978584792855511,
            -1.1928051789981817,
            -2.6347684966583693,
            0.16321757840431178,
            -0.16721872825028178,
            0.04025798983452514,
            -1.3188131326175925,
            0.005049909670347585,
            0.024074270374040613,
            0.13953856609162352,
            0.13910816455785008,
            0.15033427185521894,
            -0.06964621667885335,
            -0.2477112884757068,
            0.3840160692555806,
            0.13549127015243023,
            0.12000156826475637,
            -0.8590751132206624,
            0.08788587046412281,
            0.26555511817116106,
            -0.10938198937712708,
            0.24390620360844018,
            -0.05702935321507129,
            0.8334966339456351,
            -0.05834565927135718,
            0.15264904677792707,
            -0.20777731773509317
          ]
        ],
        "biases": [
          0.828821793559784,
          -0.1130292436637566,
          1.0870281721079744,
          -0.9115911248845612,
          -0.19507489436241146,
          0.12028148850417929,
          -0.04100445594941168,
          1.0995997730955045,
          -0.288653212919028,
          0.6904938724004702,
          0.9395916594100954,
          0.6944079988031502,
          -0.11627116648480336,
          -0.9313870301107555,
          -1.1224641869563357,
          -1.7487689271306126,
          -1.1576008361556054,
          -0.4064447643085005,
          -0.4379173836353464,
          -0.33520835758401907,
          0.7293071161852943,
          0.7541504008023817,
          -1.8471162790796898,
          -0.630577658456517,
          -0.7549593564734925,
          -0.9476317776100663,
          -2.205645715774169,
          -0.7347140549736557,
          -1.735240794980917,
          -0.0954152384109625,
          -0.39865894092516646,
          -0.749395508634711,
          0.2416235771798087,
          -0.4416464384861752,
          0.5581405985208033,
          -0.9037401978366761,
          0.12018447701428496,
          3.6397785574052337,
          -1.0962936416760218,
          -1.0507538962472989,
          4.942644674303821,
          -0.2838345843990905,
          -0.011239520684792474,
          0.11094569847179123,
          0.10869906782779602,
          -1.5273503100346464,
          1.3194574499406018,
          -1.1988646916570012,
          0.03384954453393623,
          -0.4752783974203648,
          0.7868836752188081,
          -0.1353404696273017,
          -1.3136255340494425,
          -0.4164856411368045,
          -0.24449294820616402,
          -1.3117902090834994,
          -1.4471208220823302,
          -0.629983288361408,
          -1.7778274975195996,
          -1.3740284853823874,
          -0.6540863452743191,
          -0.8141075015006233,
          -0.5758145935090617,
          1.0796053534510013
        ]
      },
      {
        "weights": [
          [
            0.21636809105949947,
            0.6277465723481431,
            -1.1193107269450484,
            -5.7263531160440815,
            -1.1645023549086342,
            0.5416863324535224,
            -0.12602058494729867,
            0.35947172072039707,
            -0.4477572679283636,
            0.7730989783162838,
            -0.8359350049203624,
            0.3183281264802614,
            -1.1223794521214676,
            -1.002865421841621,
            -5.151488751534032,
            0.6290102065200448,
            1.9068318322814357,
            -0.18355008583447427,
            -1.6278423622658333,
            -0.49481479883319424,
            0.8278212984833843,
            0.8426546975024093,
            -1.2074820205756398,
            2.7876721994558027,
            -0.3740503481470111,
            -0.706614695436904,
            -2.1884145297438535,
            -1.6741196817072268,
            1.3917481179089526,
            0.5170304392159158,
            -3.327235855754299,
            -1.155622083762855,
            0.8177251419030691,
            0.196838836678552,
            -0.8528157232565254,
            0.7240317706778121,
            -2.2118317639120417,
            -2.5721678405262316,
            -8.751619760978071,
            -0.6110332184881041,
            -6.323444128903627,
            -1.2517296230834225,
            -2.924314552585486,
            -1.3919943092086386,
            0.7433640185204612,
            -2.0139692564915235,
            -0.8544706591994985,
            -0.5789951025961493,
            0.6317198293663588,
            0.8367212780604254,
            -8.462447748807184,
            0.5737958276851227,
            -2.0388179927103107,
            -3.486614013109111,
            0.2535632684111711,
            0.10915263292482669,
            -0.8077564449263366,
            -0.10339931338778535,
            -2.709084131285343,
            -1.3599663860547995,
            -0.07184191433321875,
            -2.9562222989580715,
            0.2234799963527908,
            -4.838505012145744
          ],
          [
            -1.9186883420325032,
            1.807279050019112,
            0.007739211519677156,
            -3.611383660007495,
            2.482925276727023,
            0.45982072570604005,
            -10.345443836724057,
            3.7478869071050624,
            -1.4554058457850185,
            0.9289214078008101,
            -6.1774584376177994,
            1.8863709269703615,
            -0.13688770041139714,
            -1.0869732416056905,
            -0.5344126521026115,
            -0.6960806811365562,
            2.5839520558167064,
            -6.733249913727316,
            -1.7568663816737355,
            -2.5052266155781044,
            -2.55469530296322,
            0.763095752172821,
            4.237590947972453,
            -2.1087947739669866,
            -0.6778640715478458,
            -1.1450346385862695,
            -0.6887239779409712,
            -0.6674226885584944,
            -2.271930836251023,
            -1.0256511316962165,
            -1.13242880035263,
            -2.931450509281515,
            -0.30000289599208935,
            1.620228698859742,
            -0.4985848157508293,
            0.45995554424660834,
            2.4433914929143525,
            -1.2913692261870937,
            -1.2631971995542406,
            -7.780584640030194,
            -4.000105517619774,
            0.17136291186224972,
            2.020416050958968,
            -2.7495239710282897,
            0.9808839289488209,
            -0.8564007354716668,
            1.028484333466077,
            0.6346697823846024,
            2.5276419216910475,
            -2.974250639064288,
            -0.1669858707024239,
            -1.188611878186787,
            -3.5399913401676066,
            0.15544623029319074,
            -1.885816247050734,
            1.1607968413901517,
            -3.4411876227914573,
            -0.1370403517577759,
            -1.7463240064373826,
            -0.23699735738860742,
            -0.4391200985305804,
            -0.7488235801408367,
            -1.285046481933008,
            0.9141269442728287
          ],
          [
            1.1403475614817962,
            -0.9665823305543648,
            0.19734495217001227,
            -1.5838088106745645,
            -0.8591315250110763,
            -0.04253546367345339,
            -9.095622476953974,
            2.1230536074819577,
            0.6748236922069879,
            -2.1823617224130154,
            0.4231938864895844,
            -1.9807310705110117,
            -1.2646253433648762,
            0.47296033509350294,
            -2.785829666146417,
            3.2403695647662163,
            -0.5842963145614203,
            -5.0150333933606515,
            -0.732577999079261,
            -0.7013426371430626,
            -0.9332021210077139,
            0.49665469340032886,
            0.6688071953012015,
            -0.09361933810138992,
            -1.0470384820310132,
            -1.9864009839918562,
            0.28723861958728686,
            0.796640723319795,
            0.9448993966116557,
            -0.49547044618504954,
            -1.5604482580005414,
            -1.559348470658692,
            -0.684622262479942,
            -0.4440027025795459,
            -0.1553628936345748,
            1.3377449266095884,
            2.7524095429557964,
            -1.7955171412756212,
            1.6722446443689503,
            -4.707915592551341,
            -1.7746373127164892,
            -0.6148107948977003,
            -3.5737247632940683,
            -3.530511508486741,
            -0.7268640125188653,
            -1.407519031333579,
            0.7489344158587711,
            -2.0561079971434766,
            -4.55440274964121,
            0.6643524678429009,
            0.5485103727847515,
            -4.571576669640504,
            -1.1319328196165899,
            -5.287588495526274,
            -1.3941567581932963,
            -1.8494549761831804,
            -0.15154724973481995,
            -1.5609771427788828,
            0.4233866492177586,
            -4.2543841148516455,
            -2.130921130951428,
            -0.02373913048314773,
            0.9913027323766659,
            0.1540932396354914
          ],
          [
            1.0534405291707125,
            -2.9748884533423494,
            0.3788941899929884,
            -0.8481616495347643,
            1.0436697713248042,
            0.8673586166835872,
            -0.6634757029627056,
            5.462695669834192,
            1.2359637875507894,
            -0.36210934060404004,
            2.4975441239433036,
            0.30990841933127405,
            -2.1701005742975403,
            0.6115223643547388,
            0.2996941358835987,
            0.8332598840005194,
            -0.45317293566675243,
            -0.3881874632679403,
            1.3632137930232309,
            -2.3061505875132533,
            0.5933761385197194,
            2.1384659530736854,
            3.033468588948252,
            -0.8008141468557717,
            -0.20327144063735908,
            -0.8639952760203462,
            0.37399799046089743,
            -0.4688528136703545,
            0.737241414607556,
            0.10776892396159628,
            3.03739193060046,
            0.9352849194990641,
            1.7345716035807441,
            -0.25112575722322933,
            -2.1197014374792733,
            -0.49404397803779965,
            2.4044695850386186,
            2.076864619301221,
            1.7574229577223859,
            -0.9494884105267996,
            0.05732456577290266,
            0.5072409215080748,
            5.523608092033269,
            -2.0131773761741325,
            -0.3918471921970836,
            -0.007611228874829124,
            -1.706367548376603,
            -0.06658198287521148,
            1.819941164184199,
            -0.4015262769340369,
            0.3442688633705337,
            -3.289209974225757,
            -1.3180592488939182,
            -0.972459123786061,
            1.2953299932364106,
            1.0912716575608679,
            -7.542584539640122,
            0.545089993395288,
            -0.20734464316401235,
            1.198432425556537,
            -0.39594519358622987,
            0.8669593700353347,
            1.6971641667586628,
            3.001596721199719
          ],
          [
            0.13411935559729757,
            0.7634076460911629,
            -0.3264890729055188,
            -0.7905812294153647,
            4.066050650137893,
            2.8866263987181484,
            -1.1379597843043159,
            1.8901910933537502,
            -4.162941849538108,
            -0.5201771830817363,
            2.5321816809629216,
            0.4733610174537817,
            -11.79164140992542,
            4.878692985829814,
            0.01041608908917057,
            1.768309671849996,
            -0.08524408596360915,
            0.6297223257970752,
            -2.09964772849799,
            0.7698356516345451,
            -1.762044564771967,
            -1.8338274412859497,
            2.7787698548869066,
            -1.151853886428174,
            2.337034213762711,
            -4.311608362024925,
            0.4438629435003627,
            1.7678536107863025,
            1.2497659886670571,
            -0.45417378508990425,
            -1.2531516531071965,
            0.540037577568094,
            3.5310776276862494,
            -2.208485491677999,
            0.8413196540489565,
            -0.31531907209017374,
            2.870487516216167,
            0.0185605030982136,
            -3.0676310319242073,
            1.5755958144740954,
            0.5431109063684323,
            0.3971620478924622,
            -0.006498485036164971,
            0.7947072848929491,
            -2.258240951657875,
            0.24766521610944403,
            -4.086349240952629,
            0.14925429245907726,
            2.5412066636682575,
            0.4172544696069483,
            -0.22796062352586124,
            1.8672010314451848,
            0.5631695827471394,
            -1.1001616655103386,
            1.4320142014200652,
            0.4890942916125182,
            5.192709820616409,
            2.966996605931121,
            0.14425945682471478,
            0.4095610898975633,
            -0.297134271240523,
            -0.9044043927727207,
            -0.2029104788225657,
            3.027906655131321
          ],
          [
            2.4395814571245378,
            0.3117438218849739,
            0.24020697395490032,
            -1.0444135833056252,
            1.3915574312258603,
            0.42793722093065817,
            1.0212441576310063,
            4.080712352355627,
            -0.7460002533467116,
            1.4759695314439474,
            0.5234949670038488,
            1.4015658968394666,
            -3.3041072242308545,
            0.7375066036925886,
            -1.2949109587983443,
            0.9335493707891215,
            -1.9573349600929044,
            -2.461998051149681,
            -0.4005184810263284,
            -1.2918120406052709,
            2.900504644280735,
            0.20989385042259373,
            3.228195137756572,
            -1.7940519656817664,
            1.8162826233676403,
            2.2056093768075113,
            -1.0094547113337575,
            0.5390077259245256,
            0.4219868040540875,
            1.0045170260320355,
            0.056775978379666525,
            -5.9157688419900865,
            -1.3415911114718015,
            1.0324836840346585,
            -0.5705184977548953,
            -0.47779494315288273,
            1.6577650252320084,
            0.24898428474327008,
            -1.2121649691296512,
            -0.6653177903991412,
            -1.5935252754880969,
            -1.9490601585853147,
            0.853921566055044,
            -0.3790221780650195,
            0.506446831614337,
            1.3165870959007768,
            0.02291292556978987,
            -0.9942223448711406,
            1.428999114916744,
            1.8137120510875657,
            -0.710507236298601,
            -0.9767575240110544,
            1.0879418646831747,
            -1.0476599105805366,
            1.1280082909934281,
            0.9138510190335075,
            -13.445471007483182,
            0.6373774464280985,
            0.31305611312079457,
            -0.7098579827152435,
            -0.7780271806203406,
            1.849588022104157,
            1.2565542567480192,
            0.9507702438610135
          ],
          [
            -2.413312143889297,
            -1.1905151790720505,
            0.9911857388009715,
            -0.7489207561710797,
            -3.173339985104263,
            -0.05785413623055745,
            1.5291455544362116,
            -6.527687951586177,
            -0.5677574868940807,
            4.251238356443244,
            1.9673451820572896,
            1.4580071532953756,
            -5.056162799106192,
            -0.5884128297897389,
            -5.548070155900093,
            2.9908744538675913,
            -1.7114339136234853,
            1.5843538895163896,
            -0.37596757925836666,
            -0.49030525347671605,
            -0.38025237063579514,
            0.40842089319784614,
            3.2688449922783747,
            -2.529155869943205,
            0.6866379657754681,
            -0.30914084648065343,
            0.9127964784204423,
            -1.8740195530600103,
            1.803603295302553,
            0.5159611228606094,
            0.5530409850333938,
            -0.7364325944136225,
            -1.5958157909371236,
            1.6791253272128661,
            2.899675864759413,
            0.05254843498889376,
            1.1079293298365671,
            -1.703867056939112,
            0.982968819053987,
            -1.5930756615541934,
            -0.42501962447797065,
            -2.0834091545158477,
            1.3137484562421553,
            1.1542375684216366,
            -2.332940141894142,
            0.9859463673969667,
            -1.929191253835906,
            -0.9679660130850057,
            2.1776779465423397,
            1.055801936965535,
            0.9298150724512794,
            -0.7111931008785153,
            -0.2797773704322424,
            0.919232254029093,
            0.5844770151951992,
            0.9951695358174116,
            1.5726963075092655,
            2.0096330411978967,
            -1.8607971988018526,
            1.0337633058521125,
            -9.558156028566659,
            -0.7180291593100129,
            -2.8937352792907403,
            -0.2424211652315117
          ],
          [
            -0.5401258710503588,
            0.29127105307072015,
            0.22105135364422085,
            -1.8691620029639304,
            0.24008897636988255,
            -0.052551991903093974,
            -1.8770792105858352,
            0.2862514985192235,
            0.040519960500694036,
            -0.6728154491471171,
            -0.8233533792080603,
            -2.9100087348113397,
            -10.709676216771397,
            -0.08373161013933511,
            -2.2345709683454564,
            -0.9215866946812374,
            0.6033454342760385,
            -5.288457600598908,
            -0.7312865443869788,
            -1.2097919705138733,
            0.6065701902199269,
            -0.3796848658897165,
            1.5214108753533526,
            -1.3051692240267887,
            -0.601073528139753,
            -0.512972294794568,
            -1.0252735072012769,
            -0.9631369293791865,
            -2.2890949441280504,
            -0.7444231230671728,
            0.08957657580729246,
            -1.6088328005236903,
            0.19717234709739104,
            -0.03472694560638357,
            -0.8146880332424915,
            -0.018963200594277575,
            2.088650972400088,
            -0.5235674984648547,
            -2.8864988281953012,
            -5.083481232006027,
            -3.322020875097298,
            -0.7483537073432486,
            -3.1647944354994615,
            -3.9831687387960404,
            0.01202471191486243,
            -2.903528632024547,
            -0.39498682296716203,
            0.2600492351393338,
            -1.4473886713386208,
            0.6828469206066378,
            -0.2331530687678966,
            -1.9614569396851755,
            -3.072300009883297,
            -1.7965758050675336,
            -0.35105216895636204,
            0.0720415190809031,
            0.05129915978556146,
            -0.926172727957257,
            -0.5266191359917339,
            0.07113251065904949,
            -1.9243547744264387,
            -1.00168904745243,
            -0.9770388298624288,
            0.5018472386990185
          ],
          [
            3.258964954102607,
            -2.781201656188555,
            1.0425786051249222,
            -0.9364850041666802,
            -1.7132326472611532,
            -5.121376363994033,
            -0.6792055397935169,
            -0.7864540068302486,
            -2.5326661940626836,
            4.321989359664401,
            4.528354852354627,
            3.830278505343942,
            -5.139800286764236,
            -1.1283712837626476,
            0.9272626531307387,
            0.513452833280454,
            1.3877088843217669,
            -1.2706914883837819,
            0.3842108028646695,
            -2.3508460710279406,
            -1.1738882320896755,
            0.48691169947032303,
            3.5147891361456245,
            0.2071887121015244,
            1.6139864661229364,
            1.78691737385253,
            -0.1510015916008178,
            0.18695399302786386,
            -3.152809299249216,
            1.5029445157679753,
            0.6231033132847745,
            2.3948354925500226,
            -0.07505165346023038,
            1.4462944091755372,
            -2.5839267535071904,
            -0.1995645465145541,
            5.260545539662427,
            0.2394209612078583,
            -3.0424235567252347,
            -3.683209844009574,
            -2.0786406029150646,
            -2.984940600899612,
            -0.23424792531618172,
            1.0832559698850175,
            0.0393898599972656,
            -1.0518070820900707,
            -0.05226421232302112,
            -1.996936870809445,
            5.320454163719794,
            -3.5308498921327645,
            -4.887824796591177,
            -3.163939238411781,
            -0.5632311049639734,
            0.7090320463128916,
            0.5135161774532461,
            -0.3156409502712818,
            0.9077650279047897,
            3.279064453070713,
            -0.9223688640609445,
            -2.5867412977532416,
            -5.209208220904648,
            0.6289254746023084,
            2.0494924800280923,
            -1.7731045226679583
          ],
          [
            -1.6280170071009756,
            1.4783516987063383,
            -0.09773514734084955,
            -0.5615499562393446,
            1.021731520058827,
            0.12519825382037061,
            -0.9912878379125571,
            -0.5285105398215557,
            1.278548645778802,
            1.6638044484906616,
            0.3210720265333159,
            0.4738511237550888,
            -0.9356081573799265,
            0.9391446776506907,
            0.10520315035915774,
            -2.7434072056077214,
            0.5850733382558481,
            0.18856425655106165,
            0.20285577139267033,
            -0.6058899686254468,
            -1.6425017197283271,
            -1.0905163281932233,
            0.8399494150129208,
            1.325766811880421,
            -0.5134262038965768,
            -0.8266360808410189,
            -0.015703862985941675,
            0.033900072885765103,
            0.406744367647468,
            0.6567334959414902,
            1.0517413617742843,
            1.2020766826308809,
            -0.5398646904201412,
            0.3860420597386456,
            0.4195477621037404,
            -0.9501989121570165,
            0.09639821031686549,
            -1.2415965167892093,
            0.9245962152028704,
            -0.08841180565917536,
            -0.09856936723227148,
            0.7666224057450582,
            0.5720456462700697,
            1.0586938188902977,
            -0.6751583089056046,
            0.13594089989618421,
            -2.519544440675516,
            0.6964036070029811,
            -0.22147488100828,
            -0.6405614630429001,
            0.23827856449657392,
            0.4427461429321666,
            0.7423203250620778,
            -0.4012016577323128,
            0.08637980511981866,
            -0.7440172011067978,
            -0.8217145591927841,
            0.11757607938090812,
            -0.03200994654293192,
            -0.5228110673518233,
            0.44879088746299356,
            -1.3752040149601503,
            -1.0984876425519345,
            0.43035713383871443
          ],
          [
            -0.15832417337168672,
            -0.17123945273115965,
            -0.41916077887700065,
            -0.5097336507684229,
            -1.2390903336157242,
            1.2745664300112853,
            -0.1335493954471538,
            -1.5898064532867884,
            -1.700151181243283,
            -0.24378031345613682,
            0.5000193852807084,
            0.2103323652631416,
            -1.2603624055920652,
            -1.4278019204555077,
            -0.28579692904619625,
            0.053023176498400264,
            -2.484763976483215,
            0.4984505457841817,
            0.05747525346402758,
            0.057701527195358336,
            -0.0030055634857383677,
            -0.374617448631898,
            -0.45425793825966904,
            -0.2965476528117794,
            -0.19544113006292954,
            0.799204780952404,
            -0.6034695021130093,
            0.2354315595661805,
            -0.10686997362745178,
            -0.6176857953003223,
            -0.24601605268302992,
            0.1533525996986746,
            0.19583151863182194,
            -0.4728385844046539,
            -0.21624379290689408,
            -0.017346004883514416,
            -1.66683436908149,
            -0.37686544434929997,
            0.15477361642685852,
            0.062145970712550735,
            0.27846863567685737,
            0.08879583839146755,
            -1.2523511648806258,
            -0.4624617828501574,
            0.1680604520566783,
            -0.35137804096029285,
            0.9580020217458284,
            0.14425806801214364,
            -0.9087949334720996,
            -1.160399835974782,
            -0.23274611943494455,
            -0.5039326607554706,
            -0.4530481057863554,
            -0.4990504954797936,
            -0.3884346861660832,
            -0.6783621134474787,
            -0.33659851474906394,
            0.18864463964513328,
            -0.17918025980541336,
            -0.15546836971221648,
            0.09719270799832737,
            0.19937851378499782,
            -0.09848676556851577,
            0.10040528243929783
          ],
          [
            0.6578327878407777,
            0.015197504776081184,
            -0.21901851644302053,
            -0.09728744876060695,
            -0.47223007779086484,
            -0.3947717450668795,
            0.23404521882571794,
            -1.1859631974840328,
            0.20565546684659883,
            -0.6488550797466899,
            0.02730960614552868,
            -0.6811505401774989,
            0.7409936236802797,
            -0.9616555648583917,
            0.2368858035172993,
            -0.1254712466584474,
            -0.8019265718583738,
            -0.3084481542012274,
            0.2511596551179552,
            -0.4326626641209899,
            0.46821628718097924,
            -0.8561028663605895,
            -0.5853135354825624,
            -1.6542621597888323,
            -0.37456690782517277,
            -2.49805956379604,
            0.29781805961407537,
            0.10589327688663733,
            0.3891905922647844,
            -0.2939717206144427,
            -0.9392963210665711,
            -0.2738264360947273,
            -0.16602308131254587,
            -0.012839850776397196,
            -0.6353586514729862,
            -0.3471903830241268,
            -1.1590049988404414,
            -0.19583050360721718,
            0.05658219433991946,
            0.7076804488693919,
            0.43823133265666075,
            0.27259821282380703,
            -0.4110810110857121,
            -0.5130046880543442,
            -0.20060714192163506,
            0.5623294737429209,
            0.38436464972998957,
            -0.9801629461542023,
            0.3056243386154971,
            -1.0300410966686873,
            1.4702373140932115,
            -0.7657067743944377,
            -0.08739921726302165,
            -0.036660699501450886,
            -0.09501915824748462,
            -0.5028278764717716,
            0.32023456671558814,
            -0.20723132726631774,
            0.393760601462969,
            0.041205690857647914,
            -0.42641070327458824,
            -0.07893108526946858,
            0.09843801589297024,
            0.3656261570025581
          ],
          [
            2.8878903557989952,
            -7.8308382375508625,
            -0.8069068423593823,
            -6.6740979478957145,
            2.9808197027680445,
            -1.2124883149326724,
            -0.794860673128669,
            0.9360294844481462,
            0.5704317738162064,
            2.6987244026456967,
            -0.07521969040248236,
            1.9652213304113302,
            -0.3749284845615251,
            1.301430244435898,
            -3.7491596903693147,
            -1.7116488176165765,
            3.731704017971572,
            -2.7813592543539616,
            0.04062136113292051,
            -2.1642873519582637,
            2.4917952940442456,
            1.3175968023827866,
            4.322644757789413,
            1.7475252033793605,
            -0.11810023639542991,
            2.6514841566130274,
            -0.4865869942456282,
            -0.5853843866898913,
            -3.739800101722922,
            2.9254341535535024,
            0.3355537123940915,
            -3.738461215113102,
            -0.8973467381169488,
            1.8589700540593617,
            -9.656743655323806,
            -1.0022631586347726,
            3.0264488049319196,
            0.4546401547797399,
            -2.822321635961917,
            -4.815705905205636,
            -1.546347622793262,
            1.1485286318266101,
            1.718689234860701,
            -3.443503633031936,
            0.6354126785507983,
            -4.5337397162812945,
            -6.0995168252457255,
            -3.863187499489962,
            3.8647142297410944,
            3.75830898491903,
            2.2841770647093416,
            -3.684524704444727,
            0.4294165631986035,
            1.249497573235031,
            0.01778652295921656,
            1.2774173846595127,
            -8.228989380638366,
            1.0957683308090556,
            -0.4867164234361784,
            1.8456306851422852,
            -2.3359698888109484,
            -5.471784376180217,
            3.185608897161698,
            -2.8045383552946404
          ],
          [
            0.8192649128264472,
            -2.972588187903644,
            0.6005671896045254,
            1.1089043620145744,
            0.7449006121837632,
            2.518091981318787,
            -0.9244485999027271,
            3.003739829352095,
            -1.2971137862797921,
            0.9954866574553165,
            -0.7180576473427782,
            2.10259339770343,
            -6.086451484100827,
            4.717982888195215,
            -8.688045279707245,
            1.639765443744585,
            1.610716551478527,
            0.37577563403442765,
            0.29332845834018584,
            -2.487956944985343,
            0.24002714141576392,
            1.339469904692658,
            1.4875408090011562,
            -2.537078554400697,
            2.2615509577588733,
            -1.8497350832150248,
            -0.49908832893061905,
            0.10925808525632781,
            1.9713064751318532,
            -0.2348753898907087,
            1.148266142574721,
            0.8472866434882865,
            -2.47020428875269,
            -0.36557367972223465,
            -1.6189121103725226,
            -0.9657808261064901,
            1.0742621968164767,
            0.3628250269786111,
            1.6228798514777842,
            -1.8774602432207126,
            -1.1761003478214223,
            0.37938180312700703,
            0.6914507656547363,
            2.03545339947468,
            -0.008853055900589095,
            0.23798853004370427,
            -2.782805941484019,
            0.548322825757051,
            3.3609643165571774,
            2.048221002514258,
            0.7117150574016425,
            3.6889658877711202,
            -0.22937001859459422,
            0.8203252100447276,
            -1.3049923695119623,
            0.7029847112643519,
            3.2717197201665034,
            0.1734323147299464,
            -0.49218852677401587,
            -1.806900226182508,
            -1.8697660651675594,
            1.3130653783077955,
            -3.5876594206897514,
            0.723861688780718
          ],
          [
            -0.3218030718795956,
            -0.5533831044742283,
            -2.0980047735522627,
            -0.20537769519874363,
            3.1477946445562544,
            -0.06571697415982004,
            0.3967682073164003,
            0.9856194623534614,
            1.7805655249747543,
            0.8824771565728943,
            -0.15807603914560112,
            1.1221803903964658,
            5.4126216144748565,
            2.8921411771088916,
            -3.5552145859937685,
            2.476050574592567,
            2.7380146169815807,
            0.9624733153107561,
            -0.9902640128390893,
            -0.5668780903516396,
            -0.34052822135518845,
            0.8092843111924578,
            0.8891410299417678,
            -2.1702918688626434,
            -3.996528305902228,
            1.0216867449168718,
            -2.319270894247479,
            1.5532825071915106,
            -1.6209177700416726,
            -0.5513333761219915,
            0.7099618236272828,
            -0.8167163046733501,
            -0.6127696193342503,
            0.06461778098239883,
            -2.672068744927313,
            0.4029338639917544,
            1.1102685887725348,
            -1.2321721585785124,
            1.1818141475295456,
            0.22115350698381606,
            -0.9641517097109672,
            -1.079235228416692,
            1.563497591144021,
            1.039520201229504,
            -0.5879520857970577,
            -2.197988479942656,
            -2.4732390855508224,
            -5.888771909191389,
            -1.3215684397256928,
            -0.8599039088209094,
            -0.06877180566191302,
            3.0760214256248006,
            -1.4750323284339544,
            1.4309353755673462,
            0.6269572030807401,
            0.33454642704718446,
            1.4500294326871865,
            -1.1595467044787375,
            0.8295660105257889,
            0.49505314885309587,
            -5.433751098192791,
            -3.216220301589722,
            -5.542624455350264,
            -0.3431507045629249
          ],
          [
            -1.8680870724912517,
            -0.3061992706457013,
            -1.0893450416363732,
            -1.170225993847454,
            -1.5523145198889985,
            0.6570322678751025,
            -1.232342113286645,
            -2.0029447973569923,
            1.018965117566381,
            0.03599906794015382,
            -1.5696836970491368,
            0.9590461665967056,
            -1.5522444569859903,
            0.9642986754687497,
            -7.583898432662315,
            1.7574930608055135,
            -0.41235789071373546,
            -0.6708499365941081,
            -0.041608242797229654,
            -1.1658589493906881,
            -2.3164230067980425,
            1.028775772893989,
            -2.563616275913923,
            -1.3433400445812589,
            0.7025206751994383,
            1.0042644630996647,
            0.4397275723473834,
            -0.966334927119092,
            0.33472633829667064,
            1.321335444934807,
            -1.5780250362498125,
            -3.2857595399498347,
            -2.4361650410075413,
            -1.0243013653089519,
            -1.5058780846080044,
            0.9081086642574495,
            -1.4930902802594785,
            -2.518214127900435,
            -1.6034383611744316,
            0.0878836141859777,
            1.6305640705161466,
            2.304197040161936,
            1.8536590840177052,
            5.374102505576507,
            -8.513652109544294,
            0.3919658556682946,
            -5.892940653758331,
            -1.1480691750084184,
            0.1953085907210506,
            0.10747254787664993,
            0.11464756243970235,
            4.745168976298236,
            0.5267799447261061,
            -1.0581970610457534,
            3.3171640989583424,
            -0.3741795967248139,
            -4.772452274857895,
            0.9426017160952098,
            -1.030802494457768,
            -2.633682161128005,
            -1.6366074859985151,
            1.2505366427787639,
            0.18168270939073522,
            -0.3175633981776381
          ],
          [
            -0.1688451072873506,
            -0.7654533677787951,
            0.9210984302973183,
            0.3775768946633995,
            0.38884189302319744,
            0.6889249883551622,
            0.4357067132761465,
            -0.46486614391260284,
            0.21682994654485171,
            2.293456408844573,
            1.6330602535701186,
            0.9672965219597258,
            -0.5334010431330141,
            -1.9668051589467854,
            -1.0543738677630614,
            0.5196244161896747,
            2.9552106325124408,
            -2.918187179459399,
            0.33352410130650223,
            -4.427166130655273,
            5.06436267350319,
            1.5528302995949241,
            -1.3884670178090734,
            -2.4231104368806577,
            -0.40145635488012377,
            0.26956319734366685,
            -0.6315106328790054,
            1.2374080495558102,
            1.793575991740671,
            1.6208938339671406,
            -0.7114494123835008,
            0.4294827204737574,
            -0.1367432018913447,
            -0.9694530738747306,
            0.8692732814310239,
            -0.8468461127884545,
            0.5502814804068233,
            1.2230477545320864,
            -4.776687065754764,
            -4.6737081633987305,
            -0.853772709858712,
            -0.12550806330836378,
            1.1075322263329679,
            -2.5071642219789654,
            -2.0395419640035533,
            -1.4207888086980736,
            0.4949620993141081,
            -14.76735563853411,
            6.118829282643481,
            0.40216343988259984,
            -0.25759119195396,
            2.9318174534159236,
            -0.9601113298491639,
            -0.6815751201670296,
            -5.731749813694716,
            -1.0032559632419882,
            -1.498011951660157,
            2.822025609066853,
            -0.07735182760762639,
            0.04958204831024672,
            1.6218606064245977,
            -1.5814541902049832,
            1.3823912946335482,
            2.1621547051252623
          ],
          [
            0.3434665367629436,
            -1.8794169616797285,
            -0.4505163529777291,
            -1.3990222358494124,
            1.7095371893260871,
            0.20590086727984552,
            1.0324060046220909,
            -0.1162512104396866,
            -0.5504593588724338,
            1.480126593417907,
            0.951235087607209,
            -0.18804263885017178,
            0.9225245151213957,
            1.6173768448672547,
            -2.3185102307269783,
            -0.06465899820476807,
            -0.48165534865151133,
            -0.20224560833287766,
            0.4826786749151632,
            0.32571008093915005,
            -4.082997052576951,
            1.45810471942834,
            -4.245055251346537,
            -1.2569741608832998,
            0.35320802092951825,
            -0.16005279743997536,
            0.16297166421659404,
            0.48655716713571623,
            0.0839518300343579,
            -0.21826300936245138,
            2.5841135569572593,
            -1.0935536738973626,
            1.4372278051410714,
            -0.07085147106499531,
            -3.7313469501797565,
            -0.16149930416037223,
            0.24201879080731617,
            1.4388160291701908,
            0.11207743434989591,
            -1.837305371863847,
            0.35670606784169234,
            -0.5187371248191436,
            -0.6714993676049906,
            2.14719238779297,
            -2.141240626335679,
            1.1366550855275839,
            -3.7584173043201083,
            -0.7274801261642131,
            2.5317424156646666,
            -0.4170273119620363,
            -0.3832512816071354,
            0.9885910131158369,
            1.2593794972386212,
            0.3703009414931578,
            1.1126184392013816,
            -0.7675194851332253,
            1.368541823151681,
            0.3764240764924427,
            0.006737541987618129,
            -0.5398703295300579,
            -2.665253735968798,
            1.0714547259483571,
            -0.05328808409996921,
            -1.4785460411211555
          ],
          [
            -2.195109629735424,
            -0.8862195273339466,
            -0.7499595660600845,
            -3.1195695733340343,
            3.5822889155746616,
            0.4801409225445954,
            0.030698421646680598,
            2.601386414898405,
            -0.8990463007196616,
            -1.5354070728694866,
            -5.162024255784649,
            -0.4876265414089789,
            0.6557429884465403,
            2.625632658145197,
            -2.1265405455140547,
            -2.22410933117323,
            -1.3294218417757142,
            0.07916479412302109,
            -1.3981017444111525,
            -0.5307090464547835,
            -1.8347490442425942,
            0.4973469095861036,
            -1.723064820471043,
            -2.180778565003032,
            -0.5725946090984788,
            0.9096866819879024,
            -1.1766345007442738,
            -0.9858536322412798,
            0.19718697029456242,
            0.25363348113549916,
            2.1848482603825925,
            0.013072650409887893,
            2.0151618639339124,
            -2.8068340499183195,
            -8.295223362798861,
            -0.6440742868210596,
            1.0433512920097534,
            -0.6597178219151609,
            -0.5915794510301882,
            2.3224545246824557,
            -0.455105714878288,
            -1.200749452376662,
            -0.5125712118800613,
            1.9033574587829103,
            -1.0890956293408047,
            -2.378219407339641,
            1.2646332836269294,
            -1.900986414242265,
            -0.006724748487281484,
            2.499195545378031,
            0.365203226025637,
            -2.33389113910713,
            0.29198984438903786,
            -1.2656795281501974,
            0.4099946830239837,
            -0.9016303600343839,
            -11.690462812732527,
            0.03929748559278493,
            -1.1918244332158163,
            -0.09625609898067648,
            -5.809273436349063,
            0.13660436345420626,
            -0.9214855201644372,
            -2.2841419386120276
          ],
          [
            1.038555536869206,
            -0.6770173047710832,
            0.25595072154263165,
            1.3384207150573397,
            0.6721966653148376,
            1.0835052030399277,
            -0.43141000173809674,
            -1.6726772489356125,
            -3.3652398921103694,
            3.517878540513869,
            -0.2061130645826758,
            -0.27795953985008653,
            0.36527260155040236,
            2.082061757970097,
            -1.330763643233288,
            -0.04290416191598954,
            0.6147538827826787,
            -0.27087917628407066,
            -0.7301226683850464,
            1.8859461661418542,
            -2.7764090934290557,
            1.2797323043015334,
            1.5944930759101164,
            0.525076984347403,
            1.1423586452619043,
            -6.431642847018902,
            1.6852014628418974,
            0.49862328181457954,
            2.089812603865362,
            -0.12078494153928312,
            1.2840486959815818,
            2.7441019048966857,
            -0.7619818797539181,
            2.2824637657703475,
            2.0082908387713876,
            -1.0827694469458846,
            4.021179718519922,
            0.30795030457321493,
            -1.0643308307325443,
            -0.060065639758616535,
            0.6964153272019838,
            0.41181037341264737,
            0.6617089706003187,
            2.2359343839836554,
            -0.6309674861757402,
            -1.0708701676380448,
            -13.869540383204756,
            -1.334793142870899,
            2.741742574575935,
            0.4022625780037758,
            1.8137873540378557,
            3.4946381518837977,
            0.3347285404224835,
            0.7645714899827646,
            0.30552959307247224,
            0.5468791955108027,
            1.6305179390725977,
            0.5292941326480176,
            -0.9041931471165968,
            -0.2381802318258978,
            2.744494755015821,
            0.7498577232819704,
            -0.49432406167960424,
            -0.20608131374146352
          ],
          [
            -0.047152529752351874,
            0.06178113575256269,
            1.0121634226383347,
            -4.753055469740715,
            0.5157962520804402,
            -7.584020703223076,
            0.2525327197992627,
            1.7162161677730463,
            -0.32962616748455065,
            1.8418257030122718,
            -1.0624756871658092,
            -0.010552584810425657,
            2.0067031848505414,
            -1.4759806189246656,
            -1.217067948561173,
            -0.42854461201972055,
            0.771620796992391,
            -7.33565988767653,
            -0.5676916192569912,
            -1.1234686784652481,
            0.2319027756746004,
            0.9458456330612489,
            -0.9546766939382078,
            -1.0764226345096666,
            -1.242985420731847,
            0.3980164783076443,
            -1.1099261854040012,
            -0.9178442681903622,
            -1.009685415779475,
            0.9443724147547345,
            -1.292940345428771,
            -1.0147326699235795,
            -2.605602083151327,
            -0.18414745548981837,
            -2.9723301771521444,
            0.4876659677924035,
            2.186635964518792,
            -1.9068710341147463,
            -2.411936477194714,
            -2.735624582858233,
            -1.9963572919639017,
            -1.282607494517756,
            -0.12600670935935884,
            -5.296984500845599,
            0.24860488762603047,
            -6.129316747787383,
            -0.03321884632439235,
            -1.619281267603867,
            -0.838782124671933,
            0.7467868259861302,
            -0.4498494352925785,
            -5.434754662831742,
            -1.8022574434725065,
            -1.8151969630389557,
            -0.6149287005578743,
            0.826201621870201,
            -0.89924862793208,
            0.9384820190629009,
            -1.9852862847076396,
            -1.6111167460864675,
            -2.2448323128951104,
            -2.4966673202768446,
            -0.7708798879499876,
            -2.017296724916049
          ],
          [
            -2.9167600192432324,
            1.343803864719401,
            -1.4378616904744947,
            -1.8200998784374236,
            2.116057177089678,
            0.41361163489887626,
            0.058405675123552554,
            1.2696066565319566,
            -0.23762788903716245,
            -1.2481373908371722,
            -1.8327459664039287,
            -0.2730308730782856,
            -2.915253065825632,
            1.7858418631460313,
            -1.4697059187268957,
            -0.4812019721900389,
            1.048273014503578,
            -1.6951242589020619,
            -0.3917647108726103,
            -0.7736085853401025,
            -3.29349064438101,
            -0.9154391118029437,
            -1.1985519612785165,
            -0.5069067765116034,
            -4.061692716158712,
            -0.14517351683037416,
            -2.175807606765081,
            -1.088134648635888,
            -5.039810605086298,
            -0.016019276406851603,
            1.7798743271778694,
            -2.8199053059292347,
            0.11824831054391678,
            -1.613888518181451,
            -1.1020700673205532,
            0.6446063819790556,
            1.956961147868959,
            0.36136354149479094,
            2.5134618356614604,
            -0.5472310444051883,
            -5.879964575543512,
            -1.35638567613474,
            -1.0719492973407527,
            -1.424812847212488,
            0.153669763139295,
            -3.2716223931153103,
            -0.6477910642303384,
            -6.367379773451084,
            -2.1105016032438666,
            1.3692197872739844,
            -0.3154921489318776,
            1.0239339755508021,
            0.009612759559717715,
            -2.4150503204718623,
            -3.075929154772142,
            0.23452605965228457,
            0.7627045961583013,
            0.8079742894876052,
            -0.7161796924379563,
            -3.506394731021582,
            -1.9308050142872513,
            -0.9999083819463612,
            1.1957783455501132,
            -1.0063021822344422
          ],
          [
            0.829854125520773,
            -3.685698869869414,
            0.4058574814229662,
            -0.31735185904936153,
            -0.015423787874419686,
            1.2322851677492754,
            -0.9674052754861184,
            0.7210194133108017,
            -6.226244102528336,
            0.0048890335156725325,
            1.019460663349595,
            -0.04207725720348829,
            -6.542361817885627,
            -2.7806901818084486,
            -4.65730894224432,
            1.2049637089666911,
            1.0735346633146574,
            2.98081178183825,
            -0.17612592400914323,
            0.7407297704805141,
            0.5479689112114478,
            0.6197321086070703,
            -1.2021144412190263,
            -0.6944633707389162,
            1.1084643287387594,
            -0.3957287800346388,
            -1.1005188152273246,
            -1.2485800604878472,
            2.473888782986015,
            -0.030537191724091674,
            -2.301127576100705,
            -0.4513232417554667,
            4.427864270868844,
            0.3426422266509003,
            0.5323723672251897,
            -1.1960577194135547,
            2.061678678470637,
            1.0394484096394083,
            -0.7946568300533784,
            -8.184957589427023,
            0.6875145953691303,
            -0.34708950837575037,
            0.9147383611152,
            -0.3205553028733716,
            -3.4028422153808964,
            -1.6624585608481923,
            1.5872756800244825,
            -3.650652559144198,
            4.215652390096901,
            -0.3332713624230959,
            -0.9745859067018622,
            2.5532097239434304,
            -6.2929791383323135,
            0.21520655908777234,
            1.958651135232309,
            0.6920337991256569,
            2.151344606233212,
            0.7998285551690922,
            -2.297238703595574,
            -0.28247758049397603,
            -2.270743571959668,
            0.5170802061146766,
            -5.769758314660165,
            -0.5885535633245282
          ],
          [
            1.6396518838853673,
            0.6229547581332279,
            -1.4210148611980227,
            -3.7340389280128465,
            2.558338772295335,
            -1.0769150495261384,
            -0.2664622603857195,
            2.4814267507178975,
            0.8262372456701298,
            -0.688043647604163,
            -0.7932080872112058,
            1.5572897929972633,
            -3.419979584201454,
            0.1808794664917968,
            -1.88502565259461,
            2.8634316731666516,
            0.6463703525242931,
            -1.420687694362458,
            -0.3251790051132377,
            -1.336100195898006,
            -4.182162047069716,
            0.31588948399715816,
            1.7735480071951388,
            -0.7197804757775014,
            1.5255358604774507,
            -2.53121767434401,
            -1.5380434431021814,
            2.4945107772486295,
            0.08521884524839951,
            1.245193171486986,
            1.654505368848686,
            0.31736419333215576,
            -0.6700612940348564,
            0.7691922424245152,
            -2.910972222739592,
            -0.9238330891444071,
            -0.33855793485134006,
            0.07047062345016673,
            1.1033042931641888,
            1.2979403525533901,
            -0.7886517685002287,
            -6.209433943086274,
            0.7039456802774808,
            0.07513005555203853,
            -0.25416620008084345,
            0.3324213324389723,
            0.5767052049669292,
            2.073157175418148,
            -0.9374598881605899,
            -0.9336746852726433,
            0.26333075456987515,
            1.5040670262894773,
            -2.0204054868431283,
            1.4891072418293188,
            0.5994826467657992,
            0.5991710222962071,
            1.8682563456972396,
            -1.818334889039237,
            -0.5092376543379892,
            -1.4362326779881218,
            -3.059029479652226,
            0.9067412485822505,
            1.5731973787855043,
            -0.4627430701595705
          ],
          [
            3.9630013982451406,
            -4.503164450860828,
            -0.6994257011612912,
            0.2009148830345094,
            0.017714546153536622,
            3.3189898208857547,
            -2.807037864956873,
            1.689928063718182,
            -6.5047338036319555,
            6.027657059130776,
            0.7456238428258776,
            2.3695789081217122,
            -6.022505390696038,
            0.6843972428562455,
            -0.2547305367442352,
            1.0654830251424634,
            5.122398700094575,
            1.1347332892761242,
            1.4129127025430563,
            -1.997565626204584,
            3.248230643519553,
            -1.5131859352927934,
            -2.10670956528061,
            2.1491924318722777,
            3.7365684645156945,
            -2.7501850455561865,
            0.6656313552547832,
            -5.02647666997251,
            2.6792285185391425,
            0.37450907478836354,
            -3.1392986883513463,
            1.8630802949067817,
            1.5091382753467923,
            1.739487968228199,
            -7.210057108202568,
            -0.786665017729009,
            -1.6213686343619311,
            -1.2187121102688239,
            0.14135971283391935,
            2.0239117913024693,
            -2.2185933976601624,
            -2.9437417669926207,
            0.3962270793798518,
            3.4707936915816746,
            -0.8348211693079967,
            -2.6471214421732987,
            1.8295825304351439,
            -10.1307379546192,
            2.4878540795467416,
            -0.3509599146043812,
            0.4745988997017571,
            1.0379425836097962,
            -0.9591733631715753,
            -2.895202230254513,
            -0.9451790188459398,
            0.5355229894493795,
            -1.9887484526367247,
            3.3431072574647818,
            -2.1555466174779694,
            -2.328914849548474,
            -0.28200962495090903,
            -2.072826188012039,
            -1.2335816051063617,
            0.8153391847344588
          ],
          [
            2.734418258988932,
            -2.5919543443490585,
            -1.5265386121548532,
            -2.7889736553118754,
            0.415171635112373,
            0.5018861056273498,
            -4.487432010750607,
            2.508701531200423,
            0.37005633090816,
            0.5063852324051126,
            1.692208821733037,
            1.2933742551499476,
            -2.2303683107735433,
            -1.5576064198987132,
            -3.307856453955707,
            1.204762540514354,
            -0.8555897923839565,
            -0.16210792979248448,
            0.06265891661930598,
            -2.536954570142693,
            2.472607952746146,
            0.38381327880675303,
            0.3038592127495843,
            -4.1751492150394,
            -0.028305339955096154,
            -1.1659402125318319,
            -0.5244298912503064,
            1.2907092235873665,
            4.216289174353615,
            -0.7702375468208082,
            -0.9325226160705118,
            -1.8496186996306094,
            -1.4575290226226603,
            0.48733523068800383,
            -1.953413388368039,
            0.41499569096886746,
            -1.4399161815764978,
            -0.7346665013095988,
            -1.3168124318087273,
            -5.197323775956717,
            -5.670516203942636,
            3.502312795227125,
            2.4232786269080826,
            1.5624981239762898,
            -2.5269854105181078,
            -0.46470117380704784,
            -19.68104002335388,
            1.2487295544925183,
            1.5063345980854494,
            0.7605211599456227,
            -1.4604931901026368,
            2.028615486100857,
            -1.8992412084407464,
            -0.21325031124682353,
            -3.0755828798010016,
            -0.4511460873753019,
            -3.501917194179479,
            -1.0490718527785732,
            0.13077230906026233,
            0.7487518724391323,
            0.46301523776865616,
            2.5153666902620757,
            -3.8360582434164923,
            -0.3341217310969346
          ],
          [
            -1.9546949421017366,
            0.05523907501798043,
            -0.04038530001069983,
            2.384306544857114,
            -0.9205922614889492,
            -0.9281863338816371,
            0.10426599947510504,
            0.8451928296873342,
            0.5732580469564192,
            -0.16575139350738358,
            0.6349585652316091,
            1.9079701382009973,
            -2.755691059850352,
            -2.0092927013844597,
            1.9072685509273435,
            0.7792561573680293,
            1.511258433758397,
            1.2081015069562993,
            0.10635738737968432,
            0.764900742044246,
            -0.3815567919726597,
            0.3358921215266672,
            -3.1838636341253514,
            3.0338311550135537,
            -0.5801511584607787,
            0.24436153940508984,
            0.6382713996886479,
            -3.459911745539998,
            -1.954579039293261,
            0.8697027228383392,
            2.2080547765143734,
            0.06283162905955667,
            -2.8069538171411015,
            -3.2918597884827405,
            -4.250173677422469,
            0.41010180088660436,
            -0.5031126069752406,
            1.3506312639677995,
            0.32337275810545335,
            -5.2877220491756205,
            0.2107759602932915,
            -1.5088360803294207,
            -0.8197847206903517,
            -0.6357505045272593,
            1.6526244737802447,
            -1.2900383052833824,
            -8.021966547938446,
            -2.430945170491437,
            0.8931091382669911,
            1.5939769933563723,
            0.5442487600850368,
            1.1258805350061354,
            0.653661793189942,
            -0.23009666933756506,
            2.0897518914390165,
            0.19843646552959834,
            -3.4881378109107186,
            1.1767574700481982,
            -0.34394662544050053,
            0.6273682509804318,
            1.3489878019586001,
            -2.8513776929184833,
            0.9263900362531471,
            2.4881391761380076
          ],
          [
            -1.172945910240152,
            -2.1442321481901385,
            1.119984157207532,
            -0.86309761735763,
            0.2752021141608242,
            -1.3755908423139513,
            3.0768096753206486,
            -5.9689288747934555,
            -0.8184330838896859,
            1.8764527021936899,
            -0.4414461856779245,
            0.7205067656633317,
            -0.8479691966821608,
            -1.4228729658906052,
            -6.569033248739746,
            7.105795436046906,
            0.3296354443516838,
            1.9664635603326535,
            -1.8673654614454949,
            0.19388287148398803,
            2.0787217978926686,
            2.222690192803521,
            1.6483557355214409,
            -2.6595456415398866,
            -2.1322589607996036,
            -6.304214190439206,
            1.1773019033995606,
            -0.3041645018396219,
            -2.7193482888432934,
            -0.27977545210248966,
            1.033344844947593,
            0.7413489466074924,
            0.45034109476901135,
            0.3424939085027868,
            -1.961822295512804,
            0.26089670292562606,
            -1.2579386768456988,
            2.607230541202864,
            0.2157609700398529,
            -5.5179175261092634,
            1.2113681768772424,
            -0.03844940026030067,
            3.3014807907162966,
            -5.360637919430919,
            -2.548703630240395,
            2.0010617771599315,
            -1.5490802970535007,
            -3.242733198236687,
            -2.377085175975522,
            5.154760765435373,
            2.9254742230526896,
            0.07070455405987552,
            -0.0743952511698379,
            -1.2171847310099673,
            0.5361235238879383,
            -0.159325830327371,
            -0.8791675826271328,
            2.2446903791886714,
            0.2195749922921814,
            1.8656972875603317,
            -3.5541394570940525,
            3.219096530901408,
            -4.727139510501518,
            -0.11786020880179743
          ],
          [
            -1.0645230110067625,
            0.32117407176356233,
            -0.005155972037154475,
            -2.2231487839798105,
            0.5860663159010455,
            -0.11409604553639245,
            0.16653710168376157,
            1.3946992918601062,
            -3.06181299815367,
            2.3110184373578577,
            -2.06073139714275,
            1.4575690443916391,
            -3.6057992229177676,
            3.562173395455278,
            -1.998320234187991,
            1.4047312593077954,
            0.019732068918206298,
            -0.03032210240876263,
            -1.70640289344017,
            -1.8429323388286971,
            2.3934709627597615,
            1.9414223185495791,
            1.5989621094036657,
            -1.2609641024489509,
            -2.5380332547415416,
            -0.5094738668893021,
            -0.028962866490568267,
            2.112017659059145,
            0.7735872275730027,
            -0.6127137462033915,
            2.421852806261974,
            0.8893492013920743,
            2.5710580814363975,
            -0.6883507325268574,
            -8.400460178886533,
            -0.1333993825973867,
            3.1808822653378925,
            1.3308264648929495,
            -2.1713388783097876,
            -1.4728029971501606,
            0.66152163652874,
            -0.6040643499843842,
            0.9145723718634126,
            0.5505206594440709,
            0.39109601468667893,
            0.6868194729187237,
            -3.7568489401748826,
            -3.09001083732059,
            3.559323027472346,
            2.342708965921828,
            0.44759650567333137,
            1.9637424712418232,
            0.9732730197218986,
            -2.9540865061881005,
            1.346191498261576,
            0.9873982951862206,
            -20.378203778205496,
            -1.928641219203925,
            0.6351498304345358,
            0.07007597124509819,
            -2.3428227089046136,
            0.07862720766194234,
            -2.3292453867755145,
            -0.5168822269507172
          ],
          [
            2.4573282714446676,
            1.143343087183818,
            -1.1479411463390965,
            -2.496912870959849,
            4.896474374909259,
            0.3513053743673836,
            -4.39415524070534,
            -0.7752974275272516,
            -0.8906388851050906,
            -0.9311890326498267,
            -4.12921599383881,
            0.7917529481629021,
            -4.635422851645073,
            3.5693112009178356,
            -3.797812414297739,
            5.109678519723835,
            6.168095778695514,
            1.6260184484422944,
            -0.8608041144233172,
            0.7630538994488385,
            -0.5468184201969514,
            -0.953448794789802,
            1.784058169922477,
            0.512085617546361,
            2.828234003194352,
            4.5458950756284935,
            0.5129826883981187,
            1.9305509015196771,
            -0.8498581759045366,
            -0.9329736271740263,
            2.673228333480237,
            1.0692702061871902,
            -0.6591762320578342,
            -4.263484234427644,
            -5.3191053387483604,
            -1.606336345307628,
            3.7803182342720127,
            -0.730380786574755,
            0.04456237388252994,
            -7.541391147073296,
            0.4587714546579277,
            -0.7480295739153271,
            0.645763570317355,
            4.127405741292855,
            -2.215913604141281,
            -1.1845426876561878,
            -13.614316588023724,
            -0.9769992071175227,
            0.08527741056050789,
            4.256206790883592,
            -1.5316301219258754,
            -2.077474169397708,
            0.86155777841258,
            1.1681563626406064,
            0.8030485760413725,
            -0.952628557239176,
            -6.346043564834332,
            0.6473391648694811,
            -0.6027672731582407,
            -0.6952513092800944,
            -4.688644377265057,
            -2.9600132937196633,
            -12.677676071502269,
            -0.8587103954199194
          ],
          [
            2.2518460334614607,
            -4.531446365034718,
            0.8624331064025539,
            -1.3611859054021354,
            5.581033154080191,
            -0.4209113792134349,
            0.5958910808247254,
            4.269157745944406,
            4.505351301740614,
            0.1351039195523874,
            -2.3605313113954196,
            -0.24092299988213242,
            -1.49222497578823,
            -0.23625191922623304,
