{
  "engine": "nn",
  "version": 2,
  "feature_encoding": "ray_wall_body_inverse_v1",
  "epsilon": 0.005,
  "epsilon_decay": 0.999,
  "min_epsilon": 0.005,
  "gamma": 0.95,
  "learning_rate": 0.0005,
  "hidden_layers": [
    64,
    64
  ],
  "batch_size": 64,
  "replay_capacity": 10000,
  "target_sync_interval": 200,
  "seed": 42,
  "training_steps": 650137,
  "last_loss": 0.07506026263297219,
  "network": {
    "layers": [
      {
        "weights": [
          [
            0.07060931545781562,
            -0.16785137267014477,
            0.02745879398038388,
            0.34277684896717453,
            -1.2801178041082988,
            -0.4888317212374844,
            0.44062616795076825,
            -0.39127282630530247,
            0.11817952112435764,
            -0.35813826279223004,
            -0.15459820047923775,
            0.3668513188298949,
            -0.24325985342597556,
            0.15895998210988108,
            0.5154716410297825,
            -0.14701841769423762,
            0.2768536092027729,
            -0.3929898136923884,
            -0.19976882263196372,
            -0.2830988470494077,
            0.38870357430898617,
            -0.47948189405013936,
            -0.560068072935684,
            -0.1554485719494046,
            0.6484621737818821,
            -0.5587599053079042,
            -0.16424846176786945,
            0.4408425618183829,
            0.4354612990191735,
            -0.5525248115736447,
            0.6971512386298656,
            -0.1569401870094539,
            -0.3764091668625234,
            -1.2963151586441346,
            0.3781188659329065,
            0.5476162166584726,
            -0.20302560735660427,
            -2.376898313374493,
            -0.16923063198331564,
            0.04106120150072677,
            0.5953838478937128,
            0.2636610376439485,
            -0.3030909639700643,
            -0.04436556944060398,
            -0.2032149211363459,
            -0.3704685879490899,
            0.18350607275451614,
            0.051552205196593454,
            0.7182539875677629,
            -0.2163285815977268,
            0.21936974077988203,
            0.5548183717867051,
            -0.3563371246190868,
            0.015848234370955193,
            0.8239863200783971,
            -1.0825888807605513,
            0.2952447798628407,
            0.5614662487854738,
            -0.20139379830189044,
            -0.8283961249104258,
            0.1743999237273707,
            0.3530044791594271,
            0.15626081274865525,
            0.710565641425139
          ],
          [
            -0.43562185629860706,
            -0.6062474462744849,
            0.12855955410202446,
            0.2948433196319356,
            0.35210396801044375,
            -0.6501676247516125,
            -0.029225064482425445,
            0.08174204459272216,
            -0.6262956043975733,
            0.19005091718175865,
            -0.5667103680911194,
            -0.24283319968191336,
            0.08388740089633492,
            0.028952634718286324,
            0.5938621280254271,
            -0.23954355644161876,
            0.9564519396009883,
            0.05702001200828672,
            -0.20774037052763922,
            0.3900066418861153,
            -0.5877215759690897,
            0.19079083966003532,
            0.011559342177181563,
            -0.1789518357388876,
            0.13814411542065944,
            -0.053586243949485815,
            -0.03261399578903278,
            0.26250951177883497,
            -0.09371084833328738,
            0.1170528492927958,
            -0.1032646470655092,
            -0.07418959338893488,
            -0.42988425638362016,
            0.2972980544469473,
            -0.6966799251838284,
            0.048925798803274356,
            0.6973377611306426,
            -0.023628658224578564,
            0.0376004103309498,
            0.1356071082588657,
            -0.5346204177081044,
            0.21954296610575233,
            -0.5338068724581052,
            0.07453074549483052,
            0.010714691210142247,
            -0.3491335912692613,
            0.34865441396583585,
            0.5982967441170716,
            0.20233348195937131,
            -0.11174025035421148,
            0.2633407123513078,
            -0.8219727853329519,
            -0.3889746803896121,
            0.668479062146399,
            0.2773267435731811,
            0.1583374775532249,
            -0.08428440628012072,
            0.011689778381190395,
            -0.06015350164071471,
            0.6963734210515337,
            0.7929097330800923,
            0.5735328307261407,
            -0.6818518021204643,
            -0.2489181470504183
          ],
          [
            -0.7004572051237461,
            -0.2995769985346302,
            -0.0008832216681839934,
            -0.7548883520690508,
            0.049207314822615644,
            -0.01040498818936807,
            0.4754503175120882,
            -0.09868715362648899,
            -0.27846614212539117,
            -0.346274535683319,
            1.2871176487495495,
            0.7104897621439457,
            0.48521354154084206,
            0.1859385551901008,
            -1.0241539314137356,
            -0.1257568575257279,
            0.342675738392372,
            -0.6480090559527155,
            -0.130938000247871,
            -0.013648935355620489,
            0.3000731956616087,
            0.4070985383807158,
            -0.7425580729857618,
            0.30474148934078205,
            -0.6132189036265847,
            0.1035845142239725,
            0.18143923012096577,
            0.23605226124723133,
            -0.993611759165917,
            0.30521471765156705,
            -0.3484950647336725,
            -0.13068000108639372,
            -0.13163307053464005,
            0.4151122390541393,
            0.23289546849719484,
            -0.9405870524461014,
            0.3170532825674261,
            0.36719316073166297,
            0.5547012695564534,
            0.09000863359300638,
            -0.3131720790866973,
            0.29129269647776507,
            -0.17186221285906728,
            0.8120033266965876,
            0.03862962963747022,
            -0.15732873518099896,
            -0.6431415197743994,
            -0.057343660640996524,
            0.467680649533274,
            -0.24744698790248004,
            -0.19071451128402492,
            -0.4733243134443699,
            -0.06832047278580675,
            -0.17897352921835868,
            -0.8055445567624488,
            0.18457076230445915,
            -0.9128559477024193,
            0.7290662482734572,
            -1.1064438201158038,
            -0.3873748090321098,
            -1.007116249051939,
            0.5334644836564241,
            0.6594418813158521,
            -0.3485005408169769
          ],
          [
            0.48389155970354086,
            1.1615984743084338,
            -0.020649676184044053,
            -0.2837964792808217,
            -0.16059362300767285,
            0.49974798849555024,
            0.592151010538334,
            0.2396555322275439,
            0.3848143675925548,
            0.6109846204965216,
            0.1480346703788473,
            0.2627446853297757,
            -0.500524993267796,
            0.23669718186181485,
            0.16460710833998343,
            -0.1382574984041446,
            -0.2056569490639382,
            -1.251187591326593,
            -0.27604903180042784,
            -1.2282993202142118,
            -0.47494985965286385,
            -0.3220002534490261,
            0.4379665318976003,
            0.7245326658161202,
            -0.5196513853363214,
            0.9586363258578032,
            0.47211167879218086,
            0.09327298648005033,
            0.6247106572044763,
            0.19553390844822177,
            -0.6322580379700773,
            -1.1663295338382904,
            0.2280312732530518,
            0.2697953259104388,
            0.46931431657240863,
            0.6933917281426437,
            -0.7198014149815963,
            -0.363841352880562,
            -0.11885992053037714,
            0.14302535667448293,
            0.30257957956389264,
            0.17660168094574022,
            -0.8302732317381916,
            -0.2313786209192946,
            -0.3764415214403463,
            0.2776112717288016,
            0.12779317450025332,
            -0.27776403395967286,
            -0.4620005492009681,
            -0.36635199367098253,
            -0.4464993869647653,
            -0.3221821665441704,
            0.869558478521255,
            -1.0693788345300415,
            -0.2866524183082524,
            0.16736018584719872,
            0.28263174534536206,
            -0.5939035630245101,
            0.05422139349855906,
            -0.6792719426433244,
            0.8219234669411937,
            -1.1153110107930175,
            0.10223951129508621,
            0.27170714316439504
          ],
          [
            0.045797773709531746,
            -0.12275317005725978,
            -0.32744177037384875,
            0.27599787626968714,
            0.2734908809742382,
            -1.1109373499884372,
            -0.35045654940965815,
            -0.27823041132914367,
            0.2521213501792036,
            0.37368304530521806,
            -0.009549759943095346,
            0.449161685594833,
            -2.9124547762734525,
            -2.176038737101848,
            -0.39407671947212025,
            0.6085811737078265,
            0.08411572794844879,
            0.5109820875851901,
            0.5805367463983709,
            0.09701637161240594,
            -0.30528848209698317,
            -0.4712054248072894,
            0.553904409822947,
            0.021466363744330773,
            -0.15016491471111554,
            -0.13998668110864435,
            -0.0570693788968289,
            0.15882891177553224,
            -1.0588880505326024,
            -0.13668699181512597,
            -0.7954030377635729,
            -0.07285335791529017,
            -0.09091157954632607,
            -0.634446801846556,
            -0.32289714749933984,
            0.08452059695597114,
            0.48234502519035827,
            -1.8992580296197215,
            0.1905951476761455,
            -0.25810814471294424,
            0.386867175657492,
            0.11302751495052774,
            -0.5341712573764322,
            -0.46597248668542457,
            1.0598694040581889,
            0.02000259605168866,
            0.4546898037055488,
            0.23929889668900028,
            0.176242293194211,
            -2.1161979111175837,
            0.11440554165183797,
            0.1382333325351374,
            0.4845147377080045,
            0.1304290621981988,
            0.189479544886576,
            0.7342595535676997,
            0.44347855359059823,
            0.5793734990461908,
            0.19662823112102354,
            -0.3366973665030195,
            -0.3757255339718859,
            0.041436347257936136,
            0.4011163934710942,
            -0.3629110089185713
          ],
          [
            0.35228809593869426,
            0.4078812730461402,
            0.5561636538170815,
            0.5466584792396929,
            0.3023760768357735,
            0.07621228110744574,
            -0.5865634384845678,
            -0.46133062820995036,
            -2.0743607789923217,
            -0.4360914613152969,
            0.43311180479442535,
            -0.22152645996974774,
            0.13740932595562858,
            -0.16864965016562844,
            0.26379769043007995,
            -0.4150017040822875,
            -0.868826103189082,
            -0.15579461429934044,
            -0.019934326706021178,
            0.2790763093891266,
            -0.35891384380884095,
            -0.13415839513442332,
            0.3458734780642585,
            0.5289839995289816,
            0.21754653762213103,
            -1.0216258018610203,
            0.047505207173841754,
            0.25044997467953295,
            0.1493760124316641,
            0.2708522011701323,
            0.2544781534983428,
            0.06839954842539293,
            -0.5471911446040543,
            0.35191260249790995,
            0.5363154403272585,
            0.020661431841617877,
            0.6793677990675706,
            0.2957278466772611,
            0.06353294840526766,
            0.012603804759970413,
            -0.18868150060308528,
            0.5359931999295516,
            0.1967048110459798,
            -2.5640477193543902,
            -0.03218320107127167,
            0.7754789898944051,
            -0.9134810106647379,
            -0.503755239795053,
            -0.06828647505495769,
            0.49130525151123866,
            0.18396038578430784,
            0.43787995760836435,
            -0.05708579877034689,
            0.14626422036389594,
            -0.2411637758858056,
            -0.17679180124652782,
            0.33523302819642514,
            -0.5996975927569657,
            0.6350317634235951,
            0.12692415406241628,
            0.06350768155912445,
            0.2756697236445216,
            -2.041716221282067,
            0.012576331106530394
          ],
          [
            -0.8593970968657748,
            -0.11219322856652646,
            -0.05195820095890725,
            0.6149122661431545,
            -0.7087301681120108,
            -0.7530609366433645,
            -0.3961814313415639,
            -0.580907908410598,
            -0.26925758220146917,
            0.13184429482243162,
            -0.11593018863457348,
            -0.7481424426271327,
            0.02933084722882496,
            0.3779744104782644,
            0.2691405815187433,
            -0.09122177401075975,
            0.10098956834830858,
            0.3265199350560417,
            0.6249527400354095,
            0.10392552381942705,
            0.24142630155124822,
            0.10475974659139016,
            0.3004626251292231,
            0.34667448481223534,
            -1.5124235483017072,
            -0.005072427816305066,
            -1.4502901429197113,
            -0.430350515815445,
            -0.09677010059730207,
            0.19941319074073144,
            -0.13041337645847595,
            -0.4605883667716491,
            1.0042600336506788,
            0.37501255745034573,
            -0.07512853230714285,
            0.5377385625852885,
            0.0009606919550360948,
            0.07072347134358725,
            0.5927145825498269,
            0.1334542827514824,
            0.18401122844102624,
            0.0521292748699567,
            0.5688407855915284,
            0.2309257648095327,
            0.27698407771720623,
            -0.001397571488554256,
            -0.40097937629589053,
            0.30251148419927315,
            0.3214514315270992,
            -0.04803643964645275,
            -0.035445732953369995,
            -3.4293220245415683,
            -0.31127353428312093,
            -0.3360567354425321,
            -0.5996479771387974,
            0.5882835220636008,
            0.23996345842457956,
            0.0771769304125748,
            0.0007711884620885958,
            0.7019395556194784,
            -0.24993709631671068,
            0.12748759939532903,
            0.6939825306149375,
            0.15334998161297514
          ],
          [
            0.10099296962418412,
            0.21758119829111514,
            -0.6704635699111061,
            0.1176732079470366,
            0.28247921065264103,
            0.9934963895679972,
            0.06983040887624199,
            -0.04631888690888998,
            0.3961199636342787,
            0.21373873410128466,
            0.14104559949419063,
            0.024301239961970377,
            0.13733110629424303,
            -0.6245239829631698,
            0.022214657215825745,
            -0.9049848230732482,
            0.03556064708655115,
            0.09568691276467971,
            -0.4102271828745705,
            0.7647903545821827,
            0.4057112194593481,
            -0.9108445464320628,
            -0.10374656209212366,
            -1.64158505876792,
            0.031785578529193274,
            0.1842047669054164,
            0.4819001739504268,
            0.15782918544693975,
            0.6750559188870966,
            -2.4113077908886638,
            -0.4973249052546945,
            1.1398944156165063,
            -0.59199051747761,
            0.37379961692239616,
            0.03438640521549855,
            0.5041708014318057,
            -0.21137880546474097,
            -1.0618338815253354,
            -0.3658664913755185,
            -0.1051080377444393,
            0.07113864856460544,
            0.15152650143225613,
            0.10466422129243803,
            -0.023705228916162134,
            -0.31073765163458916,
            0.18618817043774677,
            0.10120037412222566,
            0.29421299996371325,
            0.36629231764145764,
            -0.051868833998131005,
            -3.2652206156238095,
            0.07324169642391544,
            0.5549120259870554,
            0.39739401510116884,
            -0.44763019875613747,
            -0.04089021754804696,
            -0.6368378470159161,
            -0.13117554600343165,
            0.6166431044431858,
            0.36480588891656074,
            -0.29027306252782764,
            -0.08305074505710572,
            -0.4379942176771307,
            0.01134563128767121
          ],
          [
            0.28001952550034814,
            0.0012088010112556859,
            1.4351313588277692,
            -1.127231075617838,
            -0.854110518894584,
            -1.7381490733378087,
            -0.04410945892178117,
            1.5691330320179921,
            0.2574727339198766,
            0.3721688292985878,
            -0.2202979029839268,
            0.2013248564589895,
            1.1743204136299559,
            -1.8219212384263106,
            0.2941171106470647,
            -1.5301147038421588,
            0.5662120761536511,
            0.3584462031696912,
            -4.2508088463695115,
            0.7366140748756927,
            -0.8078713650653293,
            0.28286916643251947,
            -3.3376437720193906,
            -3.4832874419617714,
            -0.1292961119844661,
            1.5571732181213878,
            -2.1495625720988505,
            -2.7698920040021062,
            -1.6654354612969218,
            -3.595316131866123,
            -0.9444244584169107,
            -2.62078485058422,
            0.5837884832243402,
            0.44725882271570233,
            -0.16847823784686308,
            -2.0106070164416137,
            -0.9110694022597375,
            0.5945279968388649,
            0.8353480751313437,
            0.10833638987817577,
            0.05494816390302036,
            0.8374057453172925,
            0.47560544289966084,
            0.39302074517161173,
            -0.08196001709740684,
            0.207343698585096,
            -1.5111956106632258,
            -1.5419615525338446,
            0.12707753894275317,
            -0.2833453951905573,
            0.24253587835014553,
            -0.6896496106289437,
            0.9013928332601562,
            0.16165191667930923,
            0.36838857344920317,
            0.6950539929987998,
            -1.331423647934473,
            -0.18001968501795979,
            -2.030186743714091,
            -3.1110535790918448,
            -0.6438188488184833,
            -1.7305363251740098,
            -0.006240568380904567,
            -3.126749034545986
          ],
          [
            -0.03328883202114174,
            -2.8059440102601783,
            0.5626319023227707,
            -0.007617018108671257,
            -3.9889985911702,
            -0.4355569388372798,
            -5.915767800598187,
            0.7119284875549322,
            0.8087192361342282,
            0.58549389210635,
            -6.436882544356314,
            -4.997787966665875,
            -0.13895317757516076,
            0.3662408302253945,
            -0.9703600137329558,
            -0.5102587000956846,
            0.8067440012645446,
            0.20957342271888202,
            -0.4547605178071655,
            -2.2218704237828226,
            1.271289821965919,
            0.3964758249948917,
            -1.3708852720358935,
            -0.9435456893401222,
            0.05963639228648143,
            -2.419158187342217,
            -0.1267945990860838,
            -2.3928121803549804,
            -5.091549401681926,
            0.3006990877929847,
            -0.8131590821620841,
            0.08843182037831446,
            -3.9282007239342267,
            -0.18125578916959814,
            -5.111326716790853,
            0.6793641247866709,
            -1.844664264485744,
            -1.2180173402164503,
            -1.3917047060444239,
            -1.6215091036668015,
            0.7478132697981753,
            0.5966738976758712,
            -0.3804639638217053,
            0.4203872616091971,
            1.0609507875781126,
            0.7458224092913027,
            -0.6290274657499606,
            0.019946705589298386,
            0.47779438557611054,
            -0.7702676414747677,
            -1.433374301386705,
            1.0996233664525816,
            0.27781781242402553,
            -2.5263594743661035,
            0.7514100107405461,
            0.722854550876451,
            0.4502656707190771,
            -1.1622485393428335,
            -0.8730367603182864,
            -1.5926903216699453,
            0.13318674230662267,
            -0.7629154031737513,
            0.277870896987091,
            -2.71502886052966
          ],
          [
            0.43317029261026785,
            -1.5150501671527352,
            1.1558796083520075,
            0.8470069162288896,
            -1.5528335227846062,
            0.6652675429093654,
            0.9043283913291044,
            0.2570962299487597,
            -0.18811808695460405,
            -2.376088927256325,
            -1.1196303085257584,
            0.3052981247189593,
            -0.08087783570855411,
            -3.039413921282779,
            -1.2852685189619912,
            0.5296102412662298,
            -0.31975945364979436,
            -1.635929317389422,
            0.33831284919098703,
            0.191012104461695,
            0.328742435489909,
            -0.432864687340384,
            -1.2735990957899592,
            -1.6365073698984836,
            0.6715075459329445,
            0.8398961442485049,
            -2.4794185842015235,
            -1.787734838014527,
            0.06148726669876241,
            0.016611402887370372,
            0.06508607716594032,
            -0.3228217818882611,
            -0.05278314620328389,
            -3.4537715575271886,
            0.15087696458291167,
            -1.6781639422254495,
            0.24426217885914514,
            -0.25751532648261005,
            0.11559469607249578,
            0.9132009716387091,
            0.2376384039501994,
            0.7122058626558094,
            0.47331939048300253,
            0.059751873990927226,
            0.41076793925031835,
            0.22774095915570503,
            0.584964048499178,
            0.13970772840316054,
            -0.43644867292726314,
            -1.7789643094069811,
            0.6044760683888252,
            0.9874571872122283,
            -0.01267613458442686,
            -3.3623718830991898,
            -2.11313477692702,
            -0.31056184133316417,
            -4.909508055417458,
            0.4732868634898449,
            -2.9229754249123086,
            -1.5663139613531256,
            1.227045707070012,
            -1.950570438115743,
            -2.7958842474653607,
            -0.7467835671766888
          ],
          [
            0.06158319454708862,
            -1.1754424233687348,
            -1.970769614132126,
            0.0015278375987063891,
            -0.7276454063406023,
            -0.6156767797743766,
            -3.5784582795636717,
            0.062466706098491004,
            -1.1548213030438008,
            -0.19736683023371168,
            -1.0803786757233873,
            -4.018732536686021,
            -0.9512757202371803,
            0.5790138923574146,
            -4.764460862818444,
            -0.8650406486233184,
            -0.5165623312020269,
            -0.026601899659420253,
            -2.056095752895719,
            -0.12371449085468192,
            -0.2396246974965127,
            0.8055602469602179,
            0.17260958816719116,
            0.23477891873532028,
            -0.19348358003393953,
            -0.5705925749138919,
            -1.919423034478208,
            -0.6589580660577977,
            0.0494155473211152,
            -0.0954264413660801,
            -0.9508773859404577,
            -2.0260426000579472,
            0.5269503216467665,
            -0.022623900490669344,
            -3.3811698987754064,
            -2.490470588691836,
            0.7924944067499872,
            -2.2789399923371607,
            0.8091003602393523,
            -1.9207498866856876,
            0.37856588715432293,
            0.5268287523013145,
            -0.060212151720563996,
            -0.9503042989370316,
            -0.35889871149342556,
            -1.4888823915406801,
            -1.6378898075977517,
            0.14028348194383275,
            -2.6025259442390807,
            0.6840957110243883,
            1.392097111902252,
            -0.5054123156389341,
            -1.1077200310924704,
            0.8907229318069704,
            -1.384897409103798,
            -0.3071645372344277,
            0.7428574829168169,
            1.5072904785847088,
            -0.8829904537997784,
            -4.094500840811521,
            -0.776892268320959,
            -3.2759108494740428,
            -1.5185315374439463,
            -1.6298853625143925
          ],
          [
            0.06579077326964013,
            -0.8954125660453545,
            0.3042941172002601,
            0.22988290980897572,
            -0.9292441317668882,
            0.7371698520017403,
            -0.19908510184530137,
            -0.6048725591898357,
            -0.08770208794083303,
            -2.973953118192987,
            0.3233636622591106,
            0.33116981677132534,
            -1.3283245925690519,
            0.5469547975722204,
            0.48847098609736156,
            -0.9307638450902478,
            0.10639006364851505,
            0.330083648025249,
            -0.45797869533652,
            -0.8143274123757541,
            -1.7596076784049042,
            0.4150536264960725,
            0.536901977779306,
            0.1407501557744112,
            -0.2854435612753411,
            0.9743115828723227,
            0.8453399140026767,
            -0.7270978923558845,
            -0.2514548360223792,
            0.21088454042929275,
            -1.2525223224843711,
            -0.5969600273534652,
            0.6876932527678737,
            0.5145775065903968,
            -1.7904121581995867,
            -0.557104856289525,
            0.8001357190133908,
            0.7195630786195221,
            0.41585817517816026,
            0.16351457848888945,
            0.247966218392643,
            -0.023560553833309596,
            -0.060800072161728974,
            0.4040933238162088,
            0.41901871226063614,
            0.30487217340821576,
            -0.38751044086457115,
            -0.1937101069950876,
            0.159875623978812,
            -0.4087916965468486,
            0.08211238993672897,
            -0.1836433526053598,
            1.0920088318090049,
            0.10429123394371725,
            0.6837676097686783,
            -0.7057986224759571,
            -0.7069153144546084,
            -0.08517495817702038,
            -0.12255433541142358,
            0.17922476048907784,
            0.3007958064147356,
            -0.26000918859465294,
            0.4667825044784562,
            0.6415365496316587
          ],
          [
            0.19109097054093677,
            -0.5988978422782537,
            -0.019517107564037597,
            -0.15660706946190608,
            -0.9221624758084367,
            -1.8614271388683905,
            0.821994523419935,
            -1.419091961518258,
            0.925390154660191,
            -0.18667171898274199,
            0.4402050302059695,
            0.040706966949212164,
            0.07982182544388276,
            0.013883941751904794,
            0.13279783618888316,
            -1.618718435488795,
            0.4391995634216686,
            0.5856971676338087,
            -0.1240855808895752,
            0.28826182434573333,
            0.6161396794270156,
            0.2824541841178055,
            1.289190139014755,
            0.3938935994212816,
            0.379205825571123,
            1.3286477188998138,
            -0.4111120516241065,
            -0.08832755329524737,
            -0.6949478999111856,
            0.19133928011513293,
            -0.7965893527053326,
            -0.8748054106762808,
            -0.02634520579841051,
            0.8181576328372616,
            -1.2447230654124293,
            -0.04973979018363214,
            -0.11682750305806201,
            -1.9012088242491778,
            -0.1334448431215855,
            0.051395792402587986,
            -0.6014725491794101,
            0.5888045621642675,
            -0.03055531003293297,
            -0.027249801230226876,
            0.00023651933571918526,
            -1.115030829777452,
            -0.04545142827388945,
            -0.08238430461644544,
            0.612991514435617,
            0.14285580520515992,
            -0.036947302825024425,
            -0.49140749613306745,
            -0.6677373790336141,
            0.0710681182603482,
            1.066350956845199,
            0.5464291381219715,
            -0.7490267628418377,
            -0.8539031547034643,
            0.28096184654620476,
            0.13001486458012004,
            0.5905628284662845,
            -0.7584231665454211,
            -0.39049491938887104,
            0.6193265118942585
          ],
          [
            -2.1443775373390284,
            -1.1135633617708642,
            0.5721620624624119,
            -0.19646883080081287,
            0.10734895933270874,
            0.07547599742225543,
            -1.9487992919379975,
            0.6091724984030394,
            -0.13592253350897301,
            0.07859471928600929,
            -1.145228521503867,
            -1.5432863888951802,
            0.08322892888751413,
            -0.3440475898651187,
            -0.013036425483499479,
            0.23904787253982052,
            0.484030965029406,
            -0.07239813546805787,
            -0.4923006815090445,
            0.3092676749502729,
            0.2789952597283238,
            0.0792209546344485,
            0.4588328720917075,
            -2.7268502381881055,
            -0.26409123671257534,
            0.9683611665332615,
            0.4231237030406859,
            -0.004728003017650266,
            -0.7586000875218615,
            -0.42524752594300624,
            0.10372412956622326,
            0.6068802672433657,
            0.5049981402569956,
            0.0010086058273806402,
            0.8459402474829821,
            0.4851238319238889,
            -0.0027278446263131677,
            -0.2863268398800024,
            0.3495768449141953,
            -0.3385573874733339,
            0.34279614687104065,
            -0.8513477467192644,
            0.03343106129254292,
            0.014450057482246854,
            0.09077919652005086,
            1.0074375158863431,
            -0.5011501965944306,
            -0.9068624976343609,
            0.0028618537259621664,
            0.485251569595652,
            -1.8680777147341283,
            -0.01565404337905052,
            0.3651568488451461,
            -0.2013858290751708,
            0.5623224141845998,
            0.038385848632869736,
            0.7166501658295767,
            -2.6953938721289887,
            -0.33934683180026987,
            0.08312730028192952,
            0.4933368266751311,
            0.8269849475272095,
            -1.2359293779770069,
            -0.1789844662981041
          ],
          [
            0.4152314336416788,
            -0.08207335940223692,
            0.06554510049192638,
            0.6211507362070026,
            0.04291648971641943,
            -0.7372819893930305,
            -1.5938961095804536,
            0.5249447448466487,
            -0.14816325810902317,
            0.13064827316853417,
            -0.5467751751493295,
            -0.9873935083210109,
            -0.2972496004327949,
            0.22571683314982988,
            -0.6751477377699354,
            0.49355962118722213,
            -0.05615678732563692,
            -0.6156785416076669,
            0.3259169741655763,
            -0.7893382386842233,
            0.1803220524227118,
            0.1674824832138548,
            0.19805159740088443,
            0.6497907679512769,
            -0.19970401011808156,
            0.5819357355197522,
            0.1565047129105511,
            0.06354152739369143,
            0.29086682364877253,
            -0.4638043742943674,
            0.5960360313402056,
            -0.19539160603985675,
            -0.44950909516390736,
            0.3645531542950384,
            -2.656987442075304,
            0.32962637237047115,
            -1.36951299451239,
            -1.7647241739310542,
            -0.3616739058628994,
            0.8434078656993527,
            -0.27302131969074256,
            0.3002113426885173,
            -1.0368232389447583,
            0.1517044569462634,
            0.006814136581997133,
            -0.9889437079081252,
            -0.22352342828974184,
            0.83516761808484,
            -0.5176086690646502,
            -0.42811257617368337,
            0.47010760015029307,
            0.03755329604839507,
            0.1078343164416393,
            0.7526946899258977,
            -1.5628114547341465,
            0.5693181257735977,
            -0.315639818651079,
            -0.08845425188216396,
            -1.196311649054321,
            0.08732868605112899,
            0.6257085073709088,
            -0.1848971402770131,
            -0.8575802857002337,
            0.08200831909316562
          ]
        ],
        "biases": [
          0.5176167629073586,
          -0.4350531401063142,
          -0.08033748470534603,
          -0.6455348320518564,
          -0.11550941941128236,
          0.1584737146718369,
          0.13028692466464165,
          1.0041496446537832,
          0.7431302753235306,
          -0.12029445540577016,
          -0.4536784129650539,
          -0.5452748765619647,
          0.4083931911207917,
          0.19179144037597892,
          -0.5659189272274435,
          0.6512142654440948,
          -0.5246047754178679,
          0.07146576079147474,
          -0.0005728034211502973,
          -0.467688053723848,
          0.37895015546953725,
          0.9257433808558002,
          -0.2096499115236376,
          -0.519542166841774,
          0.5304263259692291,
          0.41325050657284573,
          -0.015740441887996226,
          -0.03925667364052716,
          -0.1768943581980534,
          0.14446146076475563,
          0.11455382203852608,
          -0.22883792252624255,
          -0.07439218778460129,
          0.03788044070102995,
          -0.5267141366552683,
          -0.5786432070164526,
          -0.08238591020102703,
          0.08919759029504712,
          -0.5866498977025796,
          0.2616385064014452,
          -0.15655918952822157,
          -0.7676242865393031,
          0.508431432760002,
          0.4712985423268022,
          -0.42198398823220695,
          -0.40397173855524515,
          0.13054915571265524,
          -0.712875144569768,
          -0.8623548165812925,
          0.25496949410933567,
          0.4761545703037942,
          0.5690818909041118,
          -0.33716299032091057,
          -0.25675752287520676,
          0.012362775016153151,
          -0.6406637152376561,
          -0.4910575317782052,
          0.02583837887617409,
          -0.3199321563241698,
          -0.5572170672161524,
          -0.22893719733692108,
          -0.4600364318724007,
          -0.6003909685833416,
          -0.35386962689615253
        ]
      },
      {
        "weights": [
          [
            -0.4146764991916794,
            0.0918244394729175,
            -2.7062007518770685,
            -0.7380037974775252,
            -0.570390358882267,
            -0.41965359649745404,
            -0.10624016895814606,
            -0.38224706168581396,
            -0.04347251229712464,
            0.21794931149205304,
            -0.3865614481345953,
            0.08749242827855547,
            0.12562364114968236,
            -1.1290428319772499,
            0.20415687310382952,
            -0.3226331061666392,
            -0.2927444260705,
            0.2437437966281469,
            0.10072214988678216,
            -0.0621528474408404,
            0.3684008897289545,
            -0.04112108667013041,
            -2.0400693838871904,
            0.35383735439955777,
            -0.6111314519107419,
            -0.10960496444210004,
            -0.3148684607546176,
            -0.12419348210184893,
            -0.9865870017324971,
            0.7856411032433916,
            -0.2889328128423795,
            0.2879450288358042,
            0.10994244735251542,
            0.002596547119134622,
            -0.29537003599011513,
            0.31765740346706184,
            -0.8620235912774087,
            0.22568658975943376,
            0.023356341687397274,
            0.021230400129039845,
            -1.4243714377906604,
            -0.27923950564803096,
            0.2410129829321857,
            0.07204886071393682,
            -0.2534731354259687,
            -0.3692238169567554,
            -1.0195069997026527,
            0.07976568337883765,
            0.22406411908423893,
            -0.4662611577717384,
            -0.18288707230220216,
            0.03577925498213073,
            -0.2810862913994047,
            0.6037525956068494,
            -0.1318572654975084,
            0.4532545897471867,
            -1.1466059326135198,
            -0.11412761492897082,
            0.09606763291491677,
            -0.005640504884063695,
            -0.5582213566854308,
            -0.18184131693611422,
            -1.0208668970677994,
            -0.4076185050599949
          ],
          [
            0.15151566035513292,
            -0.08219356606024118,
            -0.7660423953740388,
            -1.4373681039831971,
            0.3623484048761045,
            -0.3322932406398268,
            0.46943455144483076,
            0.587995466972361,
            0.05438729546344002,
            -0.2558915964247751,
            0.13712407507517135,
            0.28002947188264693,
            0.30106891183614637,
            -0.06340957050437354,
            0.7978479852676104,
            -0.32489554039161234,
            0.04697176136669875,
            -0.0354475467443716,
            -0.21065143016154333,
            0.5140335958151258,
            0.6326288874683469,
            0.07447460370430725,
            -0.19371535341848342,
            -1.7879462131091022,
            -2.1990473413632396,
            0.4424007335371147,
            -0.24073456545566238,
            0.024286295313368532,
            -1.6106812679075342,
            -0.5448392529783391,
            0.05097619430426429,
            -0.4811132966127185,
            -0.3587194765289981,
            0.22761217799906905,
            -1.6550757357428614,
            0.16452406401368921,
            -0.9901328681973917,
            -0.5409502858109234,
            0.16676471625458328,
            -0.5947635684417467,
            -1.0096309849795377,
            -0.7502382504023225,
            -1.3454332745257649,
            -1.2227108606617367,
            0.029664200845318824,
            0.7296023330027426,
            0.4849047901529433,
            0.40087804296213586,
            -0.17505523962207517,
            0.1494135813692971,
            0.5372162482672308,
            0.6257203585357026,
            0.7994458269486747,
            -0.29325495354285874,
            -0.20479692100771116,
            0.09155566630316703,
            -0.7743893543574023,
            -0.15826903654599928,
            -0.17997912822387535,
            0.551255171390649,
            -0.40923057835379045,
            0.2977343585716077,
            0.503541044980191,
            0.27830244218912265
          ],
          [
            -0.9059607574725039,
            -0.3581423452391005,
            0.2199635773386045,
            0.23933112802503398,
            -0.048833557785294246,
            0.5756303593451544,
            -0.5335133937355369,
            -1.3337930859102476,
            -0.3477355757940765,
            0.25940411067520586,
            -1.5528936993575235,
            -0.7842555627755515,
            -0.19718066239386928,
            0.41826006601726645,
            0.2432564524171728,
            0.1415426782855542,
            -1.5405789926530038,
            -0.0562225831991985,
            -0.8655311686408247,
            -0.7988576922059774,
            0.19162103492475935,
            0.01636789857745466,
            0.16324812981910838,
            -0.6311848473373105,
            -1.4936883503410425,
            -2.3904288491677232,
            0.055472904430683395,
            0.16286625101854213,
            -0.33789669517252713,
            -0.3172593974498951,
            -0.20844450004912815,
            0.17345267393194938,
            -0.6107303301854885,
            -0.6055469563534669,
            -1.2482055522238489,
            -0.31140232618749325,
            0.30068704544251557,
            0.09209649066280734,
            -0.27269180728786857,
            0.1803177090080765,
            -0.28551667707750905,
            0.5224522008810665,
            -0.7146582580029142,
            -1.1573660073664804,
            -0.2208285958826373,
            -1.2102089892170198,
            0.27167010054823987,
            -1.1324795805924648,
            -0.12343842273567668,
            -0.3735826753788408,
            -0.4141736080413037,
            -0.490059832257409,
            -0.2084181779345109,
            -0.30104135293345063,
            0.15334060790118825,
            0.11197393728641186,
            0.38796226509674075,
            -1.2476447977192628,
            -0.7167114379967399,
            -0.6270065216720306,
            -2.480323782468415,
            -0.2320103707509095,
            -0.08301607442795182,
            -1.1753574525128625
          ],
          [
            -1.2906101501961413,
            -0.692433314574177,
            0.258278571857466,
            0.37349965946499586,
            0.2480350427249378,
            0.45674904832575136,
            -0.5980866166930782,
            -0.628055589913273,
            -0.39122602404128154,
            0.5117284427270383,
            -2.5811036969955103,
            -0.9797966879053415,
            -0.24563616268096922,
            0.6092796255312589,
            -0.13084908721530505,
            -0.43694609641499776,
            -0.564768456251211,
            -0.15918671383738264,
            1.1977690660823308,
            0.7745014984084463,
            0.6659523457407583,
            0.12103994461623803,
            0.13346783066850001,
            0.546187218943407,
            -1.0037045573995143,
            -0.5194877657482871,
            0.8623201463227611,
            -0.10817546385697382,
            0.5427065343195532,
            0.5534038931307417,
            -0.11073893524282906,
            -0.22565573506236886,
            -0.434317400696913,
            -0.5082824117558792,
            0.2840142164851055,
            -0.34534836925720047,
            -0.14197769487253623,
            -0.2239249690370699,
            -0.10196620566386694,
            -0.7934404264004294,
            -0.12057874945989332,
            0.9907583200937936,
            0.5816072140223241,
            -1.4153563682866745,
            0.731910721166407,
            0.3899119903015904,
            -0.17551402856613765,
            -1.1244707759335761,
            -0.10493710857174983,
            0.44651897073978764,
            -0.34551742158179827,
            -1.1449712855638583,
            0.43143579580200575,
            -0.2117868390972884,
            0.8007223490237526,
            0.7026509190626046,
            -0.2926323872503805,
            -0.24895226169661722,
            -2.342765125313509,
            0.8062695316424862,
            0.2439661985709668,
            0.33135648988633015,
            0.7367277730509288,
            -1.1880110206444368
          ],
          [
            0.6970298011508452,
            0.2514178242656616,
            -0.6612809403115619,
            0.809711020687685,
            0.14083502052073005,
            -0.577313634165518,
            -0.5640703395998521,
            -0.0730325558737711,
            0.8038404544075415,
            0.3032956995708997,
            0.30660513083524804,
            -0.2878715114230669,
            -0.8168136880202735,
            0.3483016332054106,
            -0.404578168072299,
            0.30644394735035124,
            0.18077976692705386,
            0.6563125864066442,
            0.4001049513796226,
            0.7404913091736026,
            -0.5034118523787583,
            -0.31351894122198515,
            -1.577280133423096,
            0.2684053825569484,
            0.07374471212989889,
            -0.35733400247110914,
            0.4244680111990298,
            0.3351320433152387,
            0.1090543975322364,
            -0.3686536682421096,
            -0.27126420847583504,
            0.7584293307140088,
            -0.2373553934715345,
            -1.6290833462963092,
            -0.32541140812599956,
            0.04608278255313509,
            -0.8676163570298839,
            0.24005220849518988,
            -0.6536323871929309,
            0.02838227406493709,
            -0.0987925993406818,
            -0.15592147348897012,
            0.7039397849133979,
            -0.5599333638544052,
            -1.3923594525519472,
            -0.16264480165313921,
            -1.0351236739209508,
            -0.32587677669208365,
            -0.14378918880705013,
            -0.20576389440574985,
            0.28532163485523643,
            -0.3749675982146702,
            0.180332258565169,
            -0.5936280853988627,
            -2.9064887717437613,
            0.8935368862490884,
            0.3167659136399797,
            0.6010121512177482,
            0.7700718167963627,
            0.4222658071799601,
            0.037587928215797504,
            0.7312128935732747,
            0.3035265860583169,
            -0.9638027185386684
          ],
          [
            -1.807929426297679,
            0.1306368544749472,
            0.3958580344688491,
            -0.08491266301604518,
            -0.20224966180808018,
            0.5817275189035218,
            -0.6197567214173518,
            -0.19167092246443376,
            -0.12706463169808085,
            0.3849411546395376,
            -1.0091748437580035,
            -0.8450130937754726,
            -0.3947067084802437,
            0.06719660627389439,
            -1.242039676652775,
            0.040216010300879984,
            0.3727325401996135,
            -1.1787400870470262,
            -0.9006953586053679,
            0.23160841887898678,
            0.4494577916501564,
            0.03689298024401551,
            -1.2595498242034198,
            -0.5345901992260945,
            0.3754433753126667,
            0.82613367250819,
            -0.6555190882415175,
            0.1580753545562636,
            -1.036793852552224,
            -0.8994407434385839,
            -0.03188284656254506,
            -0.3586495231484877,
            -0.6890804578317885,
            -0.025213291276783307,
            -1.543444003997038,
            0.4494110630652928,
            -1.9592361009204804,
            -1.7072689655109685,
            -1.0039682331487851,
            0.11601983037165255,
            -2.283824795044844,
            0.4153965379566883,
            -0.3874474853912445,
            0.043177148620772474,
            -0.4918943791188655,
            -2.3368440340644105,
            -1.7033937097781722,
            0.15086573275486462,
            0.06308256673241859,
            -0.35486061405945885,
            -1.3193399727630943,
            0.5372343394362145,
            -0.12488131644741124,
            0.08865668507083627,
            -0.39055455567696,
            -1.2044266229673726,
            -0.11905995562168657,
            0.5401183660000698,
            -1.19809590159918,
            0.18792115530478465,
            -0.7771351245102087,
            0.14126941469563326,
            -1.168162119636224,
            -0.41567856502631184
          ],
          [
            -0.6090476330473407,
            0.16031982520664909,
            0.11160411918206317,
            -0.937745131380574,
            -0.6376537342485237,
            -0.8955138673359235,
            -0.23851147529693395,
            -0.8221631624351811,
            0.508517090903316,
            -0.5114500883819185,
            0.08336779466766688,
            -0.025746236523645487,
            -0.1273720397748997,
            -1.4879646985543267,
            -0.6337299838608224,
            -0.3539579212821247,
            0.04876566947998631,
            0.2730750182091951,
            0.049767993900836034,
            0.7116740243197481,
            0.31664300845970617,
            0.5662081241451793,
            -0.07486247806826929,
            -0.6084080458304177,
            -0.04943652921571593,
            0.10967165875912543,
            0.34818007241597476,
            -1.0403689760698218,
            -0.22592438050060862,
            -1.5327665802600137,
            -0.17359030300439815,
            0.11207299007742878,
            0.6457318627099524,
            0.4591785773408056,
            0.0432821967152271,
            0.026757067306603405,
            0.5804192825186381,
            -0.17600585112934983,
            0.7202091039130867,
            0.4319341027812362,
            -0.5514186991186012,
            -0.7206936604518136,
            -0.9819767082356317,
            -0.6399362694168907,
            -1.2122635015554548,
            -0.5750444841585843,
            -0.13160664681095813,
            0.7585516867067139,
            0.19090584262596635,
            0.0035207509193073815,
            0.7916648536539089,
            -0.19238658023599642,
            0.029941198336887416,
            0.03167847040473704,
            -0.6250605399153761,
            0.328565552085859,
            0.007689495880848694,
            -0.916918532687314,
            -3.1931969793937287,
            -1.274181982119069,
            -0.32545304049806933,
            0.5172137560131655,
            -0.35724380041854675,
            -1.5477318461224447
          ],
          [
            -0.4830175180702333,
            -0.20797528252668473,
            -0.3574565186839949,
            -1.0016337915726923,
            0.2398255662937129,
            -0.3397311730183248,
            -1.1585448341053664,
            -0.1944521606232483,
            -0.11187146238145529,
            0.1704909884276229,
            -0.7556698062992355,
            -0.19634479306156352,
            0.21742224711388905,
            -1.2407107981503334,
            -0.024516654490172752,
            -0.004027749291980848,
            -0.8253298772955392,
            -0.6694226274152159,
            0.07506421596363463,
            -0.11041983913139955,
            -0.20198906937404512,
            -0.7741551485777656,
            -0.9120546690268483,
            -0.8554011764368408,
            -0.05077396896600485,
            -0.09393536697475481,
            0.15526354804840703,
            -0.7187522657245263,
            -0.5754918607525937,
            -0.5112294378013166,
            0.18028025076485776,
            0.318087868249139,
            -0.232763045258574,
            -0.5100007498615095,
            -0.39142913064179335,
            0.4246205385454782,
            0.40440527413334193,
            -0.751661178211214,
            -0.15006210062208478,
            -0.09417744872839544,
            0.029042301486872986,
            -0.9019580454962616,
            -2.5127451903872027,
            0.22596107893696446,
            -1.0844552605013718,
            0.011277903350054505,
            -0.26193897394068705,
            -0.8029442689588339,
            -0.024674643517117015,
            -0.4558429943303712,
            -0.4242529148729864,
            -0.008256025137831422,
            -0.00736165453811608,
            0.14446549934324066,
            0.11514020611668555,
            -0.2589614635237077,
            -2.2700946709973246,
            0.021748355440861525,
            -1.1225917121628521,
            0.16864759996397244,
            0.048298823118448096,
            -0.12886530387892103,
            -0.24730549678656313,
            -1.5316730163176426
          ],
          [
            0.3991746531108631,
            -0.3498375103369533,
            -0.09957572002304509,
            -1.062258076560227,
            -0.058040871015775944,
            -0.28089052688127425,
            0.2997002626647094,
            -1.208622811253423,
            0.4148220347211268,
            -1.060181327907408,
            -0.9512641802159962,
            -1.2991123414897263,
            0.47579285262699983,
            -1.265363875211972,
            -0.8861953367790147,
            0.2963131363069086,
            -0.3940452217943492,
            -0.3197441446495268,
            -0.21320082682657857,
            -1.0879050245662722,
            -0.2882910567846542,
            -0.6296630100159764,
            -1.3524298231788912,
            0.21833743424728178,
            -0.1372307796003561,
            0.1682475822034413,
            0.026948264423784802,
            -0.7517557423885313,
            -0.9982114599644688,
            -0.4016487020621621,
            -0.234216661071927,
            0.7035379110576523,
            0.38066641636590653,
            -0.8331873320924492,
            -1.7211529651755815,
            0.19475367195823157,
            0.1292440724053882,
            -0.06750985970597714,
            0.5161680722550984,
            -0.3764010609511078,
            -0.9875703337212283,
            -0.09678301283571063,
            -0.2743530905044367,
            0.2568713542874176,
            -0.06503101200605495,
            -0.14571628386483665,
            0.1670039894054172,
            -1.0625448668135715,
            -0.12085754675578692,
            -0.04501270008719335,
            -1.028717455588634,
            0.15545237548104587,
            -0.4505629645440562,
            0.45221402350595424,
            0.32669007842832065,
            -0.41055632907483725,
            -0.4929257451965531,
            -1.276273148354156,
            -0.3584976618601683,
            -0.09685511445381746,
            -0.010204266008126902,
            -0.28703107461855976,
            0.3767260926436451,
            0.366252698385004
          ],
          [
            -0.08433300763374281,
            0.08352617158142962,
            -0.6773032491436991,
            -0.5586282673887202,
            0.28696133289931897,
            0.3730259233277166,
            -0.262227154430852,
            -0.6831534935983634,
            -0.4718224928182801,
            0.730993517554686,
            -0.29616014338611485,
            0.49034555922039413,
            0.5256005138376125,
            -0.8831937801789146,
            0.20492289028514074,
            -0.015639165406475815,
            -0.8047427900926846,
            -0.6990118620225433,
            -0.3263633787661652,
            0.055081028823529374,
            -0.5845637199069815,
            -0.38479433123127765,
            0.30081117519847445,
            0.5155644793100618,
            0.11640800675214019,
            0.20416312973781067,
            0.5341785180144935,
            -0.8939705494869129,
            0.07324074452618988,
            -0.05251983549202956,
            -0.2561493625632427,
            -0.04524410200684027,
            0.027317487090754097,
            -0.1666116903345701,
            -0.21237600376585428,
            -0.02393833231678191,
            -2.0861140925327137,
            -0.5440626234297122,
            0.3113105551717568,
            -0.9659212922404571,
            0.047138460119022556,
            0.09183517314710099,
            -1.1327405803446984,
            0.26511044200812084,
            -1.0253149936191648,
            0.11090531681602094,
            -0.4651588356953157,
            -0.29082873810181537,
            -0.12009437590247082,
            -0.9153639251285445,
            0.417028471243938,
            0.4248656488863615,
            0.08464530029709554,
            -0.22027837966513303,
            0.17148948868513383,
            -0.38378010124433476,
            -0.12931189584771424,
            -1.450119589859362,
            0.3829938041826495,
            -0.965455945416481,
            0.13616674021884412,
            -0.20364883278361356,
            0.07836187686076852,
            0.2709258211982343
          ],
          [
            -0.0019289039444667846,
            -0.05650618849991118,
            0.9878243717255402,
            0.45490104375703194,
            1.4723761224940266,
            1.3470819789461816,
            -0.3175686596625333,
            -1.7696095689983335,
            0.7360072049815148,
            0.22400080937648498,
            -0.4263643090206708,
            0.3839617544594877,
            -0.12735254513137,
            0.11250652543159477,
            -0.0930755307813343,
            -1.657237213167203,
            -0.3418140231514094,
            0.5062268631599004,
            0.17541455235980882,
            0.8772153149768199,
            -0.318236482355128,
            0.21603598473048347,
            1.2385151087037711,
            0.2950153511333559,
            0.6404839176082067,
            0.24070186040939662,
            -0.6637356494113731,
            -0.27287160417918255,
            -0.1265377557668082,
            -0.6186795054796167,
            -0.2728102982999361,
            -0.2149859969409157,
            -0.07894834435759071,
            -0.4868545396069357,
            -0.19981989975282446,
            -0.279147863693699,
            -0.00014094552545173503,
            0.19178800336768184,
            -0.9476569186475226,
            -1.0104713227820137,
            0.6916496960692805,
            0.8553616789592348,
            -1.0699111130454528,
            0.3003949228941145,
            -0.0015523404187583573,
            0.2711864601534687,
            -0.3101152453096686,
            -0.9681030389234421,
            0.5617727424936351,
            -0.4653009284830612,
            0.12471844371428165,
            -0.33382415269890103,
            0.6015641230426542,
            -0.4479839594324449,
            0.8943825840890005,
            -0.3550858718573001,
            0.08003735846756466,
            0.4035321502160002,
            0.7809411197715159,
            1.0799805157497162,
            -2.4203734088823206,
            -0.35795026625510107,
            -0.20767801984976828,
            -0.27037858101167833
          ],
          [
            0.4049717640044412,
            -0.06824276273329694,
            0.3632423004875366,
            -0.10543412165529563,
            -0.1033592215636748,
            0.015139278621419247,
            -0.5114353249482209,
            -0.5683393653160084,
            -0.13726024304705173,
            0.5648604019022909,
            -0.3048471710861267,
            0.543190392083284,
            0.5622585061608043,
            0.838977257568391,
            -0.08238145917719591,
            -1.2431174998775942,
            -0.24277067969543825,
            0.38405971606790584,
            -0.015969891389662552,
            -0.1418639471077577,
            0.5618952081988748,
            0.3077694055170148,
            -0.5890960762297346,
            0.25211242353388447,
            0.5527319700942798,
            0.32672974612908356,
            -0.28988118017289155,
            0.2673310858697201,
            0.9717482969333071,
            0.42328829472187673,
            -0.18668653779161376,
            -0.05977920426978423,
            -0.04247648652543243,
            -0.8037726236386931,
            -0.2349609601981062,
            -0.4306656033530586,
            -0.3855354792962189,
            -0.355734479111603,
            -1.7463179621936513,
            0.18814528818635656,
            -0.709409148377852,
            1.318443482563694,
            0.7823194995280653,
            -0.02403912763965258,
            -0.12860744066584437,
            0.3944139734672755,
            0.013267168271507333,
            -0.3136313590348304,
            -1.2486697146737393,
            -0.04877649089152306,
            -0.17896120583018074,
            0.2632987886355865,
            0.9340549856710777,
            -0.2689324159729763,
            0.2260955228159949,
            0.5111369548883448,
            -0.021847408390953345,
            -0.1730287234253915,
            -1.055729996040309,
            0.4669080669880338,
            -0.7195766769738912,
            0.5755790039609485,
            0.43754836347990805,
            -0.2398638588114566
          ],
          [
            -0.10187347941450765,
            -0.4926118766319448,
            0.17218390030446382,
            -0.8198191525856061,
            -0.28065078218731987,
            -1.5125723093395698,
            0.032109544729527234,
            -0.21067583776241824,
            0.25212458952939915,
            0.132190247133737,
            -0.9868357435457467,
            -1.051700166138742,
            0.2734586358007779,
            -0.10374363917789155,
            0.16837360848652624,
            -0.08666168482962769,
            0.18177500201456967,
            -0.9723207252991117,
            -3.9243036930982482,
            -1.557587185177004,
            0.22874006695126445,
            -0.926649756716019,
            0.2553422788187909,
            -0.09376811305368951,
            -0.16333342485853083,
            -0.1085678721638645,
            0.38688882585106377,
            -0.339963894483154,
            -0.04952819155327212,
            -0.08558640729135467,
            0.1724071209078274,
            0.2667000425107535,
            -1.5366555547854224,
            0.7660956414541549,
            -0.11445586400481501,
            0.45084183286133245,
            -0.2745155026606029,
            -0.43954364953835934,
            0.019247049746211272,
            0.41719588598518753,
            -0.23429112981822844,
            -1.7901412262837177,
            -2.228281910721358,
            -0.16801116071107963,
            -0.411049184747274,
            -0.6298394422768776,
            -0.5252021679081568,
            0.14213781153611746,
            -0.3212566942099037,
            -0.5552692718996007,
            0.3384264141087785,
            -0.11077751212117613,
            -0.05452732691585901,
            -0.6158534824831432,
            -0.31214732907122617,
            -0.34057346545956513,
            -0.6189006122691605,
            0.380636898625362,
            -0.18817234281475612,
            -0.01969912110747269,
            -0.43116592400238707,
            0.33935704833052494,
            -0.44760300466115244,
            -1.1145308267417524
          ],
          [
            -1.5014923884282076,
            0.10180802404435839,
            -0.30687449037976233,
            -1.216271128551172,
            0.4402114438355796,
            -0.6484923855918322,
            -0.653397654399668,
            -0.21772725646810798,
            -0.4815355650405986,
            -0.10885883240536362,
            -0.8163734092074694,
            -0.14897225825256227,
            0.08720336737817865,
            -0.581944857564727,
            -0.3544772611136429,
            0.27422537324571683,
            -1.160280841370067,
            -0.45666882710759565,
            -1.7480768532723734,
            -0.594515838755215,
            0.027589807368277496,
            -0.31823008464110325,
            0.04368194690906209,
            -0.6839680219902581,
            0.02815380841516536,
            -0.6495847971380013,
            -0.7547749268086141,
            -0.5001115858212454,
            -1.014385343990838,
            -0.2552330247856355,
            -0.18801257422005463,
            -0.32878366895279937,
            -1.3914490871544172,
            -0.0631352408762163,
            0.29165684029178524,
            -0.317806799153564,
            -0.9216776628022534,
            -2.4090510899004816,
            -1.4248964577755419,
            -0.2272095910631497,
            -0.21272913923854045,
            -0.7353812005154781,
            -0.7672917553329945,
            -0.9544438810918197,
            -0.03151465749467664,
            0.42694927082498774,
            0.1951866927686621,
            -0.5180511835988688,
            0.4575837403558227,
            -0.43407378791016105,
            0.07267332887330086,
            -0.5848978288096661,
            -0.3881583646317648,
            0.4453816448087983,
            0.06993670133964186,
            -0.02396064938832556,
            0.18957709572663298,
            -1.619732779029398,
            0.15402763063195898,
            -0.40597985062100544,
            0.068362120063633,
            0.33857748640711355,
            -0.3229183538882967,
            -0.9956633841105577
          ],
          [
            -0.8859810806796359,
            -0.43256024634126256,
            0.5292178112765272,
            -0.32352917963920225,
            0.11726374793748251,
            -0.4916763312070956,
            1.3221992142899508,
            -1.5325913689457078,
            0.0005503311377702573,
            0.2798101199650887,
            0.4389929566416282,
            0.24628951557017226,
            0.05775448370162564,
            0.8521696732599571,
            -0.4498199819080866,
            -0.3311264185240486,
            -1.459482110085185,
            0.1084940592438056,
            0.23025129851395926,
            0.22521783986754984,
            0.005394661090179058,
            0.6524472217434397,
            -0.4462765774445308,
            0.5414970319693483,
            -0.4096140156070113,
            -1.663948237355562,
            -0.01972784780164931,
            -0.4769790053524621,
            -0.44710320690377825,
            -0.1309989815482975,
            0.0071475811951218614,
            0.29180205741017534,
            -1.41425740400659,
            -0.3110640756981535,
            -0.16566496616109092,
            -0.7075368264991644,
            -0.1446698099363916,
            0.09367980090868948,
            -0.9965243995795998,
            0.46776284168873644,
            0.18721794666196093,
            0.9839816686975356,
            -1.1888445119480333,
            0.536842047787485,
            0.441543637337555,
            0.12363159854645381,
            0.25895118706555276,
            -0.4322990992516514,
            0.0966249074893922,
            0.3005321748022138,
            0.06197684853625871,
            -0.41934584061059976,
            0.4729798772659357,
            -0.11058055694759168,
            -0.6040260960386562,
            0.9911593746003611,
            -0.1996364415297683,
            -1.276685106838217,
            0.00816548269584395,
            0.2263995679859129,
            1.132856060944599,
            0.06375174976302499,
            0.4213570998443014,
            0.5825182576260802
          ],
          [
            -0.9813367535402165,
            0.34458077109850777,
            0.06713424823312047,
            -0.10603239331173356,
            -0.13061674585191976,
            -0.8708163047568726,
            -0.015590853330466272,
            0.3356009875382796,
            -0.30051109367922285,
            -0.3077029925088168,
            -0.11322296841123647,
            -0.16244558578403342,
            -0.3843714538620459,
            -1.2796532490233068,
            0.06757291351250115,
            0.5428920960245845,
            -1.3754428142893973,
            -0.14403463957057933,
            0.4178794269044626,
            0.6585927880097876,
            -1.781903417082295,
            0.0487219336425949,
            -0.7293126908315983,
            -1.5353701570361031,
            0.1219066064683644,
            -0.2893991289225197,
            -0.8041190058348339,
            0.00910872910882862,
            0.24629358759317155,
            -0.326733106172534,
            0.26200846153044594,
            -0.6704551896834879,
            0.2262806354328975,
            0.00673659324960587,
            -0.6013952199627209,
            0.3228091089404538,
            -0.25251586534166104,
            -0.31058907925510004,
            -1.0714723052466113,
            -0.08028419901347199,
            0.314532220068326,
            -1.0155290428428705,
            -0.34377266779965887,
            -0.3096932864610133,
            0.2729869114722093,
            -0.22713493117415867,
            -0.25942900574297284,
            -0.8220554224463062,
            0.08028195636822233,
            -0.32608406433584286,
            -0.7712081963151466,
            0.010195567204372903,
            -0.13297600602571086,
            0.5090141559996871,
            -0.13467157848223274,
            -1.0165002646743455,
            0.09356015394978641,
            -0.1477123328890727,
            -0.05983389377379509,
            -1.5518990660758676,
            -0.4504135687751089,
            -0.048550547014416315,
            -2.072594903498529,
            0.38825563251935763
          ],
          [
            0.13573770782747643,
            -0.1382330939736866,
            0.4225542082006731,
            0.19626024671378461,
            -0.7522388742528069,
            -0.3445755892693943,
            -2.2321487207833597,
            0.923630562248082,
            -0.13408275060956004,
            0.23877677319673146,
            0.4622357732656032,
            0.09113343231722998,
            -0.5617190567459371,
            0.37380600077692716,
            -0.1118266114990543,
            -0.3448234163132755,
            -0.42519764598801096,
            -0.055679407113102014,
            0.46246739951528676,
            0.2581882473690751,
            0.855880101685673,
            -0.8259538292262613,
            -0.010355285117633412,
            -0.7756157234676959,
            -0.19249495467805117,
            0.7219098532510244,
            -0.02103619280258929,
            0.7306233996513162,
            0.7280434494075888,
            -0.2137234165571779,
            -0.4216016678757107,
            -0.30606544305355377,
            0.640689290273552,
            -0.027309763404141936,
            0.0009440425399575046,
            -0.5487512199923015,
            0.8435410056764735,
            0.7591359183458822,
            -0.2864407560268509,
            0.9231007624224141,
            0.1590827321130662,
            -0.6159129937385217,
            0.051801152210766394,
            -0.6148499848025955,
            -0.5950646311928663,
            -0.34510727080404174,
            0.003919856366544323,
            0.1602230210084453,
            0.34511011190162905,
            -0.6938717988246295,
            -0.3276570454057457,
            0.44845184472366945,
            0.31864831932901605,
            0.03905823946154022,
            -0.6555596615455788,
            0.27339106304416255,
            0.595540810658414,
            1.3802468056403365,
            0.1343433285155018,
            0.07807201200231234,
            0.8053962927778839,
            0.7691456726454255,
            0.7342906005629922,
            0.42938715093082797
          ],
          [
            0.45624599499032314,
            0.199519853679343,
            0.31632910393180624,
            0.18421116684178532,
            0.6472348249405026,
            -0.22006163974887402,
            0.30736635185603145,
            -0.9664273832586806,
            -0.10469774009100204,
            0.5284367714390245,
            -0.0984824701623616,
            0.877013800504496,
            -0.4812041099533222,
            -0.27981490769332,
            0.037809266646945214,
            0.09106691355557921,
            -0.2270164491482671,
            -0.020232842643498474,
            -0.33874092515447235,
            1.0387817051221595,
            -0.1516805657850118,
            -0.4980281678407665,
            -0.5987030339024857,
            0.04548046795295334,
            -1.0707458135423842,
            -0.31190898102326164,
            0.15084929215458204,
            -0.6329696961080523,
            0.4592468515486589,
            -0.05594308945836436,
            0.42338009708422186,
            -0.2714468395830862,
            -0.012803495084854667,
            -2.333579221961492,
            0.3504484212325309,
            0.2552892278285298,
            -0.40182538683315544,
            0.08181668648004722,
            0.3483124827765997,
            0.0313458190769434,
            -0.4325701294319392,
            0.10297442878718165,
            -0.06174013939177023,
            0.4172579955756684,
            0.18397361171169668,
            0.29923442938996514,
            0.28678817936467493,
            0.20759293629735884,
            -0.042953497487173004,
            0.19285452042395781,
            -0.8252534752628758,
            -0.5014572917476365,
            0.2880949077572999,
            -0.04642085827583105,
            0.3784229597086563,
            -0.831832320383315,
            -0.2812145914193432,
            0.05568120190376825,
            -0.22827672078019087,
            0.24032715163684332,
            -0.5169424929318502,
            -0.7313506541301718,
            -1.227445404268991,
            -0.11944612951108105
          ],
          [
            0.322777760921351,
            -0.06592333475938879,
            -1.822168220145643,
            -0.15506807550325857,
            0.2343845919693099,
            1.0611486641392758,
            0.5338408266576945,
            -0.8635860460675209,
            -0.6557813128757588,
            -0.0668484110367229,
            0.09890465272419229,
            0.8371415164450452,
            -0.11471731427026644,
            -0.15218317620735577,
            0.45395611203456016,
            0.41825438034774165,
            0.10962857337121737,
            -0.19931915760958452,
            -0.12475626405285074,
            -0.767928955212681,
            -0.2633357350486598,
            -0.6769565065321026,
            0.9891148598756314,
            0.7954789146496828,
            -0.8878072673286542,
            0.2383218276354755,
            -0.1432315288279582,
            0.12978631473234462,
            -0.09728970687403189,
            -0.0217225684027344,
            -0.10538346253807711,
            -0.30110335950863676,
            0.19000387609906452,
            0.10729964175462421,
            -0.14465741293547485,
            0.13233887472285774,
            0.054277264557404545,
            0.33249133704087563,
            0.4998892604318758,
            0.11237790854321199,
            -0.27860040420057014,
            -0.5424065394082596,
            0.17514217154707132,
            -0.6397723812599538,
            0.30691300628114127,
            -0.10185025096253349,
            0.6892510822213311,
            -0.4812859404929307,
            0.012146008672307943,
            0.4430870496509942,
            0.1779671255528698,
            -0.14235329098191393,
            0.4089564460005726,
            0.1226256731570156,
            -0.8110241646396631,
            -3.2134529322983125,
            -0.2170045859096606,
            0.3958677806537395,
            -0.2498627946107411,
            0.4360050050762295,
            0.28302951559339357,
            -0.25534410544620295,
            -0.24859097152072288,
            -1.1224283169103701
          ],
          [
            -0.18278404804140527,
            -0.15632382277789744,
            0.05460627150907172,
            -0.5931260423610467,
            -0.08380982726436176,
            -0.5102700359069422,
            -0.3204624212743525,
            0.1942049710960597,
            0.5680741007645135,
            -0.0830054218331089,
            0.5472087777688104,
            -0.7879416223587433,
            0.112388619709131,
            -0.739796837745868,
            0.10702875194958315,
            -0.5369189941884178,
            -0.07192931769288582,
            0.2871464013774835,
            0.5345717859220582,
            0.600726823534551,
            0.4436174949994414,
            0.10541982106058911,
            -0.6473749129322597,
            0.5539026690445703,
            -0.640174897317458,
            0.6087455489165311,
            0.5337896403760878,
            0.04030081451754057,
            -1.2097729718915529,
            0.2702113589262077,
            -0.009605074786633644,
            0.431612568328065,
            -0.6288732239880054,
            0.3961740657689284,
            -4.208442463648898,
            -0.57639778449037,
            0.1361896793316684,
            0.018432027738614316,
            0.9101703989588312,
            0.05839294795339769,
            0.46239813185858614,
            0.19488321664822283,
            0.7310987768983498,
            0.15079771858454719,
            -0.30413964193338244,
            0.14882100779428312,
            -1.2100794235847796,
            0.8838614729925972,
            0.22761187547361308,
            -0.5591669715640898,
            0.2570523363611894,
            0.6411971285867387,
            0.5545892561267449,
            -0.22023440289270216,
            -0.9270824402203458,
            0.9153266991485003,
            -0.4081570738541118,
            -0.03610388569978955,
            -0.14737962255003456,
            -0.3814106392235418,
            -0.14155442544083846,
            -0.262002605874948,
            0.06318424744472928,
            -0.13767668160867752
          ],
          [
            0.02738941128366869,
            0.36409374729567673,
            0.5066828061503701,
            -1.2408235154810874,
            0.3315792940360719,
            -0.5460664269569737,
            -0.04241117241105015,
            -1.1141045712473712,
            0.22250989892987974,
            -0.6289660003035584,
            -1.3725277092483463,
            -0.15736647867850703,
            -0.17011090977782634,
            -0.5030856420664129,
            -0.6426467804541578,
            0.047204977416078577,
            -0.03273409929725478,
            -0.2232035008398584,
            0.09051673665502413,
            0.3466885326489852,
            -1.006255178679771,
            -0.333186177454911,
            -1.4656786519705858,
            0.6113254697529478,
            0.21095573716528113,
            -0.54097035884659,
            -0.49649302178310456,
            0.4182375822827473,
            0.10479447902487864,
            0.0523955678676953,
            -0.11518225772112342,
            -0.5295247798852277,
            -0.3498347253682206,
            0.5132829374030664,
            -0.3796178987710393,
            0.13138085057903012,
            0.009930646373439343,
            -0.5735586396790386,
            -0.3914621736118847,
            -1.1949651334187548,
            -0.5601589140305787,
            0.17036096409565754,
            -0.5158077070232537,
            -0.3845730436282242,
            -0.180984264722754,
            -2.5317439966277693,
            -0.7256186555636363,
            -0.36645411180164944,
            -0.13857162677412652,
            -0.5413724699320003,
            -0.3499187794149787,
            -0.3823897665957849,
            0.14223572020155295,
            0.3414213595659693,
            0.09149667142758666,
            0.5085044412660384,
            -0.28504489459304866,
            -0.27906570015708204,
            -1.2969950425275447,
            -0.23528009293979282,
            0.4327587126265064,
            0.029253579475590843,
            0.029957162244709658,
            -2.0171190212850734
          ],
          [
            -0.9422815068729473,
            0.24197612809782607,
            -0.045413818778048044,
            -0.6096491095421015,
            0.21691605042389547,
            -0.44712905579437195,
            -0.4294783627218335,
            -0.9278205848064589,
            -0.67456559686769,
            0.09062994256719813,
            -0.6641714761203447,
            -0.4427105876637227,
            0.38852663068840243,
            0.16440933315974784,
            -0.10523980852791834,
            -0.043833270021075676,
            -2.1083483898488597,
            0.14689001633637713,
            -0.6861725606538708,
            -0.1627577025597531,
            0.2628138261591891,
            -0.9689803033839234,
            -0.8409178576522102,
            -0.12955565712616346,
            0.23332808318416504,
            -1.0158454554969498,
            0.13390816216933024,
            0.20615710172784624,
            -0.07227236259554104,
            -0.580600578210353,
            -0.2418639146167572,
            0.24917705466155757,
            0.007293947363994069,
            -0.33489721051555066,
            0.15783036192630412,
            0.2843917941432569,
            -0.682805931400922,
            -0.6893293467043017,
            -0.2918309228275279,
            0.01895995634787014,
            -0.5891340137972847,
            -0.5096704516249675,
            -1.8526793064230347,
            0.27318655580557805,
            -0.27531077380185803,
            -1.827289737512231,
            -0.07766977270387568,
            0.24586997493023358,
            0.19731554607482982,
            -0.4067604584844396,
            -0.5528885570814299,
            -0.271434609672413,
            -0.03851215760639226,
            -0.1937339685411555,
            0.5591315977235759,
            -0.8303666638952785,
            -0.45886422156582435,
            0.680125362418962,
            0.1730498656666808,
            -0.3628014716730817,
            -0.020920644396129156,
            0.8731532707336209,
            -1.859007800434421,
            -0.23870553896657404
          ],
          [
            0.0031317480487419863,
            0.2734499172921263,
            0.14273989687291908,
            -0.5062431870301765,
            0.1890955562894465,
            -0.17276450552299838,
            0.41288135265271025,
            -0.2750199330624319,
            -0.4249963731236458,
            0.2734302794595088,
            -0.37512259478611737,
            -0.19768524576527083,
            0.16294827967243752,
            0.03694409741803667,
            0.04136299217550462,
            0.9024844681279686,
            -0.40721298176407017,
            -0.2237916706401448,
            -0.40711988986373787,
            -0.4185868623168221,
            0.07782335096247547,
            -0.4875176915081617,
            0.1980185995049415,
            -0.2923325640645312,
            -0.2656580612288688,
            1.0437467189203025,
            -0.6137286899021415,
            -2.816372296607894,
            -0.8070454490252327,
            0.035189153000891135,
            -0.057162615087154346,
            -0.059934881889523325,
            0.029720602015468937,
            -2.47656672638006,
            -0.45354325952194274,
            -0.16306424602052483,
            0.20312536593077773,
            -0.16113138796607746,
            0.14521410779581415,
            0.492558785698322,
            -0.34064767744889923,
            -0.36167636498178807,
            -0.014392036297665958,
            0.0865714533094576,
            -0.8265580914136135,
            0.27504298644759545,
            -0.8392002695930324,
            -1.6620994260550594,
            0.22152466761707343,
            -0.8504915340661916,
            -0.7485331533194914,
            0.0891763413640069,
            0.004681255141458813,
            -0.09030829820584037,
            0.3384830789263641,
            -0.46895907797634995,
            0.4503460219839871,
            0.3107919168691689,
            0.8378238340093624,
            0.5576715985394121,
            0.648114979907839,
            -0.48085987236255756,
            0.8616799578339969,
            0.4593476926186043
          ],
          [
            0.264351589139539,
            -0.018021187362621503,
            -0.41503894358057575,
            -0.4228406175470289,
            0.8196936262903802,
            0.2668882568250837,
            1.0189938278368724,
            -0.08322166966149547,
            -1.7891611822263809,
            0.14196526994387923,
            -0.9671571666516379,
            -0.1915711338416575,
            -0.44686037456257555,
            0.33016182196969684,
            -0.2910752255889169,
            -0.3559679628498157,
            -0.48698350817644914,
            0.5500456481113014,
            0.8760188499547119,
            -0.4799611099549973,
            -0.27178649874462235,
            0.5045763603217824,
            0.22981978763953378,
            -0.17792930682760533,
            1.1219254633590034,
            0.5286042102906526,
            -0.20715910635550142,
            0.4007831450540171,
            -0.07170235258854042,
            -0.4813249269037081,
            -0.012376641809196873,
            -0.5779422067004423,
            0.8349312408551937,
            -1.1837943493679863,
            0.6387618648842783,
            -0.3582951513818305,
            -0.7087805839378187,
            -0.4717591293675498,
            -0.4036862633539136,
            0.4494244573692595,
            0.8936270038849368,
            -1.3765171335563164,
            -1.9397481200957745,
            0.9545281015730605,
            0.3318999906962023,
            -0.4878483016084612,
            1.2141679486790014,
            -0.3271755814029842,
            0.056108535378994316,
            -1.0091808383025593,
            -0.13057209529931665,
            0.773549888312522,
            -0.7220128066849515,
            -0.5793702791687425,
            -0.7680761186868288,
            -1.45790704869216,
            -0.3654408802991394,
            -0.47224519897746087,
            0.187493896101892,
            -1.990371067258186,
            -1.5153437432187853,
            -0.22798005119967021,
            -0.3108091484955223,
            1.3372234987354779
          ],
          [
            -0.8191350435129181,
            0.5517702805505236,
            -0.9410586316976599,
            0.11858999156420767,
            0.10384279704210879,
            -0.38109335179405923,
            -0.2600043004358898,
            -0.27682593791761284,
            -0.7095155253665704,
            -0.42811226452762485,
            0.019579888787087076,
            -0.07002283704328405,
            0.003383289556546752,
            -0.7239109915272491,
            -0.10568753060255748,
            0.06659732525340953,
            0.46645577879564637,
            0.09058039689536088,
            0.3821668821563681,
            -0.1329328366358992,
            0.2070519906759392,
            0.27464350730709775,
            -0.17984232851186985,
            -0.226482220727145,
            0.012766133523922057,
            0.195366626419523,
            -0.36319924047743174,
            -0.43384909406453326,
            -0.01485967508136871,
            -0.26146399289189926,
            -0.2091111555377698,
            0.4787127332130594,
            0.48644404991594914,
            0.022104043268026417,
            0.055443285666876445,
            0.21443583605426078,
            -1.2425297487616882,
            -0.25501211696299203,
            -0.8697921595127986,
            0.3938431507113498,
            -1.9165584293196158,
            0.3118956291821077,
            -0.6957609379563049,
            -0.13788427676464632,
            0.3477379549850087,
            -0.6782326207079823,
            -0.656049214068743,
            0.8103368478884161,
            0.48160633412219145,
            -0.1050539655604534,
            -0.058319756371032906,
            -0.10276184796922483,
            -1.3575109470681799,
            0.19229268546835065,
            -0.7223604638754231,
            -1.8198311988120481,
            0.09224274980740967,
            -0.09673445866221358,
            -0.41002705698631314,
            -0.744144967558454,
            0.14122378917266531,
            0.15613732005269476,
            -1.0752279097250415,
            -0.13886533432078463
          ],
          [
            -1.9488555296197476,
            -0.2778213468879958,
            -0.6188434735534485,
            -0.5031267073183846,
            -0.4323192725124202,
            0.8153485065963553,
            -0.4278337240605149,
            -0.8832209133034359,
            0.2644264931595578,
            -2.632207802042032,
            -0.20672058121727635,
            -0.5710410090088156,
            -0.36755084113999587,
            -0.6564953269763476,
            -0.27211488987097393,
            -0.46125735136437296,
            0.00876020973742437,
            0.49452284569735827,
            -1.0879901637170102,
            -1.3481061989167413,
            -0.126820806882511,
            -1.5926215216101662,
            -0.4230636258852792,
            -0.36705425291548227,
            -0.009491501982931184,
            0.056540577105263945,
            -0.38095175927039565,
            0.08466356683676418,
            -1.6707585231703612,
            -0.8867045034287986,
            -0.04226630846031316,
            -0.12410509205584326,
            0.13624178837968431,
            0.2866244376361805,
            0.655083131723213,
            0.38899593154901246,
            -0.17083624539124728,
            0.12631699568736285,
            -1.4740390082103114,
            -0.26822891674472793,
            -0.6426197918185247,
            -1.608379894995568,
            -1.163061991429766,
            -0.5570169644444477,
            -1.048333736647823,
            -0.11002246716390195,
            -0.2450706456387138,
            -0.3416203559041308,
            0.1209694007221029,
            0.19327838897219676,
            -1.184510720213933,
            -0.168736590564735,
            0.3298823732867822,
            0.1912088286421461,
            -0.0071169615753575175,
            -0.45558811217237916,
            -0.8927117234854139,
            0.0164638780238386,
            -0.9330962436248109,
            -0.18832377476874457,
            -0.5999288780040773,
            -0.5370306253162953,
            -0.9277340183537026,
            -1.3916740695199772
          ],
          [
            -0.059805437676335504,
            -0.28608503235090504,
            -0.031608286664485265,
            0.02419329657533661,
            -0.3337661118993343,
            0.05416037837009956,
            0.574781111532074,
            0.34614248476740356,
            -0.574372151630975,
            -1.2928228737865606,
            0.6270070683474408,
            0.1379419874878456,
            -0.14861413350374444,
            -1.5245751394351177,
            -1.4310415486444317,
            0.6971177868039419,
            0.24970220842656687,
            -0.537892298822693,
            -0.38859092429416137,
            -0.2661611581807975,
            -0.11070846274010633,
            -0.18844914195771023,
            -0.4186826837619788,
            -0.20690547841316248,
            0.07590062637505926,
            -0.22527927121794222,
            -0.15777153028245627,
            -0.3056989651156366,
            -0.44999696773070574,
            -0.06036049972399797,
            0.11742492308600694,
            -0.4042570317932592,
            -0.3667698357494982,
            -0.05144585769319267,
            -1.0716198537763488,
            -0.26548898624642486,
            -0.35728904825392144,
            0.07274877648699989,
            -0.03306581939590828,
            -1.0411159493736104,
            0.6984407053989331,
            0.24669160164076032,
            -3.1520992079268844,
            0.4264247616321465,
            0.09083553366574194,
            0.6717604669809464,
            -0.6639636361946049,
            0.1883844453193092,
            -0.1906831519020178,
            0.24471369663058967,
            -0.11179731987413669,
            -0.09048901938860486,
            -0.9723686806061856,
            0.02128149649663333,
            -1.6891327952219322,
            -0.008414056529252478,
            -0.5865928746128527,
            0.5191225338159101,
            -0.43751247331227705,
            -0.6124241518409513,
            -0.6942648902456281,
            0.005352472708745666,
            -0.22010019866250208,
            0.007142535779525564
          ],
          [
            -0.06472619868440911,
            -0.12446042628503771,
            0.845261319653556,
            0.05575986426004896,
            -0.21835807690628087,
            0.26545466629912534,
            -0.4923662042973528,
            0.3137115287723875,
            -0.1411305974328988,
            -0.030361412535914737,
            0.09988541402392381,
            0.8289481774562342,
            -0.4386632788185352,
            0.07161683072182044,
            -0.37517302770023586,
            -0.47276269475423716,
            0.5837466297577331,
            0.6752317453404313,
            -0.5323619094483997,
            0.0718977192263248,
            -0.6447463871407869,
            0.061314758472695255,
            -0.511027025306588,
            0.8686016330028936,
            0.012815963529762945,
            -0.6671306703781146,
            -0.22801321574642314,
            -0.07929105292168,
            -0.4882065356075723,
            -0.4811984416438878,
            -0.05563979052232513,
            -0.1827825923151034,
            -0.15853543667444842,
            -0.4360910162906558,
            0.21464977961704731,
            -0.3520499474458631,
            0.24002376667721528,
            0.11565718351258997,
            0.36029901133003867,
            0.6007696109138974,
            -0.6213508160752335,
            0.43236268709753134,
            0.28561590707076445,
            -0.16044378083285407,
            0.05283674672842251,
            0.19635284980512424,
            -0.14437862113586186,
            -0.5060832908127721,
            -0.2802713780253602,
            0.37004943066699864,
            -0.060148424189066484,
            -0.15229523908673614,
            -0.3144226239298036,
            -0.743054733935711,
            0.21918899427084831,
            0.21194323641592205,
            -0.024973150092773365,
            -0.09212303931288567,
            -0.18837445480392354,
            0.7571801047655321,
            0.973892682402464,
            -0.1707386389143012,
            -0.15404355406541315,
            -0.31880531572889764
          ],
          [
            -0.3066501586118891,
            -0.3086261591300076,
            0.653491967923161,
            -0.8745449405181158,
            -0.49255890238312544,
            -0.05578919733587785,
            -1.2517652543052442,
            -2.167591365530833,
            0.32456076467600015,
            -0.0333337886742837,
            -0.22265850967432574,
            -0.08717421220828322,
            -0.8071118715022186,
            -0.01797743615115738,
            -0.34906368145431943,
            -0.00911678376430808,
            1.1018389422532247,
            -1.2952567529971388,
            -1.2023860576647474,
            0.06961697963930362,
            0.275225892804034,
            0.5884667499395052,
            0.3638936155836107,
            -0.45599917409370155,
            -0.10259399885965957,
            -1.9054807966010185,
            -1.506039724991153,
            -0.08519252136712403,
            -0.5168282425462477,
            0.5023183588560018,
            -0.10036004433093645,
            -0.12674528940143878,
            -0.46929621076044015,
            0.22008080454806034,
            0.600989260664446,
            -0.1749505644172248,
            0.6618283312206656,
            -1.8090839614544083,
            0.09590124642984736,
            0.5798664540400593,
            0.27681105960132063,
            0.4805912210819786,
            -1.0714947484602695,
            -2.0672638873837776,
            0.13613459443209422,
            0.879141016898231,
            -0.10670463725809062,
            0.24329875290852368,
            -0.17455971297439032,
            -0.30485099168771695,
            -2.632808797619064,
            0.30823065441904896,
            0.432727837357979,
            0.6107935560084979,
            -0.39945087514245053,
            0.39211826560979174,
            -0.7091376368197494,
            0.07544868955928156,
            -0.5713526002975973,
            -0.11435499922557628,
            0.434072042636601,
            -1.2495054608255087,
            0.08746315442302126,
            -1.5887628078425058
          ],
          [
            -0.47127665352899617,
            0.19806062252496137,
            0.5757296426339389,
            0.16756298885989068,
            -0.60800258697075,
            -1.0421120715686374,
            0.00045003973750064785,
            -0.13945270838909382,
            -0.5689843219284548,
            -0.7909203315129975,
            -0.14587106967496308,
            0.34451939973346796,
            -0.07670313080261072,
            -0.8075712801713042,
            -0.7035127213129163,
            -0.43905833046542114,
            -0.07981182878746977,
            0.19457693096257186,
            -0.1755049350304985,
            0.03586480616052219,
            -0.869278924519704,
            -0.29711964277550656,
            0.08680424632939195,
            -0.06666007110234372,
            0.6691109241659751,
            -1.2414997919149795,
            -0.09455257527694239,
            0.1492775718496983,
            -0.7136671426072241,
            -0.12342854107648002,
            -0.11721495913878192,
            0.13181824636213155,
            -0.2133912679618056,
            -1.4300153019159934,
            -0.18662797994898236,
            0.20230011529733025,
            -0.6190511482157087,
            0.6560494799459512,
            -0.35259953349242884,
            0.1646325112553519,
            0.5354853534783717,
            -0.35983942007719627,
            -1.1532032684394116,
            -0.16395653909189392,
            -0.026606119788570234,
            -0.7409922696643075,
