{
  "engine": "nn",
  "version": 2,
  "feature_encoding": "ray_wall_body_inverse_v1",
  "epsilon": 0.005,
  "epsilon_decay": 0.99,
  "min_epsilon": 0.005,
  "gamma": 0.95,
  "learning_rate": 0.0005,
  "hidden_layers": [
    64,
    64
  ],
  "batch_size": 64,
  "replay_capacity": 10000,
  "target_sync_interval": 200,
  "seed": 42,
  "training_steps": 121507,
  "last_loss": 0.03422814605423323,
  "network": {
    "layers": [
      {
        "weights": [
          [
            0.20277851660202192,
            -0.14185616933038114,
            0.11775922590982384,
            0.71991212745222,
            -0.6561921359392082,
            -0.43365973179111744,
            0.18219053058849582,
            -0.11702857046743449,
            -0.016888695362136257,
            -0.43350097268888127,
            0.5198065333500318,
            0.2512842212020058,
            -0.15032252066318777,
            0.28242938214808766,
            -0.2406115830878956,
            -0.17075379450651182,
            0.12128728847737608,
            -0.3902850684799165,
            0.15458338099874805,
            -0.09023713973256228,
            0.03281456037316972,
            -0.45423623688947945,
            0.5062663214682867,
            0.12247075613561365,
            -0.10969651470190304,
            -0.12470581707404813,
            0.324425878104532,
            0.0306160921176346,
            0.07855428630366218,
            -0.04667712759314686,
            0.6864790324234896,
            0.00035741274377100023,
            -0.46895273622421446,
            -0.3389362628709778,
            0.3562969255587358,
            0.3120251130732849,
            -0.11010399401916957,
            -0.5088031295318154,
            -0.7475270594142096,
            -0.030226118276108063,
            0.2981122762996454,
            0.4183092732441863,
            -0.454692301600196,
            0.0763265360662363,
            0.06817093070810513,
            0.06290326996519997,
            0.6429504353310732,
            -0.2596134886746284,
            0.642774516532547,
            -0.10542201735853582,
            0.0630954196531968,
            0.25921698049879005,
            -0.3007625853087411,
            -0.07766021200624806,
            -0.24165905301701154,
            -0.17896315702345622,
            0.10101495397885228,
            0.4726729996319107,
            -0.46694046071202994,
            0.522485484478277,
            -0.2862032394017178,
            0.19292331113711625,
            0.3655081913930057,
            0.019324506507922896
          ],
          [
            0.18163790876478358,
            0.3260308640165137,
            0.12088510651453226,
            -0.0025101228449991024,
            0.26823067320595606,
            -0.33381193459451247,
            -0.5244605463028094,
            -0.10023622765017078,
            -0.6862514540838769,
            0.24750015722777932,
            0.06883738953189354,
            -0.07459431154873886,
            -0.1573309960737523,
            0.22109393325402382,
            0.5179524289895782,
            0.3803174751002517,
            0.3395437760077728,
            -0.24629379730665313,
            -0.3441948779750379,
            -0.06710301450684635,
            -0.5885374088532308,
            0.4330819525914097,
            0.1470311428353141,
            0.2550561932828289,
            0.2559632442233672,
            0.343002992710085,
            0.2786760947437035,
            0.02058802295941881,
            0.08191154412686422,
            0.007622437747142005,
            -0.5471970178202592,
            -0.36076574338113404,
            -0.2608852534756416,
            0.08197419646937386,
            0.18888751283877014,
            -0.0967691754700014,
            0.023561007907461216,
            0.86335296043014,
            0.11040223330482463,
            0.4667119058090168,
            -0.26378186777214035,
            -0.1784513708354968,
            -0.2580093151879865,
            -0.43917521087952655,
            0.3851530066827603,
            -0.6991381328953529,
            0.19761967161146662,
            0.3307847701074016,
            0.06956893962886847,
            -0.36637923752998985,
            0.1487678996626778,
            -0.4386880446389641,
            0.08965501382934807,
            0.24132467391873366,
            0.8635728978278796,
            -0.11530333639708273,
            -0.2512808515554308,
            0.06957490755498497,
            0.08492984350210538,
            0.6609211064491383,
            0.07029692492720395,
            -0.13162708225311529,
            0.606604728997158,
            0.05566439817422683
          ],
          [
            -0.6468666847186566,
            -0.36500755070744006,
            -0.07537923829887123,
            -0.396850716785297,
            0.35467345843366255,
            -0.2832056372853331,
            -0.594876605676496,
            -0.27717521493162817,
            0.09909107517759023,
            0.1515155153555764,
            0.47640990494745705,
            0.9885288246770702,
            0.37267158314953824,
            -0.6398695395808339,
            -1.3056829026940784,
            0.04746081436975282,
            -0.030691908532537147,
            -0.6340072859990468,
            -0.2441368540415846,
            -0.15268478650145195,
            0.6446610019541544,
            0.2552835137290549,
            -0.09186249309335172,
            -0.45819034125314734,
            -0.8687117118413064,
            0.0490268337696271,
            -0.5284705149834052,
            0.5169646507344638,
            0.3145445088656931,
            0.1224383712941308,
            -0.24069973233463066,
            -0.5095301375440296,
            -0.1679968977273561,
            -0.023435508696622694,
            0.533669622744599,
            -0.24258623191952075,
            0.3517157671135278,
            -0.18561048030834748,
            0.8611624968355317,
            0.03068009915334977,
            -0.16849868887465638,
            0.25796498993951056,
            -0.23809293144493518,
            0.06531393869181604,
            -0.5016011594228584,
            0.07516492284909417,
            -0.7359097368992992,
            0.2280818589303415,
            0.5854858774969246,
            0.1551248879138518,
            -0.0005600132626204055,
            -0.11871307418231283,
            0.2599276200764018,
            0.1403944337214684,
            -0.3141545532852712,
            0.32951476320859624,
            -0.1938630390599485,
            0.7256351140459935,
            -0.061912884530330996,
            0.04468616426374323,
            -1.0086904152563945,
            0.5665312424238218,
            0.44050701673485787,
            0.3630103387718639
          ],
          [
            -0.13264096975437223,
            0.600171732979728,
            -0.23431222286552847,
            -0.584394596264063,
            0.09724274884738156,
            -0.34154643402328866,
            0.06964574150346427,
            0.17706512154131135,
            0.293957805343417,
            0.7007678232389759,
            -0.012763473276053634,
            0.1646811716952494,
            -0.6569320414374579,
            -0.20813423986078117,
            -0.39539884676365405,
            -0.9568284760724602,
            -0.2671452342109619,
            -0.2284404310351008,
            0.230151472711687,
            -0.9564139055600557,
            0.23200427467982931,
            0.02887541554050677,
            -0.22483571014467968,
            0.14478893048376704,
            0.3839726808566841,
            0.8896781174555046,
            -0.1000531671459348,
            -0.25342778257521825,
            -0.7696586640793127,
            -0.21489863532655032,
            -0.107945804544118,
            -0.46060251059506563,
            0.222817093853933,
            0.17948535773602822,
            0.7033431496621553,
            0.4091435584867861,
            -0.5634626908418147,
            0.13313316759702762,
            0.21168632545090385,
            -0.5721647261765466,
            0.27974644881472027,
            0.4547445640949287,
            -0.32361723407436666,
            -0.011148509884390752,
            -0.8573237864781513,
            -0.2805471418027927,
            -0.18298537970162035,
            0.06724190683536013,
            -0.43920016053822325,
            -0.09091324129301498,
            -0.724491725361723,
            -0.47958257158168643,
            0.6628410418768346,
            -0.4103843869367783,
            -0.2481159050692927,
            0.38436010795578673,
            0.8302618342821969,
            -0.23188372218172656,
            -0.03115520271051638,
            0.05309488169125638,
            0.7638500003767505,
            -0.11909051045216476,
            0.057673459511631726,
            0.33180759504449997
          ],
          [
            0.053101227426477215,
            -0.46361202606470553,
            -0.5364226942083289,
            -0.6620229033908078,
            -0.1469994038578877,
            -0.4582041456506635,
            0.1592786600812626,
            -1.4311347401976195,
            0.229169896067725,
            0.23832987653394352,
            0.065071408083564,
            0.08056119500321125,
            -0.282507461918352,
            -0.24039564445920608,
            0.06151293331432508,
            0.3754253456096269,
            0.016532888110847115,
            0.7579162534488914,
            0.5313940104600714,
            -0.05447960206203841,
            -0.168316649884713,
            -1.7375257677560882,
            0.5383246850363621,
            0.16665042783234102,
            0.25131830980707554,
            -0.14044078049992284,
            0.16679918106466823,
            0.3102510136407454,
            -0.5633212415390677,
            -0.6336667925809376,
            0.20116426756348335,
            0.14207691272031361,
            -1.9838875838980536,
            -0.07599603768127723,
            -0.14979859275799,
            0.42910782254818036,
            0.2830724038038577,
            -0.3589984477706669,
            -0.00010477869468121384,
            0.1882469629232385,
            0.4353452432236539,
            0.11626122004297253,
            -0.2737507697099636,
            0.2557130130960556,
            0.6238791740371918,
            -0.8525982308384211,
            0.42506672124846023,
            -0.10183177190919673,
            -0.03481077034832091,
            -0.5450038751878264,
            -0.1345068715702266,
            0.4704429399422383,
            0.29992743188815846,
            0.653119270423206,
            0.26030229156170037,
            0.09439404563411369,
            0.5866973801806213,
            0.4587611115571904,
            0.16332164767982457,
            0.1415238637939551,
            -0.11436759055773198,
            -0.3957110798551771,
            0.2908271280870268,
            -0.525907124105394
          ],
          [
            0.1229342875331214,
            0.19856763103654854,
            0.4895603963171684,
            0.48824692111053275,
            0.5148555105621843,
            0.5397823117204141,
            -0.8994753906695855,
            -0.008068576614779704,
            -1.8993485802563534,
            -0.1945052762402375,
            0.021433615502501432,
            0.06390172927035873,
            -0.5255341794428138,
            -0.5893246184606908,
            0.34608193086241934,
            -0.3686128399611839,
            -0.20401555625856435,
            -0.4528698422060116,
            -0.04162941262993336,
            -0.16582767911763094,
            -0.08087047894769396,
            -0.09534177533008503,
            -0.10677251736672358,
            0.197768276730696,
            0.6550956664692579,
            -0.728550255706255,
            -0.3247771879954509,
            0.2864902524549737,
            -0.7440548406034034,
            0.6027858658814598,
            -0.15768498281257923,
            0.567268475806817,
            -0.6664047580678296,
            0.19772341895686113,
            0.14939310675538767,
            0.1854378016809756,
            0.06964777161481449,
            0.27261184020938406,
            -0.45939179871723484,
            0.021398944555979245,
            -0.18796958578530254,
            0.23500428300541013,
            0.4031435965557512,
            -0.5537719894870601,
            -0.13059515240895989,
            0.6065517597310394,
            -0.3584125400211666,
            -0.28315180111764265,
            0.23066339505532787,
            0.44481243802843023,
            0.1697950928905487,
            0.31250754232902056,
            0.3195811660098284,
            0.03193892946281006,
            0.45485885666162246,
            0.635547102857189,
            0.07148144720410421,
            -0.7525361065481909,
            0.6642409109801806,
            0.13543568059422526,
            0.07133528518031135,
            0.401472156416305,
            -0.29526033627383336,
            -1.2130165450712938
          ],
          [
            -0.7516645718103248,
            -0.5003917835258501,
            0.40795886345694715,
            0.24397480678315586,
            0.26132152089421246,
            -0.23482036995414546,
            -0.05207419422621698,
            0.08306242610224553,
            0.19709228178020155,
            0.22562194384350412,
            0.1326443633883853,
            0.17678118843569846,
            0.33839621078343884,
            0.31912420298837485,
            0.5669949092671944,
            -0.1011672768582135,
            0.09749910141469423,
            0.3275026518305405,
            -0.33908211898537316,
            0.01714470332425464,
            0.31427221114040194,
            0.09847670629193489,
            0.07875624099381766,
            0.39108790812634686,
            -0.7465571392042989,
            -0.3357846827414668,
            -1.501376989819157,
            -0.510841365558173,
            -0.4997741770614997,
            0.4291369189274641,
            -0.2250108647445529,
            -0.13976263630767133,
            0.5606414884499948,
            0.4520812782037221,
            -0.037333704447570296,
            0.29057718031914326,
            0.5346114855612362,
            -0.3935568704850073,
            -0.9618892407517515,
            -1.0922845989856838,
            -0.21707887609497278,
            -0.13566615519490824,
            0.2288097577798517,
            0.6443283217275996,
            0.10830154331666556,
            0.22713211594757118,
            -0.3567252661532327,
            0.43872259543889075,
            -0.09154327885991,
            -0.49570745093607793,
            0.49852222096297927,
            -0.17267742092684962,
            -0.6071381343130207,
            -0.2298323849155186,
            -0.28294038942176764,
            -0.042823700339689415,
            0.21107603508686265,
            0.3313835976569951,
            0.1895624635886306,
            0.4032322568842747,
            0.40345144593344606,
            -0.6809261163863326,
            0.8025149555943691,
            0.02297855520538438
          ],
          [
            0.47032502396740594,
            0.20847243158106843,
            -0.36174730283590995,
            0.09074978598407862,
            0.31164151524871253,
            0.8394412642214636,
            0.15187353530828063,
            0.314916658603074,
            0.3923913258243562,
            -0.26052552305767257,
            0.2002070816448651,
            0.050402476542023567,
            0.07135822010220834,
            -0.3558296060483589,
            -0.3955432284422487,
            -1.3695701640425022,
            -0.127737370776842,
            -0.04978773101136431,
            -0.14400756161958195,
            0.8315516156860278,
            0.32945146792391733,
            -0.23132360951575306,
            0.15235468242133662,
            0.0629978122268011,
            -0.0628392832185715,
            0.2517075623969814,
            0.1485996047605728,
            -0.07195151889407939,
            0.5129463831368392,
            -0.49801837607283644,
            0.10434410288145299,
            0.7504081266508097,
            0.12231451652610266,
            0.5320823533420348,
            -0.18012830635172133,
            0.19490221895161186,
            -0.006154141418907793,
            -0.2355357262228528,
            0.12031447691912452,
            0.20513076684201506,
            -0.11589292390780286,
            0.23237863353884583,
            0.499106242944583,
            0.05488175581936091,
            0.1744316563329601,
            0.2851635716260436,
            0.048217526208253474,
            0.36676547561982564,
            -0.3307247405443234,
            0.07370311142862535,
            -1.6029900448711083,
            -0.5424925599452946,
            0.39462180588621915,
            0.31734771099512343,
            -1.298343411562106,
            -0.855611591666034,
            -1.4839644606056461,
            -0.38999816158955825,
            0.6121509504712797,
            0.27537066435611895,
            0.2260547229627126,
            0.11203777139967956,
            -0.5441316441392196,
            0.310838630107282
          ],
          [
            0.37889148503902026,
            0.014313760492414377,
            0.33198334752182457,
            0.3305129090373372,
            0.5024623280057029,
            0.35147136491658965,
            0.018601091811623283,
            1.1125018513900211,
            0.3898494033135213,
            -1.4206886344143268,
            -0.1302654137341391,
            -0.04213778030559855,
            0.6012688321351118,
            0.07095690997968943,
            0.12711904070176888,
            -0.8409838536016125,
            0.809330354639515,
            1.08994576039712,
            0.24234733757515642,
            -0.2882226525935965,
            -0.18788858507269846,
            0.31316717376206854,
            -0.41215564869831633,
            -0.04082911548662609,
            -0.6814336458387761,
            0.6342682800864021,
            -1.961734408198746,
            -0.29220894183842394,
            -1.417786135863322,
            -0.17423044065320972,
            -0.038989822892133055,
            0.10603599802747939,
            -0.04460722486181627,
            -0.03341868581952117,
            -0.011022127138491109,
            -0.7552095307397448,
            0.6057724281937219,
            0.2766531895737957,
            -0.32750875597414636,
            -0.47451215985201683,
            -0.31806654057100336,
            0.6622428508039161,
            0.2929076422436614,
            -0.1650617856782817,
            -0.7539114918692842,
            -1.0013381387735525,
            -1.0735990253329621,
            -0.26202099040744214,
            -0.10458490051317737,
            0.42158358539746493,
            0.11772749787144453,
            -0.5365310969257735,
            0.529216657491262,
            0.6783894067455557,
            -0.1826493000725146,
            -0.25820826555243853,
            -0.4776575011787836,
            0.08653089699141248,
            -1.967400218425812,
            -0.21586858444494095,
            0.19867591699629333,
            -0.07762657173607869,
            0.20679137517032636,
            -1.6239561813282613
          ],
          [
            0.6514784676080112,
            0.22320023452542453,
            -0.11211491749639482,
            0.08370686310580298,
            -1.488538394730905,
            -0.10668242821329496,
            -0.07342609369991689,
            -1.572869547353887,
            0.038700303925054864,
            0.8799765970560849,
            -2.681439913459842,
            0.03181139996028233,
            0.24340859464090478,
            0.6160358482519995,
            -0.9009471719789753,
            0.7610031509491729,
            0.872886531103463,
            -0.28825272587414225,
            -0.3674325239792885,
            -0.09377542011172425,
            0.28065089008819427,
            0.5292966375533245,
            0.3380219667992606,
            -0.04193237865152464,
            0.2340613550876246,
            0.16666269094917216,
            0.34719978503352433,
            -0.22269150028524032,
            -0.21989140612746189,
            -0.4201299679721864,
            0.5482086437085534,
            0.29685968312333205,
            -0.6435198634615354,
            0.05544277356684364,
            -1.5875998858733857,
            -0.1480648588398838,
            -0.46993552189601673,
            -1.32271473792543,
            -0.24926499122175103,
            -2.9147431934159824,
            0.47000089262657796,
            0.30659834957453247,
            -0.48641415253166215,
            0.8028801571735574,
            0.01616050842122119,
            0.24873602273799608,
            0.10694002037106333,
            -0.11692115183837465,
            0.37223095184607546,
            -1.257330022314668,
            -0.9388170232482269,
            0.048211961110635644,
            -0.8883144020460476,
            -0.9148664850863123,
            -0.3164427659032345,
            1.3879210622328408,
            -0.7567529822742257,
            -0.5955423967805166,
            -0.7850582712945441,
            -1.1942421247152044,
            0.5965684201191439,
            -0.6013956160906655,
            0.02476910295092606,
            -0.16718845435747165
          ],
          [
            -0.21302672611393395,
            0.47643354794920384,
            0.6192012494028698,
            -0.08132843049560412,
            -0.3240018591184595,
            -0.17569144604327697,
            0.2951289838071759,
            -1.0453437534469636,
            -0.18905842981410476,
            -0.5303838684630273,
            0.9618164423137717,
            -1.1334482925939457,
            0.05552094311025871,
            -1.3456785070010742,
            -0.17380936846139813,
            0.43312450986914885,
            -0.9347816013522817,
            -0.13378793463012864,
            0.5924575382861769,
            0.02079000864396104,
            -0.6426260360493177,
            -0.1457842510723413,
            -0.13154028551631652,
            -2.4491578982019684,
            0.28574595382625667,
            -0.29021828830880714,
            -1.0701878803638967,
            0.07438237476885701,
            -0.07649550938358199,
            -0.35674124983436334,
            0.356801922462533,
            0.7665022269303163,
            -1.5414430489779254,
            -1.4334035410099917,
            0.48396396418494336,
            0.08768427486758769,
            0.556532488290751,
            0.2585396510702088,
            -0.06437103269183062,
            0.27317827026038316,
            0.4196829391291406,
            0.050854580135604836,
            0.3384109878483481,
            -0.5015282031845365,
            -0.2171325271898485,
            -1.127215296906055,
            0.3180712435691083,
            0.45065829948530833,
            -0.5128671377229959,
            -0.25408493883947497,
            0.08036135149932046,
            0.038447026270792946,
            0.43413598259613445,
            -2.2005139550202477,
            -0.03148950443782317,
            -0.9321727212670216,
            -0.6755290556157687,
            -0.49198020211233795,
            -0.4181819901918659,
            -0.44404448595378954,
            0.22034540525015311,
            0.08505440167885023,
            -0.2778782155575277,
            0.08382403117335716
          ],
          [
            0.20345824635372553,
            -0.2748894682191379,
            -0.035450758145121435,
            0.053910911876315276,
            -0.2762718619996928,
            -0.022850704003070394,
            0.35044150353731035,
            -0.025750098198207307,
            -0.9866270373940124,
            0.48048819310446705,
            -0.5162944397296069,
            -0.5974582357925857,
            -0.5401896553355069,
            0.5585755003349274,
            -0.36478069684846537,
            -0.27176007016767667,
            -0.1853263756185866,
            0.5477870107897129,
            -0.4178850826794679,
            -0.14161902193885087,
            -1.2333730684910218,
            0.5497563321084541,
            -1.150542955554995,
            -0.2790480727050227,
            -0.29568302740751007,
            -0.9427967525380502,
            -0.25316094150528806,
            0.41815871924336995,
            0.4693170756568498,
            -0.022943146212029444,
            0.15232958317940928,
            -2.4147370500096024,
            0.23175294975933536,
            0.043565232477372,
            -2.3632605253315275,
            -2.1267754864755246,
            0.1959936627850561,
            0.6428721721481339,
            -0.16771165041946984,
            -1.8076876764168666,
            0.38647826266138546,
            0.6481255950470551,
            0.4106784216332131,
            -0.15603190890128849,
            -0.5346181455165894,
            -0.2747870823018056,
            0.2320338029911115,
            -1.330282804321303,
            -0.4661751561071759,
            0.8341185037877107,
            0.9156933738940976,
            0.7440592897932639,
            -0.4632655406925655,
            0.48622463748804146,
            -0.689307295094577,
            0.17088282717255215,
            0.6222935613186222,
            0.492887815635311,
            0.16365716999788624,
            0.4279522098940788,
            -0.08773028254649502,
            -0.10700860569623397,
            0.16526376889285987,
            -0.5221410762078508
          ],
          [
            -0.5519996488348623,
            0.3867310532467532,
            0.23333846777729697,
            -0.6369239182442584,
            -0.21036173331809868,
            0.5385176583767269,
            -0.3369173465115025,
            0.12930304274987367,
            -0.1683365737055606,
            0.06770875248211972,
            0.11898162775254982,
            0.09572845632860102,
            0.0865164224108701,
            -0.5408653809754331,
            0.21809706932133208,
            -0.5350082597425216,
            -0.008732761135911305,
            0.07850945428670406,
            0.23005705322692563,
            -0.06333966530247558,
            -0.06798075566553499,
            0.10196365423608533,
            -0.3142043424802129,
            -0.42749477464492647,
            0.4722710110827145,
            -0.26833925781672835,
            -0.8048721135524811,
            -0.11849175811442317,
            0.6104506918988942,
            0.5100065700623033,
            0.07073131250295245,
            -0.37676003558584953,
            -0.11727617433598406,
            -0.23207628855894402,
            -0.09590858051813675,
            -0.041908947444149504,
            -0.1907589596591267,
            0.5896115849818482,
            0.03148623245729247,
            -0.42463769808280605,
            0.01712524847110119,
            0.13710716363567163,
            -0.7894693893709679,
            0.0003140288699536868,
            -1.1492560041071904,
            -0.3698886640245087,
            0.04611326836606494,
            0.32091995257298545,
            0.34574285958967604,
            -0.018856307447017034,
            -0.5420205135392043,
            -0.21998889704470057,
            0.12239221167986773,
            0.7717553671538059,
            -0.503199070500179,
            -0.5120790799694094,
            0.28313896970760044,
            0.4595129677264471,
            -0.07854985226164163,
            -0.10820233968907532,
            0.444199496880398,
            -0.4941344615053919,
            0.4391700562104532,
            0.7596613991132812
          ],
          [
            -0.5560704901090716,
            0.027680329315024663,
            0.10111258485683997,
            -1.4944345143997593,
            -0.14151320015993285,
            0.6935909870660211,
            0.7833183728147151,
            -0.543212447909376,
            0.013129420508148863,
            0.29691836383098597,
            0.40865909507644327,
            -0.23354537407577708,
            0.1493364036211135,
            0.28130497271431176,
            0.5412537224053705,
            -0.18235625849106815,
            -0.02662280039634177,
            0.2901156606463167,
            -0.6524118737406088,
            -1.1541246403326377,
            0.3996169151480443,
            0.040021734595730586,
            0.4297555172425848,
            0.39896018204439204,
            0.2100486043408967,
            0.05801500951529124,
            -0.4024586646685019,
            -0.16955696294286665,
            -0.3998761214664075,
            -0.29659368747401477,
            0.15222051811893478,
            -0.0029048887123302135,
            -0.5319105376284702,
            -0.1523534570257137,
            -0.21874420307787107,
            -0.20994004143523318,
            -0.12949538504136654,
            -0.43710786865299417,
            -0.19097491391263646,
            -0.42141905303716903,
            0.6265071194191155,
            0.28230602712486647,
            -1.252158026424701,
            -0.6778257405321327,
            0.35790514054107375,
            0.05146661427484386,
            -0.21934019634535026,
            -0.7209793021842362,
            -0.43898053472549026,
            0.42369061594169494,
            0.30080347986394596,
            -0.14549103758216747,
            -0.48006202151465105,
            0.13191768642648266,
            0.7635144254355347,
            0.0758824890234869,
            -0.8660600661092263,
            -0.35444267246141287,
            -0.5050273471323173,
            -0.4180872872145187,
            -0.2963723834023983,
            0.160150073904545,
            -0.39306856002529866,
            0.11662246109613908
          ],
          [
            -0.8086805575046749,
            0.2280332514774194,
            -0.07848758682448094,
            -0.5116098878968773,
            0.11468646801822314,
            -0.2687139655953204,
            0.045392650698307925,
            0.19851435928859,
            -0.33718280971055586,
            0.7898448008051976,
            -0.08431963037631088,
            -1.5805805943966384,
            -0.1908583531139837,
            0.47938785577359455,
            -0.05846998057609924,
            -0.6254038943916616,
            -0.00735413829012133,
            -0.07349385464848239,
            0.1655764591839746,
            0.30843231395069803,
            0.36997796389718,
            -0.9082386191011582,
            0.27236738256330506,
            -0.5846316452773211,
            -0.24155160182211888,
            -0.10929557339978528,
            0.29701554584590845,
            0.1649503336573046,
            0.008056324761697691,
            0.8371364175290645,
            -0.04410151436322643,
            0.18369583344940024,
            -0.4564952208488363,
            -0.34849760165266785,
            0.08550604978001176,
            -0.39767437290939495,
            0.41223545048379645,
            0.3295820301282659,
            -0.6584749851499869,
            0.12617362611034513,
            -1.0528908922236797,
            -0.2223890411925778,
            -0.01442767222047064,
            0.23969932689310974,
            0.3532810601247683,
            0.3630565170382923,
            0.24454625104384695,
            0.5495838687995663,
            0.41884984465398556,
            -0.021438971952170063,
            0.041260889163324,
            -0.6938388782906139,
            0.03817304556174942,
            -0.04984417638321597,
            -0.07817924822280387,
            0.08632924686021382,
            0.06861490935471466,
            -0.5205097742678108,
            -0.955393872130078,
            0.19821301483127265,
            0.28080004430830974,
            0.5424023249548657,
            0.016370534987625855,
            -0.18301847698272275
          ],
          [
            0.6299875150518672,
            0.47349178139562287,
            0.009230964564638948,
            -0.010565799122166942,
            0.04801955136643389,
            -0.3328116192322859,
            -0.8464038469724374,
            -0.08582402523604636,
            0.955220652132209,
            0.006738290163782495,
            0.1799193069077379,
            0.0845644225403106,
            -0.44449308485152417,
            0.22786480419042526,
            -1.5426475070794547,
            -0.3267525470215459,
            0.4157842494028377,
            -0.1850748066723163,
            -0.6733775855174096,
            -0.489656403011398,
            0.20888146033849345,
            -0.9085697077944435,
            -0.07793537314270019,
            0.1594728880546917,
            0.33501043590915014,
            -0.07475948720311042,
            -0.7993165878293984,
            0.5851672982680874,
            -0.16738707022943597,
            0.3148080880768191,
            0.12603447062970044,
            0.37162769331417445,
            0.1343628401947715,
            0.536376178797198,
            -0.0690054717103283,
            -0.003503868899254816,
            0.9601821234956042,
            0.22241581461615517,
            0.12919136759393246,
            0.0630781647269641,
            0.14033556912191103,
            -0.06384584128675412,
            -0.31142996411932733,
            0.21598423051509913,
            0.3255222810009902,
            -0.0010259302424579402,
            0.05648727235249358,
            -0.13019856137823166,
            -0.3052846925180055,
            0.19841597172152248,
            -0.5531072874435741,
            0.31966470167532546,
            -0.4751302281318589,
            -0.716486858974282,
            0.024333714136697854,
            -0.2629435526307332,
            0.5263159959136654,
            -0.10383253495115351,
            0.010685458229141614,
            -0.13081861593804506,
            0.23852634759711328,
            -0.1972499577641522,
            0.2477929582480895,
            0.22993778227778047
          ]
        ],
        "biases": [
          0.21761889993613717,
          -0.00784609377254078,
          0.22156490066821447,
          -0.1747856073158515,
          0.1499196940283691,
          0.10774439843275617,
          0.3148513710368509,
          0.13683118208829445,
          0.2450922257857681,
          0.03103281103563519,
          -0.3005829112391838,
          -0.46184756870228705,
          0.3673263923949571,
          0.14161596361196085,
          0.07121875343193902,
          0.2240513057059219,
          0.000975218302065403,
          -0.01219237971633134,
          0.17851068581306886,
          -0.21484624443606687,
          0.22531493098341793,
          0.30463724766709394,
          -0.42262999109379834,
          -0.1199613501218121,
          0.13857855759057783,
          0.21222891117311846,
          0.08068960256304702,
          0.10120801805683198,
          0.02872797118755987,
          0.1944500290228907,
          0.20969898157552763,
          -0.1147800295291695,
          0.15500583289959172,
          0.07778032338224865,
          -0.24643266012913786,
          -0.009003751377461955,
          -0.03158472950206897,
          0.20451502300209895,
          0.004602096669345711,
          0.08204365344694932,
          -0.09480975998510141,
          -0.4656167713037831,
          0.23401434083338332,
          0.24791342282682477,
          0.04345333358914708,
          -0.08410609003324941,
          0.42227523290518176,
          -0.1628567952879195,
          -0.22482687262436546,
          0.18035272570008923,
          0.3676647309453501,
          0.2914508990762021,
          -0.14186008984760845,
          -0.17992102652447242,
          0.13187658627239993,
          -0.32109548085472284,
          0.05045169543069422,
          0.18146164366659073,
          -0.15040390171908047,
          -0.3838775648103026,
          -0.522033992352478,
          0.18004334623337157,
          -0.37604740643542905,
          0.18805377555499003
        ]
      },
      {
        "weights": [
          [
            -0.5651695681375203,
            -0.02033164467060915,
            -0.47365030164455646,
            0.1085573801930398,
            -0.15628692009530884,
            0.18166900404021621,
            0.3478523476763258,
            -0.10252623689815006,
            0.048182456622245955,
            -0.5317468912384555,
            -0.1415850819792926,
            -0.040867869559177844,
            0.09787454894355425,
            -0.34929391481834876,
            -0.07343395977707864,
            0.3524287176926674,
            -0.05974273196278826,
            0.057903750310453014,
            0.09387958529344108,
            0.02398118417793991,
            -0.371581477562663,
            -0.6066420278124682,
            -0.6091375811954983,
            0.04287790519664339,
            -0.5078771839404117,
            -0.030082894246916597,
            -0.16501532714165132,
            0.07217944988721431,
            -0.11642905312388487,
            0.29038445344685493,
            -0.24347730996321168,
            0.04311384626299259,
            -0.28024968524775273,
            0.23388907115482246,
            -0.1607285632400903,
            0.11067527261771846,
            0.05919574391953118,
            0.13183226061468825,
            -0.2593676900332603,
            0.18926328719761534,
            -0.48225242711896876,
            -0.23878696259874027,
            -0.028408798390385282,
            -0.02599418395807561,
            0.28163285137371985,
            0.022999640316899328,
            0.008229462039095909,
            -0.20821690372346016,
            -0.036218121162849184,
            -0.8060220032438274,
            -0.15068160987276105,
            0.1310214682446864,
            0.20296171262078322,
            0.6020972428481585,
            -0.12130479612275483,
            -0.14387524600416599,
            -0.07023941011050257,
            -0.07042376145968954,
            -0.011506935321443947,
            -0.008335127865831382,
            0.1525370666784694,
            -0.15179815543675007,
            -0.3636420240302884,
            -0.18268483130496374
          ],
          [
            -0.6706557425008772,
            -0.21246069239923815,
            -0.5171387831404246,
            -0.3392764736208895,
            -0.13548715583923862,
            -0.29911599848170184,
            -0.31206018944067304,
            0.36052117080965196,
            0.3493211893131233,
            0.48073176051675526,
            0.08099920707557097,
            0.26036223752870113,
            0.2664958602953835,
            0.06251855490694973,
            0.022340135781459953,
            0.11481761155957053,
            -0.27082267220279793,
            -0.034847681455784915,
            -0.1702454158878916,
            -0.4122138581057334,
            0.7996629884997338,
            -0.17754383953506114,
            0.27839203060941115,
            0.23604620130985585,
            -0.3735001884730268,
            -0.16089762349642026,
            -0.6091750273367241,
            0.2744303345494055,
            -0.06481466285382596,
            -0.33540345075007716,
            0.05223444792741779,
            -0.3623403242607006,
            0.126230615839516,
            0.2765629715023327,
            -0.06100097761497942,
            0.13271965890838688,
            -0.07702315551340203,
            -0.1386043407149092,
            0.5650335829896654,
            -0.2705107573376594,
            -0.16705182645155597,
            0.12893507491094888,
            -0.3805804263340295,
            -0.06851212526819599,
            -0.003204647109014097,
            0.1361649321511403,
            0.21103784152263988,
            0.16625803196405514,
            0.005207399260114625,
            -0.10743985382575129,
            -0.2785287627513348,
            0.2620905336982753,
            0.4359296614354271,
            -0.11408986854938226,
            -0.5236949094605287,
            0.17872063576616495,
            -0.49809506757219013,
            -0.22877802149784346,
            0.11856004797093585,
            -0.051817594657635045,
            0.2855357097260936,
            0.0929538466893358,
            -0.07341926220774164,
            0.2559982775315538
          ],
          [
            -0.23391119358669257,
            -0.07954758160856712,
            -0.28123295191432895,
            -0.2048311214866286,
            -0.09852185404406678,
            0.14978629633284282,
            -0.6495981094520064,
            -0.18576179535720477,
            -1.0345745344924886,
            -0.2752119631202419,
            -0.04809199352272944,
            -0.22728544751940052,
            -0.17238188400596768,
            0.03841576616630473,
            0.36683139959757183,
            0.07452260995945287,
            -0.35597543803610276,
            0.16521747230127656,
            -1.1074318390412166,
            -1.3938960126016058,
            -0.06410774888756346,
            -0.25601470866725584,
            -0.2550687888746753,
            -0.2054634855171972,
            0.07328120037862926,
            0.09199560234671207,
            -0.23323467419340396,
            -0.07240386349093501,
            -0.019768314611709366,
            0.2920599803269,
            -0.1514537410344763,
            0.23207973710509933,
            -0.09104306266032752,
            -0.00036592446449180673,
            0.04868136708964685,
            0.09656074160530337,
            0.14940270179488527,
            -0.010900506889504846,
            0.44631220228985047,
            0.3775877324700595,
            -0.13482761761580908,
            0.09480075875470072,
            0.2582409249692444,
            0.4054705530155679,
            -0.17774793970778308,
            -0.2464945624273502,
            0.3260807338535399,
            -0.18686024279026348,
            -0.3485393083683756,
            0.0913706333390066,
            -0.18732189640796532,
            -0.005467774107866434,
            -0.18346935589741728,
            -0.17296837061922965,
            -0.0001758019934675693,
            -0.8062282637780203,
            0.48446465996058313,
            0.10057029330784413,
            0.2270990051479617,
            -0.024575729372594037,
            -0.08187962691794026,
            -0.03420840829888209,
            -0.5280194094874711,
            -0.18097073553479692
          ],
          [
            -0.09927150424602647,
            -0.32775904738256656,
            -0.19345390749898242,
            0.37309985767587067,
            -0.027633436659848895,
            -0.0058821384806865985,
            0.2784431465397048,
            -0.36986944768983904,
            -0.4671239414727048,
            0.4529961477839242,
            0.11369100985677448,
            0.3615523072059725,
            0.10138110938118854,
            0.2831683851107542,
            0.09401222069176571,
            -0.21468578368694963,
            0.04713273778706825,
            0.12267549146714296,
            -0.529123439704768,
            -1.1767419466459488,
            0.078875414964277,
            0.5433201991969372,
            0.40535389714291054,
            0.15070204710256166,
            0.642686388047411,
            -0.14951734889879503,
            -0.19334118345495996,
            0.004893896096967884,
            0.3896430035252833,
            0.3803496201548844,
            -0.07285840509218564,
            -0.6113357014854753,
            -0.014212996294179542,
            -0.36465539993332513,
            0.3343870879496387,
            0.1742957600041518,
            0.0034372612500981723,
            -0.14922479282901704,
            0.3446666485614427,
            -0.05912376125923202,
            0.4799577420504303,
            -0.12430259576022962,
            0.4440954881159356,
            -0.01944613308463644,
            0.18406681717921197,
            -0.011200198478707447,
            0.0695620436997671,
            -0.20645873121473057,
            -0.317860823102893,
            0.05013810373572165,
            -0.449139688105869,
            0.08437157981173038,
            0.025322564128841756,
            0.10139383967299764,
            0.16604032679798744,
            0.43610184816367925,
            0.3739044042498817,
            0.06590214707927147,
            -0.2678078545727585,
            0.16696729194460827,
            -0.1841448399131642,
            0.3944838456860325,
            -0.4128016849374792,
            0.1523719709131654
          ],
          [
            0.32254435330107484,
            -0.36097831295743105,
            -0.3323245806000026,
            0.1675222286714834,
            0.026448272812309034,
            0.19660691411239417,
            -0.19958048787684718,
            0.15433831299912992,
            0.4075525166058376,
            0.32139861090383254,
            0.14817196279224684,
            -0.027512006276268555,
            -0.21633533673236943,
            -0.42394880204987984,
            0.10904676498772825,
            0.022601433637663614,
            -0.3423863646656314,
            -0.1360047948881971,
            -0.5122215550004459,
            -0.19997218454340804,
            0.1469423073002638,
            -0.22909120916821832,
            0.3284039750906507,
            0.26922042912437927,
            -0.49860661479762725,
            -0.4905796191174721,
            -0.058286048709085596,
            0.35945844257467807,
            -0.7014781578394527,
            0.09836207164976642,
            -0.2185941059986596,
            0.18239902260870572,
            -0.008316519323530596,
            0.12267699525419397,
            0.06799302063767343,
            0.29033591201345277,
            0.17139327288446032,
            -0.01729171797890086,
            -0.3470275145844926,
            0.1581628447269788,
            -0.19936723211986693,
            -0.006317479078176503,
            0.08645879578961695,
            -0.3693215849770555,
            0.09226867524514816,
            0.22656975153376016,
            0.030072790289930856,
            -0.26435837521074407,
            0.07987262099827681,
            0.0463327279938249,
            -0.4448023426911798,
            -0.2314256102219204,
            0.14018549180990206,
            -0.14833851031450157,
            -0.000531109909849326,
            0.28390045139487474,
            -0.1530892123115111,
            0.2259069473921065,
            0.6021362590298753,
            -0.08208802746630546,
            -0.3221725235734654,
            0.047411141236426896,
            0.1713284952946892,
            -0.022234618246353977
          ],
          [
            -0.25495438112493796,
            0.30906891438474604,
            0.30134618631773874,
            -0.01282258019361782,
            -0.09133923877252356,
            -0.20406538184062323,
            0.11869891261945187,
            0.4454734957520451,
            -0.03829907485030612,
            -0.1822370501689593,
            0.3831087708092391,
            -0.30423178902263964,
            -0.004654643517729918,
            -0.5728422880842031,
            -0.004253232284576205,
            0.2558146883940222,
            -0.042279086329291865,
            0.04222264816699831,
            -1.4825727588718787,
            0.17133234678274206,
            -0.37408764332273986,
            -0.374936207338057,
            -0.7773700864471792,
            0.3232382623620599,
            0.35563210408972157,
            0.11689187820908724,
            -0.203008382335758,
            0.21844357365433636,
            -0.07963497515539435,
            -0.1891798419438678,
            -0.014285665654255462,
            0.06434520844997432,
            0.19415769106522732,
            0.230865386005974,
            0.1726589153036479,
            0.4000497155516738,
            0.32616326801812034,
            -0.5600895608283039,
            -0.2060122874892543,
            -0.09254383620729538,
            -0.15844837879922005,
            0.4630191956617296,
            -0.232341786462775,
            -0.4915889766748816,
            -0.09219783951673136,
            0.08460339807086675,
            -0.038154814815182556,
            0.02417516578030597,
            -0.34199163853600995,
            0.14354770478284856,
            -0.14736578211617368,
            0.5046241919599339,
            0.15351168090491676,
            0.21454929697522734,
            -0.34843042224303183,
            -0.49093393941006097,
            0.08126383344314787,
            0.08043610838697923,
            -0.13996347520586008,
            -0.32001150379225957,
            0.03706265626189184,
            0.25226593361857375,
            -0.0477867291319144,
            0.09773029031198045
          ],
          [
            -0.2882511647716955,
            0.037575405852807796,
            -0.2872663760227074,
            0.0653976478507594,
            -0.4627245616508787,
            -0.062246681516436767,
            0.24209312988690126,
            -0.04730907594248196,
            0.1428483403918322,
            -0.3335722650043843,
            0.12568870663217274,
            -0.20209624496078282,
            0.44114185848384063,
            0.08164375446833756,
            0.3935366858254972,
            0.07623409295371597,
            0.02756925333945127,
            -0.44919142974663173,
            0.2885103859795378,
            -0.6495350071769244,
            0.04620168188019122,
            -0.4503655249810997,
            -0.6815812335403951,
            0.06625339970333252,
            -0.03254787218066257,
            0.22895927360669469,
            -0.37111573923703345,
            -0.21173469915310877,
            -0.15036398901317263,
            -1.2848138496919348,
            -0.22049666027829823,
            0.29249882949716854,
            -0.4048719774643189,
            -0.16365809821131153,
            -0.17470469430076102,
            0.5169973424303481,
            -0.42192502090939105,
            0.3461495846725706,
            0.1928031227671081,
            0.21978545493404394,
            -0.12237502100882267,
            0.08079444959933846,
            0.10483574983482118,
            -0.08513610623078506,
            -0.0910355064000739,
            -0.5803865765302044,
            0.2208028310151549,
            -0.26822869600132204,
            0.38279159443819943,
            0.12261218059427066,
            0.41205120821753727,
            0.03477242365063624,
            0.5342461361990384,
            -0.05231503129225742,
            -0.06277294558734924,
            -0.4472917847057856,
            -0.10606392746513595,
            0.12576476253480806,
            -0.14964132620172327,
            -0.24411137177647804,
            -0.253493750489492,
            -0.12654561381255108,
            -0.10759009594311882,
            -0.10692904491698402
          ],
          [
            0.4022679519407002,
            -0.9011266752708527,
            -0.873849941995179,
            0.20004339315493108,
            0.6722183396034314,
            -1.0601593780672225,
            -0.9308239866900097,
            -0.4203896365428071,
            -0.15361221159531055,
            0.0345347990887445,
            -0.2256980039484469,
            0.0709052793740388,
            0.043811915904819844,
            -0.1449404621090386,
            0.44518277989943594,
            -0.29021620891311867,
            -0.5390410331822811,
            0.07959604398738401,
            -0.6851045824801424,
            -1.002325191767468,
            0.25486574973376463,
            -0.3697415240486502,
            0.12291932322037023,
            -0.44210807519631595,
            0.25509197254200794,
            -0.28317030838412327,
            -1.0557440143080288,
            -0.5322298400239285,
            -0.20433953755583845,
            -0.4520854603299739,
            0.22425677583182796,
            0.05340183174531594,
            0.2578669922718052,
            0.4512751898151409,
            -0.1804584508939504,
            0.1696814259319489,
            0.02114006296362949,
            -0.06870822594701,
            -0.19456101305187254,
            0.29341813280246787,
            -0.400208328581971,
            -0.04246642802829451,
            -0.34947153251995544,
            -0.28923040630233543,
            -0.7096139813649827,
            -0.6483922383258215,
            0.21154737036448032,
            -0.47267255697802246,
            -0.16029631059748434,
            -0.5787661765842262,
            -0.2362048328411601,
            -0.27810572747749784,
            -0.017153178708780647,
            -0.002830547167740593,
            -0.07576451752958344,
            0.19508588412622174,
            -0.3097627778078292,
            0.38970720564266287,
            0.3583400759804768,
            -0.03330990776437013,
            -0.10029263538211432,
            0.17037170664219667,
            0.46463092657289135,
            -0.496683484350157
          ],
          [
            -0.17260857421932468,
            -0.4784470578190861,
            -0.6068540765383158,
            -0.06917266199699938,
            -0.11308302873773282,
            0.1711346822229439,
            0.13295011094337278,
            0.2074710929894156,
            0.39957774615961006,
            -0.2514319347141545,
            -0.33325554807153607,
            -0.7911565275971095,
            0.34907295598718985,
            0.3774204331470865,
            -0.2579081897992805,
            -0.27470967235032356,
            0.04989485572788376,
            -0.39325974175771533,
            -0.12876945153524028,
            -1.3705489468528351,
            -0.3089856034052971,
            -0.25211795765251194,
            -0.06150275321449857,
            -0.3450429953319032,
            -0.2599880939290005,
            -0.13653041835474164,
            -0.4904302357427572,
            -0.21866216354085405,
            -0.02918407658671635,
            -0.26703928373079416,
            -0.2056750533914986,
            0.20756846248420688,
            -0.16777836049106074,
            -0.34573110020973374,
            0.21750752905472365,
            0.061850932465873275,
            -0.3009250573123794,
            -0.1201737783965759,
            -0.18181767546428423,
            -1.2158879343989437,
            -0.31733304105650273,
            0.439950240343224,
            -0.47292858276504274,
            -0.09143080115990676,
            0.04436244589137563,
            0.07407252581220451,
            0.21735263655414905,
            0.1332314835549802,
            0.09479018000891919,
            -0.396938810409469,
            -0.47544149985268813,
            0.23034826278163342,
            -0.08564684696549094,
            0.13133538655042307,
            -0.3149612820900626,
            0.45511104144954795,
            -0.38803888862060143,
            -0.10549900982980318,
            -0.08247525418134946,
            0.06701808382962013,
            0.21900434987690082,
            0.01800857539286926,
            0.35505109689161635,
            -0.34229639662978234
          ],
          [
            -0.23808487739313644,
            0.36596139738061034,
            0.3981122679517427,
            -0.5117558574979315,
            0.19005724272021823,
            0.3572787552862678,
            -0.3728649309418506,
            -0.21081184908004758,
            -0.20591529801932903,
            0.15315354245178547,
            -0.1808910904341663,
            0.16960451447138225,
            0.04975935528081143,
            0.0018642749373669327,
            0.04335378201795201,
            0.17881920896087883,
            0.5359735523405424,
            -0.6937501038161836,
            0.4168973067970909,
            -0.06001305082140388,
            -0.1041651057953856,
            0.09777616979920635,
            -0.030830608431017658,
            0.005210863510462911,
            -0.3141930509167145,
            -0.00217940296992292,
            -0.29402267029267226,
            0.17661008908441225,
            0.12113360863346853,
            0.33699958479036485,
            -0.2256255206590674,
            -0.19328604486122092,
            -0.17892779790625618,
            -0.08555707707537188,
            0.1232248041458146,
            0.22731419399485675,
            -0.5521998137707298,
            0.0634167819001917,
            -0.23203777739667697,
            0.04197596638371072,
            -0.08807553481804066,
            0.2872910595679266,
            -0.65624086006325,
            0.27962340557978316,
            -0.14217598331520084,
            -0.14780860514704397,
            -0.02697538223465041,
            0.3188986647858491,
            0.11965994037581376,
            -0.18452001281172056,
            -0.14484927766746264,
            0.0463667050773345,
            -0.006157130416905644,
            -0.14179382387694534,
            0.1453320076637614,
            -0.0078782748880583,
            0.07016903493641642,
            -0.8276598541809608,
            -0.03592202143702856,
            -0.0011294988783034346,
            0.2736222488383804,
            -0.05626676339009914,
            0.09549297943831063,
            0.4256130930174638
          ],
          [
            0.1719686305198416,
            -0.31464282467891347,
            0.24291976219428424,
            0.29302396324663954,
            -0.22286587657382195,
            0.032397698202859655,
            0.05634893100264645,
            -0.3143775584141001,
            -0.3619070318788587,
            0.35047994796693305,
            0.11198454124131597,
            -0.03615744694683269,
            -0.3028932803192752,
            0.14337741931166226,
            -0.02567877964219024,
            -0.24967042387188218,
            -0.34868321376790345,
            0.14611510015979012,
            -0.13252500922946026,
            0.1171975337419733,
            0.028345286223224807,
            0.21404362595120494,
            0.08612261384356022,
            0.4220894359424547,
            0.19698453772840072,
            0.43207661088898236,
            -0.1492070889410504,
            0.07489713106380813,
            -0.49543318469419967,
            -0.1497225686041434,
            -0.22571499989524094,
            0.07979531200117479,
            -0.10487129734418157,
            0.3353345032876543,
            -0.22600287547512707,
            -0.07287130297522883,
            0.04712176601139971,
            0.03642257165572954,
            -0.0002067170423683157,
            -0.45256499451063903,
            -0.08602953258732235,
            0.3535400692094979,
            -0.05052305087511928,
            -0.12816538493613325,
            0.2586822723381579,
            0.032635257168099736,
            -0.3639124255029823,
            -0.8389364523021187,
            0.19155193627497902,
            0.050334040629919266,
            -0.11588378263727238,
            0.034303392770768465,
            -0.16344876433567873,
            -0.27853562741718735,
            0.02610662500562097,
            -0.15319507663761808,
            0.32894191586323407,
            -0.32785782467596086,
            0.06304257802588682,
            0.4798613494987254,
            0.0893525127005385,
            -0.3426713194000972,
            -0.25739966492327543,
            0.09255363879451813
          ],
          [
            -0.09370071780682318,
            -0.09129847879500334,
            0.1797168709339297,
            0.12801424798140076,
            0.03218494900712757,
            -0.13808633367600054,
            -0.39192499641739453,
            0.1301629122484487,
            -0.25261804261787313,
            0.2717804130944033,
            -0.0765017639971541,
            0.21212866323457932,
            -0.2815783363520357,
            0.13680218574015127,
            0.3666130838347603,
            -0.7928783585527591,
            -0.12256113668859867,
            0.37107366454766916,
            -0.08329233235532885,
            0.07488344253022357,
            0.018984686331282485,
            0.3683379258320163,
            0.010209405161444895,
            0.04538952606703138,
            0.09454884656360356,
            0.15044754171410887,
            0.367536062834185,
            0.29105182384715117,
            0.32127938376892734,
            0.29728643034217406,
            -0.18220675069095718,
            -0.14298639793551557,
            0.16935073635127754,
            -0.3025707682826003,
            0.10812816670458732,
            -0.34269463693833735,
            0.23163572289768294,
            -0.17594934173842805,
            -0.6110064230624865,
            0.03351009034385509,
            -0.4990377773033069,
            0.4536017597478809,
            -0.3709239130731612,
            -0.16017205463020925,
            -0.3615822797239131,
            0.27789346391277214,
            0.011361485552301421,
            0.3268339830763171,
            -0.11727587818254799,
            0.09293595094691215,
            0.010484920693945474,
            0.1630418593044156,
            0.21948090854048852,
            -0.3472844771233661,
            -0.6675438843315845,
            0.0050462966800909805,
            0.3012880359152607,
            -0.4184631880138932,
            0.11529685316462479,
            -0.20261449983469093,
            -0.295401784917874,
            -0.008188904185066742,
            -0.08359118899013875,
            0.36276051581119645
          ],
          [
            0.23411715800762609,
            -0.23437300723517254,
            -0.7366336423173426,
            -0.025810352455316005,
            0.005412747587987779,
            -0.3710728430275409,
            -0.5001324457119133,
            0.07359855661054199,
            0.27521368561803067,
            -0.3586709393738926,
            0.12114815359068783,
            -1.0273383413095063,
            0.25616767086764286,
            -0.16366010247367566,
            0.09283571372449778,
            0.10038663902811525,
            -0.08236224000646035,
            0.39980986748545627,
            -0.11308148910714606,
            -0.16522611243340815,
            0.031115399192421293,
            -0.11792762879228363,
            -0.14238634311969256,
            -0.08533464417087157,
            0.06018396154672654,
            0.236092131873522,
            -0.026114010409490535,
            0.0022412319482538767,
            -0.384771570964007,
            -0.25688918980610537,
            0.215973156163114,
            0.31381909767010246,
            -0.3512094871834203,
            0.2953451263285353,
            0.30569627246232517,
            0.5236609008246749,
            -0.3752455101827331,
            0.1685801966093507,
            0.05568106776004457,
            -0.04702831040381603,
            -0.5841058298709777,
            -0.196878017150265,
            0.18561414759447661,
            -0.03690001461306932,
            -0.26379755421470036,
            -0.4406958992977757,
            0.3308566260034286,
            -0.20814706473912117,
            0.015352093832900706,
            0.04111252793102033,
            0.023922241747300437,
            -0.004058321029017791,
            0.14289062991194043,
            -0.055110409089517115,
            0.18693031894394935,
            -0.42243810271193777,
            -0.41515788517978336,
            0.08408247442680439,
            0.0255968630306278,
            0.08188837059287626,
            0.20322019293003293,
            0.10397741035066504,
            -0.010906318312067217,
            0.0901900276459942
          ],
          [
            -0.045333204717158196,
            0.47437891449739483,
            0.5427876404524865,
            -0.4803876491608241,
            0.38111223157112795,
            -0.3822014961943051,
            0.8291385976975456,
            -0.13796385032804168,
            -0.35870815290192853,
            0.21886332050017698,
            -0.21817617790688035,
            0.12079844328081064,
            0.10334516823667125,
            -0.05187342933387126,
            0.2628312579008704,
            0.30344152509175376,
            0.3767039000287291,
            0.023644748367601907,
            -0.8221993281061393,
            -0.7715284697631984,
            -0.0768272898781125,
            0.29056813130490544,
            0.29429197989187517,
            -0.29654802768373234,
            0.2904125809969172,
            -0.13096848604592395,
            0.3071312551535099,
            0.6786095115388835,
            0.001222279671030238,
            0.09755795729355891,
            -0.18801257422005463,
            -0.005213482958472128,
            -0.9377621850620995,
            -0.3402180033951566,
            0.3896978832321703,
            -0.02001842712187783,
            -1.0157478256263575,
            -0.22363973007035134,
            0.3088407985723109,
            -0.002172642343506954,
            -0.17985632290407966,
            -0.46781870476855175,
            0.0003550311942652929,
            0.07462433751985,
            -0.10170750444137239,
            0.14106097388779096,
            0.17330320462529838,
            0.01243534395792665,
            0.6114041925267945,
            0.253634884303911,
            0.15777474259772523,
            -0.2456084028900615,
            -0.07206333022775051,
            0.1133908393309612,
            -0.004698429762335477,
            0.15137801808921625,
            0.18485341590115725,
            -0.6962721513903627,
            0.06474896702140205,
            -0.7907532403370163,
            -0.374704269324409,
            0.4232646341189129,
            -0.10702247987592266,
            -0.4166957460677618
          ],
          [
            -0.4895168778695562,
            0.11949374930919544,
            -0.5426205279190324,
            -0.2150609204446431,
            -0.20118072253423175,
            -0.09842441142829325,
            -0.2955476095005273,
            0.09612905225514802,
            -1.8448557691669185,
            -0.08388223938969046,
            -0.03230992923297759,
            -0.09429917237606608,
            -0.3913553224763276,
            0.32890766201040156,
            -0.3973353960563585,
            -0.48215446826268626,
            0.43058252659298857,
            -0.0142816274049825,
            -0.8140710999913029,
            -0.7292410360763627,
            -0.14261052283993428,
            0.054341078058221345,
            -0.4353845910043901,
            -0.46968760424339245,
            0.2199705107095233,
            -0.46460430747009296,
            -0.1272300455074519,
            -0.2805154082353326,
            -0.26432922585841023,
            -0.24776736658625886,
            0.009972250420740975,
            0.307068050767153,
            -0.49145935530876894,
            0.19781702296209047,
            0.3666908440486568,
            -0.23469893163968786,
            -0.18304607385892466,
            0.02635780558240178,
            0.23281795059967123,
            0.17364011610659205,
            -0.2823499275410698,
            -0.5036134694815023,
            -0.1627830477694357,
            -0.07747082345240754,
            0.3337677092119776,
            0.4675501861840219,
            0.052493862629783304,
            -0.964375690921466,
            -0.22431048167339732,
            0.3022360130700583,
            0.1731199683459795,
            0.3049173057457453,
            0.10742858473450155,
            0.28910753105905307,
            -0.3471276597012282,
            -0.12560928682381853,
            -0.41292345619708914,
            -0.1407349343315398,
            0.44923536335327147,
            0.11114691773528236,
            0.3961941425071168,
            -0.09729804014838875,
            -0.5385116265186779,
            0.4748811986062186
          ],
          [
            -0.4640359301055134,
            0.009482406448986274,
            -0.785648702384726,
            -0.012340677626807387,
            -0.4177940784588525,
            -0.4751644323507891,
            0.3565188103708477,
            -0.1481189957252198,
            -0.1544807980273145,
            -0.8394530586690502,
            0.30673500421471267,
            -0.4025605577850792,
            -0.1658789447644104,
            -0.08979140885639621,
            -0.7409134354236625,
            0.7258686295312051,
            0.2531855834443423,
            0.3592204010643032,
            0.15931716026230064,
            -1.083475439048119,
            0.18291320780761272,
            -0.4161410174515674,
            0.17900373339323122,
            -0.3314681228957831,
            0.39171349638910097,
            -0.14645197527630882,
            -0.20207469502743214,
            0.40034842051987435,
            0.12256906353111027,
            -1.1677402826556011,
            0.28111362525638317,
            -0.1320235388759966,
            -0.4981301464107145,
            -0.1946618016181439,
            0.521864703272924,
            0.27679512659181965,
            -0.8787621183934923,
            -0.014546975540033738,
            0.09980057371250917,
            0.1841528565286994,
            0.2336772909751939,
            -0.48610792917609624,
            -0.30170549837008703,
            -0.32110347278673773,
            0.21037498533395624,
            0.15874306613606926,
            -0.009743703238993697,
            -0.5378325901069834,
            0.2871433686793274,
            -0.2104490184972806,
            -0.20212933228075114,
            0.5422558747048274,
            -0.6330692050922478,
            0.4102929028861962,
            -0.1630074275054426,
            -0.04642501431541717,
            0.14500543770851768,
            -0.7496203188777036,
            0.045876096524440434,
            -0.1835805368952611,
            0.036885377481295716,
            -0.03144022738728925,
            -0.8268144062849465,
            0.3597904463019952
          ],
          [
            0.4956760829304592,
            -0.621457932023135,
            0.27728384501359177,
            -0.08755765118422557,
            0.275524969786244,
            0.47781662443002587,
            0.11384836683641865,
            -0.4362317402643,
            -0.18591143459931955,
            -0.4200408139395285,
            -0.3974871864628046,
            -0.5785103463487268,
            -0.312877671819961,
            0.7397939683250137,
            0.136170239894368,
            0.06021367682728277,
            -0.3149787425377762,
            0.2882202695731562,
            0.1012810294752186,
            0.4141374199964378,
            -0.026829099507379033,
            0.4525266690514039,
            0.14177479441272203,
            -1.0480650786245607,
            -0.578744342856704,
            0.08732511878293799,
            0.5135475316224346,
            -0.06031482888142894,
            0.018789324565708324,
            -0.5625080838864838,
            -0.38113197034426854,
            -0.32493592241202945,
            -0.3331236396231077,
            -0.030786266392825484,
            -0.25825127807632464,
            -0.003851342848787566,
            0.03908998252884896,
            0.21626076343369655,
            -0.040677277547955075,
            -0.1387084241365143,
            0.04611337842534095,
            -0.146928905194401,
            0.22929492748788927,
            0.15812212985573051,
            -0.6778633797037085,
            -0.37387082172431685,
            0.050780527478964305,
            0.022157878252455625,
            -0.721274303160174,
            0.060893737766489986,
            -0.4582989027882105,
            0.3052987950762257,
            -0.1160639278778935,
            -0.21922334754048436,
            0.07768390519584999,
            0.23731006468394222,
            -0.23398251738956313,
            -0.344433208670905,
            0.3266222091015669,
            -0.032380871758182384,
            -0.010316016780426344,
            -0.2639128904086829,
            -0.3930479929586148,
            0.2247734683756465
          ],
          [
            -0.029616419832836628,
            -0.22497862719564618,
            0.12368416301516481,
            -0.194923676191392,
            0.21572893775077728,
            0.24687236512616761,
            0.30484469886249643,
            0.27018079074764584,
            0.034350876591632405,
            -0.36129431787862226,
            -0.17452773826446122,
            0.1805706228613428,
            0.05383634863873963,
            0.03255390690405207,
            0.15700583771166965,
            -0.2848030596938363,
            0.3294903062276692,
            0.24065308597830015,
            0.3492047891536963,
            0.38005934544532965,
            -0.0897098266436713,
            0.20998294524393957,
            -0.43123102455859535,
            -0.1841528687610757,
            -0.18635379532633184,
            -0.04141462572069582,
            0.08330503519546796,
            -0.4223267675682425,
            0.26460217497294886,
            0.11082071401410806,
            0.4680143279057374,
            -0.1379630886824927,
            -0.9888058088528819,
            -0.6074890575838918,
            -0.39390088097771375,
            0.14325010982135358,
            -0.4592305214928388,
            0.08122981017810584,
            -0.3325233304323205,
            0.017632670021331155,
            -0.10258144204303038,
            -0.06864257842182139,
            0.0764080075708447,
            0.19542352380928957,
            0.15843719581249746,
            0.025951746705451494,
            0.0056314785512813674,
            -0.24534671613475198,
            -0.5648625978497279,
            0.16525997355888927,
            0.2887505093123838,
            0.025486135443495456,
            -0.16514326069378119,
            0.2593097814333851,
            0.7341094219241974,
            -0.980776639914575,
            -0.15654416238638497,
            -0.44102024452321736,
            -0.369907510133315,
            -0.34626727106565985,
            -0.05264656286121653,
            0.0211081893814691,
            0.36141440677687464,
            -0.27408549341178806
          ],
          [
            0.1504369893409179,
            0.21076250535106725,
            0.022910227508639566,
            -0.002935823282545935,
            0.3079927015026732,
            0.07066673281447762,
            -0.3229012877625852,
            0.0025269777291753092,
            -0.5559524066518893,
            0.06707414582462101,
            0.1658466936670503,
            -0.03370814306523028,
            0.2891817012159883,
            0.11522593124450553,
            0.022861345117794217,
            -0.15007626984683883,
            -0.0919681120560435,
            -0.034443292568469265,
            0.0888603347050244,
            -0.4319902587095095,
            -0.07999751855097291,
            0.16077888190503034,
            -0.15652420273991852,
            -0.2580722623058728,
            -0.0702506938645408,
            0.01953173628644607,
            -0.1471766560980978,
            0.049349707061333625,
            0.3203304571812971,
            -0.3351300512141214,
            -0.0906340653417013,
            0.09569356633645919,
            0.014053647240651427,
            -0.2435682520334599,
            -0.3109161127788035,
            0.220607652295378,
            0.23518777868313429,
            0.3707648123345854,
            -0.07469982083367992,
            -0.08518452217495859,
            -0.13523195024451587,
            0.19541282116658787,
            0.12648928314356495,
            -0.11819615015564996,
            0.16771725057897713,
            -0.05589030098671525,
            -0.3273429648944417,
            -0.2739799670663614,
            -0.24444421686125142,
            0.045707578905259776,
            -0.002075606351825432,
            0.23736870887286954,
            0.4391646852840983,
            0.0790672569550907,
            0.07887353605366511,
            -0.06396016604440083,
            -0.32345098622882873,
            0.4184855186655486,
            -0.26488535192190404,
            -0.2581633692417083,
            0.05522225974642979,
            0.18676499761790502,
            -0.24031615394360273,
            -0.3911237293500404
          ],
          [
            0.3086935038490988,
            -0.29290157752961826,
            -0.7017882859381566,
            0.1668283245980125,
            -0.06535806586450724,
            -0.1468000719621616,
            -0.35085418671870033,
            -0.011926399261464955,
            0.2395370733674116,
            0.3200509773950854,
            -0.19007094326152743,
            0.535365736136637,
            0.15958589976767382,
            -0.5859485457093554,
            0.32323298859833827,
            -0.13611104630110976,
            -0.10065628156357197,
            -0.0508910982941674,
            -0.07022722727595951,
            0.854052233311254,
            -0.6063046036203312,
            -0.5387052190557943,
            0.25959195258121814,
            0.07033649365663217,
            0.1250255810505538,
            0.3217099939906305,
            -0.052734665618350746,
            0.3967449697282499,
            -0.1771302596484339,
            -0.06431178551724304,
            0.07360418525478506,
            -0.18864393045182679,
            0.20051518715494634,
            0.3591325391608188,
            -0.14846753053743938,
            -0.412223918476208,
            -0.19139355789764162,
            0.41172974650027033,
            -0.06400167054910087,
            -0.4255381173515848,
            0.11573731603078424,
            0.55143506244709,
            0.4170471959963164,
            0.16105945845238798,
            0.06362427473359668,
            -0.014288620621445413,
            0.2652076216412009,
            0.6594441133573974,
            0.16849656214421205,
            -0.43580965297037444,
            0.3570193180780361,
            0.24218221057356148,
            0.37529762879564055,
            0.07687799072818158,
            -0.5519544298219011,
            0.44338342945010656,
            0.5483402024250806,
            0.10329601687048091,
            -0.16335890223262003,
            -0.07775913615088167,
            0.04637896120783256,
            -0.12697474824562346,
            -0.4177231417185209,
            -0.0929392777260736
          ],
          [
            -0.1333423790386194,
            -0.07235264606925203,
            0.3795625628676287,
            -0.03610301998719241,
            0.30298657125740297,
            -0.23677275851091373,
            -0.07236832880013819,
            -0.051911709934505446,
            0.22801417059719156,
            -0.18542683317824696,
            0.04504296829489638,
            0.3390625010550319,
            0.16999549234523445,
            0.16371177118766692,
            0.6046902241543206,
            -0.008792128812751923,
            -0.15952914489484438,
            0.005279860509992515,
            0.0598667206359214,
            0.5024672098013874,
            -0.26120213493688593,
            -0.09643722504616627,
            -0.7753038075427039,
            0.17677131138382612,
            -0.041158860139692964,
            0.14411251159095925,
            -0.6630976695383783,
            -0.36808027286181105,
            0.2317395285300785,
            -0.36337886961756877,
            -0.09688723372961275,
            -0.05134827654463864,
            0.52819723898071,
            0.18938285058946974,
            0.5201535036731191,
            0.3024880918065932,
            0.3190603830673305,
            -0.08765687416937117,
            -0.5147666294668628,
            -0.13478722809698537,
            -0.008739189553727692,
            -0.11625833488056644,
            -0.08916810152393163,
            -0.20299512113493273,
            -0.07943546277222589,
            0.03199285624945231,
            0.31738694812056695,
            -0.01782331996280751,
            0.20210109193007328,
            0.08086674223339785,
            -0.06560815485803774,
            -0.5011208996877309,
            -0.12959101262285572,
            0.09082813517049987,
            0.05791546235723969,
            -0.05744997199486515,
            0.28088484228910077,
            -0.48260271761648943,
            -0.114888906315594,
            0.10460558971358261,
            0.16111384315156102,
            0.3635095956470228,
            0.2321880014734865,
            0.0795827483656022
          ],
          [
            -0.6440440968068422,
            0.2236241290074719,
            -0.23633895835476085,
            -0.4720062681008449,
            0.2651263291748269,
            0.35292500444068364,
            -0.629779571017676,
            -0.7732292275071558,
            -0.01408777860872951,
            -0.6769026310670825,
            -0.28150913096475605,
            -0.1519586003089035,
            0.18980022159462034,
            0.13780507525885138,
            -0.14801977960138635,
            -0.3057023309218336,
            -0.3016505969272389,
            -0.04373109564166416,
            -0.6277057603359391,
            -0.020689588400405814,
            0.20090150661036288,
            -0.7219387660716102,
            -1.0758427279089693,
            0.17844869353166223,
            -0.6236780370277704,
            0.0459999111474371,
            -0.5126838653877721,
            -0.6210345630760384,
            -0.31638678363166595,
            -0.18466233234951118,
            -0.12387593840879452,
            0.23389480169031437,
            -0.07380948963781234,
            0.31570931774830024,
            0.23375117871996107,
            0.012507662182586412,
            -0.5317439907069236,
            -0.5299360906643421,
            -0.4284442105141649,
            -0.027243937614559916,
            -0.7946437972327336,
            -0.43140733826140976,
            -0.17234577179214958,
            0.14172826452958268,
            -0.40441405347544934,
            -0.612458910296632,
            0.32388288601005116,
            0.3793553249286914,
            -0.030544965420435756,
            0.07462923802284133,
            -0.28049190665893875,
            -0.3866667143828991,
            -0.30421247776475324,
            -0.08206794780057763,
            0.3866693865911495,
            -0.31752587999839377,
            -0.42834876239328384,
            0.3134977469403057,
            0.4522571698063897,
            -0.23277741388476653,
            0.024960811226843606,
            0.3460438421578579,
            -0.15683516007999693,
            0.09736677812140379
          ],
          [
            -0.42626608821259654,
            0.106988182833861,
            0.360424960848065,
            -0.3775971572280268,
            -0.35434240059729455,
            0.2177232899771943,
            0.5303253124863437,
            -0.16251712302646898,
            0.011516089440018905,
            0.1992659225659538,
            -0.23907893658365562,
            0.41297230981390703,
            -0.004023094123316036,
            0.593788112195981,
            0.08455215683777192,
            0.09668868031406262,
            0.3529551712667947,
            0.5314919435058036,
            -0.01185902711186019,
            0.13329458565987423,
            -1.1551114498542185,
            0.11216344917260095,
            0.0793604303992931,
            0.08893923749554261,
            0.5138763947216276,
            0.4068310745786836,
            -0.2737773070471366,
            -0.3130919430824701,
            0.024361213658270788,
            0.07619042217817426,
            -0.027331578966133533,
            -0.31617118500063657,
            -0.2135011880084518,
            -0.45015964774666,
            -0.7078097872649511,
            0.03376255523604499,
            0.3206922103651268,
            -0.13918669077488682,
            -0.02341070713463766,
            -0.19542836211129622,
            0.5063758182565599,
            0.18901153288597558,
            -0.6120835691806623,
            -0.002938713847664096,
            -0.2052526873076044,
            0.15782341824523458,
            -0.14683410052231213,
            0.16528133545849433,
            0.4831851720657968,
            -0.32223779896245613,
            0.30570240196946735,
            0.02614314493336856,
            -0.2691208895086344,
            -0.10098996995066056,
            -0.0880683406041306,
            0.39838044491566693,
            0.3864204770067978,
            -0.23799144908290754,
            -0.40305968808274434,
            -0.19487735260958772,
            0.20057198044739208,
            -0.30774619561811967,
            0.2732970570229799,
            0.45185830201994553
          ],
          [
            0.12370884435026505,
            -0.3006510612911357,
            0.20908458852535186,
            0.36551089891791666,
            0.36856814858053655,
            -0.02179818417868264,
            0.25318982035538923,
            0.02532511210849487,
            0.029553336806493954,
            0.1437684451234726,
            0.2509672713203782,
            0.30901574368588625,
            0.15988631198645525,
            0.05994205772430672,
            -0.008333601322755475,
            -0.009457782881739553,
            0.228374890236416,
            0.15773121876424273,
            -0.7647207478083049,
            0.40712583786684076,
            0.24926457561442672,
            0.34136873294191106,
            0.3909435846587951,
            -0.3394123125967983,
            0.014181104860919733,
            0.43627703972565257,
            0.13427375699566937,
            -0.35808883169227723,
            0.1794314911586395,
            0.29180791389172145,
            -0.02236854755340617,
            -0.16271715892307506,
            -0.0048137898472834974,
            -0.4455396694955329,
            0.3802713237471832,
            0.04447976385976998,
            0.00029463302728605285,
            -0.12703249611122927,
            0.02240009664551228,
            0.4382531064963167,
            0.03654747879019864,
            -0.183522587771089,
            0.02839206291321967,
            0.2446186758094753,
            0.12008824957152488,
            -0.20553895279658177,
            -0.038604190032875955,
            0.1342521532152604,
            0.04663198184708937,
            0.37291592762797904,
            0.21851365055495614,
            0.41412493091813646,
            -0.5355432344721468,
            -0.028285730187759144,
            -0.38285478311997906,
            -0.08387015224831017,
            0.14376488348903416,
            -0.479791057579521,
            0.20241575636253187,
            -0.04733251407464284,
            -0.6688948455803748,
            0.3167284962709105,
            0.2915627974559597,
            0.45499763266280335
          ],
          [
            -0.1196282202907502,
            0.14931378724126335,
            0.189637923175678,
            0.1445102059519254,
            -0.11863561633296432,
            -0.1507337614404655,
            -0.046975989579045266,
            0.29573624476271937,
            -1.2358841626774681,
            -0.3694038792995936,
            0.5052576716610772,
            -0.17697806930498144,
            0.14364873835391206,
            0.07871568766076782,
            -0.3669854478225,
            0.07986868429039354,
            0.17193857453709274,
            -0.49829538935004325,
            0.0026680091149729923,
            0.05939437150773181,
            -1.0993903399812266,
            0.21709425362891954,
            0.05232011088204237,
            -0.2316593672047926,
            -0.09831378097687853,
            -1.3653056011818148,
            -0.1063223251769427,
            0.19585186368344848,
            0.2387686131931697,
            0.006762167220550868,
            -0.15729196322503566,
            0.46941009128207684,
            0.02284807484409723,
            0.2719319338977994,
            -0.6714738654094248,
            -0.0767258153763382,
            0.2400683986357709,
            0.17441447652269204,
            0.1174175299036993,
            0.12605652153737223,
            -0.6125421050324515,
            0.11700004847564252,
            0.31268406838408563,
            0.12227437858780317,
            0.3618145267138451,
            -0.24032822457383923,
            -0.2016888367421778,
            -0.09813653262745013,
            0.30112272014549246,
            -0.23949809177803985,
            -0.2507639259743149,
            0.35734834987316677,
            0.022812590296408343,
            0.06760812718140738,
            -0.24555130298048083,
            -0.3144950546892285,
            -0.0926839949471419,
            0.43203926129373815,
            -0.0748150880800511,
            0.21832739694647876,
            0.058522268816978036,
            -0.18632437511678465,
            0.08063435905620345,
            -0.16922373131254345
          ],
          [
            -0.0043183918867957475,
            -0.3792970126624058,
            -0.0271246686498834,
            0.19969138361615957,
            -0.214495396407621,
            0.009851996787643466,
            -0.19955628041836115,
            -0.14135940540437975,
            0.10339456028382918,
            0.21318163448581995,
            0.28230190014594414,
            0.826875083754288,
            0.1392523265236891,
            0.3156410242122911,
            0.30052360444007126,
            -0.14923911077832236,
            -0.08994054855963005,
            0.06456948313475569,
            -0.45293744801942176,
            0.006226603807516233,
            0.29862249346800773,
            0.15301715132800994,
            0.11422473384728966,
            0.07226572785862803,
            0.07669396320616717,
            0.2261866821538918,
            -0.6704790739599156,
            -0.13931769438188757,
            -0.03337448617418954,
            -0.6312881530876253,
            -0.01365704408585195,
            0.12054350836562926,
            -0.1612235843371974,
            0.23670823674163433,
            -0.09651744581225785,
            0.27866695875147074,
            -0.9349438735066741,
            -0.40425596558600096,
            -0.09296738025442595,
            -0.808863476475897,
            -1.0445932619080565,
            0.5227692454379268,
            -0.4302006906331113,
            -0.2492454262882318,
            -0.1345687091566687,
            -0.37996631109757084,
            0.2572978418101749,
            0.19600645611600143,
            -0.6355892821036147,
            -0.6050051105105245,
            -0.1770219026986266,
            0.29149726865506764,
            0.43043864798813,
            0.35190603692997513,
            -0.4291226886523665,
            0.09155077230832735,
            -0.6689494561513151,
            0.07078868177377076,
            0.1652643545409479,
            -0.17198578585960347,
            -0.13594273650977654,
            -0.005327018668765372,
            -0.3305827530377603,
            -0.03843167348299097
          ],
          [
            -0.021131716517266044,
            -0.41460754064505007,
            -0.2907268544901187,
            -0.5365708477928325,
            -0.2191467824990185,
            0.03251709302913993,
            0.4185112210491352,
            0.0930000655191801,
            -0.10767384036936407,
            -0.01048120259807916,
            -0.07625972724900389,
            -0.019480058129555597,
            0.0057613957309919734,
            -0.03638687645926294,
            0.014555831064671178,
            0.3399806729662917,
            0.03791018178516224,
            0.11596794762631368,
            0.3168411960658246,
            -0.6075765209430564,
            -0.4736532090025711,
            -0.11486604153108626,
            0.12812251020227236,
            -0.08648070651911297,
            -0.0029932962111286427,
            -0.015084428155039586,
            -0.5136437490605517,
            -0.07117371948478596,
            0.05386037367523511,
            0.29844633669053433,
            0.1837362249543236,
            -0.7488130339438983,
            -0.2233440161019982,
            0.22638976984308426,
            -0.9065222597033699,
            -0.07264155259837084,
            -1.0612988994988646,
            -0.2734300632248931,
            -1.1786381965898076,
            0.2126068329333762,
            0.31917855291000247,
            -0.2069891674066793,
            -0.8062722300754671,
            -0.0017750445353310292,
            0.4725201684754429,
            -0.0221449206959641,
            -0.03944899329153019,
            0.0641268963143477,
            -0.8736679897302567,
            -0.8839920055785953,
            0.34955772461241574,
            0.02805734361208326,
            -0.4042292319184387,
            -0.015845837702687916,
            -0.08364235395973772,
            -0.21937886656162373,
            0.1567444344681879,
            -0.20558999117328644,
            -0.06964865977615256,
            -0.11387085984823545,
            -0.08348827618010793,
            0.4995873137280452,
            0.09662838062792377,
            -0.14958902718289407
          ],
          [
            -0.5725752581541821,
            0.11219731826369171,
            0.14452324447358184,
            -0.3608058288714606,
            0.0795993833483518,
            0.26630040069738004,
            0.1628535288042165,
            0.15356465176144368,
            -0.0231827375381126,
            -0.3002667273829175,
            -0.041494102165057986,
            0.20196538910503356,
            -0.13879104534064812,
            -0.07929301062052378,
            -0.32486144071973394,
            0.21965278493164334,
            0.29767719105939194,
            -0.08210568201720418,
            0.2154696906176103,
            -0.08751664753600218,
            0.03907813527981481,
            0.006389124595556057,
            -0.021037569169761437,
            0.5516709366631051,
            0.10567226618861167,
            -0.8267024467619299,
            0.13454433838511942,
            -0.3455564963919372,
            0.3334989119319177,
            -0.02185062828933675,
            0.07859279973151284,
            0.21714998282766748,
            -0.12387945436966419,
            -0.02566945464369229,
            0.11682895640140598,
            0.05177118209682919,
            -0.1598005642603341,
            -0.007413995989871109,
            0.1883273443172177,
            0.0025711546213895192,
            -1.2391373395206358,
            -0.4022620789188475,
            0.4339519283685006,
            0.23276622384868684,
            0.18013071643176654,
            0.21116589985004885,
            0.06648460994025851,
            -0.10113638535901526,
            -0.04185914146127719,
            0.022674555020314655,
            -0.034043240438803836,
            -0.19119531342027768,
            -0.022748081276008025,
            -0.10401074621447376,
            0.4932625378664239,
            -0.41502818799367835,
            0.033716540745903766,
            -0.24190669523620822,
            -0.1680977826039335,
            -0.24552352038057929,
            -0.06158151840648815,
            -0.128230568464622,
            0.30003094362355565,
            -0.14511392454838237
          ],
          [
            -0.31522100858519564,
            -0.07252964912738957,
            -0.33355317330315687,
            0.2129173790606391,
            -0.659772982113102,
            -0.2019850175331557,
            -0.09180392368559812,
            -0.06578883771404372,
            -0.026854311345494722,
            0.18941926936984016,
            0.29587088378552157,
            0.8190548959065718,
            -0.5704940018412812,
            0.41901252908465825,
            -0.16202724307587596,
            0.34890326693651186,
            0.022967588182490895,
            -0.30329896778218274,
            -0.5596488775031665,
            -0.685723863376629,
            0.11937533735215787,
            -0.4166189990802812,
            0.22417794383150116,
            0.26071413467034993,
            0.012756638824926128,
            0.2836147090497473,
            -1.0336346169460011,
            0.29241146656771183,
            -0.31328757481576414,
            -0.5391628894429655,
            -0.10036004433093645,
            -0.720733687065588,
            0.04987417537250656,
            0.37390704053691926,
            0.2606910140237608,
            0.2928242171547097,
            0.07526471075560821,
            0.03289866965389369,
            -0.1534727765774932,
            0.07650374297999477,
            -0.6334993383093078,
            0.1383855566124314,
            -1.0742583904683738,
            -0.4622664131509863,
            -0.5402958550573875,
            0.007354989627009092,
            -0.09156228165368463,
            0.4307445740842234,
            -0.7284423853531979,
            -0.18231768854570451,
            -0.17025783681716478,
            0.29317363957743964,
            -0.0782144531703083,
            0.15908821345311458,
            -0.6342864272522362,
            -0.08666517005873,
            -0.7075100148111095,
            -0.46913559586461157,
            -0.19051119723490706,
            -0.35812069958177206,
            -0.14514903713503755,
            -0.16984323486974087,
            0.04176988679083822,
            0.23720604609112061
          ],
          [
            -0.27354361538258853,
            0.29541931734301197,
            -0.16529919781636424,
            -0.00543297744815493,
            0.10104328898290078,
            0.05309432592062145,
            -0.023502974098947162,
            0.10344112828496484,
            -0.4621633638847903,
            -0.23329951371678342,
            -0.1466127226925333,
            0.15257533576044138,
            0.3104396860312164,
            0.03918213301712906,
            -0.031713535806319644,
            -0.26835610631874973,
            -0.004344296735477521,
            -0.006029788415225728,
            -0.489633239585522,
            -0.4421689844621989,
            -0.13259320423771415,
            -0.42699082403118743,
            -0.048248410265075224,
            -0.0820288209950711,
            0.033060531370861505,
            -0.14397727838623947,
            0.023841334352782826,
            -0.29635261552778536,
