{
  "engine": "nn",
  "version": 2,
  "feature_encoding": "ray_wall_body_inverse_v1",
  "feature_profile": "full",
  "state_size": 16,
  "epsilon": 0.005,
  "epsilon_decay": 0.995,
  "min_epsilon": 0.005,
  "gamma": 0.95,
  "learning_rate": 0.0005,
  "hidden_layers": [
    64,
    64
  ],
  "batch_size": 64,
  "replay_capacity": 10000,
  "target_sync_interval": 200,
  "seed": 42,
  "training_steps": 255781,
  "last_loss": 0.05567987690184191,
  "network": {
    "layers": [
      {
        "weights": [
          [
            0.1825725105946324,
            -0.4625049427478929,
            0.5319309266660127,
            0.5457927377118984,
            -0.8721356097653804,
            -0.14183858855389556,
            0.11576879268223095,
            0.009637979307898281,
            0.22794496060967723,
            -0.754029176264224,
            0.032354159720376134,
            0.44897384020338543,
            0.04396882863071117,
            0.9280563737836086,
            -0.03633679763459463,
            0.08875462724694708,
            0.0023962681784938946,
            -0.5516166907674097,
            0.07070704785003,
            0.025995047255066912,
            -0.35170980323607515,
            -0.4958817404596047,
            0.2875579662794024,
            -0.5765863553919873,
            0.007857047254411652,
            0.5411906044394755,
            0.49424258813756045,
            0.06197400379243289,
            0.17197109555948287,
            -0.1193256727078963,
            0.7141581882171818,
            -0.047651319418414884,
            -0.7284680603212756,
            -0.07202843767615036,
            0.5463580581035464,
            0.40451225748090963,
            -0.3555335304248474,
            0.32011533320650754,
            -0.4214378353289667,
            0.6982639817991684,
            0.5274208023544638,
            0.5705497864680205,
            -0.32595338021731785,
            -0.11042729587560228,
            0.00739796343355764,
            0.6263098629323023,
            0.11135608765678309,
            0.10806366764824006,
            0.7587296451698455,
            0.10891486905876173,
            0.06649853568363921,
            0.2288671646961885,
            -0.6250928495544404,
            -0.9431465889627768,
            0.3440489669076278,
            -0.07113257414283766,
            0.22206432570127918,
            0.7482619022412336,
            -0.18559526180973812,
            -0.045132165522484294,
            -0.6788049713290905,
            -0.6114236908821686,
            -0.1329927208758088,
            0.5083693342155604
          ],
          [
            0.05195748944732948,
            0.5543940339545405,
            0.007467314228209553,
            0.013837523900742858,
            0.5211821592832683,
            -0.1556806089692532,
            -0.8084920393451769,
            -0.42815269643129594,
            -0.7755095483360698,
            0.2393195582955896,
            -0.5849904842782456,
            0.2493771291841816,
            -0.21948515299673677,
            -0.09238047598494131,
            -0.018146204805286024,
            -0.18475393478678862,
            0.32363246235452137,
            -0.41415688966676995,
            0.2434671459246383,
            -0.7541795640905943,
            -0.6030801499009953,
            0.6569199947463972,
            -0.784110234005254,
            -0.24003852926129626,
            0.2809939595945776,
            0.08426025216629138,
            0.0986181686336351,
            -0.1704119921993304,
            -0.3140909775459946,
            0.5044032278972249,
            -0.8648511926324248,
            -0.8176868711902769,
            -0.38769552755093617,
            -0.2917921559793132,
            0.3146308664300239,
            -0.4380007053826452,
            0.09246506316645219,
            0.621013651487555,
            0.07829188546830554,
            0.4756743279661807,
            -0.2401402292268501,
            -0.1926888939766624,
            -0.26557285140282544,
            -0.4809695601226217,
            0.055006287288865204,
            -1.2917776364519158,
            0.40599897305169935,
            0.41574109301196904,
            0.00935856168651371,
            -0.4542473818320632,
            0.1638487906289767,
            -0.36716878360158894,
            0.03632118161050076,
            -0.235571898620332,
            0.3363652050353273,
            -0.2079900472671305,
            -0.5291392417134212,
            0.017783253862308352,
            0.14187669371661132,
            0.8407200366557458,
            0.29921737602606013,
            0.615913401644318,
            0.32384519455181054,
            0.056587025913908254
          ],
          [
            -0.8605507080352053,
            -0.497909003803693,
            -0.11897289594811761,
            -0.8218582627608231,
            -0.03414507000874999,
            -0.26932745394818486,
            -0.4184442366285177,
            0.0003177070646186207,
            -0.07968903074931143,
            0.31456415691238415,
            0.6468387185988719,
            0.4543675557269522,
            0.5186116494453673,
            -0.5747181570877017,
            -0.626065295139661,
            0.339650798268104,
            0.07974123702145551,
            -0.39097963650824485,
            -0.5536849244769686,
            0.09598932439995703,
            0.42693943154412434,
            0.003945038577758076,
            -0.17964035107533002,
            -0.33157393039811367,
            -0.6580379333531401,
            -0.18051515175169336,
            -0.25297628620762397,
            0.626323875979648,
            0.3971252408332924,
            0.39212907399635744,
            -0.6293104240332594,
            0.023562252984546044,
            -0.546179093762262,
            -0.18242746455668807,
            -0.07841845868476553,
            0.10048432639896174,
            -0.2791987797574392,
            0.3244533518923807,
            0.7916023943238985,
            -0.0035818707750110675,
            -0.0872087257489892,
            0.15855834471059593,
            0.232640855875852,
            0.15886720024846274,
            -0.39070278793675167,
            -1.0853635312687884,
            -0.4695451799427005,
            0.3448678657990033,
            0.490421574901619,
            -0.39669823901950135,
            0.28886849111135365,
            -0.12520286330349792,
            0.027194420342400497,
            0.15037784386103042,
            -0.38577121440504336,
            0.09734198178028547,
            0.022812297355066742,
            0.5502085932997601,
            -0.20491212880749196,
            -0.6860404619527329,
            -0.13093219078915627,
            0.610195077445618,
            0.5025715168813584,
            -0.07269667937411325
          ],
          [
            -0.26667802267643587,
            0.8572809398005053,
            -1.0038507796229164,
            -0.6245064430754825,
            -0.13591927031813314,
            -0.07086849071698163,
            0.29637526740934717,
            -0.15559177342566066,
            0.8202498257496786,
            0.46493184586441855,
            -0.009963731030868509,
            0.3409903042927513,
            -0.014927352780496173,
            0.04246445650342978,
            -0.1973923707861318,
            -0.21183021148072106,
            -0.41280274230030134,
            -0.12160007962554524,
            0.25867628916429775,
            -0.47504786145809125,
            0.3023253653807151,
            -0.34969102507258215,
            0.3855098060875946,
            0.31545904939878117,
            0.08870764151232918,
            0.6114542019612776,
            0.16732100106304082,
            -0.15906526740399332,
            -0.4038080718125008,
            -0.014240639907845135,
            -0.17024780740924053,
            -0.6643068484852106,
            0.08474445472954692,
            0.18074107112153048,
            0.5450298585224921,
            0.7692969056601469,
            -0.6762952038373997,
            -0.6798340480978745,
            0.13950518626574573,
            -0.405307083579531,
            0.10860379282075198,
            0.28024444240142987,
            -0.01189874719491847,
            -0.2909798935515492,
            -0.7784480382697175,
            0.0690009108959372,
            0.05861258690283849,
            -0.4905540991076566,
            -0.23357321130390452,
            -0.26667664818689235,
            -0.9029219842720627,
            -0.7573866421157268,
            0.6847177928514985,
            -0.1325061331017073,
            -0.3770150665925774,
            0.7580670224751253,
            0.7465910024649771,
            -0.6578818113708874,
            -0.479496960604823,
            0.003000678039324728,
            0.26091248885849816,
            -0.5754577346890596,
            -0.20916211124435144,
            -0.45161203291437824
          ],
          [
            0.30625671606183236,
            -0.36358800396027147,
            -0.12705178002481857,
            -0.1345022773796736,
            -0.60571876461099,
            -0.6811352500327946,
            0.42053668272295314,
            -0.8929370242223281,
            0.19070662079403594,
            0.13543548688499038,
            -0.03860365343688975,
            0.2515311820618587,
            -0.10256647056525993,
            -0.499290297893188,
            0.12675075053750517,
            -0.06456748498843418,
            0.20666686033894066,
            0.8627663554617484,
            0.6310281869234614,
            0.25053858048567845,
            -2.362995640915913,
            -0.3454797325489195,
            0.2470760316035142,
            0.2966060574327517,
            0.16947599530252536,
            -1.4496059965111836,
            0.32101147650666395,
            0.28171496911042365,
            -0.18797346422722058,
            -0.24818269849413316,
            0.23004441019416008,
            0.32687311414461323,
            -0.5290722199398957,
            0.13680729914211961,
            -0.371215609461065,
            0.1921877163441758,
            0.7056871661955841,
            -0.3745573858682272,
            -0.11084224138745659,
            0.04378060071118954,
            0.031704315665612964,
            -0.25807041479121373,
            -2.8217759638334017,
            -0.09579707684206773,
            0.8599666182516126,
            -0.17129144190767856,
            0.5482846378211779,
            -0.5736782355108995,
            -0.4227382856601744,
            -0.20527723579021237,
            -0.21656855339986797,
            0.49289827056211194,
            0.12362787452578167,
            0.6119416271008817,
            0.17304683771359491,
            0.32442527903257934,
            0.7534830683350546,
            0.39534955675463895,
            0.22276898720204386,
            -0.25380210147354615,
            -0.03535624532360009,
            -0.5608908774973443,
            0.5459422130460693,
            -0.8021093012767564
          ],
          [
            -0.18016213448388796,
            -0.33527317068746104,
            0.5631465620884608,
            0.32391024912678495,
            0.5322718267190739,
            0.6107035750712206,
            0.06460347180085096,
            -0.1990214858117933,
            -2.2034192497446607,
            -0.2739151202835165,
            0.4744826496828481,
            0.169025037573102,
            -1.9495576151432195,
            0.025457696654016444,
            0.00882572140051724,
            -0.7081948838011296,
            -0.4498373997949868,
            -0.6457956903570305,
            -0.1747041979377347,
            0.18121230043253483,
            -0.2483646935019765,
            0.08139925191486294,
            0.016215278303891422,
            0.2134372489360937,
            0.5374091692980257,
            -0.09882067690179311,
            0.032079617309087774,
            0.3677659585981706,
            -0.3610387073773986,
            0.5507339444468653,
            -0.016694632411760297,
            0.27965865930119,
            -0.01071125994766733,
            0.07504763747230063,
            0.3631591862105901,
            -0.13248656257486432,
            0.26127246668194937,
            0.603474981164905,
            -0.08471073380135195,
            0.15805455082200592,
            -0.35929539132637184,
            0.28007323721986066,
            0.23476677906948087,
            -0.8752905434076109,
            0.017187519306385603,
            0.5157125808329341,
            -0.641419955497722,
            -0.37550921372282864,
            -0.08528771792787564,
            0.6225365652487422,
            0.1305705465798755,
            0.6006273858826132,
            0.308199720902849,
            0.3502497437602423,
            0.31431928946350235,
            0.6543124933767447,
            -0.15020487598352703,
            -0.4761619965094453,
            0.4645129302049739,
            0.2547339009110551,
            0.17699113288351087,
            0.14345258830456595,
            -0.7139758414587377,
            -0.14133287570791758
          ],
          [
            -1.2558906298297101,
            -0.14855275881890395,
            0.28433645695865023,
            0.24477302137733245,
            0.36877609165336883,
            -0.8277993599212253,
            -1.3748508494266822,
            0.2781454614533206,
            -0.6351770010822775,
            0.1593079031799161,
            0.06836788430631212,
            0.5014476197747758,
            0.36167169736505145,
            -0.15111588783034724,
            0.39292958127538213,
            0.23924972033506262,
            -0.2150072576374561,
            0.3934569640705797,
            0.5059943388266077,
            -0.20148337474372477,
            0.11480854537061129,
            -0.04081940320044573,
            0.08817029205271698,
            0.3926901024922637,
            -0.49425092115454,
            -0.5003490287416229,
            -2.1692450837854533,
            -1.812387365212137,
            0.11319167738634515,
            0.43630921044719534,
            -0.03365881119429687,
            0.3278400514676531,
            0.6638314729670376,
            0.4570955825960066,
            -0.35650150087576343,
            0.19807111888015144,
            0.37914696072515325,
            -0.32085077289409564,
            -0.041219683881162074,
            -0.3891433845936427,
            -0.37095649454246366,
            0.1404382667842291,
            0.04662810913739726,
            0.6094000354183506,
            -0.7762079231874994,
            0.09772011773913995,
            -0.20083452418517492,
            0.5138601115258928,
            -0.12859508343053672,
            -1.3775026492195852,
            0.25784756395055863,
            -0.20964062034361597,
            -0.7991933735110068,
            0.1347860863336495,
            -0.1470087574618525,
            0.121765637146595,
            0.09277086680124334,
            0.1651261132723609,
            0.06989809952488486,
            0.5585652830762441,
            0.06690890474147737,
            -2.0856270891606923,
            0.6272692233712661,
            -1.4232678597109198
          ],
          [
            0.3651504715794279,
            0.17050143771082232,
            -0.4206878476218826,
            0.3906203112124058,
            0.48713234810504163,
            0.8396785469070974,
            0.3384820952590477,
            0.31353304969028783,
            0.39016010238738175,
            0.19208980236849782,
            -0.05743951148153085,
            -0.09468029262133193,
            -0.08447727939337026,
            -0.4271691609505599,
            -2.164418206666899,
            -1.358223783063203,
            -0.003416078976680923,
            -0.3427872072143312,
            -0.03752136724434346,
            0.6788801311126651,
            0.053667104663436674,
            -0.5333575796221368,
            0.10537386026502166,
            -0.2863998365860917,
            0.1493338511607093,
            0.14986077256473057,
            0.13921013383208097,
            -0.17253744874555935,
            0.4141996845407869,
            -0.07454793326643863,
            -0.022999230864353758,
            0.88781067521459,
            0.013405244993170917,
            0.1960297299689053,
            0.02314938362217326,
            0.2803508648408731,
            0.11821628256621441,
            -0.0060421994839339604,
            0.12750225738388643,
            -0.006235809556861396,
            0.027538625799781516,
            0.31916955471549663,
            0.28990838741313707,
            0.2911410786794216,
            -0.6809193833530492,
            -0.36990191878916456,
            0.021407140424513554,
            0.04791502232310937,
            -1.6932647129201428,
            -0.5699543709990427,
            -1.6363523258980972,
            -0.40399205044448233,
            0.3726117850425231,
            0.38254443407344746,
            -0.40028118136913854,
            -0.3984794768897217,
            -0.46344100511865727,
            0.18148583147168137,
            0.6466267598141453,
            0.1895194465762553,
            -1.0074430626663224,
            0.08234298883615603,
            -0.6876278064385913,
            0.5006137242210388
          ],
          [
            -0.21673780315860705,
            0.10199045214702444,
            0.5935059657569887,
            -0.31426244686998805,
            0.5454017869302826,
            0.27032917082103963,
            0.16821452675514836,
            1.801903458265651,
            0.41793929897196647,
            -1.9107512943898752,
            0.6730141379663395,
            -0.16667478589251455,
            0.15244428717695402,
            -1.2334533782167543,
            -0.751501037683253,
            1.0846907461062343,
            0.6166459265324522,
            0.29458948969543447,
            -0.03657434939886256,
            -0.02780629877530343,
            0.43417341001369375,
            0.5645531606914596,
            -0.5569290528601513,
            0.6041553828866042,
            -0.5079354172997975,
            0.7849161053785975,
            -1.2593484173874598,
            -3.085079146118343,
            0.42572705477162803,
            -0.25237699453990764,
            0.2785445597408211,
            -0.8809431535384722,
            -0.729007662643026,
            0.1990683668687872,
            0.23491506689452235,
            -0.5681158003514523,
            0.7060361115713136,
            0.05712594183919657,
            1.0064760593388045,
            -0.6945661566271679,
            -2.0732250351028423,
            0.4732604457168715,
            0.689458379461905,
            0.17565412187309765,
            -1.5841054602670395,
            -1.0158696467924824,
            -2.236607344013335,
            -0.8343511625472938,
            0.10273576697640459,
            0.012026657644252444,
            0.015440488907648925,
            0.35368177874897777,
            1.182332060999017,
            -0.13717236870950555,
            0.526749304887026,
            -0.46621232960913583,
            0.2076726054895416,
            -1.222964026044673,
            -1.6283330832594551,
            -0.9761119683140744,
            0.4503168495054257,
            0.7472596017350082,
            0.1082470388735783,
            -0.9996488921513977
          ],
          [
            0.3904675239141577,
            0.5233737539975853,
            -0.7870451789368867,
            0.15544502927373374,
            -1.3421044191268319,
            -0.2746434927135589,
            -2.39917742305836,
            -2.5352316798109045,
            0.3233806794242485,
            0.762647984266446,
            -2.704930100923439,
            -1.0472352519797408,
            0.11202109456440068,
            0.1354174396051178,
            -1.2250364242594765,
            0.14418773782911828,
            0.7898663010861923,
            -0.4703591021957462,
            -1.2883218955050861,
            0.6714825541020306,
            0.1799830881096068,
            -0.08533464414077031,
            -0.8370616810979346,
            -1.3519901283197802,
            -1.441205575256615,
            0.46374191812382765,
            0.653821031022273,
            0.06722466889971006,
            -0.3278668372190005,
            -0.44386805830121556,
            0.3418857169031105,
            -0.24547144120993364,
            -0.8018739090179574,
            0.308844947945162,
            -0.08668932994335957,
            0.10847445807209702,
            -0.04236593403186025,
            -0.005265350625376235,
            -0.38300618484393395,
            -2.782487553415045,
            0.1798451346635385,
            0.25839895761834736,
            -0.07680741055755871,
            0.8696617687278961,
            0.1550690498560563,
            -0.5325726533911561,
            0.4317914746279028,
            -0.28653144792304014,
            0.5880674313333728,
            -0.6079753458457048,
            -0.9690428671104415,
            0.5363146288945422,
            -0.029955009588607737,
            -1.6759228070411132,
            0.7287394188975771,
            1.2912152081894746,
            -0.8730035942188213,
            -0.22009879964831125,
            -1.0124179147782482,
            -1.07017544897988,
            -1.548598559591099,
            0.09449964287547973,
            0.5237082781251283,
            0.1944704261564727
          ],
          [
            -0.3193481456275765,
            0.5506816661986923,
            -0.05637589454675702,
            -0.3485049652920551,
            0.08993238574282328,
            -0.2296267255372131,
            0.7787594514491912,
            -0.3208720734061992,
            -0.07076882143278472,
            -0.06104607579491744,
            0.4276242153772405,
            -0.03793745426853147,
            0.3159254085178669,
            -1.1292042293557116,
            -1.5218023227518291,
            0.3875015807877465,
            -0.8462285820795448,
            -0.003161002833009072,
            -0.4253625720366531,
            -0.14940816501263698,
            -0.8261335696748155,
            0.5496079620364036,
            -0.11793770350422339,
            -0.42598588900212014,
            0.356899228915399,
            -1.2217496966858217,
            -0.6132502456199898,
            0.20332021570138686,
            0.317701758296471,
            -2.6754568152143623,
            0.7560549160024305,
            -0.2383423447654237,
            -1.9995924938406555,
            -2.0630950643408403,
            0.5564800643069497,
            -0.3226753316297505,
            0.8074958406062739,
            -0.31975354653261795,
            -0.08596896156844151,
            0.33116025167622853,
            0.7573198379043671,
            0.1805637135119829,
            0.6371752800401166,
            0.011772180740201976,
            -0.07086407491680832,
            -0.5354631240377332,
            -0.21394344113905606,
            0.6985171431158939,
            -1.9562363809901633,
            -0.4291459788925351,
            0.02938714770599854,
            0.29183131363734055,
            0.5347211157916919,
            -3.4667201637085334,
            0.571548269311169,
            -0.2412778532977498,
            -0.39285570795007657,
            -1.8037657421864912,
            -1.5843341960380883,
            -0.7772703448529247,
            0.015424201773978947,
            0.21821636996194754,
            -1.5366407793669028,
            0.5082933173343713
          ],
          [
            0.20191551646374373,
            -0.26264486578817003,
            -1.1952150980661567,
            -0.030300824224473683,
            -0.22180171461762602,
            0.1118874859562854,
            -0.3991883415754957,
            -0.2038121311134785,
            -1.2015583631427407,
            0.1359525193458697,
            -1.171400068535801,
            0.254497002281195,
            -0.8478905170077458,
            -0.373548717309997,
            -0.09466195076873479,
            -0.3234891697376328,
            0.2852976069621045,
            -0.01351855442018932,
            -1.785711216771862,
            -0.28257197366190995,
            -0.289117044155857,
            0.4687642811275178,
            -0.03299043219886539,
            -0.07693662946582902,
            -0.3033253141493792,
            -0.27383405354489837,
            0.6107277667618677,
            0.43423400831185016,
            0.972145896844921,
            0.19498192659137645,
            -0.30214206525136167,
            -2.135385258294396,
            0.2873928984663592,
            0.18618950298727052,
            -1.320518095612598,
            -1.1766269715307769,
            0.8404667124326175,
            0.6825300819637962,
            -0.30033175675434304,
            -1.238364080881977,
            -0.0343082386761973,
            0.18413580750586778,
            0.0724298276039949,
            -0.05086464793505354,
            -0.4821267955644343,
            -1.3254771550631084,
            0.3579222913430831,
            -1.001585642222496,
            0.0995790185695995,
            0.5449999376825377,
            0.726073810319821,
            0.513645502983636,
            -0.6074180788741487,
            0.6995546600464027,
            -0.0624090788975155,
            -0.28719218058902796,
            1.0598617577067244,
            -0.3027988814716478,
            0.4019855241483425,
            -0.3854560995497192,
            -1.5503708795487714,
            -3.580074226419724,
            -0.19542916354945455,
            -0.43894145500754206
          ],
          [
            -0.8987080009054025,
            0.7915692900691228,
            0.31985997327193083,
            -0.18778780126330136,
            -0.802430052862737,
            -0.07814567670309061,
            -0.08071539302295702,
            0.2918909480381056,
            -0.18262284600166256,
            0.1768546225269016,
            0.7452446646214917,
            -0.030772759919158673,
            -0.18017077514371213,
            -0.13744413939882127,
            -0.006986543738119416,
            0.008534366568185757,
            -0.05086785269448211,
            -1.0755247232611478,
            -1.8194238220410714,
            -0.16876269677512315,
            0.048130621290331674,
            0.10549167319838287,
            0.13955828939054,
            -0.6671384735544595,
            0.2238577848883992,
            -1.755939290667645,
            0.27166314979720096,
            -0.841294905778332,
            0.20820784286051475,
            -0.04197154620903544,
            1.093620338880476,
            0.12346959850789627,
            0.39832278735730076,
            -0.8450194902952346,
            0.0183577489538041,
            0.04212126047348138,
            -0.3560260807409177,
            0.33188909542687156,
            -0.013382896731839249,
            -0.9117277914804303,
            -0.5563565606058715,
            -0.8583968013992334,
            -0.9995919996816919,
            0.14569521030992974,
            1.0419843251051755,
            0.8352949775319906,
            0.1501650623419237,
            -0.339977676676459,
            -0.18361614678013743,
            0.17984478882622396,
            0.4145178122172564,
            -0.31789636987194914,
            -0.08975120065168758,
            -0.030386481602348882,
            0.4034206859298858,
            -0.26147413045249546,
            0.36258723158714873,
            0.4288087359335657,
            -0.6167911708367804,
            0.09941083165706331,
            0.0556161879151712,
            -0.6583080878567543,
            0.06109595013524054,
            0.11043834101960108
          ],
          [
            0.1937681520431124,
            -0.5703790271834572,
            0.35642142307587904,
            -0.5826537195449493,
            0.037142111205182536,
            0.3820027936883609,
            1.1979942300437731,
            -0.23646268517446634,
            0.14858385608619223,
            -0.36013519235553526,
            0.6966694659272805,
            -0.002835742196296171,
            0.18280009127688335,
            0.4319432293904538,
            0.722745301382414,
            -0.05622619308125422,
            -0.03255977405108728,
            0.11750435952642888,
            0.6232412468250089,
            -0.4127927119539315,
            0.8566826649682864,
            -0.10947007626353474,
            0.6196623365842625,
            -0.06960957057908503,
            -0.04926002425406179,
            0.07463948818556808,
            0.4319264832176308,
            -0.7622131619547925,
            -0.5415333442654617,
            -0.22676570473482052,
            -2.1092266332675216,
            -0.18506854491767066,
            0.09747875569662502,
            0.406448346298937,
            0.3025264633118512,
            -0.2828555151668416,
            -0.09248212128236336,
            0.026038615443716683,
            0.08463083618530483,
            -0.13971272438591217,
            0.18679063466219759,
            -0.015734420251003717,
            -1.5534324189194133,
            -0.0784277855198777,
            -0.8759123014746266,
            0.5977520988628399,
            0.16531496272086524,
            -0.6886975807005269,
            -0.2112227966245917,
            0.433648689783593,
            0.04590172770962207,
            -0.1731181604675817,
            -0.32387706256937526,
            0.15310212615111007,
            1.1043421016923156,
            0.32565459325983415,
            -0.5952072546925414,
            0.032212658886418576,
            0.27568350073778397,
            -1.3919602593001676,
            -0.1022024049607176,
            -0.1188291643680044,
            -0.03692423124620686,
            0.8358160167089568
          ],
          [
            0.2100870121304465,
            -0.33757580868733433,
            0.0966428818189624,
            0.041466033132188586,
            -0.09310460758982009,
            -0.17859726664316003,
            0.28999435846968774,
            0.09215186990209798,
            0.44898465698488893,
            0.1932135519458235,
            -0.48290541841297513,
            -1.450025444921461,
            -0.9132755083470765,
            0.11213929982983327,
            -0.5253545414526369,
            0.09249194748285339,
            0.5640184951326151,
            -0.33944220178523377,
            0.09845703776153475,
            -0.05086205845431775,
            -0.1825429287437568,
            0.2433996537196972,
            -0.053102088646727524,
            -0.06987103352748765,
            -0.1597362920668161,
            -0.33094037646014324,
            0.20292679070555855,
            0.615041457430834,
            0.17708220482143383,
            0.14608716253696483,
            -0.21560849848245017,
            -0.7101957365521355,
            0.7113734068625956,
            0.20459175167177746,
            1.2285065184325086,
            0.1943714198778114,
            0.5204720406526011,
            0.688616569477717,
            -0.010351314232583517,
            -0.43050277339852094,
            -1.099112324367976,
            -0.4025857408465758,
            0.009800956167558644,
            0.04705216458349108,
            0.7127713605084602,
            -0.5579552387362394,
            0.011061658247887308,
            0.5792087004104396,
            -0.49844574140935394,
            0.6499033684031494,
            0.3075031035500338,
            -0.5881136418536799,
            -0.08143006896808377,
            -0.5803726998316833,
            -0.6914790310287068,
            0.46047692961097964,
            -0.021326266557635802,
            -0.2660600215666878,
            -0.14752198005290143,
            0.1284208983905838,
            -0.9709931783834728,
            0.5726697578487668,
            0.48429203403784626,
            -0.2697828495882028
          ],
          [
            0.27064482831810605,
            0.09227657233177135,
            0.05968487505395364,
            -0.03000463481084243,
            -0.027165835216852664,
            -1.3128961729262338,
            0.591839140656275,
            0.4151252695039565,
            0.7025696708937843,
            0.3499676639459905,
            -0.5086790183987467,
            -0.5878743639999408,
            -0.8437829934033739,
            0.21018122578064974,
            -0.31621043064988746,
            0.05181628841525267,
            0.43031962112203576,
            -0.4123936832715572,
            -0.7847206339173312,
            0.44100998086191123,
            0.10543328640531952,
            -1.013759227866812,
            0.20668557588603473,
            0.08768873347453811,
            -0.3363651776991456,
            0.26825195297495946,
            -1.0035940458391661,
            0.12599965239041705,
            -0.2914930093738157,
            0.2478444004880011,
            -0.5809438731474066,
            0.23998285869672797,
            -0.01701891252989827,
            0.5946690135938466,
            -0.04703891574828744,
            0.2769761158803517,
            -0.10306293002310257,
            -0.5497959973848457,
            0.0760939409431183,
            0.09495344221947209,
            -0.9883530706111254,
            -0.4512541803048756,
            0.0048238640711232815,
            -0.5175571605630325,
            0.910591399816191,
            0.10628550647523188,
            0.07720710896822781,
            0.09548094673059086,
            0.8246246212182926,
            0.5060778144106678,
            0.027138535589856853,
            0.5320149905182903,
            0.15678037615533894,
            -1.3717464730054092,
            0.16317144799235175,
            -1.0487148443526275,
            0.13912207488703243,
            -0.7434714934233506,
            -1.1515290308944344,
            0.2348949242909321,
            0.12378147834115043,
            0.13868801763943825,
            -0.04384466288438066,
            0.5133519886535315
          ]
        ],
        "biases": [
          0.42397094665622886,
          0.05773379772920363,
          -0.2158575733991407,
          -0.21684824071357686,
          0.018493438667033565,
          0.0929090251632719,
          -0.11370807623793718,
          -0.009890550018301723,
          0.4350781280993366,
          -0.11633712526974166,
          -0.24983831905162435,
          -0.6710732443531652,
          0.33737300668725845,
          -0.09746755702154782,
          0.03231810953002426,
          0.3854029239090982,
          -0.15923374959811637,
          0.15181140456576728,
          -0.33237168332802236,
          -0.2729770122309172,
          0.46671857119998794,
          0.4024147827318319,
          -0.270420576755483,
          -0.0481978735697866,
          0.284095549393722,
          -0.181481045078974,
          0.038562215866560036,
          -0.04688932660400968,
          -0.1750563642495254,
          -0.09921248035626126,
          -0.07136778304772781,
          -0.16750004615184838,
          0.32362311003213307,
          0.05142393407584845,
          -0.24920028763912822,
          -0.23121232264413397,
          -0.5719194826833109,
          -0.08786841926696949,
          0.1587322481396884,
          -0.022371801941766523,
          0.12906464218531083,
          -0.3477787692096146,
          0.29696322341990994,
          0.4353737191059883,
          0.01576383877991191,
          -0.20804122254689705,
          0.15756974899244247,
          -0.21717224411431219,
          -0.1560017507840791,
          0.16891943301374102,
          0.45076269789089657,
          0.257254699343205,
          -0.030920738085631314,
          -0.23333776346556617,
          -0.44692668901098537,
          -0.5871709735804759,
          -0.28807847274354664,
          -0.2384277313123438,
          -0.2691002218944356,
          -0.49004535341683675,
          0.33970472248845585,
          0.10295740387910005,
          -0.13070150781037654,
          -0.08986542774330492
        ]
      },
      {
        "weights": [
          [
            -0.299892019774069,
            -0.06891792151874931,
            -0.5465132393801295,
            -0.08334781497808913,
            -0.27582890316761294,
            0.2515215210212267,
            0.29227471813457606,
            0.1792692473607396,
            -0.011820254276367603,
            0.1780769721832528,
            -0.16878768354740797,
            -0.25817148192942685,
            0.33587921229931905,
            -0.17990071990347628,
            -0.47384053697865824,
            0.2770238643166791,
            -0.16204328690991388,
            0.29565660621855405,
            -0.017217020412413478,
            -0.11089998271077353,
            -0.2553849592337309,
            -0.4814693532066005,
            0.17063858247007715,
            -0.01827255421654042,
            -0.7132935391020195,
            -0.5023410363304501,
            -0.7915186257374242,
            0.21347186112437935,
            0.08240187478486866,
            0.15851540818997822,
            -0.10099864232821401,
            0.3673605337732188,
            0.054139082273967985,
            0.30130973566936353,
            -1.657752410436121,
            -0.056470361964971474,
            -1.24063840657416,
            0.2270591028229023,
            -0.022101789136492064,
            0.07682480129634388,
            -0.5413065988371099,
            0.1535255815231774,
            -0.26736226082680786,
            -0.017807606114626045,
            0.2597352456470525,
            0.10784551876270425,
            -0.2125829416722079,
            -0.1973343447070672,
            0.2331322690052852,
            -0.30920292553643897,
            -0.8286100733625188,
            0.028555616790156137,
            0.4385864501742284,
            0.7275117998696564,
            -0.17027169983047968,
            0.3612570578005364,
            -0.17803565451469106,
            -0.37934817398932485,
            -0.15271026470644714,
            -0.27526698286244006,
            -0.10373413318453902,
            -0.5750740270456991,
            -0.38243715749962565,
            -0.11422490434085837
          ],
          [
            0.6355292306267127,
            0.029589683977807445,
            -0.9025666633924327,
            -0.42110831626949136,
            -0.12694769440590273,
            -0.09569798754304998,
            -0.5427842072884502,
            0.17318103542889018,
            0.39026316846545245,
            -0.28134142172249815,
            0.4196229681236815,
            0.5041872629443093,
            0.4353991772546398,
            0.545703092038977,
            0.352416338598818,
            0.12698762383752404,
            -0.7417460224130564,
            0.16552262352772165,
            -0.16353528807162904,
            -0.4417680426070835,
            0.177170055362015,
            -0.07537733410703183,
            0.8527014834207384,
            -0.4601312912322689,
            -0.31367508540722155,
            -0.28253770701439385,
            -0.11141490077285895,
            0.5661131122786719,
            -0.311297982738753,
            -0.42751195351380844,
            -0.7903877733811574,
            0.03418366970050507,
            0.5453719059392254,
            0.08812562452045714,
            -0.2038343718896267,
            -0.07177396236148796,
            0.13782019838296955,
            -0.12724685454903262,
            0.5978574678732003,
            -0.15930698124570897,
            -0.5446774162794566,
            0.13139277917799036,
            -0.2523049773277066,
            0.07981680134298703,
            -0.38169488939587126,
            0.18704947587916948,
            0.19193031832859767,
            0.4581789312612871,
            -0.32996845009396647,
            -0.06499846003627163,
            0.6050353360373347,
            0.271909192024749,
            0.24061174470074378,
            0.024209249838255908,
            -0.22429519404377107,
            -0.5125609934342763,
            -0.8588496695850565,
            -2.193999117832714,
            0.24062622616321197,
            -0.24956495638400908,
            0.4724234022083449,
            0.2279658888441595,
            -0.050452887373730465,
            -0.14165186454615042
          ],
          [
            -0.05940671218794145,
            -0.789267039912736,
            -1.6667767622360232,
            0.16785022642112332,
            0.04783787291071959,
            0.29091551986692094,
            0.2142600308988336,
            0.1536078250153831,
            -0.15623895766619217,
            -0.23481873651942856,
            0.4878487315001975,
            -0.30709501117002963,
            -0.1699947190188104,
            0.21058689552518203,
            0.38824728741754844,
            -0.008299619597729043,
            -0.810405289874615,
            -0.24443014668393517,
            -0.07651602108815336,
            -0.4449608118659756,
            0.310482653785676,
            0.20352559051833718,
            -2.1130494630815555,
            0.7393915959076276,
            -0.472760425166259,
            0.23516430022256934,
            -0.03775386939323491,
            -0.7756300555075228,
            -0.4509477588519583,
            -0.1505599961783021,
            -0.11698090485585916,
            0.3855689247271014,
            0.2579892498897214,
            -1.025352103926146,
            0.2687929115570581,
            -0.1597637351652688,
            0.45730568533254806,
            -0.10676347151092343,
            0.3819643397644602,
            -0.3917816868810498,
            0.5377534476916171,
            0.02059603893382627,
            0.38119120241110455,
            0.7877800979604367,
            -0.16205547112977398,
            0.0970876463665541,
            0.3860982284610408,
            -0.5182335637797568,
            0.0933062297116484,
            -0.22346276142118865,
            0.5344508231119408,
            -0.8110926052434506,
            0.3164722344961495,
            -0.39511426657661286,
            -0.8300729820943095,
            -1.4889554550299604,
            -0.4212085714980332,
            0.052373389304981574,
            0.17225775436406288,
            -0.9102860246087541,
            -0.8744253650487639,
            -0.5777305284357401,
            -0.4309304376622802,
            -1.163484407438723
          ],
          [
            0.1525053662191273,
            -0.35857396876634084,
            -2.1943639729951405,
            0.48738384113387256,
            -0.40692084997830846,
            0.04614143504171901,
            0.27564235197046205,
            0.4665672285359413,
            -0.26920809057642897,
            0.27158285449026326,
            -0.10363263992924195,
            0.09359695700770734,
            -0.11431660898944124,
            0.10967238059573955,
            0.32026139347851695,
            0.1565408558924793,
            0.14436357169566438,
            -0.3546164873829477,
            -0.6626479364202231,
            0.2905070894955453,
            0.29615041787983987,
            0.38301413409880675,
            -0.054550207189697233,
            0.4728261157545159,
            0.05451424528797992,
            -0.22275569254038646,
            0.06092077509096193,
            0.1497696698596355,
            0.6733721981143868,
            0.7373360547846379,
            -0.8814673136582059,
            -0.4781008615020984,
            -1.8984486705107049,
            -0.2253339678828392,
            0.07562764522174503,
            0.5256247247530078,
            0.1933991274651593,
            0.18306061316824473,
            0.08939255544590177,
            -0.29116411976629925,
            0.3921027924580854,
            0.2542652878226672,
            0.33212593644001576,
            -0.0321480035470349,
            0.1615295501359031,
            0.19145383088525697,
            0.07638012747833625,
            0.15399623887117844,
            -0.5663570432015214,
            0.42337456034615384,
            -0.11789244429781107,
            0.19017668643505198,
            -0.14610486690944222,
            -0.33553236650969465,
            0.8061729725269806,
            0.7744685219457332,
            -0.08143782333275043,
            0.1922941114231942,
            -0.8934303822600186,
            -0.11644087202021806,
            0.005541703392069131,
            0.5148826496369651,
            0.032446324403391354,
            -0.22183438545360223
          ],
          [
            0.21196930900781713,
            0.004869347342433943,
            -0.6234452884071136,
            0.0011642340056419124,
            -0.10462118855938218,
            -0.29736241226230625,
            -0.23309216268830202,
            -0.09744311388224733,
            -0.14357191258772856,
            0.2804674604999617,
            -0.18655921572043138,
            -0.018455081735582815,
            -0.08667423882672796,
            0.0001781850392508308,
            -0.20154856176733876,
            0.15090582081114542,
            -0.4115874251535999,
            -0.39380953092906057,
            -0.2142000947447272,
            0.19103715891490092,
            0.11577748996836633,
            -0.2740728332384122,
            0.2990130989184557,
            -0.18349876023437672,
            -0.11201645906250599,
            -0.4276042242807986,
            0.030324249183265265,
            0.22020657890506412,
            -0.6940979848116807,
            -0.13109313967170752,
            0.04946979301138749,
            0.2597082135774664,
            -0.005415634051425857,
            0.15233106997783216,
            0.0527626382201637,
            0.1701841387993971,
            -0.6305302752623256,
            0.1226762021213624,
            -0.6258670923065188,
            0.35773769875696343,
            -0.21555445132756676,
            -0.1497827629939012,
            -0.2636012590525778,
            -1.290618023000403,
            -0.13388378350715138,
            0.20764980487796217,
            0.2088563063130071,
            -0.32260645642269037,
            0.17942095668235483,
            -0.7126416354513802,
            -0.09758066158212192,
            0.1078422430573028,
            0.22148791778152105,
            -0.3166519971571168,
            -2.850228562787286,
            0.37300151461521597,
            -0.179449417175726,
            0.5410353261311827,
            0.42002117439287184,
            0.048057849858755275,
            -0.6840904963684028,
            0.20504763699839945,
            0.20872535267393294,
            0.005973031346017303
          ],
          [
            -0.4352126883272031,
            0.43512533918055296,
            -0.05472085480934416,
            0.1501444006351073,
            0.05703949624316207,
            -0.05464648350759325,
            -2.1963847790019124,
            0.28039684550352134,
            -0.021940953419639857,
            -0.21228969257770458,
            0.2981684655867745,
            -0.034742218794792536,
            0.24068914198306468,
            -0.5321858945606863,
            -0.2161730173029607,
            -0.210137056600076,
            0.2432882046122988,
            0.3574222102323695,
            -0.302726470297352,
            0.39811155252603164,
            -0.19445813324621605,
            -0.07953381322360194,
            -0.40137900569434654,
            0.03947876467219488,
            -0.5221170569875108,
            -0.022400666307124884,
            -0.12394380036472354,
            0.4093849789878364,
            0.27464946962662506,
            -0.2597862842858591,
            0.2618775983943418,
            0.16419865249593069,
            0.14412581380524872,
            0.2648960055260937,
            -0.09952421277063123,
            0.05419736319731855,
            -2.158853159281203,
            -0.405419015711789,
            -0.7580259423161126,
            0.1378053808414186,
            -0.5545309910251541,
            0.2907353035765835,
            -0.4135417752976461,
            -0.1464213374226936,
            -0.33889396873397476,
            -0.3233242698786864,
            0.0032836544087367315,
            0.10746554606093034,
            -0.06276251548993653,
            0.31941594889379504,
            0.3840954796320329,
            0.43540065420009955,
            0.14543831321090492,
            0.1942530232668313,
            -0.7961760252930321,
            -0.36148762945418067,
            -0.1966581526165202,
            0.11770232367708604,
            -0.17314348655396114,
            0.06498682289945988,
            -0.021007203863985916,
            0.2473052862056181,
            0.26886307685759986,
            0.5078732133762296
          ],
          [
            0.3766077876976763,
            -1.213155346851647,
            -2.2893506814862428,
            0.5832675545435159,
            -0.8143872305995686,
            -0.22554373711742853,
            -1.1170161460312635,
            0.1130133835105308,
            0.39294415837715624,
            -0.2603043943556465,
            0.4998189301241025,
            0.27770773817436956,
            -0.5032679028051118,
            0.18401035804749763,
            0.1603895714393093,
            0.20613533883573587,
            -0.5206744280485465,
            0.05571713908367821,
            0.6683511788154626,
            -0.4683444338821548,
            -0.29524265355741025,
            0.17423037671070268,
            -0.895104733285634,
            -0.403069433538475,
            0.09083348429880575,
            0.09201934638707687,
            -0.930876227491385,
            0.3828880954973493,
            -2.1416109051875,
            -1.1029866896779346,
            0.13043035991068708,
            0.5757716021061372,
            0.12350185122626006,
            -0.17080105368352014,
            0.16432935472157137,
            0.03614474219389076,
            0.6066585440250643,
            -0.1564301380893314,
            0.6976619470414691,
            0.09899322712087885,
            -1.4983600334265161,
            0.12214198451432161,
            -1.4755143620934192,
            -0.8235855187777996,
            -0.13048871088647174,
            0.15011189101316674,
            0.019278673109151268,
            0.5309638100726182,
            0.5333064348534816,
            0.23030137565951347,
            0.49769079242567665,
            0.47733632904792855,
            1.2578700124974458,
            0.15757724151063576,
            0.0026842071771397136,
            -0.17336374749714317,
            0.14598115368697284,
            -0.6340718957792033,
            -0.13697777416535895,
            -0.772455991061217,
            -0.13132244157642603,
            -0.1877313543828936,
            -0.35499243977453204,
            0.32370543458028794
          ],
          [
            -0.32649002417587475,
            -1.1222621240881216,
            -1.2380747090587136,
            0.09680239261731109,
            0.4976675137463697,
            -0.0676701846601594,
            -1.1412709718812437,
            -0.09837884678306118,
            -0.16967294706059272,
            0.5104668494753759,
            -0.2890952705265979,
            -0.8680145376584524,
            -0.14185318961092533,
            0.23223728017000814,
            -0.14636740529949036,
            0.04151370544104798,
            -1.3814010803883208,
            0.211898323101076,
            -0.2831546449046054,
            0.3047098397065717,
            -0.39524968108477904,
            0.09074199723801635,
            0.11420703940383076,
            -0.6254884006892806,
            -1.062443492852116,
            0.17653872578549357,
            0.655163161007478,
            -0.6130926629562019,
            -0.6927187123700782,
            -1.3808043310928801,
            0.14259153145164816,
            -0.08721245473672515,
            -1.8931657937996946,
            -0.22099081994540706,
            -0.3521105355203031,
            -0.12589769464725786,
            0.2566022743426633,
            0.23615049220872605,
            0.3619165090277155,
            -0.10018560781786673,
            0.30214988173845825,
            -0.05814137328729092,
            -0.28254920747176143,
            -0.08874740058067693,
            0.25096908917854693,
            -0.002261255734535571,
            0.024662551294776878,
            -0.17869636023681532,
            0.14746277966954058,
            -0.27961572745823254,
            0.23961164708518226,
            -0.2922873347490328,
            -0.31197760676265773,
            -0.44888160420626105,
            0.40184438881414336,
            -0.48281612763474396,
            0.1427660135189944,
            0.10858517432412983,
            0.2536335939612803,
            -1.1758622991110208,
            0.047200264675450285,
            -0.07395610619183958,
            0.3458266712902171,
            -0.38523248633107515
          ],
          [
            -0.35631902524981424,
            -0.5754592217992884,
            -0.3334405023819429,
            -0.2895174146781767,
            -0.07052023584339293,
            -1.0993896683822533,
            -0.07643500801282258,
            0.006722864876632219,
            0.3716942456121135,
            -1.8060905988234155,
            -0.30695196921570284,
            0.10500455044653004,
            0.2565264553965242,
            0.19431869428952775,
            -1.4571347595962112,
            -0.7209572797418865,
            -0.2502249748178596,
            -0.1175964084529899,
            -0.4786169318540714,
            -0.8612960497978642,
            -0.28716382829811715,
            -0.15143413622524227,
            -0.42942390159048066,
            -0.08182104836598078,
            -0.007753449019816331,
            -0.40680480972183647,
            -0.3879910857480493,
            -0.3870217538750243,
            -0.3515308684788029,
            -0.17611262088536875,
            -0.4297573497482718,
            0.2227977692564711,
            -0.26954610079936053,
            0.13552328540456088,
            -0.6037186440084725,
            -0.30414233622571113,
            -0.4839635374238209,
            -0.3423276932848019,
            -0.47707944082211473,
            -0.050220580125039035,
            -0.6963648088968564,
            -0.586765508696835,
            -0.4811103309360899,
            0.2657609837682146,
            -0.04057613020354321,
            -1.1085716056313815,
            -0.037049618929732235,
            -0.18663083545218767,
            -0.32948626356395344,
            0.017419769658991155,
            0.020990930398408394,
            0.28984326744024935,
            -0.0204318882031271,
            0.14784782574554334,
            -0.09593631568167325,
            0.45720432764950125,
            -0.27086951560075406,
            -0.4944291166743476,
            -0.26646486467982194,
            -0.0971150956286286,
            -0.09702838338035386,
            -0.045135865376576,
            0.22685769163869904,
            -0.358985185864398
          ],
          [
            0.3519013148684839,
            0.05349028303734649,
            0.7979985645224924,
            -0.4089166626780246,
            -0.26517567316749585,
            0.1301667734565903,
            0.594840079130419,
            -0.11698703082607172,
            0.09004336121787312,
            0.21864274272592077,
            -0.20927095273614904,
            0.3079384316983994,
            -0.03840097222817631,
            0.0930619638244809,
            -0.09831427109907792,
            0.31070743461404166,
            0.20730401450958014,
            -0.49544122777276495,
            0.007216475793183026,
            -1.0084828001359232,
            0.23030747143736038,
            0.03316396303105045,
            0.15575034835948767,
            -0.15933081129650306,
            0.24793206332911805,
            -0.40177538589942235,
            -0.0634837479885399,
            -0.1171035186490485,
            0.10170241154151619,
            0.11491452833434662,
            -0.19712172712006246,
            -0.3389955681088159,
            0.024442733036632584,
            -0.017075309165207005,
            -0.04613791758930672,
            0.1348556638435919,
            -0.02854643088471012,
            -1.3051152091048308,
            0.02561877084698962,
            -0.23903928571682154,
            -0.18176737197802437,
            0.5983660873982974,
            -1.054176487402813,
            0.2454320664080684,
            -0.4119680897455802,
            -0.06149572128136974,
            -0.11314592936454866,
            -0.094300898421619,
            -0.10122950377243228,
            0.19083540565979445,
            -0.6545492150834163,
            0.30828992279883694,
            0.17656893541820792,
            0.2514650998794604,
            0.049245592235423526,
            -0.4571052542769927,
            0.03674253738107047,
            -0.3720660938733175,
            -0.06451852544060556,
            0.16613683129823265,
            0.555706593824212,
            -0.6444703115113342,
            -0.1811227264607053,
            0.30690718769220704
          ],
          [
            0.7961934114499366,
            -0.162584652287536,
            0.44155245022184336,
            0.2840995884145242,
            0.6574300887736791,
            0.14796968141064878,
            -0.01023511443280704,
            -0.10353387375908514,
            0.3440271037738709,
            0.008741596155183306,
            0.02380427916210434,
            -0.5483864563051052,
            0.05803903906427043,
            0.15250620325357456,
            -0.07742004690750605,
            0.221270082791317,
            -1.3053675225279895,
            0.13276836789576546,
            0.5681040278621999,
            0.16018079537970356,
            -0.505620946130057,
            0.2216866313033132,
            -0.7715116495965892,
            -0.10060626837402611,
            0.13649979029150883,
            0.37115204915249594,
            0.27546673140399563,
            0.15133429275296786,
            -0.3587872991243726,
            -0.31196660004341664,
            -0.13826265991948447,
            0.1359903325818391,
            -0.027156625440976346,
            0.3559884533742274,
            -0.6239724595294115,
            -0.16485147667624478,
            -0.49276995040350086,
            -0.14913598234974065,
            0.12900293601144389,
            -0.5945384367439658,
            0.1389600243214545,
            0.31429764818651285,
            0.3996250210367152,
            0.05166625635826833,
            0.48676844437934175,
            -0.28597108305969615,
            -0.023482045699408777,
            -0.5774748245776624,
            0.40553838947045673,
            -0.20814118380004584,
            -0.8056015527570181,
            -0.24710434924791397,
            -0.4347291070786022,
            -0.2698196792349136,
            -0.12200149167147979,
            -0.3143631248963287,
            0.3361142166752143,
            -0.5323577351629074,
            0.10599487410395096,
            0.2810578068018316,
            -0.49326569185732116,
            -0.08821244455669186,
            -0.2186906617433328,
            0.3802256578886717
          ],
          [
            0.13385945798997445,
            0.014441610586597705,
            0.3706622309544017,
            0.034178509261977616,
            -0.01073309802970345,
            0.06544810020122427,
            -0.12081963881514485,
            0.5951877852027286,
            -0.07744690013585297,
            0.13848422341532868,
            0.6529154666813903,
            0.2961796773789076,
            -0.2127486913736802,
            0.26824916544960137,
            0.09752395109533274,
            -0.2620065708640727,
            -0.7141527937445566,
            -0.11532008096208304,
            0.23324002683185893,
            -0.23969190462988016,
            0.3072674330233384,
            0.7585290414397902,
            -0.2524617992384,
            0.2199948615287538,
            0.1481168368806043,
            -0.1761948520927825,
            0.5105278507987601,
            -0.5298650024564948,
            0.2537656973861122,
            0.3911490989646841,
            -0.3520993676266278,
            0.12743500929533821,
            0.1411453572755366,
            -0.6504796669734253,
            0.3198380552611883,
            -0.49206325600214634,
            -0.42358603823157226,
            -0.2998722429011692,
            -0.12530628099386956,
            -0.4421910517554315,
            0.3308592420850855,
            0.6301559106698084,
            -0.14267395387664414,
            0.22340304253915835,
            -0.10915674768763493,
            0.43784459331566744,
            -0.1626321162765988,
            0.5481525111820009,
            -0.5348656903478353,
            -0.31182644741537674,
            0.1244096003126587,
            -0.07605248682369185,
            -0.10777065064680386,
            -0.4342781874262512,
            -0.6409628689657364,
            0.05851046775726589,
            0.6585162701745764,
            0.549680268744659,
            0.3236542659337757,
            -0.1513025521240586,
            -0.26090536356901795,
            0.07970558525242373,
            -0.5327690404854238,
            0.22447883090108742
          ],
          [
            0.01051533587138303,
            -0.0014479058591503476,
            -1.0186320313417925,
            -0.8866761016460598,
            -0.2788994108546208,
            -1.635112415129842,
            0.05638469633632877,
            -0.29639443115598796,
            0.28084230020419404,
            0.21606494150802208,
            -0.01302396129440713,
            0.0498468704849105,
            0.09433006872368217,
            0.07790875742496568,
            -0.7187135411173189,
            -0.06290508222573077,
            -0.4979141902870006,
            0.2298862152369718,
            -0.16268985168649097,
            -0.9821561952628096,
            -1.325891030387612,
            -0.0844176444812786,
            -0.6052356828793861,
            -0.17226207891841283,
            0.04174263872505818,
            0.1565135586273244,
            -0.679857984197208,
            0.17735359557098626,
            -0.2838769194231806,
            -0.09223611962271794,
            0.2544063968026551,
            0.13580040840657787,
            -0.37595801522842215,
            0.17155993438771835,
            0.17911249738106944,
            0.23884700626303093,
            -0.6306128461967109,
            0.14791428073859425,
            0.2791229364493435,
            -0.12798740188113064,
            -1.0960165297469484,
            -0.333507969162867,
            0.22862977640162635,
            0.1914278244320405,
            -0.1538217576866075,
            -0.19544355153193552,
            0.16774479432657544,
            -0.6419289186144775,
            -0.8856581267008119,
            0.004472603680182548,
            0.10795269809820986,
            0.21187536797045942,
            -0.18776286952310545,
            -0.23422152786738987,
            0.11857451022037385,
            -0.6830804146710568,
            -0.41104514614009036,
            0.0060172486908925925,
            -0.3922515515290579,
            -0.4431200330964338,
            0.17402570494056935,
            -0.37171023802977815,
            0.33456869210200363,
            -0.12725295377461404
          ],
          [
            0.17005219777916217,
            0.73564805653024,
            -1.015786435983273,
            0.045132785566879975,
            0.1624373427449344,
            -0.588437364959414,
            0.7439240769122849,
            1.0040951760535823,
            -0.297553378308288,
            0.32314135482983947,
            -0.7655752621085788,
            -0.22303910833942306,
            0.053834812567443706,
            -0.34157457868419655,
            -0.43466004771355715,
            -0.23116208878807257,
            0.10524131622160326,
            0.4199825084388203,
            -0.5901760430864438,
            0.28185814390952224,
            0.17630243209946186,
            0.6838673071508956,
            0.13767951792474803,
            0.06709075713752716,
            0.23727636201965405,
            0.17540151258711034,
            -0.03824207374674239,
            0.39849003988119985,
            -0.2467907052015501,
            0.7773918645444843,
            -0.2967766998193179,
            -0.1358790670269234,
            -1.1477945267155711,
            -0.17553403275107124,
            0.28915508531309925,
            0.5894943789535134,
            0.017866650390440587,
            -0.7923556687889901,
            -0.03705832492404499,
            0.0926889713139204,
            -0.11081717522613807,
            0.08121875402615014,
            0.4304525206473395,
            -0.036099574217063723,
            -0.16076400309500563,
            0.1619304668038314,
            -0.29153618658455077,
            -0.692674960976734,
            -0.48529193580286895,
            0.08271230012535642,
            0.020068262420564805,
            0.05519735056003081,
            -0.1338577196353581,
            0.09054334071644811,
            0.107853452151659,
            0.5449084658462074,
            0.5009087929689766,
            -2.1179759394637294,
            -0.1616609753776386,
            -0.08316909013363803,
            -0.5855731862652208,
            0.33538292419762905,
            -0.02865176110365965,
            0.021336925049698346
          ],
          [
            -1.336279312211023,
            -0.019433435419442997,
            0.17880779563245788,
            0.5654086357042423,
            0.466480808286715,
            -0.3934222893049081,
            0.14909598331214072,
            0.03317801649472263,
            0.23348840448126781,
            -1.1550211155817296,
            -0.5547339147024691,
            -0.11101278133711735,
            -0.2444933900459176,
            0.29021238876801636,
            -1.2880808443180387,
            0.346506696485776,
            -0.25658390905302253,
            -0.6925586093453432,
            0.5406751114925374,
            -0.3316858944151824,
            -0.3706611784370848,
            -0.8404297975796693,
            -1.4746189986588085,
            -0.7562683986770792,
            -0.19770743202547164,
            -0.6518267962834229,
            0.18275713756126025,
            -0.10432271602378287,
            -1.4685127829274196,
            -0.009179267978707575,
            -0.0793066268913717,
            0.18805629151327638,
            -0.708796857832785,
            -0.6936694049208059,
            0.25364363288107966,
            -0.6092147207669324,
            -0.13109576034928955,
            -0.41615278046358,
            -0.40251212531821184,
            0.46255128866102496,
            0.003060897806667575,
            -0.04598694335382118,
            -0.3182758508740554,
            -0.3759161234690899,
            0.28573274325279086,
            -0.1979958421133181,
            -0.3003368570814919,
            0.05864189514051161,
            -0.04319366979416923,
            0.06256576409924328,
            0.35786106815856145,
            -0.3325575056477219,
            -0.14311100378577774,
            0.3827065924378368,
            -0.42978601704976027,
            0.5891011460707121,
            -0.2508205191493037,
            -0.5112802828720994,
            0.36981159410801095,
            0.11381630910991686,
            -0.5051909710588103,
            -0.4080854476847113,
            -0.11142744290635605,
            0.003916062400494245
          ],
          [
            -0.0011981732883963386,
            -0.6894370369468014,
            0.2596308571660241,
            -0.003858065865440837,
            -0.0016608916866111196,
            -0.2336178993300659,
            -0.6486123364788551,
            0.30785367044396345,
            -0.3341370904818583,
            -0.13980939125415875,
            0.5271070828631004,
            0.2432452003006253,
            0.06746284541327827,
            0.11968913927547829,
            -1.7108471597397004,
            0.2576051760868185,
            -0.49071331801648393,
            -0.285852603204579,
            0.3916834803697165,
            -0.9017220713860317,
            -1.8020391876441242,
            0.0690677768170456,
            0.28228249255606463,
            -0.3951529189318306,
            0.1620444866334637,
            0.070761368692246,
            -1.719041454244454,
            -1.4745631742686995,
            -0.40239933965237523,
            -0.9014154694485718,
            0.6179996673520173,
            0.13922393131814476,
            0.05365810303136871,
            -1.4279281678671205,
            -0.12240436344856423,
            0.22091964365199537,
            0.09685785866200791,
            -1.1824587947486622,
            0.36686959529600854,
            -0.457181941660875,
            -1.711247686627843,
            -0.6805149573412982,
            0.2520173261672889,
            -0.5322901509347268,
            0.19703766729396155,
            -0.7989921512583893,
            -0.03867753212242594,
            -0.40328228633679153,
            -0.29472111993988276,
            0.24926020941142396,
            0.0474454677260687,
            0.2689568456250752,
            -1.4692210064275006,
            0.057911268968554155,
            -0.19999362750750746,
            -0.517643362170545,
            -0.06978623474661907,
            0.13881157571557529,
            0.043702417625921336,
            -0.4498109049270656,
            -0.16629661555170505,
            -0.47786710694827034,
            0.9512338953452979,
            -0.551170596885967
          ],
          [
            0.3271199974822121,
            -0.06721770590055628,
            -0.004558833624509503,
            0.47894228930007093,
            -0.5318684809015485,
            0.5910272945182877,
            -0.28498366307340833,
            0.11558262823498701,
            -0.33514547919066023,
            -1.068679554413323,
            -0.010456526828698414,
            -0.010717991612297934,
            -0.2491147113659339,
            0.7133452562015744,
            0.3029428506325351,
            0.01137483483818033,
            -0.31945381226641845,
            -0.5182071638246671,
            -0.4523838116208553,
            1.0573614727227718,
            -0.39060988644018607,
            -0.0046657160261739305,
            0.28704094709522365,
            -0.4514536969643499,
            -0.32693855881544626,
            0.30677883725893024,
            -1.2142594671772733,
            -0.8885648938039153,
            -0.12447507348637933,
            0.17260275741736958,
            -0.6326267770133233,
            -0.2995063742575052,
            -0.2828513519003425,
            -0.017806609362179055,
            -0.510405313644404,
            0.364491380710261,
            0.5847763875942623,
            -0.7682268103325147,
            -0.0016760783754926677,
            0.04116389405481393,
            -0.7065632987601308,
            -0.6936611379446904,
            -0.14123177886116298,
            0.4349538074238203,
            0.5540244988489783,
            0.4278764192712015,
            -0.3479955863758222,
            0.24785681923559058,
            0.06977553161848969,
            0.18082260848337559,
            -1.320359973568422,
            0.12473911335629105,
            0.126953411410821,
            -0.21225880619658072,
            0.14378056698265695,
            -0.15160356394359287,
            -0.10056419042557943,
            -0.5925597123969936,
            0.08254755546088667,
            -0.22985138315703293,
            -0.34107374810458924,
            0.35577189048573005,
            0.1695548747986671,
            0.4556786434790718
          ],
          [
            -0.24591713218997832,
            -0.3555496491425708,
            -0.2159215117699099,
            0.23697973930981597,
            -0.15062110114130164,
            -0.019893002683286937,
            -0.08610302147784264,
            0.05676730870422474,
            0.37711765066433545,
            -0.03935929068118455,
            -0.5621076718383824,
            0.048985613300201694,
            0.21554400053468625,
            0.003077256336383884,
            0.3854962975819658,
            0.07154628854934487,
            -0.8704680446914576,
            0.43934672946788916,
            0.18614852017074782,
            0.6032736973426774,
            -0.5813446932021162,
            0.4665481113594156,
            0.02391956355482057,
            -0.6685975331248682,
            0.1030960846933748,
            0.13942831661074695,
            -0.01884626348566836,
            -0.1909826986140952,
            0.06313447034765836,
            0.12068301264389389,
            0.14499416286243658,
            0.22795686828490075,
            0.1892023884578818,
            -0.07307808088533711,
            -0.07882141775221727,
            0.49971515757431234,
            0.6534877442507098,
            -1.4536989188870169,
            0.008660590212184694,
            -0.04290415381298471,
            0.13794130756593356,
            0.09839752727222197,
            0.3919370314040195,
            -0.02772485430594538,
            0.17394333190918954,
            -0.196787545897126,
            -0.07103027991822616,
            -0.10308591406532604,
            -0.34103240283887953,
            -0.18876722155916767,
            0.19005835533076942,
            -0.02519323592553758,
            0.06762047260495671,
            0.28869128854866827,
            0.8307508221197394,
            -0.35722315331639665,
            0.21265478896440534,
            -0.07942837591355359,
            -0.16267629229977687,
            -0.3261773935720715,
            0.08560020449209471,
            -0.5688495675486999,
            0.022347093806765438,
            0.07091558125345472
          ],
          [
            -0.6503002618882947,
            -0.21276596299161674,
            -1.356793677513844,
            -0.19368474976517971,
            0.08513977353267344,
            0.41068756617564334,
            -0.12924851557901745,
            -0.04345622366533413,
            -0.6662394398122501,
            0.42137082872519244,
            -0.20587949325026939,
            0.09044896149256636,
            0.48122451624369317,
            0.3071263811060826,
            0.05057710672422284,
            -0.31968667929317984,
            -0.85331472782079,
            -0.21443853591089002,
            0.5739022969772054,
            -0.7714065252162721,
            0.16876597224620996,
            0.3578012651278024,
            -0.30103467294022146,
            -0.14792365890390802,
            0.011228244197500084,
            0.20734573534714038,
            0.2627669742791241,
            0.2604433933530013,
            0.004008082683728986,
            -0.04916027120416768,
            -0.74037612004327,
            0.24233302744679186,
            0.3898118758577576,
            -0.1858925243841499,
            0.09375479185894252,
            0.118827549291884,
            0.3202092146436418,
            -0.320540821312952,
            0.0694906125004752,
            -0.306752030563482,
            0.3333455144540563,
            -0.01112448487062302,
            0.0665283874034187,
            -0.8385053572486328,
            -0.06365843425067703,
            0.09234326544878692,
            -0.02572804109931685,
            0.030307510277000373,
            -0.3188571080669207,
            0.1351769464115951,
            0.634293219389592,
            -0.04919791057372155,
            0.10243476944854359,
            -0.18604618159459937,
            0.12102724696265522,
            -0.16417178807852156,
            -0.08066860037243163,
            0.6929827219380651,
            -0.051515354115647415,
            -0.7810371362772915,
            0.06239931574356089,
            -0.4290252731394028,
            -0.14440973981067518,
            -0.15799277558765
          ],
          [
            0.439764267584818,
            -0.0913237645602355,
            -0.10288274001956256,
            0.7197647344881356,
            -0.580117247440256,
            -0.3542617150176611,
            -1.6007727404392231,
            0.2199794936870124,
            -0.001954608785906488,
            0.3077512462475499,
            0.002607455300969785,
            -0.029496345433479263,
            0.13266195761435826,
            -0.5287288754953431,
            0.8705570959645257,
            -1.4740109688867946,
            0.14871871376537418,
            0.24202476602057932,
            0.1579628524184265,
            -0.010287707263506522,
            -0.005430920227240792,
            -0.4598306091124616,
            -0.3736206107804601,
            0.32947090778915894,
            -0.6295559854015661,
            0.16667263597232276,
            0.609610197940606,
            0.12923720015084222,
            -0.05586709396191531,
            0.3095631894862593,
            -0.03286623325933839,
            -0.09427967589091549,
            0.4216891754033757,
            0.16432025164188377,
            -0.5399481281403327,
            -1.3907738123056723,
            -0.45117917247199546,
            -0.3306898946309542,
            -0.054961126037910236,
            0.25414111901661024,
            0.3536132048750798,
            0.2488227223867124,
            -0.9228102659259486,
            0.27467206559035173,
            -1.1067075260795638,
            0.7256969754578197,
            0.21888920371761542,
            1.0002255780948985,
            -0.11643360976782133,
            0.34196154792258454,
            0.7417265451184862,
            0.4961696131255981,
            0.3544634537719821,
            0.3138565888850964,
            -0.6005649609609127,
            0.3530552853367911,
            -0.7556247282955665,
            -0.7314727998961329,
            -0.24038786698202919,
            -0.20208845884578566,
            0.21683849321918647,
            -0.3178513485987739,
            -0.1504683073192729,
            -0.026926155910440938
          ],
          [
            -0.10421645460197743,
            0.16883117544724272,
            -0.25778954943139754,
            -0.3012089988586127,
            0.3627417042098197,
            -0.8902749743677789,
            -0.020278028219544712,
            -0.5848756399977191,
            0.06484639612480719,
            -0.26638736107282673,
            0.1299942826568107,
            -0.117447541052097,
            -0.027967005900714707,
            -0.18958548417617152,
            -0.007563194423140522,
            0.08671840880445933,
            0.06473816105499157,
            0.08099999664497894,
            -0.021908697745020436,
            -0.22924358123249866,
            -1.5341697039977054,
            -0.8410481733412639,
            -0.43091310114779247,
            0.3465328479978995,
            0.016046626953312916,
            -0.04330158142059022,
            -0.9908991828247915,
            -0.6121216821825938,
            -0.9115853987169252,
            -0.4576241217037194,
            -0.571035201649359,
            -0.164151694574084,
            0.02072960620609663,
            -0.09532933531818308,
            0.05250428650584229,
            0.1724575740381317,
            -0.2834338743300073,
            -0.18848532944672697,
            0.14112273687610208,
            -0.014586120520348075,
            -0.9176915520886639,
            -0.3291352626627423,
            -0.6000782861016524,
            -0.2737311773450913,
            0.11732677361456446,
            -0.209031696335699,
            0.12313939748610254,
            0.4718452243746754,
            -0.2723029683278172,
            0.09632023413474945,
            0.26129406899527724,
            -0.2528761590016175,
            0.10770996594531228,
            0.054133125751891456,
            -0.37702483866551456,
            -0.5605816600306697,
            -0.06481977261824787,
            -0.9455384723648799,
            -0.15684133010447943,
            -0.5658236090527696,
            0.35238020122956704,
            0.03728756741227369,
            0.2594606913100152,
            -0.5122024632517841
          ],
          [
            -0.28108386314216494,
            0.2781524730267224,
            0.38704179292559676,
            -0.011440143345377027,
            -0.1175420364935709,
            -0.10996808224575287,
            -0.406568955371987,
            -0.5818337205802224,
            -0.43632743952283276,
            -0.5549406435323107,
            -0.25753808729728106,
            -0.060972680814384145,
            0.16211476064643526,
            0.21768414193649324,
            -0.4015214579932944,
            0.12052609987291367,
            -0.7027399404464155,
            -0.5418066560048401,
            -1.2821107550594064,
            0.07239196969893803,
            0.029732878631959316,
            -0.39698982320660164,
            -0.035706610640961846,
            -0.19629650693605236,
            -0.051029094077427166,
            0.2708525001709506,
            -1.2971395597527149,
            -0.5062682328581928,
            0.0070592471421128304,
            -0.6589832020386115,
            -0.317396584770548,
            0.4871486486702012,
            -0.20100570107406251,
            -0.15032830690608737,
            0.2793096856604062,
            0.28397859533363945,
            -0.29092184655148023,
            -0.004074571180746375,
            -0.10845986669534122,
            0.004708814395806814,
            -1.4144898212514876,
            -0.6628948141835918,
            -1.1741162264867115,
            0.5419506173082436,
            0.0023051322480916346,
            -0.40325795192478775,
            0.3342494847627366,
            0.35624711631642714,
            0.10511429512252106,
            -0.3264457726904725,
            0.04306301937613529,
            -0.22832651166877543,
            -0.6390304374768602,
            0.2547586610235256,
            0.09566091207283733,
            -0.4649531821100246,
            0.09799628411293604,
            -0.30620662680409666,
            0.5460741380663585,
            -0.7225237002110149,
            -0.08959500553762098,
            0.3936932526335381,
            -0.18226050722849033,
            0.01881198774690778
          ],
          [
            -0.08866374419670092,
            -0.06027594193552509,
            -0.2509808647989918,
            -0.20856175953428077,
            -0.3884923212285861,
            0.06668678065836994,
            0.14748770598119296,
            0.38292440240504017,
            -0.188179050031764,
            0.11608481879557345,
            -0.3261031890695855,
            0.6092796980586399,
            -0.15989617489702032,
            0.5306971157165189,
            -0.2524869407057745,
            -0.34981519353341467,
            0.5310065674712465,
            0.05457776780410391,
            0.10293649865898764,
            -0.11343515172680484,
            0.47847622345255403,
            0.4288432825457528,
            -0.3110336546993539,
            0.3592128813546485,
            0.011777526301640853,
            -0.11316799270185897,
            -0.1598402126584107,
            -0.5885770037587641,
            -0.6537823399810955,
            0.1735587983932575,
            0.0021589118621283443,
            -0.3001721256080486,
            -0.08854677945529765,
            0.05041389856023143,
            -0.4993487709198436,
            -0.013469458829610882,
            0.09750920219832844,
            0.06763274075384136,
            -0.2191471104445462,
            -0.08923191078403075,
            0.05188081679815192,
            0.44538146827874386,
            0.10157467153608904,
            -0.03542334999410556,
            -0.6684477059122966,
            -0.20056627152387685,
            -0.8708556709066626,
            -0.1658253614410442,
            0.2702583260362105,
            -0.1329140553036297,
            0.1082929712565175,
            -0.09437082671040797,
            -0.0467852496407828,
            -0.19501341694222968,
            0.26479454251475815,
            0.5723884799828736,
            0.6634633335973346,
            0.3039280565510999,
            -0.17917277658878886,
            -0.29817555518981337,
            0.14625809033261727,
            -1.0927099113875374,
            -0.2142271133833929,
            0.43883681049844214
          ],
          [
            -0.6088309075962475,
            -0.4917272551950995,
            -1.6148471777181848,
            0.5584988466194327,
            0.040333882042283026,
            -0.23780157791836784,
            0.3640697626147292,
            -0.7054793082071985,
            0.007939029757349834,
            0.3808176947498115,
            0.09101154664805408,
            -0.1123708126236459,
            0.3101134158777346,
            0.4193959796370382,
            0.02588122144376495,
            0.4014207057843738,
            -0.13166429693963444,
            0.21042769171513284,
            0.19112824811969775,
            0.16123208478582518,
            0.3343422291128991,
            0.12769443513849202,
            -1.2270874750298808,
            -0.5245665962079351,
            0.13141512733967778,
            0.12006097019405354,
            -0.005085413635173387,
            -0.1065119945107556,
            -0.18379742089232737,
            0.05258821898926384,
            -0.4563460642218014,
            -0.10188183114053236,
            0.16864251363269336,
            0.3095321889602007,
            0.29567726496064056,
            0.2521411096776385,
            -0.17897243719751588,
            -0.5663174165392303,
            -0.1794986267100485,
            -0.15735953801179714,
            -0.038029223807803304,
            0.13357282564188916,
            0.24967615433164408,
            -0.6103761426154359,
            0.19459346320702398,
            0.5629985635278311,
            0.1101799407877484,
            0.5532693992518193,
            -0.22991634244282003,
            -0.5776229540986825,
            0.13614835130151867,
            0.2284358641721823,
            0.01604947946367094,
            0.19400325700875484,
            -0.43127519529040786,
            0.271500967774693,
            0.37109186512588266,
            -0.3459350711435855,
            0.24481564731963917,
            -0.8505019312855957,
            -0.08849186860295036,
            0.3345028564611268,
            0.2477468279404499,
            0.47747810799385726
          ],
          [
            0.29396482949765296,
            0.09949599964334763,
            -0.547826496914067,
            0.23506849577881025,
            -0.0788569876205466,
            -0.19426117990629807,
            -0.07958381292094571,
            0.10276871448754368,
            -0.9784592075688676,
            0.16919635415521647,
            0.549687601489411,
            0.01465819860951001,
            0.2890801673237531,
            0.05238643825705103,
            -0.10148554213728565,
            -0.20525219974058043,
            -0.881075969992336,
            -0.05341358381879419,
            0.2852347767317648,
            0.20289142432797552,
            -0.015599641579393551,
            0.21905338563725832,
            0.3536158396660668,
            -0.07847485391077318,
            -0.14066028802939234,
            0.1614151027543038,
            -0.12928883741232688,
            0.4686460284695513,
            -0.06570594060619933,
            0.20988615657473336,
            0.044082078079201045,
            0.6399634792592521,
            0.21114797730157214,
            0.18356837448166338,
            -0.49982745778211757,
            -0.21586056320141275,
            -0.040262862525284396,
            0.21150212868434393,
            -0.09310478697685291,
            0.22085253532095714,
            -0.0662725495290817,
            0.18095643017783053,
            0.1704762186649088,
            -0.9645415740545922,
            0.189872404525123,
            -0.10256301049381437,
            -0.4722065835874262,
            -0.34880442117656807,
            0.3481820689475345,
            -0.4576689851287652,
            -0.5521599492801854,
            -0.18337563213994618,
            -0.14994153584385492,
            -0.2227708393799235,
            -0.28427511618400897,
            0.1827132046965794,
            -0.25422772512640657,
            0.1513430175106508,
            0.08819126503066049,
            0.1070319630555798,
            -0.5121080054233512,
            -0.2969625865815018,
            0.13584601259245932,
            -0.32900849085112266
          ],
          [
            -0.0040565837896502895,
            -0.5070576255428745,
            0.2948634812781369,
            -0.21723269256000108,
            0.07777727981543416,
            -0.6153829766163644,
            -0.09331069609211974,
            -0.7208978861233774,
            0.1834387921157574,
            0.20236885423246473,
            0.2190982547718293,
            0.27346377931111227,
            0.16669205198912232,
            0.15303710601373913,
            0.7297192628109372,
            0.026029434568224045,
            -0.11556834739751316,
            0.17572251082073742,
            -0.5724014294765362,
            -0.5065264275448176,
            0.24370948268529036,
            -0.3057553586147406,
            0.6606782015808073,
            -0.27784569867354864,
            -0.4116581192138362,
            -0.2721526252607189,
            -0.1570043702219928,
            -0.17217133204599064,
            0.07994012723138762,
            -0.3604406004870178,
            0.024262540239682037,
            -0.13883123818770376,
            -1.6567525165743413,
            -0.5397837714688261,
            -0.28176817963691425,
            -0.17045714037876364,
            0.02143619253574454,
            -0.10768802691460239,
            -0.2901964577696594,
            -1.3644812297131261,
            -0.48612037482054754,
            0.18586921113148772,
            -0.37327248092118986,
            -0.16821096032705588,
            -0.6523259682705049,
            -1.5321530896108702,
            0.2576792125387485,
            0.5727288429905042,
            -0.3765757169034176,
            -0.06095468823958649,
            0.4679307355972126,
            0.6064519374401802,
            0.401298231462019,
            0.8065765289451965,
            0.005362928882774355,
            -0.04848570374814149,
            0.10934065966625522,
            -0.002881446348968873,
            0.1323566541669528,
            -1.2187098913358352,
            -0.304992970728414,
            -0.10748155754543827,
            -0.5464193720323416,
            -0.3976169355828539
          ],
          [
            0.030785706297356785,
            -0.05150445229716796,
            0.02916635439786868,
            -0.8482523966961553,
            -0.7762641020344004,
            -0.05552719129870521,
            -0.9398534366207117,
            -0.013778077505935125,
            0.09949906478950177,
            -0.2848569766385552,
            -0.2511915723423312,
            0.06438597064963658,
            0.1845320635478835,
            -0.1378672598684391,
            -1.3074535843495496,
            0.13749566645399455,
            -0.4711512999116465,
            -0.20667382462522696,
            -0.030936834315520707,
            -1.0150572650635512,
            -0.4718079361594206,
            0.049698581155771485,
            0.14462966136101899,
            0.025339781237336396,
            -0.18436967045717778,
            -1.020021439385281,
            -1.7534663973136353,
            -0.13422061274101166,
            0.06579517544881933,
            -0.15248858347260247,
            0.0610724680570045,
            -0.3746469914589053,
            -0.02482805360327024,
            -0.12799709242456525,
            -0.5001528640847556,
            -0.06274807924650704,
            0.013700758520339211,
            -0.4444421790955215,
            -0.8718822723388643,
            0.11406686572091222,
            0.24664310035807255,
            -0.396849394539946,
            -0.27388791226783726,
            0.10691998634155436,
            0.37875481072868844,
            -1.5071836416890843,
            -0.3603080903325489,
            -0.3940901483469891,
            -0.13478140978251527,
            0.16237479527313017,
            -0.40555815816632745,
            0.28431748913554006,
            -0.03126481886785082,
            0.12475042248996322,
            -0.08479162674349158,
            -0.41991036405111903,
            -0.00036835556133063736,
            -0.16925243401643436,
            -0.29912738642681935,
            -0.4880799346090144,
            -0.003294518222966773,
            0.18596620732995373,
            0.08225207039619381,
            -0.21141938434059077
          ],
          [
            -0.2040273366190056,
            -0.16815317916420247,
            0.6856874759356751,
            -0.9410059600188774,
            -0.30209598670489274,
            -0.0415199328101665,
            -0.311802636125595,
            0.22550378959533304,
            0.37370229476878547,
            -0.3625201351940772,
            0.30204408111501463,
            0.2970093937386987,
            -0.15182322731814293,
            -0.31011683533955703,
            -0.7685989547534796,
            0.4857500802237266,
            -0.4732038627326102,
            0.22963332961706728,
            -0.10173296333663569,
            -0.13169397842274147,
            -0.47722882743561607,
            0.15490418340270137,
            0.01903590477399347,
            0.2566048335667112,
            0.1357184471947744,
            -0.24178657575786835,
            -1.506687498145101,
            -0.1696452495715389,
            0.44973307587166217,
            0.019973607385053205,
            0.32159277014803256,
            0.20141527239500337,
            -0.2816132202895237,
            -0.8497355581944657,
            0.08180350532001363,
            0.005702392376719855,
            0.10118584890024351,
            -0.08655264040211601,
            0.39063058146220336,
            -0.11124122516094875,
            0.050335974990948044,
            -0.15398636790427714,
            0.27466407667237025,
            0.2037221887337805,
            0.15013487045260845,
            0.368674359702577,
            0.0837384005019457,
            -0.21444931167842557,
            0.0530445779937637,
            0.42489308236072504,
            -0.9699821598450462,
            -0.45621381933777577,
            -0.8135451985327448,
            -0.08030062766590158,
            0.46992325154564063,
            -0.22103720028946197,
            0.07011951305215378,
            -0.5130546793597104,
            -0.12244915344434387,
            0.05969536568623704,
            -0.001980153471030255,
            -0.5321992750840102,
            -0.163509066386065,
            -0.38799313080810244
          ],
          [
            -0.47494133805863237,
            0.3511800980082774,
            -0.30622475801227833,
            -0.1131362390879543,
            -0.526469516819217,
            -0.2794451475526947,
            -0.4093261488339734,
            0.2625453398374049,
            0.0429612816874531,
            -1.05796300563099,
            0.2746020038362881,
            0.560458118375482,
            -0.009204347329673892,
            0.2773363657985133,
            -0.15993684119856838,
            0.2373949888976679,
            0.27160913981032386,
            -0.21531982620574996,
            0.8553925927555643,
            0.7012561049391283,
            -0.27617222776283834,
            -0.4570216554824223,
            0.1447767463101685,
            -0.15093782617067802,
            0.38474184329521843,
            0.7855804590303241,
            0.17723777217202535,
            0.4025215210354316,
            -1.231992677562651,
            -0.5154728897086258,
            -0.30732544016619034,
            0.04594096233205082,
            -0.3883196693113208,
            0.5197819179363097,
            0.6595501152610713,
            -0.35390325345156626,
            -0.5976690809455584,
            -0.10610330923310139,
            -0.3613021809310827,
            0.35227417895617247,
            0.04708068049565565,
            0.09718050769038668,
            -1.4030784588427427,
            0.11588050566928138,
            -0.5115786642451571,
            -0.36955610490988355,
            0.4574233160393405,
            0.42578105938825134,
            -0.30324738542507745,
            0.11049553879021373,
            -0.3400417945986969,
            0.4208332708374643,
            -0.020492622419490212,
            0.416428659216662,
            0.0056397608167594315,
            0.17196284191652303,
            -0.6478224417288593,
            0.05382841432455294,
            -0.22433215501352405,
            -0.6536836263037855,
            0.27168054971193356,
            0.10255489366565781,
            0.41094051263866677,
            0.2791032311906835
          ],
          [
            0.26087144742526036,
            0.30694524184819194,
            0.11224566797744201,
            0.4117718181017896,
            0.25963281881211964,
            0.06475121018517309,
            -0.034305358696769955,
            -0.8304846148984643,
            0.21947312500526067,
            -0.16021819622980857,
            -0.4374317642846135,
            0.2794745294096768,
            -0.013448895683809322,
            -0.7052237919351159,
            -0.10346279300647095,
            -0.07754080658204898,
            -0.5190944349589558,
            -0.7686190619774864,
            -0.18541632735554922,
            0.39974623280643184,
            0.28818918437183355,
            0.22541372401168155,
            0.17713003715480824,
            0.3057200499009926,
            0.09887448169876674,
            -0.12592166869577845,
            0.2056114566553483,
            -0.31053413638142746,
            -0.18386206574157596,
            0.28222491328500166,
            -0.6657149552796522,
            0.07759353620590002,
            -0.1533435711125006,
            -0.7087680961817323,
            0.3018488868041384,
