{
  "engine": "nn",
  "version": 2,
  "feature_encoding": "ray_wall_body_inverse_v1",
  "feature_profile": "full_wall_body",
  "state_size": 16,
  "epsilon": 0.005,
  "epsilon_decay": 0.995,
  "min_epsilon": 0.005,
  "gamma": 0.95,
  "learning_rate": 0.0005,
  "hidden_layers": [
    64,
    64
  ],
  "batch_size": 64,
  "replay_capacity": 10000,
  "target_sync_interval": 200,
  "seed": 42,
  "training_steps": 257010,
  "last_loss": 0.04224906224365135,
  "network": {
    "layers": [
      {
        "weights": [
          [
            -0.11643419133765662,
            0.2350775012776145,
            0.31737997847361615,
            0.592320072574981,
            -1.241053137773951,
            -1.0562697547321924,
            -0.44146443533341356,
            -0.2671953092666875,
            -0.0486143266494497,
            -0.837438059922301,
            0.10911525815537772,
            -0.08156650867933125,
            -0.5634589111813546,
            0.5056211069632947,
            -0.3861562407875477,
            -0.12073336074707751,
            0.0823985170181329,
            -0.4211410600458959,
            0.40252241285157897,
            -0.6110005468295775,
            0.06329435547365321,
            -0.32925212323845743,
            0.43873413140895934,
            -0.044877856899349595,
            0.3548884511411724,
            -0.1750217335186645,
            -0.047878047915246615,
            0.34897283296642734,
            0.322677327010662,
            -0.31302493934686865,
            0.6674358258414366,
            -0.07978069573350846,
            -0.1597017939552954,
            -0.8239498313260095,
            0.2609382945322365,
            0.31578139794584853,
            -0.058959962490247826,
            -0.28227700401749567,
            -0.26166236775961393,
            -0.20306830621041075,
            0.6016955506188391,
            0.06636985053429073,
            -0.3892834748745316,
            0.042008644652644554,
            0.40279966418869545,
            0.18423976941742634,
            0.8187462551388706,
            -0.28034021490795563,
            0.3524586178281926,
            0.13406998496855485,
            0.02625885176622074,
            0.05543823148647573,
            -0.2897176004897122,
            0.16950297204737014,
            0.41054475830283077,
            -0.14595892234315372,
            -0.431123658588674,
            0.6858657975285183,
            -0.04344180439680754,
            0.406716029247437,
            -0.9259168522433541,
            -0.45814593169340345,
            0.2307615543668975,
            0.5612131236742149
          ],
          [
            -0.16536484623060893,
            0.38552925763496265,
            0.2875537436522734,
            0.22232177757947125,
            0.0264708633743778,
            -0.05953475567309405,
            -0.873767681570719,
            0.23395563440016787,
            -0.6752125255616219,
            0.30721366423472113,
            -0.2820182715204678,
            0.5108538297117132,
            -0.03027817825051545,
            0.20808810900056238,
            0.850955110562683,
            -0.2453512581658915,
            -0.2610746158077687,
            -0.2132139736648202,
            -0.2204209537277834,
            -0.5474643618805045,
            -0.6182919417755343,
            0.08006555082028208,
            -0.45150837187132037,
            -0.015420137362896949,
            -0.476169540333262,
            0.17755755751783828,
            0.26406422055462053,
            0.1539818763740894,
            -0.128934941478776,
            0.06859614441616503,
            -1.0090166879794389,
            -0.12282973338871432,
            -0.18784924539472847,
            -0.021293324558365304,
            -0.04407256704825353,
            -0.24379615066464502,
            0.30414135795530595,
            0.7445917588652863,
            0.026827727009972557,
            -0.05459202893036703,
            -0.42405589730434473,
            0.0943080528688591,
            -0.18103501052131157,
            -0.37244174715604367,
            0.5160069216193761,
            -0.23307687698472512,
            -0.23227067592876519,
            0.48596106479008905,
            -0.5898560858758266,
            -1.0168328902187678,
            0.6195649593876823,
            -0.8513817524821086,
            -0.18201771728961708,
            0.06948006955610964,
            0.732873304628128,
            0.1856374775866119,
            -0.3788344635995823,
            -0.31421054985497004,
            0.20475071141975673,
            0.914024365413052,
            0.7935312599685593,
            0.02896247345006711,
            0.31360927284502554,
            -0.37566918848388475
          ],
          [
            -0.7984036500352212,
            -0.5227929902690748,
            -0.2464211844238453,
            -1.2405996944044007,
            0.36283490188913087,
            -0.30902527318484807,
            -0.13255920629875656,
            0.22038501789125034,
            -0.30957746042853307,
            0.05842972756154479,
            0.33926447369112844,
            0.7803442527681366,
            0.22921196604497837,
            -0.10624172541758752,
            -0.10043302106869478,
            0.2083658794056527,
            -0.6432274711087398,
            -0.6900650737537335,
            0.18105587771114953,
            0.18826317891784752,
            0.5286944982019713,
            0.03608544023124928,
            -0.15146191928472175,
            -0.8195451473998971,
            -0.5538295108579172,
            0.7433353112770095,
            -0.3373618152145418,
            0.3088061544595009,
            0.038718109796230235,
            0.5541208065112305,
            0.14178137451613193,
            -0.5651990083352483,
            0.09187470416888559,
            -0.4962054815328048,
            0.5647508160872107,
            -0.20023151886428928,
            -0.014285861392692311,
            -0.5605025191897951,
            0.811888884611367,
            0.33656606994851374,
            -0.26624978585581127,
            0.39658604966200744,
            -0.4042373898497864,
            -0.058722567468989816,
            -0.47163451865265327,
            -0.13999783012380723,
            -0.2631503495779472,
            0.1922475873888037,
            0.7886409450477441,
            -0.2845399216415447,
            0.4205677036277475,
            0.0024403762578439916,
            0.2719178838448022,
            -0.07187899040248401,
            -0.17400035330276492,
            -0.0588118902481963,
            -0.12640584099016,
            0.43376965587433186,
            -0.5783673231711991,
            0.36068305224327607,
            -0.3504682991801701,
            0.5029680269008802,
            0.1742654625464085,
            0.4337715812595442
          ],
          [
            -0.16755485021309982,
            0.4980667881994667,
            -1.0110477986795179,
            0.012648710169417625,
            0.33308620527763294,
            -0.18527888300463358,
            0.1320964648391389,
            -0.23215368109819845,
            0.26188018863581214,
            0.3971651813868463,
            -0.1276364521415953,
            0.1732645118785975,
            -0.765258250706891,
            -0.12653790280684518,
            -0.03429772698747515,
            -0.1745562465231941,
            0.4765606930405688,
            -0.22146872193307462,
            -0.22488529290884363,
            -0.532548335504185,
            0.27151979706732876,
            -0.21331584174551102,
            0.23935596962880068,
            0.255513670102421,
            -0.12430664099348945,
            0.832297941854143,
            -0.03842689928315919,
            0.11754189203632993,
            -0.08245983942885679,
            -0.3889243191911318,
            -0.24443060217449727,
            -0.9061358909015155,
            0.37775562682883757,
            0.06820540116000172,
            0.5458437695535048,
            0.501784265076633,
            -0.7178273408250715,
            -0.05978241970516302,
            -0.12629963188836232,
            -0.5255184954040935,
            -0.16474050147204278,
            0.08013060039363926,
            -0.24507409992951948,
            -0.20830707192150766,
            -0.9316177570205721,
            -0.019597598321998613,
            -0.4351579630821182,
            -0.20160716707786083,
            0.4251715289818475,
            -0.13592242938519158,
            -0.8578465590325747,
            -0.5976384966329785,
            0.4510699713856811,
            -0.080904057053699,
            -0.6617834613546247,
            0.6592945717001152,
            0.6135747277232709,
            -0.7642066648917496,
            -0.8244856680739819,
            0.040502613853096954,
            0.6854616028971993,
            0.07818826656122661,
            -0.20053852309716483,
            0.4570301441052529
          ],
          [
            -0.04078022869510262,
            -0.3993893193948666,
            -0.15472703576217894,
            -0.43621400876095484,
            -0.5585075189813915,
            -0.36432189418426936,
            0.3091095570143746,
            -1.9739560535478915,
            0.3724190198029852,
            0.4364229653407676,
            0.2459766141766542,
            0.45647280164037446,
            -0.2613309108278378,
            -0.3788564207865678,
            -0.2431346538923564,
            -0.09478148866935446,
            0.02340455488141977,
            0.6566092020346941,
            0.5770206294402436,
            0.13994434579288623,
            -0.6967251104440053,
            -0.4079326806483983,
            0.7824664569499447,
            0.46389461787925684,
            -0.6907866184104291,
            -1.3748672727365365,
            0.5445308702993039,
            0.2598135205061367,
            -0.3799113185059859,
            -0.35869501591913644,
            0.1597116437025039,
            -0.03196285889139743,
            -2.711765840722689,
            -0.2874616268499644,
            -0.3579219218382744,
            0.022733742720857243,
            0.4838882076265576,
            -0.916542545209716,
            -0.04274880051241287,
            0.3255364144249454,
            0.328099246194077,
            -0.22310278276638987,
            0.14551836859173642,
            0.00944682653164413,
            0.450130871776969,
            0.027119001528668897,
            0.7126965193784164,
            0.24980977356949025,
            0.20544678281186318,
            -0.21020955426764407,
            -0.4493035172813649,
            0.6495927532170743,
            -0.03409508253754477,
            0.38060788145548885,
            0.18104322637844653,
            0.31898562776207406,
            0.7355256266205906,
            0.1033071968797174,
            0.16724997352322188,
            -0.24854789777907996,
            0.16090190654863956,
            -0.05295476304768553,
            0.6281909652011387,
            -0.3258730423965728
          ],
          [
            0.1049815028473986,
            -0.10085104700340769,
            0.5960194031620819,
            0.2965726104952542,
            0.49872795818580007,
            0.3724988660458282,
            -0.740397420179768,
            0.2844693141116486,
            -1.623175994717885,
            -0.6060420435651658,
            0.1959504303440155,
            0.16745190258173226,
            -0.15986604571787227,
            -0.6433975995124803,
            -0.10087778496654973,
            -0.20064271262543246,
            -0.38656882996318975,
            -0.10923467818276321,
            -0.04601522831525867,
            0.057301991538884336,
            -1.189183473414112,
            0.047019765188972884,
            -0.009637383862632935,
            0.07855970388402848,
            0.7910770365001732,
            -0.7046321910854111,
            -0.7185297597893658,
            0.3583472898564855,
            -0.3072002907124456,
            0.5073930506924879,
            -0.0872970587898692,
            0.38106827105244473,
            -0.23501881744418063,
            0.2265597285536999,
            0.06742352675636576,
            0.21182704585146342,
            0.19426892769377987,
            0.24573106223749366,
            -0.3159173654502025,
            0.15434034638434052,
            -0.5038509696278533,
            0.2299653156886399,
            0.4325577719594148,
            -0.7356965486506123,
            -0.03749572069355452,
            0.79282887459603,
            -0.4409794271334162,
            -1.377540971072866,
            -0.0033610856095820205,
            0.38275248292920777,
            0.1027819317670715,
            0.5330996870857825,
            0.2906717242729387,
            0.5017786223692283,
            0.3775985520782385,
            0.43555497891453676,
            -0.27180831069589223,
            -0.28076613194221905,
            0.37007337278191466,
            0.14996734324196964,
            0.36685226979418134,
            0.4937616564672577,
            -0.2168807699236308,
            -0.2755523862743338
          ],
          [
            -1.1672986567097225,
            -0.535376798733877,
            0.3967944070579346,
            0.3314156199345219,
            0.2289747387007094,
            -0.42114478386111853,
            -0.6418698922009249,
            -0.04052431899705619,
            -0.6883109567541008,
            -0.025522087288120165,
            -0.20209998198875498,
            -0.07403379670236991,
            0.34766858685450325,
            0.21758862257431477,
            0.18398497522870724,
            0.1595367204975171,
            0.2688127702218102,
            0.31465634807781456,
            0.46014619308609794,
            -0.11284875171550096,
            0.20800777053423633,
            -0.033744675063718255,
            0.036531408575442535,
            0.2637157206577154,
            -0.3868550933398085,
            -0.5387444142196227,
            -1.6602477559100814,
            -2.416759516311829,
            -0.1959452179470049,
            -0.03545448813782017,
            0.133010557844921,
            -0.05734421707131716,
            0.21010471328171623,
            0.3262753481807823,
            0.057851396097293346,
            0.24964163499803932,
            0.6964842665954717,
            -0.3331615813325721,
            -0.5108542899006001,
            -0.40181328217862516,
            -0.47955084375931434,
            0.03102298106993617,
            0.04806831235555682,
            0.612687853549252,
            -0.32397388790713155,
            -0.12386097353440008,
            -0.5152398978776921,
            0.12451556384789955,
            0.01846933474386284,
            -0.23092928825768563,
            0.26491499499879545,
            0.14274346861596596,
            -0.46562728573580775,
            -0.23374858161121628,
            -1.0873065219508005,
            0.24907814764798325,
            -0.3591896194895747,
            0.18204404351807796,
            0.47694892353302015,
            0.2833605706899204,
            0.09633321259041192,
            -0.2514771203509115,
            0.8939053625402027,
            -0.2242620369230981
          ],
          [
            0.22754087569475798,
            0.44245487867074185,
            -0.3873409077769674,
            0.07513552315817096,
            0.4800380015164423,
            0.5968201802370133,
            0.08527141915817994,
            0.0723687247964921,
            0.5614342219683837,
            -0.26997676701781836,
            -0.020247403295758512,
            0.14470121553902587,
            0.028623263880873873,
            -0.5090206856577497,
            -0.6079741878013213,
            0.01380466891584918,
            0.12727516313028917,
            -0.43116986775031235,
            0.04608632460516101,
            0.8646719963551837,
            0.35005377455876513,
            -0.814173111289309,
            0.09422910603525017,
            -0.6543093863863821,
            -0.06744564705254705,
            -0.2616221084241207,
            0.17167793754781693,
            -0.2944685753363915,
            0.5087788346220932,
            -1.2710367561541196,
            0.08828496657193695,
            0.6716837582473402,
            0.34475245836327956,
            0.81169082941397,
            0.07782648381482869,
            0.0626336306369534,
            0.04403000483193854,
            -0.11704826920712649,
            -0.2444182904217102,
            0.3040856737129365,
            -0.07371282894040741,
            0.37086787045880426,
            0.0936562864104087,
            0.2513407670376794,
            0.36606847247658597,
            0.1016720659206078,
            -0.47630412495168983,
            0.486264152845356,
            -0.17904180898299807,
            -0.15954961083745456,
            -1.3027255466956156,
            -0.44382035139874665,
            0.5930216371585217,
            0.19601957035443146,
            -0.31825951430903804,
            -0.5290780790156459,
            -0.5947504131518607,
            -0.13226675138894636,
            0.5631192947329283,
            0.14815525504350363,
            -0.09648169452904314,
            -0.030657645502595865,
            -0.3634259828740016,
            -0.49929032549235713
          ],
          [
            0.6411765762774279,
            -0.7135427680498795,
            0.26404566183539563,
            0.15440477223606378,
            0.16915138412850805,
            -1.8684059984215433,
            -0.0445139397351074,
            1.0913341103841854,
            -0.06793277817462597,
            -1.7206642483947139,
            0.6287039006278778,
            0.1890884424008807,
            0.863336604948705,
            -0.10558304544297334,
            0.5650589257359733,
            -0.4527385498928842,
            0.3353205425262981,
            0.7041687189336467,
            -0.10262116488244384,
            -1.5208851816324458,
            -0.0625434720219732,
            0.15488090332554366,
            -0.4701846335030976,
            -0.2609794003653275,
            0.33056926522107793,
            0.9974084591343019,
            -0.6690972755670829,
            -1.7530336830077797,
            -1.5386960319271656,
            0.6991866301851849,
            0.7599983312724847,
            0.0377890440338635,
            -0.36807049447390483,
            -0.27990107008077264,
            0.44868518711141675,
            -1.7179229266180136,
            0.2673442631541461,
            0.17587542316520915,
            0.3726626137769173,
            -1.153566201236811,
            0.11328670367213305,
            0.7113417570021968,
            -0.12231141462301764,
            0.09087969243279129,
            -1.4308982382086277,
            -2.6113590419876895,
            -0.03122720014198779,
            -2.0834090847415934,
            -2.4036524156660426,
            0.6182740135166517,
            -0.14215894351610742,
            -1.9777345059988038,
            0.5178599737340366,
            -0.1164014202748214,
            -0.35898567617526056,
            -0.05883563127487067,
            -2.539433591998646,
            -0.4942522801330371,
            -2.2935698087033702,
            0.019888841712113733,
            0.5244549192767668,
            -1.8038629173745462,
            0.0017090959452086133,
            0.6255480992991289
          ],
          [
            0.33851161097630816,
            0.3168467620486819,
            -0.7271949309303223,
            0.312618913447995,
            -2.4412772041028554,
            -0.1606367121240193,
            -0.70265762538648,
            -0.8885084382850585,
            0.34726686052212363,
            0.42317895926583315,
            -1.0659876992839445,
            -0.31899317437641633,
            0.3331730539784057,
            1.2114763777610429,
            -1.287823412436732,
            0.6032483783299399,
            0.8442715254078712,
            -0.3113361021830347,
            -1.1889896265991124,
            -0.03730586059247982,
            0.1529345058876292,
            0.643505360105651,
            0.07910078449303426,
            -1.3806987310048375,
            0.23110931037085347,
            -1.640868428674103,
            0.075740648517089,
            -0.26742115618177764,
            -1.95626271968561,
            0.149512194868045,
            0.21915086855334442,
            -0.14098398331578582,
            -0.18933552978632995,
            0.4381462404025635,
            -1.3446340134751018,
            0.15972601506798262,
            -0.6430106141731308,
            -0.5676030331152098,
            0.3968376988126082,
            -2.8889495885201613,
            0.6710808218701187,
            0.7895005721096315,
            -0.6530447015253248,
            0.8712545342025008,
            -0.2905012271193831,
            -0.13538965911734444,
            -0.5519912122874758,
            -1.0271296614565963,
            0.06796587423232184,
            -0.4930028291108541,
            -0.7771828679155042,
            0.36090027920380247,
            -0.39248870435163685,
            -1.494187937134016,
            0.1488979156780538,
            0.31227775819663195,
            -0.3365232234249635,
            -0.205996387476083,
            -0.652403091889463,
            -1.1621968514907839,
            -0.4591514799284034,
            -0.3695711912431596,
            0.13439114129406046,
            0.34754690484169554
          ],
          [
            0.045802227395822695,
            0.5922800695401199,
            -0.032846939984037676,
            0.8856015375353488,
            -0.32201004557538376,
            0.8951166602049995,
            0.2535942956208935,
            -0.6089127961415619,
            0.5625008044495274,
            0.24905010787048373,
            0.7597502201583103,
            -0.25353932856578054,
            0.041803905816874806,
            0.048103088086359894,
            0.7280713128074479,
            -1.9840119253569748,
            -1.338830310630019,
            -0.051164102299799494,
            0.0021683068057208,
            -2.0194664721970437,
            0.355272736274938,
            0.02377644139668223,
            0.16041330206357063,
            -2.570951860715672,
            0.11340836073089999,
            -0.5306136316667991,
            -0.3088787002637342,
            0.0875656726047948,
            0.29013355489555753,
            -1.7001156070012557,
            0.13250273289394437,
            -0.08626069839402688,
            -1.2391927180979438,
            -0.7146151892394229,
            0.35166436326252287,
            -0.417711919081657,
            0.6221077289357413,
            0.7342877394719269,
            0.650749534001148,
            0.1671884210819792,
            0.8831046625740945,
            0.6314323027600178,
            1.423103276681796,
            -1.3485044934113033,
            -0.18943576265498527,
            0.2739397625960656,
            0.7788510610742517,
            0.34713137740963407,
            -0.14335097752926354,
            0.7062766058375889,
            -1.8535280933972136,
            -0.6459056522657408,
            0.2587142278186096,
            -3.323006392459721,
            0.3629304712781141,
            -1.101072062968226,
            -0.11749935479199063,
            -0.1238315960903324,
            -0.7672671335967876,
            -1.441905236513955,
            -0.4218840333856748,
            -1.405819924801799,
            0.10009656352112879,
            -0.4965650220492024
          ],
          [
            0.11609172456313045,
            -0.21805764093623364,
            -0.14324897692550115,
            -0.14990632418650915,
            -0.5827902609096396,
            0.5269465429892607,
            -0.2505114236180373,
            0.22734258489964607,
            -1.119263167210403,
            -0.5050131033095655,
            -0.06796477156509771,
            -0.498961687812464,
            -0.78239795001416,
            -0.8682765410077296,
            -1.459089191271544,
            -0.9004658638222615,
            0.35310921514784444,
            0.10530689875329206,
            -1.670964743952171,
            -0.9239892941965705,
            -1.2016576824392906,
            0.37632190745926203,
            0.5311812904016668,
            0.0400915637447739,
            -2.458890057695915,
            -0.43117862499973025,
            0.29619322146577587,
            0.30522893671898643,
            -0.2384052151516865,
            -0.7495909913971199,
            0.07593680719932933,
            1.0604276669664598,
            -0.17188416253937766,
            -1.150383809563398,
            -2.716276162517845,
            0.05327557229287972,
            0.5567009679363898,
            0.3933102500656984,
            0.4930424092628208,
            -0.49844415483346377,
            -1.0621241849492882,
            0.604530340481449,
            0.9645049317011876,
            -0.06871390462731566,
            -1.1155345266503893,
            -1.3433348193878247,
            0.5534228141650331,
            -0.44639901560763967,
            0.11735384293676963,
            0.663835897740813,
            0.2208723450786083,
            0.3198120522158764,
            -1.7342267895413774,
            0.6019736086992876,
            0.1324038872382296,
            -1.1251242776828498,
            -0.3260571793601213,
            0.6188804418974482,
            0.06746683901040991,
            0.28270743593019126,
            -0.37019245490195274,
            -0.5281999529883311,
            0.7329288461176791,
            -0.11763128930005302
          ],
          [
            -0.15450650882040934,
            -0.052810135322459206,
            0.3943288104149964,
            -0.015822531379563486,
            0.10291076991210664,
            0.713553513075028,
            -0.030893131856347053,
            -0.23579771571744237,
            -0.19209858113614978,
            1.0385085040193243,
            -0.75744020556825,
            -0.08782138547867564,
            -0.15799352214953383,
            0.15231781551636792,
            0.7741367507424628,
            0.46582463109100475,
            -1.4176382243436076,
            0.1731932566555594,
            0.27851246692925824,
            -0.24880530883988453,
            -1.1180569758422287,
            -0.17783126601791,
            -0.16505947916854175,
            -2.1166078195715325,
            0.2604390073516062,
            0.6458316429709352,
            -0.5846290136232961,
            -1.205789706210187,
            0.31322285015204654,
            0.03805236428766023,
            0.6530254338701653,
            -0.41611939590523295,
            -0.0780590296325598,
            0.07148653303503795,
            -1.6647357663334321,
            0.047364362477178165,
            0.13336013040217035,
            0.4396869133690126,
            0.04529833089277069,
            0.5877063851798958,
            -0.265475668601633,
            0.33219626034251576,
            -0.3854473202585258,
            0.1938656949807794,
            0.6335110573323098,
            -0.2216764850517013,
            0.04594720053919766,
            0.23982217532122996,
            -0.01800894252956776,
            0.37097073899425936,
            -0.17430389824671152,
            0.09934569299388554,
            -0.12308755815969602,
            0.9848017234503508,
            -0.11573593279931434,
            -1.4704692275119824,
            -1.6105236864161598,
            -0.4923820566169687,
            -0.9958278883031098,
            0.1633502447662565,
            0.0872352153105633,
            -2.3487541580678637,
            0.17792532629390703,
            0.7469837450763195
          ],
          [
            0.0299983435581684,
            -0.35328044193712616,
            0.46246815964612914,
            0.22586652044087036,
            0.38327319591388337,
            -0.17290235144546237,
            1.163499006248742,
            0.008151405043643437,
            0.04729088882339517,
            0.20721669833358844,
            0.23274978883187125,
            -0.30796149920396154,
            -0.1807892498622277,
            -0.12868640518936872,
            0.7049132983618752,
            0.4584807157298486,
            -0.1268357115838602,
            -0.05069870095592978,
            0.2227617281246184,
            -0.8044183677692142,
            0.5499718536004117,
            0.38837385063182245,
            0.2114237708323192,
            -0.8418089240840202,
            -0.620272713395276,
            0.2775614506556599,
            -0.5813009168351316,
            -0.0626458899594368,
            -0.44662864599057317,
            0.03534477832329162,
            -0.09496243038552321,
            0.38860006776870365,
            0.14547431782297796,
            -0.03141822263910349,
            -0.6648446520446726,
            -0.143442432403179,
            -0.8408883274754226,
            -1.0329734138972078,
            0.020955583735919516,
            -0.03860452357163114,
            -1.62499706102281,
            0.00339938155612303,
            -0.03507454684778169,
            -0.4315834666400213,
            -1.0239266181564421,
            0.1542625229971236,
            0.24445940973368518,
            -0.013526038901573665,
            -0.8465364870654034,
            0.7605449628629148,
            -0.2565965736442027,
            -0.10276677645733365,
            0.3263547434236663,
            -0.0806596487668581,
            0.11827762919421185,
            0.08646735885895031,
            -0.6864773207948508,
            -1.2721326588007142,
            -0.6237669531850172,
            0.09775051949602859,
            0.21011819480846472,
            0.08459390885488362,
            0.0366632615661821,
            0.012484163285285052
          ],
          [
            -0.7554424683662212,
            -0.04960065633602515,
            -0.13499386133826866,
            -0.042605704442921305,
            -0.1402942407176558,
            0.7570561737849584,
            0.5872299740765243,
            0.4516110054445408,
            0.31082597166045844,
            0.038559218751621306,
            -0.2268990503883334,
            -0.1948795561168365,
            -0.32184693334195663,
            -0.12336249235640288,
            -0.05684361993126644,
            0.42916036673380437,
            0.13541213872012853,
            -0.6717102972714013,
            0.25415355024754777,
            0.08696965690178683,
            0.6496966553808187,
            0.4249574980217829,
            0.050445955674466116,
            0.0796945325532435,
            0.13474465669296787,
            -0.41082053904938215,
            0.2400372096483916,
            -0.1806690277154885,
            0.16787795149951934,
            0.30542519473612834,
            -0.023890340134507443,
            0.028696138604104866,
            0.08242214715153236,
            0.14439064916976999,
            0.14045478042067308,
            -0.13332895732306196,
            0.6231883592813764,
            -0.07624430219510102,
            0.38460939570591396,
            -0.10142231768825183,
            -1.1338273834340866,
            0.12242071060569089,
            0.3254356467218637,
            -0.030919916644286886,
            -0.3653873162692093,
            0.11671949263324556,
            0.16171152833058536,
            0.41676629984943986,
            0.28101447803412016,
            -0.24888952479349968,
            0.3160689783751089,
            -0.029839442723309476,
            -0.00824675003267903,
            -0.505172559170244,
            -0.15731122549324236,
            -0.053129995995548567,
            0.3786018591319161,
            0.05820859391610043,
            -0.4507331286186342,
            0.2821113679135448,
            -0.11129873244247523,
            0.20703519338159174,
            -0.04663416744512977,
            0.3560194524393367
          ],
          [
            0.237651370170548,
            -0.3950607149816523,
            0.10121464381205865,
            -1.3335365002221171,
            -0.054611787887656034,
            -0.8661452570333907,
            -0.052497274347457226,
            -0.08667264250227363,
            0.5515275411642209,
            -0.2055120413486816,
            -0.2833445995134463,
            -0.059564433524564975,
            -0.08024020929910464,
            0.09587659202721391,
            -0.28341102410255464,
            -1.2562610148469102,
            -0.25711337418798025,
            0.14808673838908662,
            -0.6734840067152191,
            -0.20793354060138705,
            0.15680075767645596,
            -0.7915696953868739,
            -0.2232683557754845,
            -0.0711901318931792,
            0.35416162880588514,
            0.3403755860184238,
            -0.8468254251545162,
            0.16550027491601085,
            0.7908339868196009,
            0.824021612855839,
            0.18845209998058624,
            -0.42065400163921507,
            0.21910501398897184,
            0.5877841615387993,
            0.15770307809049963,
            0.010275667453402094,
            0.1378613467970089,
            -0.07947638290893345,
            0.021808906210974633,
            0.5333043197953009,
            -0.44080539232199895,
            -0.08521223074437506,
            -0.11712385003742326,
            0.10048450606276661,
            0.20135822772011683,
            0.25822205791384095,
            0.1695047320478445,
            -0.9073193976223186,
            0.0773088512284896,
            -0.7001752971156211,
            0.12834534853275748,
            -0.08571162817509177,
            -0.9040394309466412,
            0.015949031236907676,
            -0.4424022679436684,
            -0.12948297315968774,
            -0.07961106326074638,
            -1.8484756249721737,
            0.3021571842478808,
            -0.024949825595739904,
            0.29347106020176866,
            0.34478893579050196,
            0.13430168160558992,
            0.24231642215036664
          ]
        ],
        "biases": [
          0.4826382620640706,
          -0.0032134258266572372,
          -0.0584290293152976,
          -0.4590673354524301,
          -0.13911029318916157,
          -0.2488220375885301,
          -0.16057306945907232,
          0.06591309207838561,
          0.47125939124821514,
          0.1458717270746467,
          -0.08482140580157024,
          -0.7399258187924883,
          0.29553863128382846,
          -0.07267244924564599,
          0.07323044141190799,
          -0.05119480895639463,
          0.06467275193331035,
          0.2540806123944622,
          -0.3776800906266506,
          -0.12866363464955252,
          0.29743033736539637,
          0.5109866224121367,
          -0.32934497410196206,
          -0.14385688766596208,
          -0.008468644664338552,
          0.3791522744605487,
          0.33667282913861507,
          0.0929135853659819,
          -0.16645433454238057,
          -0.1130112114031751,
          0.22107139526683803,
          -0.2544334200530678,
          0.16730909132058333,
          -0.20759992800878818,
          -0.19226867629201297,
          -0.13026646019213048,
          -0.3051938866910246,
          0.22023053875108575,
          -0.11640767239827557,
          -0.24078501837798616,
          0.1888073157893327,
          -0.35680516565609915,
          0.384061508634927,
          0.25445491274183,
          -0.08915267792840555,
          -0.24804749162117137,
          0.23813691038881968,
          -0.35485546182187444,
          -0.42855712588529365,
          0.15798344826822563,
          0.3889327107629721,
          -0.033002624892880104,
          -0.23581965700078183,
          -0.055861459303805094,
          0.2690365311892969,
          -0.3155740971445469,
          0.2783864329277266,
          -0.15977048163390103,
          -0.46236107953032013,
          -0.6757247646022694,
          -0.4119855592069253,
          -0.2336555038476735,
          -0.33787477737185145,
          0.2475112093246526
        ]
      },
      {
        "weights": [
          [
            -0.2207292675591925,
            -0.8670703350010053,
            -0.790932068393913,
            -0.8900522468970157,
            -0.26706896522575063,
            0.04436774621976961,
            0.08207382444557679,
            -0.04518098935236861,
            0.08419235470293576,
            0.06967884329284604,
            0.0914803829728986,
            -0.753779699427354,
            0.20555859992919584,
            0.05098125430132208,
            0.12240531604177983,
            -0.11463046775015755,
            -0.06865828330297184,
            -0.061384953688994374,
            0.08284254166588984,
            -0.5805499028466967,
            -0.04584216196462317,
            -0.49393896513731717,
            -0.07380156661621841,
            0.4043392318962128,
            0.11993130681126384,
            0.09279480409465934,
            -0.1529026563970552,
            -0.2583287403093084,
            -1.0438179225461655,
            0.41863675260064076,
            -1.0758234124594763,
            0.38272071778910616,
            0.11966837376167551,
            0.20049842690465905,
            -0.4343791960295897,
            0.042092459835998075,
            0.12639086631927965,
            0.06746976696476788,
            0.25034514557225257,
            -0.14348801235770345,
            -0.34714202577477,
            -0.5300987896907203,
            -0.6200080319422473,
            0.25294634130281585,
            0.32552545567052693,
            0.14584414069440307,
            -0.46914582863060056,
            -0.21237820254792888,
            -0.27810378077123266,
            -0.711797825642365,
            0.26513826719708694,
            -0.20695198898067063,
            0.3374716773754753,
            0.6053412277965344,
            0.017697490461291987,
            -0.028544554566368303,
            -0.23738044177085202,
            -0.20063247410304366,
            -0.28426649930862147,
            -0.4388418579869423,
            0.1764088496697154,
            -0.4944521427880227,
            -0.2131049105825629,
            -0.5906055420924049
          ],
          [
            -0.14256557643466516,
            -0.6187339480823117,
            -0.46196463321448106,
            -0.19944007963717947,
            -0.1747535750818101,
            0.2536794775334243,
            0.20673917542728026,
            0.31689977542951037,
            0.4908506803520156,
            0.23217644318987785,
            0.36036827714711583,
            -0.22236759179364554,
            0.19586580354250024,
            0.038848883675418354,
            0.06957561608042923,
            0.4893157579611607,
            -0.5065724373796373,
            -0.4422717457877739,
            -0.03500992977856017,
            -0.8207928356321021,
            0.4665761622085435,
            0.5327702879550269,
            0.2504817561736718,
            0.053997941740263636,
            -0.3262978717359882,
            -0.06756405652436549,
            -0.6611046922576974,
            -0.024873034565848873,
            -0.49291009707910693,
            -0.05691579097299845,
            0.583780165898747,
            0.03249509018203654,
            -0.43080538385024736,
            0.11139249171496221,
            -0.9222770548504504,
            0.18808941150239464,
            0.12061128983858536,
            -0.5150445860318648,
            0.43371179937002924,
            -0.2654398990041656,
            -0.04012605196736213,
            -0.29728545141330165,
            -0.4650902937974945,
            0.22105471357506631,
            -0.20081429990075356,
            -0.19872536174764072,
            -0.3796980801005187,
            0.011258545402083714,
            0.08044809387994316,
            -0.0025846297160437167,
            0.04747639355505846,
            0.32077306696263247,
            0.4762449897821597,
            -0.2983143744315382,
            -0.887292830963715,
            -0.34831734176320883,
            -0.8001118683619247,
            0.07834204984573787,
            -0.14996884004409491,
            0.24907363645293829,
            0.35113871859467694,
            -0.014480765056826475,
            0.17830697608899873,
            0.1718007199821413
          ],
          [
            0.16084924282283822,
            -0.06103001123670197,
            0.30705652512625314,
            -0.1301167841065805,
            -0.39473142924236726,
            0.7515720939830747,
            -0.6852734847318405,
            -0.7594246868889929,
            -0.18320641035154345,
            -0.11599644715489467,
            -0.030174846172870043,
            -1.464520786669385,
            -0.2982779551700432,
            0.044488783347444105,
            0.3662736135179162,
            0.5807989550945196,
            0.41586729053714777,
            0.13644276945400124,
            0.07807006462007421,
            -0.837993995881168,
            -0.05409745979481071,
            -0.8092525364066823,
            -0.10467620220747044,
            -0.009086989876043701,
            0.1503330557113151,
            0.47257665228543183,
            -0.23352081455419,
            0.2791086863837776,
            0.07868839064963513,
            0.22171288743535952,
            -0.49804753677556024,
            0.33467925512062435,
            0.46471629218684196,
            -0.310399491930701,
            0.500530791505768,
            0.07747365197699967,
            0.2693344421638869,
            -0.22948198436967382,
            -0.027302785423428375,
            0.16989485942346685,
            -0.18084609431397414,
            0.1320905120173798,
            0.23023330308741136,
            0.21080749632007753,
            0.05372853093737174,
            0.2507528492761996,
            0.608525188795569,
            -0.29855051898546375,
            -0.08168141697292002,
            -0.09307905853461329,
            0.00696397298576686,
            -0.12565319250378132,
            0.11571745210906896,
            -0.1342531112458612,
            0.0053488702159846455,
            0.08495698062268706,
            0.08207235747469623,
            0.10975598077952667,
            0.018183487819997,
            -1.0151811631182845,
            -0.10012071874336768,
            -0.27739400204799236,
            -0.3395750603191948,
            -0.7695755890318152
          ],
          [
            0.3252357443058662,
            -0.09370042038260692,
            0.18746511817417788,
            0.6694255582637763,
            0.023956666066661993,
            0.3900979290660983,
            0.43638774158212745,
            -0.34846356111330395,
            -0.33159734963346693,
            0.3515398183735336,
            -0.4154953388606492,
            -0.4457530140416622,
            0.4413369473193695,
            0.5551395264461401,
            0.07643567274001925,
            -0.7019769947521729,
            0.11446332336974711,
            0.6547659922274954,
            0.15838839477365177,
            0.41265488871607175,
            0.43184243275712497,
            -0.6263057665605241,
            0.5533882055135269,
            0.6918787911408364,
            0.3300529740008544,
            -0.17438048799193664,
            0.5658625135416362,
            0.1548441010139659,
            0.40498090473592346,
            0.22738429956369283,
            -0.6192315762989361,
            -0.04293128806041642,
            0.12091112743535046,
            -0.544412594135707,
            0.1610353464054563,
            -0.24379086199647065,
            -0.13470409718315254,
            0.23684819509943567,
            0.5443159501813636,
            -0.632004923948022,
            -0.18491537146374198,
            1.0493957145841364,
            0.6385090609477818,
            -0.4529389750012894,
            0.021377833099180257,
            0.31725151792024037,
            0.2041393258229808,
            -0.5232571707745061,
            -0.4747122861148233,
            0.12149985668454792,
            0.23866070200048853,
            0.16731879036231437,
            0.23091918722233068,
            0.32334046136527594,
            -0.3622447413086283,
            0.6084397669185558,
            -0.1528777268377529,
            -0.22166079276295936,
            -0.17786872020993374,
            -0.17795620288352676,
            -0.1472494873666525,
            -0.4521275615376669,
            0.16334455117285468,
            0.4367206142119675
          ],
          [
            0.3067942611041959,
            -0.481690862521375,
            0.08188667180273425,
            -0.31153239838944435,
            -0.1408567014090739,
            -0.1908200067298754,
            0.0016752778455353052,
            0.3058588539811988,
            0.3381046228470488,
            0.03683259957748642,
            0.4176672070828214,
            -0.14477563347356637,
            0.006192633721237612,
            -0.43796170948063357,
            0.07646030140820186,
            0.279894137106191,
            -0.3247163675634655,
            -0.08489683406295075,
            -0.3978970862776928,
            -0.2179123928395483,
            -0.29175508216183976,
            -0.0952498122161136,
            -0.5384928484650597,
            -0.4498448616571321,
            0.27235050599928684,
            -1.2468871267565347,
            -0.2140450526917693,
            0.6278636668080607,
            -0.6280412586961591,
            0.21730429859544828,
            -0.08921182991953601,
            0.14899857569495026,
            -0.5354979359694084,
            0.3333960223417768,
            0.1805001675420232,
            -0.05067185319202605,
            -0.6020989647327213,
            0.11655250423251408,
            -0.05502432745836306,
            0.29898141769657255,
            0.25282138708549545,
            -0.02018089876820007,
            -0.5527394543377591,
            -0.3449446684921567,
            -0.08130509769250614,
            0.22471723305443894,
            0.08206941045204201,
            -0.2974207147418617,
            0.037737158573902946,
            0.15760145567758738,
            -1.5545671240517926,
            -0.3678335938276331,
            0.26238410052891,
            -0.37355485534099847,
            0.25875718251404606,
            0.4339596714771311,
            0.3676559394781336,
            0.17370734441667438,
            0.4517625080487552,
            -0.1772902436173633,
            -0.6326908030446344,
            0.08019696754904469,
            0.12047386261329952,
            -0.11271297071322814
          ],
          [
            -0.18738442782744186,
            0.7507675339529177,
            -0.21389334781667735,
            -0.32742200157366114,
            0.4574549188617218,
            -0.16696706730110425,
            0.5424494488877201,
            0.06718557270303215,
            -0.5582068909361191,
            0.09737122928645149,
            0.3893890099958953,
            0.3503562287774783,
            -0.09717279334709325,
            -0.0886845094710736,
            -0.4055392490218888,
            0.061556462482978476,
            0.16775187616805418,
            0.8715394487635163,
            -0.592503260525636,
            -0.6279248258299011,
            -0.555740671300042,
            0.16203219936706859,
            -0.05344572384416969,
            0.08292403169710315,
            -0.3909957697984657,
            -0.6803769686862289,
            -0.1803567454629865,
            -0.25790653220529774,
            0.12043050876363208,
            -0.31144645370662544,
            0.34237495175887045,
            0.0966601770161677,
            0.15698040154185694,
            0.22005312556313295,
            -0.10052307797669591,
            -0.051817932578014016,
            -0.35899141672339085,
            -0.2953662565864681,
            0.5731455981017648,
            0.0258519933133783,
            -0.3377844016963369,
            -0.6074702181179391,
            0.19545783337503717,
            0.09314336551881004,
            0.5469246677925843,
            -0.7973340796280145,
            -0.38733191570660136,
            -0.20947800356536644,
            -0.5261111169359175,
            0.5583146142970291,
            -1.8940449680172196,
            0.1334837292789396,
            0.1435768919304812,
            0.0188360391984361,
            -0.06721568784085906,
            -0.8076023230168589,
            0.4972063304003237,
            0.4186650056405054,
            -0.9433216446779208,
            0.96538618626836,
            -0.7050727928564943,
            -0.18391626021551505,
            0.15126467497780588,
            0.05516146831965852
          ],
          [
            -0.7448052708563521,
            -1.7522404224726982,
            0.034317595984222106,
            0.4726701864724007,
            -0.6971480906170001,
            -0.10223763135223968,
            0.018736450188765394,
            -1.3041054594938042,
            0.8143333811191773,
            -0.5086939190804631,
            0.1264267934022863,
            0.5262931835911231,
            -0.5793707593150603,
            -0.3455919059120591,
            0.47009688649973047,
            0.32547829149913027,
            -0.1921472704662634,
            0.736671317657963,
            0.14833443910320582,
            -0.03180690676444553,
            0.6295399506831039,
            -0.028494910379855944,
            0.14507562856927375,
            0.3953808074472255,
            0.27668931751236064,
            -0.05160222089306891,
            -0.47511020041121005,
            1.1572739313045977,
            -1.002818683331561,
            -0.5763981691329588,
            -1.2533027688402822,
            -0.21952089719180395,
            -1.1710056218239462,
            -0.04659166057324122,
            0.6412520214010451,
            0.0017750275516211164,
            -1.0449983712253421,
            -0.1276102771415484,
            0.3128676694796011,
            0.2765383536097139,
            0.04524956028907818,
            0.010513843208510539,
            -0.4344087662245021,
            0.0634908478807884,
            0.18991564442671763,
            0.9087950444753956,
            0.24518391695936984,
            1.1567418252184833,
            0.41737041060972235,
            -0.31055367982526416,
            0.8365693552604797,
            0.13509382305494233,
            -1.0467993199255432,
            -0.3967651974498371,
            -0.2039506651417492,
            0.525846933078481,
            -0.504064999957133,
            0.4740733287036238,
            0.3076033718678025,
            -1.382253698314275,
            -0.5637459031875648,
            0.3949004596634492,
            0.1437521475419306,
            0.35298187162208916
          ],
          [
            0.3303887408534961,
            -0.7470630812289604,
            -0.9984648137293773,
            -0.2686706145078084,
            0.4878262689681366,
            -0.1998094568052169,
            -0.7303282277918888,
            0.030976047912884837,
            0.48062906342391876,
            0.14878555017574846,
            -0.3918378482612923,
            -0.07462072902120218,
            0.4238587290765634,
            -0.7707171334149667,
            0.3234805143274487,
            0.07778658945820952,
            0.0326477072659563,
            0.17777143692361225,
            -0.26916827455511383,
            1.1435973494294371,
            0.4641071257949338,
            -0.36297723250628355,
            -0.7571426543108983,
            -0.737138285917851,
            0.2716794339935624,
            -0.24809320664869916,
            -0.6851632086989625,
            -0.8053691784351328,
            -0.7053959000272856,
            -0.0017144730667982807,
            0.12182817668634108,
            0.22422532213333324,
            0.260158609839034,
            -0.017352407542951944,
            -0.01597880176521159,
            -0.17188842474794494,
            0.29851189268240913,
            0.10667859930238667,
            0.868232633382014,
            0.4435777722793221,
            0.32135481170076197,
            -0.8446166797659274,
            -0.10241499018608329,
            0.11808859276947853,
            -0.1114892118198787,
            0.37929203071774586,
            -0.23594779638844451,
            -0.22435024266315592,
            -0.22475936988366743,
            -0.9453112324618589,
            -0.10623898707889949,
            0.21196906229482004,
            -0.24454079686871094,
            0.22618251340762555,
            0.40114312792509693,
            0.38842691806884977,
            -0.2870875430519265,
            0.20326221456178065,
            0.1965105049044103,
            -0.1038073687795592,
            -0.5646215874873958,
            -0.0501240269286678,
            0.47969422119234434,
            -0.5949171719721553
          ],
          [
            -0.2415158009542741,
            -0.07615764079075858,
            -0.1923120372821982,
            -0.2711691623844144,
            -0.24469080964363038,
            -0.1014378168537997,
            -0.09074371628859439,
            0.2953021656406521,
            0.4706770151500761,
            -0.582720781811178,
            -0.36317626663608027,
            -0.2732687865955644,
            0.4599694800460361,
            0.018559513856730346,
            -0.14860621855141629,
            -0.21402418886059,
            0.007580010854742113,
            -0.4718588113793179,
            -0.055908961253936344,
            -1.0756682672923157,
            -0.3085553387144593,
            -0.23045882791799738,
            0.0550825533337091,
            -0.14717740133131918,
            -0.018586979874642636,
            -0.7264019125636378,
            -0.01716391639176383,
            -0.6010955431759535,
            -0.003444207716098915,
            -0.5045443831644563,
            -0.4059260447042383,
            -0.341611975446174,
            0.20004379733609298,
            -0.027461666861352922,
            -0.2644963737169943,
            0.3005585772620119,
            -0.2841802953085433,
            -0.1566439725733312,
            -1.6194460969804243,
            -0.47076921832365626,
            -0.26776120721569346,
            -0.2850538618160967,
            -0.2015727175417904,
            0.5592396663643422,
            0.2979333801322128,
            -0.41278527382782987,
            -0.9986818556232044,
            -0.5026397293991852,
            -0.0939033582224771,
            0.03938272585634708,
            -0.07804682045698787,
            0.45775076917654284,
            -0.004506270352947914,
            0.12064170725248176,
            -0.25556061945285696,
            -0.3387022733054331,
            -0.4306504729948186,
            -0.9086781656298404,
            -0.06678606052918176,
            0.29640867648970975,
            0.2144619003897134,
            -2.239827302195893,
            0.5528210858627692,
            -1.0071720814099556
          ],
          [
            0.1496646653203223,
            0.0539534975055758,
            0.49544395816617853,
            -0.7455665522555172,
            -0.0069769747300802145,
            0.29760229504599867,
            0.5798711559366819,
            -0.2563678383127103,
            -0.180597217898042,
            0.1203559251839193,
            -0.062023875065972095,
            -0.2776559805764414,
            -0.019876373890010866,
            0.1500848609971891,
            0.01359635335761551,
            0.24259811122447755,
            0.7275723999447228,
            -1.0506066537148055,
            0.031061343641247848,
            0.05427933466728071,
            0.3531180958143337,
            0.3014884394170003,
            0.08219837325538701,
            -0.19086648088874802,
            0.6044924204020403,
            -0.11928707719911491,
            -0.7433086339687276,
            0.44802405877567975,
            0.34031663460346184,
            0.25334176789368423,
            0.065367768973682,
            -0.710838471732277,
            0.06546596063507126,
            -0.16252029422527997,
            0.1458687574219725,
            0.46889378902195417,
            -0.8614530749657793,
            -0.9277648474390245,
            -0.403411503987402,
            -0.03904615040720681,
            -0.025197860521046108,
            0.4161493282285688,
            0.20085255284937195,
            0.4363810197218274,
            -0.3379951877700824,
            -0.28897614774823516,
            -0.013594991770818387,
            -0.024371057004505953,
            -0.04743181122200762,
            0.21308160537271315,
            0.010530746483482243,
            0.13448492474932536,
            -0.48541724639539224,
            0.3600158906621121,
            0.25334331283699546,
            -0.512010366369011,
            0.045177845824276086,
            -0.9422090259288352,
            -0.22978745215468716,
            0.05938874764331045,
            0.5020755378419733,
            -0.16024787630934414,
            -0.017702493432312755,
            0.02332451045967346
          ],
          [
            0.3859271382613718,
            0.03282056774218897,
            0.11961992206661556,
            -0.21038110255167555,
            0.11724522232627213,
            0.2556887393708741,
            -0.05878760600859222,
            -0.5362152323148338,
            -0.18211204846792237,
            0.1630009445464029,
            0.1606659920931362,
            -1.1966761575436924,
            -0.523939873620522,
            0.2831646615706604,
            0.08378558612069806,
            0.2875478196365141,
            -0.43816742070492765,
            0.023663866090105228,
            0.1220888446836033,
            -0.2207485037453068,
            0.04614544898914567,
            0.24031762520368294,
            -0.044639829044468296,
            -0.1927851770777382,
            -0.11025946944375883,
            0.31663372877318285,
            -0.19818093510406465,
            -0.2308483581576416,
            -0.7246352591797222,
            0.048661722567395746,
            -0.4053665465791294,
            0.12002921980795539,
            -0.5804307771292138,
            0.4669438676700151,
            -0.16868904450521088,
            -0.1342811987318089,
            -0.29507869782411456,
            0.02429082549339728,
            0.05243396734218453,
            -0.09952829821619816,
            0.08419114821498434,
            0.29633179272331955,
            -0.16454448861927382,
            -0.06564233564796977,
            0.3441039133388381,
            -0.12152563176411181,
            -0.0416912307348152,
            -0.6386182731044528,
            0.3390316561688497,
            0.0889756986138039,
            -0.44585684243481144,
            0.2224376705692402,
            0.0017780560276753304,
            -0.6203719140609286,
            0.16904126623353832,
            -0.08148651293764587,
            -0.13662855731288542,
            -0.6715926948427914,
            0.01367089985967941,
            0.25313728050851353,
            0.05934144252218725,
            -0.06145049507999246,
            -0.2163693227898042,
            -0.2535816380792762
          ],
          [
            -0.2271452841888704,
            0.6581778063157729,
            0.5513352574772693,
            0.5271357463715766,
            0.28160798163349327,
            0.21275558258943866,
            0.09171860274289478,
            0.14403832422076693,
            -0.30255877211830934,
            0.3530627680240279,
            0.22705861128934515,
            0.486285738436251,
            -0.07769661238621407,
            0.6732985774898999,
            0.5157951825056206,
            -0.14981816216391103,
            0.3235688571571634,
            -0.32532354016720144,
            -0.14173693473493876,
            -0.6832707655246867,
            -0.15745304298564294,
            0.4572817558931847,
            -0.6290201236853291,
            -0.6513117155942199,
            -0.07544823875635327,
            0.2725125847426085,
            0.46915076823615093,
            0.27340447679257607,
            0.3827777799256281,
            0.458159288803961,
            0.24508698535745876,
            0.3467988714941674,
            -0.29890443563232943,
            0.5174818259872638,
            0.5042340834960835,
            -0.7006869765044529,
            0.14105142474672283,
            -0.451212754259342,
            0.23475896918717198,
            0.5445759507520721,
            0.3329442634517189,
            0.8342388587067086,
            -0.4388008095080815,
            -0.43131027324508736,
            -0.39941909844640855,
            0.6016566303192908,
            0.2786315911837089,
            0.1244815941285481,
            0.01957860342044078,
            0.04308112827232573,
            -0.27460136714510597,
            0.1473416304351182,
            0.42540141327094305,
            -0.44070139331594665,
            -0.14156608483251001,
            0.5354323071500953,
            0.19732637444477963,
            0.13601018196673806,
            0.1259648213409097,
            -0.32977526687127556,
            0.09008350125867394,
            0.3072182994468047,
            -0.19487880943810718,
            -0.16995311344398434
          ],
          [
            0.27608038991296396,
            -0.06144962758674558,
            -0.13964360118450436,
            -0.23200699945276743,
            0.1940828053009195,
            0.08646207511140516,
            -0.4441471818669797,
            0.2855131399753351,
            0.26411091240665163,
            0.28947336360573017,
            0.6636938691982398,
            -0.8641350413209421,
            -0.008061474524254512,
            -0.15253769891752814,
            0.23976932593303393,
            0.0797619028243761,
            -0.09428149126120267,
            0.09529714942916306,
            -0.13442458991057893,
            -0.4514736279765314,
            -0.6441736850906113,
            -0.43762369818014546,
            -0.1797789145141338,
            -0.660648305716115,
            0.23530410212787806,
            0.33743205604166554,
            -0.09041179447292257,
            0.04213122088904809,
            -0.7171534808725851,
            -0.05140479913900773,
            0.34350170405866937,
            0.2907369194498738,
            -0.1863205898289892,
            0.36277111048815547,
            0.20643380391045357,
            0.3139199463754981,
            -0.2921532093767545,
            0.04252565804479283,
            0.09917013812003461,
            0.22836305718608924,
            -0.5717274212599696,
            -0.6772319494130855,
            -0.008768880542861405,
            0.1666403783292843,
            -0.7484521599256485,
            0.023336483217282104,
            0.41250525228778545,
            -0.3885061375270491,
            -0.4617761641381899,
            -0.7321026271011928,
            -0.349168474229752,
            0.19451644222227474,
            -0.247890818794475,
            -0.04378758536351235,
            -0.00025190893190714874,
            -0.03616170346820874,
            -0.3261944173962488,
            0.3371599467081108,
            -0.2937881148893028,
            0.2813164111926545,
            -0.0007942407351681838,
            0.11540283663288484,
            0.2950890125778587,
            -0.04244679673691635
          ],
          [
            0.07340307869533444,
            0.272096847357709,
            0.1337926086293689,
            -0.40615780135288504,
            -0.5274224536914431,
            -0.029913411069621466,
            0.09540335143996673,
            -0.4114774947123785,
            -0.1597218097787234,
            -0.4300333095774609,
            -1.3839062170280516,
            0.07766499069399056,
            0.03454097543983192,
            -0.8192253416819731,
            0.2237875801867839,
            -0.2852021819962911,
            -0.14953110691374333,
            -0.8623431272639254,
            -0.10734864345259888,
            -0.4000561411695538,
            -0.10158752553853262,
            0.19032128406205495,
            0.3106710906120241,
            -1.2932465361570007,
            0.08824400461905157,
            0.1073276745860185,
            -1.2831330533540035,
            -0.24693760029259323,
            -0.7269810581307988,
            0.11566015930393601,
            -0.13703672724142,
            0.024820046522921455,
            -0.06237723665844904,
            -0.4378474731305232,
            -0.2260215868863087,
            -0.22044247675769243,
            0.12555506666505517,
            -1.8349830238615725,
            -0.035323912420148006,
            -1.1508766987940238,
            -0.3153454471164293,
            0.6649630240180502,
            -0.1539067573017272,
            -0.07372428435926973,
            0.15505188209154477,
            0.262812275327434,
            0.21730917288301738,
            -0.798675809747068,
            0.9457419271813441,
            -0.8839467555635843,
            -0.04079087768441686,
            0.06972668957776994,
            -0.2030836566259261,
            -0.024235447053544773,
            0.15485995924208293,
            0.14804087580971792,
            0.5674498831087665,
            -1.3508083579723338,
            -0.24015254786799453,
            -0.09219952553691126,
            0.013443052670782276,
            0.4855425078305636,
            -0.1339590391000474,
            -0.6716180021403636
          ],
          [
            0.06629987980335607,
            -0.2272361990097322,
            -0.7492478844606427,
            0.6704454270916289,
            -0.12733766155620058,
            -0.33247754063250123,
            0.3367107962666837,
            -0.6288422416690724,
            0.3531299603579194,
            0.32292292531260897,
            0.071777606872661,
            -0.41805606200953876,
            -0.1521656851136443,
            0.5000857357217176,
            -0.3738577907404363,
            0.2574901404638051,
            0.3352485819019225,
            -0.016045702961427235,
            -0.09762693356663761,
            -0.18730865672945812,
            0.14008159714192356,
            0.0439502901001299,
            -0.4843023594279673,
            -0.15763065990065078,
            0.011322821299502529,
            -0.09132221450432189,
            -0.08951544475925881,
            0.24264797718706255,
            -0.8334183740472045,
            0.08223046196871375,
            -0.25030366510052576,
            0.20247424106586112,
            0.3039128826993701,
            -0.14101394715979357,
            0.199204896285007,
            -0.1264222883568661,
            0.3882997864456333,
            -0.4959323022351054,
            0.22126691703434875,
            0.021127398372467958,
            -0.4801263867591612,
            -0.07523579532869866,
            -0.06256696813923676,
            -0.022315686696953697,
            -0.6826746231983221,
            0.13658241821093303,
            0.10131351209401511,
            0.11574926019097448,
            0.7290417932691895,
            0.4829309842808948,
            -0.09827077047092582,
            -0.10141437024680086,
            0.27876567849996575,
            0.09516021540478446,
            -0.08946482991804433,
            0.3675556117158898,
            -0.4153285256680929,
            0.29347619508037653,
            0.19249772506888244,
            -1.3695499600221022,
            -0.05981619688813514,
            -0.3354090043657683,
            -0.5445115406648697,
            -0.5642976071727769
          ],
          [
            0.5093310160011455,
            -0.1144839921605191,
            0.627024988837131,
            -0.7138918734614336,
            0.08564742933846056,
            -0.10170148369258952,
            0.16111923692007835,
            -0.2558291734602388,
            -0.36266349398848446,
            -1.4447739508702946,
            0.14870529756872233,
            0.42037803514755834,
            -0.38384775666657583,
            0.20493774076768845,
            0.07601458637270686,
            0.12896724618197308,
            0.0018393774921758627,
            0.12394804444826178,
            -0.8196762345735372,
            -0.20710199789660796,
            0.042642672545262765,
            -0.029032292874746936,
            0.14031974794861207,
            -1.016137154981423,
            0.36148617274084704,
            0.40049723548402166,
            -1.3393425467856142,
            0.01904979966271497,
            0.9112878722487413,
            -0.34758933366079703,
            -0.1512137598072243,
            -1.1230712470634345,
            0.12735560278229435,
            0.2133939441176522,
            0.2808350208767105,
            0.04374365549180408,
            -0.7907438713906014,
            0.39354142453096086,
            -1.266308287123698,
            0.3291749971331998,
            -0.023245318044730245,
            -0.21247763524414065,
            0.5296351644566442,
            -0.02089176025242438,
            0.08069458745103808,
            -0.01545563892347182,
            -0.20325474496843748,
            0.2738273226393227,
            0.07784397105116901,
            0.04207606471990438,
            0.2874228781907282,
            0.4864556778860478,
            0.35410910513638433,
            0.14069454701818548,
            -0.20758762759775087,
            0.0680722020988246,
            0.5594374107683181,
            -1.6346677516643195,
            -0.09626762320723543,
            -0.50795465669137,
            -0.4617971316434876,
            -0.8665495878107184,
            0.475020310516435,
            0.27016611247109856
          ],
          [
            -0.062062268400501046,
            -0.9865208924415177,
            -0.15159686880885953,
            -0.3718838555460572,
            -0.1664107757126197,
            0.6736286414624746,
            0.15414552981434695,
            -0.5072048172916958,
            0.07628303119908984,
            -0.04244973798674586,
            -1.2883179919021446,
            0.16792059047666794,
            0.027324810307770783,
            0.25399353209132497,
            0.043235125669774756,
            0.11558139876334891,
            -0.15192022317262213,
            -0.3873427722086546,
            -0.16611885917931635,
            0.2802613557995285,
            0.30967252816422824,
            -0.5583245443142542,
            0.1387295397579709,
            -1.1084546044212125,
            -0.4273327693418037,
            -0.9090835072637189,
            0.247155965434312,
            -0.3339897854930841,
            0.524769636168789,
            0.026417529340883796,
            -1.3677646916559476,
            0.11657742713283709,
            0.7186497504929592,
            -0.3465968358098582,
            -0.6113710400120604,
            0.16388555320927312,
            0.12712100416216926,
            0.05743361989521485,
            -0.49660729412343096,
            -0.836499372715527,
            -0.5206345855533104,
            0.11915155639550903,
            0.017770155945430757,
            0.37015545320072174,
            -0.17847100536698945,
            0.1705962335062664,
            0.10794802574167917,
            -0.24147135683711152,
            -0.00059718078909313,
            0.19444368096988301,
            0.19700467928789647,
            0.46346445288075744,
            -0.20187184841560019,
            0.024567324076402247,
            0.20768630650778447,
            -0.1477016709575642,
            -0.5191996233315743,
            0.17433022788535354,
            0.07514954952044418,
            0.15872043025206176,
            0.22485542277724335,
            0.25312644579937466,
            0.029025860273409636,
            0.42979387779873407
          ],
          [
            0.2080845380212557,
            0.028696337229303495,
            0.3965500341280803,
            -0.5364161917057306,
            0.32568360989308653,
            0.03250133668269691,
            0.07687129656252684,
            0.31468006761440687,
            0.07741406439403378,
            -0.6666679118620331,
            -0.12354500901614675,
            -0.2582441958335743,
            -0.29914591941734014,
            -0.11981408936048855,
            0.2188130027157235,
            0.21512229669847321,
            0.23336714814766832,
            -0.29884879392883223,
            -0.04540442853295833,
            0.33214486401383125,
            0.018679887152607048,
            -0.06327135239160721,
            -0.23942343397493776,
            -0.5308278296575445,
            0.35543827005297807,
            0.4487004861744254,
            -1.16153654996821,
            -0.03561056847506316,
            -0.47575403651603804,
            -0.26853744664831103,
            0.3991532460538336,
            0.018348259108201585,
            -0.02997610200086902,
            -0.9487087249944697,
            -0.033064441900375156,
            0.2503238754968622,
            -0.08414025374337328,
            -0.39212407866848864,
            0.24622028673435556,
            0.3756789581163543,
            0.20496314049011988,
            -0.25878535264547947,
            -0.3941532470691686,
            0.39431802647890296,
            0.1818682358900104,
            0.0017560369274527063,
            -0.14558016611373728,
            -0.4613936298494886,
            0.0697622760016914,
            0.049991378060538626,
            -0.03144539331884502,
            0.46447389953884144,
            -0.009180064027589467,
            0.29015663361063143,
            0.8645312934191884,
            -0.15372184629047997,
            -0.25334963702056257,
            -0.2580187773548859,
            -0.1672484872948191,
            0.12438326036388533,
            -0.16191166817856104,
            -0.16735986404013112,
            -0.08815409327587853,
            -0.005715104793495561
          ],
          [
            0.27458913710754296,
            0.6373928573442885,
            -0.31469239457703896,
            0.23695354847857025,
            -0.08195762420329174,
            0.11660069153248954,
            -0.2658514065887541,
            0.22569697797757424,
            0.06888197142064911,
            0.26113923873864225,
            0.4764373252976257,
            0.2477859315468356,
            0.0868123409508968,
            0.35340928381971365,
            0.17547331390438814,
            -0.6258583773446956,
            -0.127489545208379,
            0.012720291457632938,
            0.1958102338344349,
            -0.4804514945171028,
            0.053416158586127825,
            0.1485386643344589,
            -0.48549577851981374,
            0.025767561733398878,
            0.16175693876416528,
            -0.007488564799327907,
            0.2966596123781656,
            0.2232111643796263,
            0.3489512396430187,
            -0.1787317722943011,
            0.28739129563773197,
            0.4900999594099647,
            -0.1606261572795938,
            0.03529209269597606,
            0.22433835421237314,
            -0.12952630125941686,
            0.38908337282860184,
            0.3796988972813222,
            -0.3318791965368515,
            -0.12831429735543984,
            -0.006392056158682057,
            0.18358629631483842,
            -0.02875145366194943,
            -0.5607258531355933,
            -0.026641546258901486,
            0.20286138713730148,
            -0.06665787482456556,
            -0.5896019476578332,
            -0.06840490161338078,
            0.07433152238426313,
            -0.15591833718042916,
            0.5099220284428319,
            0.6828276224567141,
            -0.36643809354089035,
            0.10081231717232604,
            0.03774738574622398,
            -0.8025836024408185,
            0.18557372575882206,
            0.05790104560067193,
            -0.15659148413367235,
            -0.12303565280216994,
            -0.6245562232343258,
            -0.3943282401106636,
            0.15118507578311158
          ],
          [
            0.5377379538072714,
            -0.11135491629755498,
            0.03959501860280102,
            0.4067797013811602,
            -0.6376233968733171,
            -0.042719484384798015,
            -0.1744010642779951,
            -0.06939629682662583,
            0.18307617670689202,
            0.5418520659986674,
            -0.04431486269918154,
            -1.3882559847136202,
            0.24687361031352642,
            -0.6177416435099041,
            0.41987564291110674,
            -1.086246807487937,
            0.014161530811704591,
            -0.06271742540331204,
            0.4669523821411952,
            0.018244173508323133,
            -1.518651881746232,
            0.07190241416715638,
            0.4887547464882753,
            -0.030853827345517882,
            -0.3014418149398934,
            -0.42863788882260107,
            0.6548952197560084,
            -0.13828374572730165,
            -0.6294278708854127,
            -0.0191400144598353,
            0.25405839085524284,
            -0.09959312633957669,
            0.2554083891132101,
            0.372273514719169,
            -0.8739307065528015,
            -0.6199558143775589,
            -0.20465455150940376,
            0.25285923269950333,
            0.2507990108727743,
            -0.7376734435619012,
            0.3134204282235443,
            0.3396139150872647,
            0.5686224936699633,
            0.27489650893183887,
            -0.07293980320814744,
            -0.2150552402761497,
            0.15017038545281206,
            0.4188013266028138,
            -0.31990925543848087,
            -0.16259454145092106,
            0.21143191920513713,
            0.3442130429398123,
            0.4070007778828804,
            -0.0788251796000508,
            -0.38746333903743935,
            0.6707146578694563,
            0.33728769170447803,
            0.2165686115518472,
            -0.6931381151589395,
            -0.3842567933338728,
            -0.3487110277998467,
            -1.1783337319604752,
            -0.4258205431913374,
            -0.22384545165546002
          ],
          [
            -0.32883130413130207,
            -0.11000772384117152,
            0.29092614141600776,
            -0.18799509512450843,
            0.2556625372329472,
            -0.07915990634528373,
            -0.2239126694103596,
            -0.25536410284986777,
            0.3616612134650548,
            0.28003192806104915,
            -0.07781007828191565,
            0.10148474408095493,
            -0.11177433253666295,
            -0.19060904667949433,
            0.4705844416749249,
            -0.19835523690365356,
            -0.27980843729912586,
            -0.1564868807074762,
            0.03880865694989402,
            0.09076090952929565,
            -0.6499746432852246,
            -0.9958579558767273,
            -0.5567844014310677,
            0.3101212825117705,
            -0.26246517553108406,
            0.23716298732325855,
            -0.5428024613024469,
            0.23545054114096658,
            -0.24007039677323305,
            -0.09867776233984939,
            -1.2377981654972465,
            -0.17863825473193473,
            0.5847595108021608,
            0.21876194452050776,
            0.38368139946145746,
            0.07295483470055415,
            0.3725212997511903,
            -0.2579752387770023,
            -0.6245165011053777,
            -0.3856700815790852,
            0.31384603209119133,
            -0.49337517183225393,
            -0.09392932402947642,
            0.12590043528913294,
            -0.4103338125937097,
            -0.2424085909969013,
            -0.2654712655857852,
            -0.2463861115792968,
            -0.6774705232895013,
            -0.16637698533596096,
            -0.2943062868604609,
            0.11566465606460506,
            -0.13638455458007373,
            0.4015389063863246,
            0.0942683804264648,
            0.49528128989024967,
            0.01844406976553456,
            -0.947322719445746,
            -0.21462137814440857,
            -0.21601582996449095,
            0.47019606979582423,
            -0.03297998638066692,
            0.21426042812523524,
            -0.6960691637395353
          ],
          [
            -0.3141955300737079,
            -0.22012693096084024,
            -0.35709451867273484,
            -0.5136198718691016,
            -0.12190390644730324,
            -0.026280541945490836,
            -0.03490363907925921,
            -0.20098486280580186,
            0.191649776098758,
            -0.3215010867936853,
            0.11332838829124778,
            -0.20480855696660433,
            -0.16376733583926992,
            -0.2671462506777037,
            -0.39871538694106384,
            0.20557699267664553,
            -0.04175213501181956,
            -0.5440414935289163,
            0.059949803560872615,
            0.13696356718919803,
            0.05038579067018503,
            -0.7237271707512806,
            -0.0024647674866027985,
            0.0379167761705118,
            -0.28746324823809577,
            0.1756341662388548,
            -0.3761729609938687,
            -0.9149906039979094,
            -0.8002293266644269,
            0.020544956771970026,
            0.046746938918879245,
            0.26889619583968205,
            0.2610358094784404,
            0.21966935337412852,
            -0.16400594574595428,
            -0.06084928132451875,
            -0.5026083482023095,
            -0.2434069622813017,
            -0.2866855198832168,
            0.03357829831042183,
            -0.5357581692407917,
            -1.416540120836112,
            -0.19246438485017614,
            0.37912421788541373,
            -0.2147735607409918,
            -0.20774492378894233,
            0.40515436305386326,
            0.27893953261509613,
            0.08249414664899987,
            -0.47308635521144765,
            0.06815469292721514,
            -0.49424568054955503,
            -0.27928374740297934,
            0.1279032983930905,
            0.524673855212204,
            -0.20778893606753301,
            0.2133408676387937,
            0.0827133455883075,
            0.29129050150044034,
            -0.49491287238674386,
            -0.033771047194245014,
            0.4738674182345713,
            -0.12395952426324504,
            -0.1980296499011593
          ],
          [
            -0.021480598661363877,
            0.15744907209606362,
            -0.07039980957991787,
            -0.14400801297377688,
            -1.236692834789531,
            -0.29940106079298545,
            0.1634846803644461,
            -0.06498028413271492,
            -0.2409326921930779,
            -0.08362293788823193,
            -0.39644021592543316,
            0.34440321358735454,
            -0.3257383050246859,
            0.4717909423474666,
            -0.4959031398809337,
            -0.4050963753050188,
            0.6266561834211706,
            -0.01616940346099317,
            0.07558358328546703,
            -0.056989224914558226,
            0.32555130020218104,
            -0.1846649497937329,
            0.33875200003945366,
            -0.11625852727007888,
            0.7854676384080554,
            -0.09457579047873595,
            -0.003224931890566938,
            -0.7384475273367759,
            -0.10081303224738829,
            -0.494386607038922,
            -0.18927228015230116,
            -0.653123140070858,
            -0.04860507069031468,
            -0.5211440572045197,
            -0.981476190103463,
            0.20924707079569685,
            0.20592364659925005,
            0.3197337644115279,
            0.27504231753005715,
            -0.19452518577845287,
            0.2395846830309354,
            0.21462092373441527,
            -0.8033342771591119,
            0.09009226367344457,
            -0.4146324668227278,
            0.3228023103150668,
            -1.0329571287434611,
            0.12460522456157139,
            0.10482492460147738,
            0.2784401414828716,
            -0.35618816604077413,
            0.19723433181243774,
            -0.33697575821461395,
            -0.40076685805498546,
            0.23014928356975686,
            0.10380252647454269,
            0.258729560890349,
            -0.10369159074085728,
            -0.055692755240653515,
            0.09779903577451635,
            0.12526845528338568,
            -0.019094438056642914,
            0.14207813596757624,
            0.4987540001261808
          ],
          [
            -0.33359274648523934,
            -0.8630790524168548,
            -0.04819486784189192,
            0.05760317833046501,
            0.3680664460660945,
            0.17738188224404378,
            0.09501659492404174,
            0.3813468819852452,
            -0.24455443670476984,
            0.24714194911594067,
            -0.5371295990495967,
            0.25849341657707164,
            -0.12799325205932352,
            -0.22505434142175082,
            0.04433901165034528,
            -0.12655938429633726,
            -0.17422635609228154,
            0.22627658628917166,
            -0.07023607137296685,
            0.1774171192560348,
            0.3864015167618556,
            0.8080605910357348,
            -0.02513673273066246,
            -1.213165852403147,
            -0.2662779406305037,
            0.7899569578103757,
            -0.20442173543747114,
            0.3099355132135695,
            0.6470063588142961,
            0.4311583411451535,
            0.17621113470877806,
            0.031749988305368286,
            0.34261394934198963,
            -0.25647675630855044,
            0.10106607302343934,
            -0.04911576194639834,
            0.5629879500444077,
            -0.28535427769834576,
            -0.7129032422307311,
            0.11172321364356377,
            -0.7606150878124504,
            -0.1539799934788563,
            -0.054026062879420834,
            -0.014519079638564573,
            0.11756660123277507,
            -0.4166780863746734,
            -0.27963221291051876,
            0.8215901736534202,
            0.25744416439698925,
            -0.3239763456783811,
            0.039618947819041204,
            0.22744192283767173,
            -0.028866043022522936,
            -0.37851138572340737,
            -0.1983380669764797,
            -0.5443777993038131,
            -0.20392428102770818,
            0.25218509978102815,
            0.5856588732543759,
            -0.2641521406897033,
            -0.3111951447304773,
            0.21045241851842836,
            0.34063209602541283,
            0.8689183593547857
          ],
          [
            0.5567446554952542,
            -0.2788338763265367,
            0.0764646058389458,
            -0.20964792830463455,
            0.27763772453639607,
            -0.2055550730880178,
            -0.12941503931893467,
            0.33551087197692275,
            -0.035479192707523866,
            0.29931329869747575,
            0.42191633415837615,
            -1.0997832518697876,
            0.4263771355680116,
            0.07730447535440724,
            0.07923322961302444,
            0.07970080035067746,
            -0.19851111997923995,
            0.33257335581745867,
            0.1492527330958224,
            0.19111165895457713,
            -0.42299310306259447,
            -0.2384266031738274,
            -0.727785758392178,
            0.25048211404493576,
            0.3064794254517174,
            -0.024471305780962876,
            0.18606666413678852,
            -0.022516458077353006,
            -0.2817707987880884,
            0.12044480295290222,
            0.2703588686376956,
            0.5490839270157206,
            -0.3362508552213098,
            0.24576971445843063,
            -0.4413932489516948,
            0.1654942488075756,
            -1.0825632749562715,
            -0.0713750274192772,
            -0.5718530588012616,
            -0.1576061190321152,
            -2.8427108349247727,
            -0.504400933935097,
            -0.9457829709519243,
            -0.04356998230329876,
            0.42617680803505376,
            0.11878906077703097,
            -0.8192570211410475,
            -0.508092047010419,
            0.17552049326679492,
            0.1393836060476285,
            -1.9778440482098942,
            0.5696547501427731,
            -0.05567013151867375,
            -0.7915796560042008,
            -0.17171449119196935,
            -0.7084779885899097,
            0.01621018209490607,
            0.1278107502313843,
            -0.32223211791127204,
            0.2614934431000879,
            0.18127308717075785,
            -0.9038681356428944,
            0.39442878013660926,
            -0.38211176193716373
          ],
          [
            -0.4291316111814308,
            -0.24235075039989287,
            0.407578208451141,
            -1.5230267989694186,
            -0.11332176452473502,
            0.4040631422721529,
            -0.09448605207190597,
            0.040771806045773365,
            0.10254318623960412,
            -0.5111391267417821,
            0.37055369602276056,
            -0.1422069127951545,
            -0.44507629850602465,
            -0.4752941753681954,
            -0.08130986354182375,
            0.3995390587090235,
            -0.39615038301328187,
            -1.1248866801953337,
            -0.7079475343269935,
            -0.26871082992787015,
            0.16068646209772822,
            -0.6032959179322009,
            0.037387740372631324,
            -0.5733411256745559,
            0.058534904535517046,
            0.12956905841799535,
            -1.6853329365604182,
            0.0270312033192505,
            -0.5979216028991838,
            -0.0487224232149943,
            -0.017191161399550042,
            0.0048132104655106,
            -0.3114108339924576,
            -0.1965843163538138,
            0.13858655752890323,
            0.20457442312765517,
            0.031871071946697214,
            0.08199232808378194,
            -0.5730843199732539,
            -0.18516197885724447,
            -0.14278647024348465,
            -0.5825388108938608,
            -0.10676819159051819,
            -0.1021776960799912,
            -0.8284075270823325,
            -0.49893055275912285,
            0.0732351364083824,
            0.7070702564170914,
            0.41804799971314344,
            0.1178720356223387,
            0.0756304427144137,
            0.3555042161679578,
            0.3592616031192662,
            -0.08171461389524716,
            -0.5243204374430803,
            -0.09001184352942392,
            0.04611167397156323,
            0.12547295705033437,
            0.28102736005656165,
            -1.1824635536095653,
            -0.6911657355677956,
            -0.40609360388795174,
            -0.2246650054109205,
            -0.8325638844454997
          ],
          [
            0.030160989095608107,
            0.4443445492286168,
            -0.2469017193579643,
            -1.258719267352004,
            -0.08945300614647059,
            -0.008336001628818819,
            0.39785642116851444,
            0.43434124499476506,
            0.16244565743836636,
            0.014109421521757887,
            -0.275654000492632,
            -0.47941280288472476,
            0.23004326886052373,
            -0.07172345346458231,
            -0.0970614892609413,
            0.07296875420966312,
            0.1707279411364256,
            -0.9533662251819632,
            0.1124142159528738,
            -1.2713737058332357,
            -0.3225488556143519,
            -0.002685854562137428,
            0.36265412345836107,
            0.08985141278082553,
            -0.2037315711134285,
            -0.3323233820254189,
            -0.11608753212332776,
            -0.05621494755741911,
            0.015916307037341943,
            -1.8727687371730823,
            -0.08637015096103218,
            -0.11476359230778986,
            0.5076806151519486,
            0.31408824064541474,
            -0.7153338450114428,
            0.23645986898675775,
            -0.47324079625546167,
            -0.33534354905016717,
            -1.7127099697513044,
            0.050623094677625026,
            0.40308240971828946,
            -0.7327151019191532,
            -0.7714785732911273,
            -0.07816240408880135,
            0.23402648022709785,
            0.08309458178832675,
            -2.4396808842460023,
            -0.591923564211757,
            -0.09953474011257506,
            0.1515450158440797,
            0.3827540698023757,
            0.17164865325952558,
            -0.134771284867271,
            -0.2105523253846057,
            0.10526474044795284,
            -0.9207596133316359,
            0.15550731639244428,
            -0.004536005624483504,
            -0.6093757994009238,
            -0.06829202505461605,
            -0.11585913132109713,
            -0.24247673639394443,
            -0.0752279253390344,
            -0.119977609416911
          ],
          [
            -1.0117304689074043,
            0.08103932312374275,
            0.5054009251237334,
            -0.5873991380823882,
            0.39479390433187755,
            0.19159991286519817,
            -0.4637695022593437,
            -0.07916077062214738,
            -0.6175184153891585,
            -0.08181867765511867,
            0.005918460943378295,
            -0.5866115302401078,
            0.22440426423101323,
            0.43841307878136593,
            -0.8863953268695034,
            0.3253795732976279,
            0.24862430208094718,
            -1.2941597364559287,
            0.22460147482361245,
            -0.9743822572619497,
            -0.09211971652250693,
            -0.19156133872100722,
            0.37197468046189364,
            0.2304813679911389,
            0.10571373243513416,
            -0.161762086624701,
            0.26864086414411487,
            -0.03905681973091955,
            -0.34099751109786747,
            -0.5248033424920603,
            0.21018256789167192,
            0.17612061384462316,
            -0.6623786692578828,
            0.08675023663671219,
            0.07884428649179558,
            -0.08570566004859487,
            -0.375599855251319,
            0.15178565453189874,
            -1.153297048795766,
            -0.1886836129961052,
            -0.29995809873481455,
            -0.6070910189074036,
            -1.073469873519344,
            0.0441012742254595,
            0.23407853362617967,
            0.06009195179830193,
            0.6740405153172712,
            -0.44119813776563677,
            -0.05464636571144303,
            0.14760178813841696,
            -0.1814777189460833,
            -0.5458503701392117,
            -0.2605000933657349,
            -0.3254134972467445,
            0.5345216599878696,
            -0.2233348866086571,
            -0.0574068772831483,
            -0.2683236962083221,
            -0.2487559577020069,
            -0.3840556762340382,
            0.17879401401283004,
            -0.3128568186900801,
            -0.1446504686126971,
            -0.569724372895482
          ],
          [
            -1.3465353494718488,
            0.07165871636083496,
            -0.659835387072839,
            0.43100428168375965,
            -0.1782414692960532,
            -0.9477848897325227,
            -0.010205618911520397,
            -0.1286626309027411,
            0.05064835915489179,
            0.08216830960009602,
            0.2368283366764793,
            -0.14085567086021622,
            -1.0327853813022134,
            0.48106914432072556,
            -0.10699171572230642,
            0.25273989725039864,
            0.17512373698081266,
            -1.0414345227086865,
            -0.4273236914138454,
            0.4830857848366977,
            0.8042706797046888,
            0.17690096053254697,
            0.45975272626500224,
            0.41691020623514,
            0.13130022300954838,
            0.9861683893711117,
            0.13956722715342468,
            0.4245964619159254,
            -0.6360030857916436,
            -0.6028942866175547,
            0.4864648871708363,
            -0.3618863635909087,
            0.4754451605454121,
            0.3360151941891105,
            -0.03991277311191174,
            0.3714722476133102,
            0.5860462642671028,
            0.05972204260703334,
            -0.6590682286173097,
            -0.13184433930072756,
            0.30481118337869706,
            -0.14038701450170182,
            0.33357558192061715,
            -0.03384846600608814,
            -0.8842709670693036,
            0.39558584442736694,
            -0.4400663554972692,
            -0.7116522981895959,
            -0.44335128044166394,
            0.24852576454451458,
            -1.6785247099459786,
            0.0924317189245524,
            0.03838464771323415,
            0.27827858698283875,
            -1.1600473909637197,
            0.13826971669607976,
            -0.4318129459188309,
            -0.7851594046579151,
            -0.8958786830491314,
            -0.8191992590633581,
            -0.4787127990743322,
            -1.362176542287249,
            -0.030991833885484082,
            -0.13812103448581783
          ],
          [
            -0.08899364262225919,
            -0.8503135650977983,
            -0.015073615993310072,
            -0.021962469099544076,
            -0.17188450718064566,
            -0.11939678590355356,
            -0.568386750987635,
            -1.9543670945065008,
            -0.07415332703762037,
            -0.2000857615959398,
            0.019021117700764586,
            0.430764692561173,
            -0.2111175795158771,
            0.03679845281959474,
            0.013331543971000703,
            -0.09984594597403264,
            0.03837762785310582,
            -0.6235535890214691,
            -0.7308133893281151,
            0.5630792068615853,
            -0.18785822140442163,
            -0.8349818576994922,
            -0.03793501180308881,
            -1.9837641786028888,
            -0.27775546824490016,
            0.17392184827919377,
            -0.05043803468998043,
            -0.9393560548508175,
            0.28667576742350753,
            0.2832555092037944,
            -0.5350587853175677,
            0.375965559912065,
            -0.07313995990213776,
            -0.029596613592698398,
            0.058741728069754286,
