{
  "engine": "nn",
  "version": 2,
  "feature_encoding": "ray_wall_body_inverse_v1",
  "feature_profile": "green_danger",
  "state_size": 8,
  "epsilon": 0.005,
  "epsilon_decay": 0.995,
  "min_epsilon": 0.005,
  "gamma": 0.95,
  "learning_rate": 0.0005,
  "hidden_layers": [
    64,
    64
  ],
  "batch_size": 64,
  "replay_capacity": 10000,
  "target_sync_interval": 200,
  "seed": 42,
  "training_steps": 251770,
  "last_loss": 0.056751501348850084,
  "network": {
    "layers": [
      {
        "weights": [
          [
            0.15244368196116542,
            -0.6204363316322095,
            0.7254838277701943,
            0.6700817743863828,
            -0.864469345219241,
            0.026857890283126278,
            0.06392020158364269,
            -0.1581212961717911,
            -0.1844749732550747,
            -0.7614610727476391,
            0.2573843568423489,
            0.38202257749107515,
            0.18274318303732623,
            0.033976581498268016,
            0.25789152191003556,
            -0.4786417193119159,
            0.4862760708829001,
            -0.967793898052913,
            0.3605662370413491,
            0.06431416659444297,
            -0.004459039457347961,
            -0.8190531400491244,
            0.5248798593996916,
            -0.18651236668925156,
            0.16824466010097627,
            -0.24086345502526257,
            0.1470223552821066,
            0.04406444399471903,
            0.2707360418439186,
            0.2295634068955747,
            0.946552596400886,
            0.038141106400713616,
            0.17540198774583987,
            -0.5265887766915761,
            0.04846303888554737,
            0.7977182750579905,
            -0.08569618960927898,
            -0.37431507199746256,
            -0.795905150720239,
            0.28508376656896395,
            0.44958058385656474,
            0.27895509949515374,
            -0.2401207833245253,
            0.071128941966326,
            0.4242464282797879,
            0.17592258880869405,
            0.7136372314202283,
            0.026397496933631984,
            0.5029286135754149,
            0.13177504626258518,
            0.3454704108749084,
            0.11160275557081532,
            -1.8449645634517482,
            -0.14494729069161544,
            -0.5419675985882938,
            -0.6479033034607372,
            -0.40976644370743626,
            0.553726570340821,
            -1.676540951737493,
            0.5013511310578805,
            -0.9405034243150614,
            0.022353740064180793,
            -0.25528330772305474,
            0.41779034431765033
          ],
          [
            0.41888355074677636,
            0.3148027557675559,
            -0.5236110032403203,
            -0.45777731480975187,
            0.3963502316708614,
            -0.013756152814206158,
            -0.6378431616689609,
            -0.5666436070017403,
            -0.9824087907161829,
            0.150464499373321,
            -0.20681129945233154,
            0.27582872239760575,
            -0.622695133860284,
            0.2824905593400721,
            0.4074244308599352,
            -0.13664941400366695,
            0.1993520130872017,
            0.07548294208683946,
            -0.9649298635226654,
            0.0014805163554565182,
            -1.5885868356842203,
            0.5047223205547167,
            -0.1851460514039531,
            -0.43491169702673427,
            0.09392240093260133,
            0.2236146798153383,
            0.45895781391637264,
            -0.2472012699247314,
            -0.2960325247755911,
            -0.15433519827194966,
            -1.3248075867504505,
            -0.8397985679782527,
            -0.1609061658057396,
            -0.27665585531062514,
            0.1600411569035567,
            -0.1703751838515178,
            -0.10665612579579545,
            0.959466615210341,
            -0.046164274385066956,
            0.4379419108151758,
            -0.431956772771374,
            -0.09636031208025736,
            -0.004297885463165433,
            -0.19822813811521137,
            0.4223321817890578,
            -0.8084585815501798,
            -0.04712106520062165,
            0.12405334585343547,
            -0.5471681232568519,
            -1.6612130059599908,
            -0.5280301209174029,
            -0.30204546278674743,
            0.07405459316703433,
            0.22360994386204,
            0.8668052026076161,
            -0.3205115994662848,
            -0.57763165531389,
            0.1132111657389187,
            0.2099576501322594,
            0.8512780695415938,
            0.6187365546492077,
            0.29903960020596315,
            0.575368763115397,
            -0.8030313278754285
          ],
          [
            -0.6655787597907341,
            -1.0220832246244338,
            0.16267230418455547,
            -1.3998230912411616,
            0.10207758786026627,
            -0.2632194426238379,
            -0.7354031472513289,
            -0.5077895406037708,
            0.3907928368926543,
            0.42577306466311143,
            0.47994120537728213,
            0.830840049843479,
            0.4331315046997348,
            -1.9695573553843948,
            -1.3876803060649086,
            0.33339844151855136,
            -0.9256046414689751,
            0.11656613289755133,
            -0.20847053511160593,
            0.2829054004917642,
            0.37937985921439954,
            -0.17180239277752024,
            0.02143745211440711,
            -0.39444526327151475,
            -0.5772397948518634,
            -0.48437195563244895,
            -0.18424259144595903,
            0.6165155026468057,
            -0.016508469603508494,
            0.2988312346059998,
            -0.23116885933780845,
            -0.06835253114560874,
            -0.5166464597000939,
            -0.29676201190925605,
            0.7334725715311886,
            -0.3797343058280771,
            0.5151687620312003,
            -0.5776043564597914,
            0.6207461495707257,
            0.24919658259909888,
            -0.5462708941737185,
            -0.02373465698809663,
            -0.017347026208002585,
            0.11746505806561375,
            -0.3527412068888035,
            -0.5932311515652634,
            -0.6876833299653009,
            -0.13244101832133728,
            0.5657623935495304,
            0.2616477718108097,
            -0.03422841749231535,
            0.19388181305422128,
            0.3958385075872578,
            0.1452532511800495,
            0.07227058696543832,
            0.41256475239307894,
            -0.109643271454191,
            0.6395908431778187,
            -0.15504477567064542,
            -0.6729664413792943,
            -1.291250443505003,
            0.5556187487369515,
            0.3846099875510133,
            -0.01806694108983382
          ],
          [
            -0.3700346549279148,
            0.6043575312562105,
            -0.3436862127213435,
            -0.20373106174799563,
            0.15265966007642565,
            -0.6146088879007148,
            -0.002560933360035648,
            -0.08172144926225629,
            0.19978662707917516,
            0.365194846957608,
            -0.12942674210065447,
            0.1896898912445266,
            -0.8203013212427327,
            0.3480768327015981,
            -0.826426724692386,
            -0.7142306466184374,
            -0.9237028514740007,
            0.025874596625650337,
            0.5243944792279741,
            -0.9993163159125708,
            0.1218820384327668,
            -0.4579906666634866,
            -0.32448134548671675,
            0.7782319875130603,
            0.39443690830788,
            0.7073222971538013,
            -0.04085466286795075,
            -0.556192488314565,
            -0.31870430584327897,
            -0.08500007595679557,
            0.06268248851299871,
            -0.665453333257626,
            0.06616184413831905,
            0.26882002214808476,
            0.6820621920207885,
            0.7992183203611285,
            -1.7318467428802098,
            -0.40759752548414907,
            -0.8876269373390493,
            -0.1872008773992386,
            0.221097566824064,
            0.2757672569740826,
            -0.23449232013995047,
            -1.3601744407261052,
            -1.574471682868739,
            0.3543961096767351,
            -0.6686784949054329,
            -0.7660426404248332,
            -0.3092222314624936,
            0.05082657230059216,
            -0.828406383859153,
            -0.8694349139097665,
            0.6707490706572717,
            -0.301073612847456,
            -0.5568183841884562,
            0.6374347050786714,
            1.246945056794497,
            -0.23591875742132032,
            0.1029104479519948,
            0.01930468323808927,
            0.49466495714586867,
            -0.5334664817518151,
            -0.2913367710652184,
            0.17054491269144986
          ],
          [
            0.4591676722251105,
            -0.21602468312435064,
            0.06570980793874771,
            -0.8213877979443553,
            -2.2279539651326923,
            0.48129824643346303,
            0.11608494481312798,
            -0.277663609409508,
            0.09814144707506094,
            0.887997314187863,
            0.37003264225124377,
            -2.000705799758277,
            -0.045771791613756954,
            -0.09317803972954995,
            0.5813016187083491,
            0.34125029835394466,
            -0.24879812980258248,
            1.146294665768765,
            0.729621195876847,
            0.3993418277100672,
            0.041929662834406224,
            -0.015006093691486437,
            0.19640861704544785,
            0.15350643094733052,
            -0.01637608346324051,
            -1.2733410907026759,
            0.6617124743642098,
            0.22920028751940769,
            -0.865449225319772,
            -0.4081553224621265,
            1.0367943656053542,
            0.7036602380753455,
            -0.6674513897891892,
            0.26977914056421204,
            -0.07334227368825993,
            -0.7765400874602496,
            0.6176102660835455,
            -2.0724582322407796,
            0.3119730719360228,
            -0.1954350262177148,
            0.17655638222296993,
            -0.9615580769440314,
            -0.37778891234501905,
            -0.820688500782434,
            0.7438896670071691,
            -0.1991608831728714,
            0.5230274066286782,
            -0.4022324499545412,
            -0.37168388682426884,
            -0.5081685669075241,
            -0.05694195175784681,
            0.7283248465703706,
            0.534791700894413,
            0.8822390855732041,
            0.7255979712471194,
            0.38596760412816344,
            0.9738585728772575,
            -0.6992103200784245,
            0.9927954918948877,
            -0.026313545279041048,
            0.13075118814328537,
            -0.23339233050777355,
            0.45806748149025756,
            -0.30662957172461847
          ],
          [
            0.09707575909254086,
            0.1961487646257473,
            0.7227145778353008,
            0.389542848276912,
            1.018357626950896,
            0.6125826259519707,
            -0.7860201278266203,
            -0.03347658644910042,
            0.10135026795155229,
            -0.5743755529706921,
            0.5952311760230979,
            -0.3200240826036502,
            0.11773669426632782,
            -0.39601761658502616,
            -0.47774153509659495,
            -0.9868361042536448,
            0.1661897498010715,
            0.3782434637668628,
            0.3498158348263867,
            0.45053424376359225,
            -1.8428105526940723,
            -0.8285475344664694,
            -1.5882533506505383,
            0.19598268400172214,
            0.6119936559305494,
            -1.7246041189089354,
            -0.4312350001119576,
            0.5733510709385287,
            -1.6149089197471547,
            0.1836382009938564,
            0.6797289286394785,
            -0.4443081832166641,
            -0.6955897242402521,
            0.6771793068600397,
            -0.12394573376169057,
            -0.07195838095727397,
            0.10250252280355386,
            -0.31584862502044947,
            -0.43109018029601043,
            0.3739839363457208,
            -0.12561233819523465,
            0.4966092846570672,
            0.9361608580982179,
            -0.3198204158592739,
            -0.09275127605676611,
            0.9981013071603344,
            -1.163036848554316,
            -0.5655498925718787,
            -0.20955486047747743,
            0.9793012710557283,
            -0.034440799281992465,
            0.9081254241210027,
            0.3329414494376208,
            0.6308602317605692,
            -0.170645536056365,
            1.072237490124078,
            -0.13895829657072403,
            -0.10279872644444588,
            0.5363045298187324,
            -0.33989259250477283,
            0.11691575125921114,
            0.7230028353979617,
            -0.7706517612153272,
            -0.3508748637302809
          ],
          [
            -0.3865155200667508,
            -0.01599092458070029,
            -0.46467547020654765,
            -0.09326862055696872,
            -0.2452288141061975,
            -0.5690380741270318,
            -1.155051718316322,
            0.027176792695191132,
            -1.4667970244782111,
            -0.14056283265053782,
            -0.1486742409715673,
            0.06466208369079936,
            0.7014686576263767,
            -0.2898664316663669,
            0.2167936266757466,
            -0.33079467132478135,
            0.24299338056441902,
            0.41159943430879176,
            0.5516597721339324,
            -0.08154534218865613,
            0.11051671433056834,
            0.5357876442189737,
            -0.26753132561910214,
            0.9154303872171192,
            -2.13151153514958,
            -1.1702916739196927,
            -1.5386995137113642,
            -0.9241116358571085,
            -0.15615656647401005,
            -0.3360666602391515,
            -0.13479427411943187,
            0.5131650098953243,
            0.9281323032436993,
            1.033140489810031,
            -0.8832277037171907,
            0.5425580235059172,
            0.35741079201673204,
            -0.5023825190189946,
            -0.8487929208902505,
            -1.7701121923039858,
            -1.3641797874272996,
            -0.5832266067783346,
            0.4658135963096947,
            1.1354629794362947,
            -1.1581076272290243,
            0.010639602865905408,
            -0.24222251746553422,
            0.34742233064857225,
            -0.7181604529330521,
            -0.021974002728608756,
            0.826302756328831,
            0.19610479511526346,
            -0.428246620569122,
            -0.44018607857007114,
            -0.2769960487213845,
            -0.5772127074345441,
            -0.34512416515738803,
            -0.08582246568007261,
            0.4432070140303938,
            0.7342035829761115,
            0.4318857901957648,
            -0.9786506207811018,
            0.691862144214554,
            0.10878152291028198
          ],
          [
            0.5501495531890187,
            -0.08574066547271739,
            0.08331075041626662,
            0.3558246463927085,
            0.5148637197363781,
            1.2470107549366927,
            0.03469056756638935,
            0.08009529665853765,
            0.6879456077854892,
            -1.5863078145582112,
            -0.1933934735997955,
            -0.2535207128810134,
            0.2814672477428253,
            -0.40519564497805094,
            -0.7007854733654124,
            -1.0862175122557831,
            0.06790644932777848,
            -0.3398039490555531,
            -0.8163996760079734,
            1.2472101043668578,
            0.23293293538167267,
            -0.07829581693554116,
            -0.6798964943401739,
            -0.2353530831757679,
            -0.24920851650469614,
            -0.28538949551027815,
            0.1723411903558925,
            -0.11326395628398295,
            1.0722032698731228,
            -3.1571072875658817,
            -0.4758342212586831,
            1.2639487044876285,
            0.589502082992044,
            0.44140344807104326,
            -0.10272887580836709,
            -0.07751673617982575,
            -0.35895491550421843,
            0.22915788368201012,
            0.21694333905429275,
            -0.01919008494453934,
            0.11678370611562479,
            -0.03455091341772938,
            0.6129297723073429,
            0.25737802770812385,
            -0.043478966761851985,
            0.4599217188804488,
            0.19106752993269324,
            0.7432892109821285,
            -0.465760799547224,
            0.22910292076939848,
            -2.5313274876523315,
            -1.1418482278422986,
            0.1862224171642979,
            0.683394797488755,
            -0.2135144296276167,
            -1.0321514846493418,
            -0.764294619947202,
            -0.24824925479001897,
            1.1003562184614109,
            0.13155244888937145,
            0.27876771780993004,
            0.45025289164547394,
            -0.7237513613754021,
            0.13090954335075258
          ]
        ],
        "biases": [
          0.2587994369788245,
          0.09747108330113893,
          0.1860387077841576,
          0.15751660928375844,
          0.0008423610389326829,
          -0.16930985491078165,
          0.0,
          0.0,
          0.2268806344248311,
          -0.0606520566909322,
          -0.11641597310065246,
          -0.6151279271922926,
          0.11918158451488944,
          -0.1528166459618621,
          0.28320478568619906,
          0.3097898664947927,
          -0.1944041501447448,
          -0.34556513170143227,
          0.22769592910684758,
          0.23669702253242142,
          0.17276496000563668,
          0.29107968086912256,
          -0.0458294942178849,
          -0.1313158866473801,
          0.1340260840139593,
          -0.2806282002313032,
          -0.1802687586446244,
          -0.15652589899979677,
          0.08977801354691141,
          -0.1551073991799113,
          -0.16484681491075642,
          -0.03604637146286281,
          -0.07941025043767144,
          0.49020708014320324,
          -0.7790604455214963,
          -0.022146728864384978,
          -0.039111135794133674,
          -0.06002815377065636,
          0.3071253297180389,
          -0.4501638293135328,
          -0.1043507629202732,
          -0.1551203699707685,
          0.07578184471014274,
          0.22762079884971412,
          0.19631263122127585,
          0.1726829154948133,
          0.10378785090425048,
          0.06678262925447938,
          -0.13107854008208175,
          -0.04242269929084057,
          0.21377137111438502,
          0.056376049227003296,
          0.07784597907582608,
          -0.4209403432344245,
          -0.006235055470173439,
          0.051841868641139106,
          -0.24187869693951752,
          -0.47033434920525513,
          0.16417763606465577,
          -0.18422952851396107,
          0.25372411166235653,
          0.026187329165426203,
          -0.25526876601860093,
          0.34729536456068444
        ]
      },
      {
        "weights": [
          [
            0.08649793479503227,
            -0.12133555514589853,
            0.04030690812786376,
            0.4196061031284752,
            0.07301315023097378,
            -0.15757095459732212,
            -0.6707897472605255,
            0.18250598387032127,
            -0.04521786826042327,
            -0.3504231913887246,
            0.5600768780121919,
            -1.1378447886675878,
            0.001711749831070451,
            -0.2489837992299443,
            0.16335056173549475,
            -0.6528269232802959,
            0.2627855642958981,
            0.2084966428848102,
            -0.3815844519482483,
            -0.7150796235031007,
            0.12912527951123368,
            -0.03508657303665523,
            -0.29955346995514015,
            -0.4966829300350198,
            -0.17392999520891586,
            0.021718351428857648,
            -0.23741181437021958,
            0.6421005099419438,
            -0.3477572445348155,
            -0.02475417768481922,
            0.28193649440101004,
            -0.4004791945701056,
            0.10553554914916358,
            -0.09427633999201501,
            -0.08740460505705962,
            -0.13498698928594896,
            0.22737329184206354,
            -0.002718131888596364,
            0.4767680991488824,
            0.3879403090824939,
            0.41288880848777326,
            0.5788397887211949,
            -0.17924846105817324,
            0.3264872555637121,
            -0.3850776212215604,
            -0.0920027874102034,
            -0.21881729428226093,
            -1.3952587670491943,
            -0.11461127742360012,
            -0.048618864144754186,
            -0.02850690645522536,
            -0.28053521983240487,
            -0.0660089348632278,
            0.14679692453219334,
            0.28431034774502695,
            -0.38389747817418,
            0.14035590115642158,
            0.08978394230292502,
            -0.6869463819588709,
            -0.6633169433884972,
            -0.05064409064467157,
            -0.2418320148481282,
            -1.1732099009255141,
            -0.2719859161136157
          ],
          [
            0.3541387531706899,
            0.35663230845346483,
            -0.20183293668705715,
            -0.23508302703679368,
            -0.3336190606542676,
            -0.5221170967381575,
            -0.056153902706302786,
            -0.7919796699942084,
            0.16942272707808015,
            -0.14583250363340494,
            0.215132201897126,
            -0.21548038731528205,
            0.42743299694877057,
            0.20024387571860955,
            -0.02648545685590568,
            -0.33181002649362373,
            0.7550657318992188,
            -0.6552776558430405,
            -0.13472096437449083,
            -0.2363620694226109,
            0.024280470190188523,
            0.2437284494450801,
            0.3267791256866127,
            -1.2197521760704286,
            -0.8191425246181446,
            0.14110326836267956,
            0.24750730511764477,
            -0.2884134030571829,
            -0.3929213254269615,
            -0.11929924459664978,
            -0.928995666696302,
            0.34081176353550907,
            -0.4344980991924524,
            -0.05956866162595492,
            -0.4652448423234104,
            0.4949450887043988,
            0.05761803892480287,
            -0.16889940958385904,
            -0.20205348323987019,
            0.166437696045243,
            0.49102827922500514,
            -0.25248941411607434,
            -0.1965397530677906,
            0.289830506830476,
            0.3579091005225694,
            -0.1250195103674067,
            0.2965923918303479,
            0.21209561397080795,
            0.13821252077120527,
            0.05856852939562165,
            0.168602671779169,
            -0.4658725647247474,
            0.3046877402243788,
            -0.458522787636923,
            0.2612435379701555,
            0.41998409647506213,
            -0.5152472275188009,
            -0.3735696079068994,
            -0.9024786394652905,
            0.18760230258083466,
            -0.20178884624212637,
            -0.23216186994155436,
            0.005407854970629577,
            0.09272068046178723
          ],
          [
            -1.0659719900958018,
            -0.007029155197328543,
            0.5217039794960555,
            0.3369515914953734,
            -0.03407679194986221,
            0.352237028849491,
            0.1710525347296514,
            -0.4818455834213017,
            -0.1756583903901967,
            -0.8253540040379982,
            -0.08596483358118658,
            -0.3700266886791921,
            -0.8398861501731542,
            -0.2261371226117207,
            0.0724463493223197,
            0.12562023846422224,
            -0.3093239821661867,
            -0.009294817740383605,
            -0.22872762416958614,
            0.12305717081293283,
            -0.1483273404243309,
            -0.6483466279612281,
            0.14400387107840668,
            -0.16802094673281726,
            0.2080071408060356,
            -0.24716020550784631,
            -0.38121003787709656,
            -0.6266435551474414,
            -1.9906625492319678,
            -0.6679257585220532,
            -0.2634056618591196,
            -0.0698249185907296,
            0.31098281346137713,
            -0.6596907901041754,
            0.10612521490421353,
            0.3571256462030126,
            0.4908186608404095,
            0.2881634133335007,
            0.31226329289715726,
            0.09063265431035115,
            0.12972328216683035,
            0.24062782809968583,
            0.4855048313703825,
            0.09546403236984735,
            -0.7971170286756087,
            0.10718356692080024,
            0.0889897132547321,
            0.18196516178269054,
            0.27373696328555036,
            -0.3704125574841016,
            -0.1587003777564071,
            -0.28049506987440165,
            -0.26263422960725774,
            -0.59655851423475,
            -0.530285773955693,
            0.025120556023900707,
            -0.4680888002067773,
            -0.07979862758956106,
            0.07249166013360124,
            -0.3363529430487944,
            0.043484175495234936,
            -0.2966723043731259,
            0.3427510743266657,
            -0.029566256617994686
          ],
          [
            0.047645763735982075,
            -1.0929092204539113,
            -0.2168537883269794,
            0.276039983226165,
            -0.7108946583297289,
            -0.18303242469104783,
            -0.22819307211549375,
            0.5220186100389974,
            -0.18536192752334948,
            -1.3630279631258693,
            0.4135267395475727,
            0.5008079801984804,
            -0.6824472597661317,
            0.4181169083054904,
            -0.518161502622554,
            -0.20412267221550587,
            0.1430432748557671,
            -0.12262276787362662,
            -1.0698835268224154,
            -0.29247401968592485,
            0.3555477926252375,
            -1.414667436665607,
            0.13418447086108573,
            -0.17309852133407574,
            -0.4784870660925234,
            -0.19430370328648083,
            0.680865663800325,
            -0.962460255526124,
            0.13806923670562307,
            0.40718676004697907,
            -1.2220654392452328,
            -0.5487664927866522,
            0.4287625311508505,
            -0.7145551678239157,
            -1.0551579343023532,
            -0.09689042516077803,
            0.2667454302390825,
            0.3565206592953253,
            0.38368200733426355,
            0.24256650457873516,
            0.3414678624257016,
            0.5055242618852936,
            0.5723781239624137,
            0.42830885543240577,
            -0.8929810786172833,
            -2.203081912003065,
            0.16508103502100915,
            0.5293885867839775,
            0.19378648724494574,
            0.34713005368779837,
            0.159970540673254,
            -0.3109331034095862,
            -0.874993107221779,
            0.6765262294505604,
            -0.8400930824436829,
            0.13987365253286696,
            -0.2781187666841797,
            0.3665566410669486,
            -0.9243250661041943,
            0.05779238095085975,
            -0.25220918848624485,
            -0.5532262208722953,
            -0.7766663807517326,
            -0.10331446015453845
          ],
          [
            0.03823952578775249,
            0.0074428933874857465,
            0.37671750098841655,
            0.11631646056283818,
            -0.03777666333090729,
            0.24546589760165724,
            -0.19055214738544954,
            0.09166376109922159,
            -0.19180705256693964,
            0.1522816680819564,
            0.03666097469994665,
            -0.440528804063397,
            0.15639120255519948,
            0.176819896133276,
            0.38697861824501084,
            0.13637983000309337,
            0.07746162819423817,
            -0.77183920762709,
            0.17995539316134807,
            -0.2675467836763318,
            -0.2214162854849016,
            0.15665820498852834,
            0.3671297704895468,
            -0.03379386225111867,
            -0.34425315492083663,
            0.2263965634722099,
            -0.16391018456118528,
            -0.009771714026913193,
            -0.10906037347095866,
            0.42469197553873467,
            -0.49702798006141524,
            -0.11676852739584831,
            -0.15716332596281551,
            -0.24317617319445492,
            -0.09702583128633989,
            -0.06087488299184563,
            0.16111354398611227,
            0.3924736820253192,
            -0.10094546930534007,
            0.044127469844078705,
            0.22631182565285426,
            0.19154979392364577,
            -0.13825408525922667,
            0.0579294169583186,
            -0.13042719508359496,
            -0.40721879245406334,
            -0.2984024363683406,
            0.32902824544457004,
            0.17670024902410206,
            0.07537201279052877,
            0.44280958873823534,
            -0.33896990397061944,
            -0.17137891585372936,
            0.37222676886374984,
            -0.23629774980006488,
            -1.3751225797568654,
            -0.8726468240672361,
            -0.3596936772244235,
            0.12301451316894738,
            -0.14837775918992413,
            0.011794519673162543,
            -0.529611379622804,
            0.188437326724192,
            0.2611135252590116
          ],
          [
            -0.43416524177902716,
            -0.11323959913717875,
            -0.18024445323276844,
            -0.5617023926359678,
            -0.3997126103252282,
            1.1174392311603325,
            -0.27843031802314006,
            -0.2104468716730777,
            -1.103409308522614,
            -0.7769317559241632,
            0.3079034626673896,
            -0.03659613832771379,
            0.2670357392501891,
            0.25469868326104067,
            0.25331745472729084,
            0.8485359138727576,
            -0.22819077391591736,
            -0.2735740623659606,
            -0.22237990142039987,
            -0.08549530522266001,
            0.15793231674908753,
            -0.7818488337031574,
            -0.1930118739845959,
            -0.3952775478828737,
            0.028759553937284448,
            0.8164575995838272,
            -0.43940879428854984,
            0.12514028618741985,
            -0.1733145198146933,
            0.0042089487004798275,
            -1.5117934958025019,
            0.1590147788689562,
            -0.3290094464228216,
            0.23300677284916488,
            0.355165451895201,
            -0.3064982367373205,
            -0.2280716365864988,
            -0.06079754426235403,
            -0.1777853234660495,
            -0.27626473687492104,
            -0.13804319253530617,
            -0.18296762280952006,
            -1.0718715588409882,
            -0.9843569579711995,
            -0.0015652159340630127,
            -2.1019506822775287,
            -1.8956842008759565,
            0.11097993499584793,
            -0.656722985829007,
            -0.11676404143704965,
            0.33588088567211893,
            -1.761094584083893,
            -1.4407132146888297,
            -0.216424727269942,
            0.22311493308959937,
            0.22557893108807847,
            -0.187304224935385,
            -0.3407119877268535,
            -0.41464074927606503,
            -0.0021634164643510763,
            -0.6147223088957051,
            -0.13881853338849537,
            -0.602534949325086,
            0.17060185366502778
          ],
          [
            -0.11950410526168877,
            -0.15243771917102575,
            0.08465403515804454,
            -0.27146573028002635,
            0.06888841185098084,
            0.0181290129112783,
            -0.02606439611404134,
            0.2807702014404538,
            -0.10999177596816322,
            0.36421270191095345,
            -0.03985102661047498,
            -0.2257467469812965,
            0.012360152464790755,
            -0.19025506984121882,
            -0.13289291444639206,
            0.0701862346994567,
            0.09821396559757221,
            -0.1099847499712563,
            0.17455021846019914,
            0.2046203962431953,
            0.2539046779740132,
            0.09358795255741816,
            0.24102242199505963,
            -0.33248133061636365,
            -0.056198469079699206,
            -0.1532663240176689,
            0.021076353723996136,
            -0.1010189044994427,
            -0.02937283419749459,
            0.3327246552928153,
            -0.03000250473761246,
            0.07314883837202377,
            -0.04105980456277055,
            0.013384344835051713,
            0.0010636088841446407,
            0.07925324680468655,
            0.20599921513829816,
            0.2912208667478323,
            0.054733614877376546,
            0.10421815023579675,
            -0.20344602466801054,
            -0.015534560117667205,
            0.16622126422436398,
            0.15308307412991262,
            0.03740766925611334,
            0.1566937949033234,
            0.08675611697753359,
            0.21218617367895445,
            0.05115195552069896,
            -0.06287917274922779,
            0.05936890754488866,
            -0.5180607890181639,
            0.06768527515436833,
            -0.644954362319336,
            -0.30466816562581117,
            0.0798621603131323,
            0.08441605814921721,
            -0.2054903182708378,
            -0.12588304567734612,
            0.2422797067357919,
            -0.08556524708341404,
            0.39649604064030014,
            -0.0003393852999692237,
            0.07213128691054434
          ],
          [
            0.2858257128763214,
            0.023162540594921167,
            -0.17719105645699587,
            -0.019397256293837966,
            -0.006295148260764625,
            -0.24125451920986493,
            -0.045225148122524206,
            -0.13120226565215776,
            0.1634049095874057,
            0.006118572736492464,
            -0.049991697978244154,
            -0.0187704907956758,
            0.03944277306175744,
            0.10903837583319914,
            -0.176725824031809,
            -0.18412841955663595,
            0.19528154106174095,
            -0.07289154961730397,
            -0.25046466288644703,
            0.07845574409539195,
            0.08191298301070203,
            -0.2705947846179819,
            0.04056701929065946,
            0.1300339481955685,
            0.06618279969646713,
            0.11171959818800466,
            -0.24824205046767145,
            0.05852018461071392,
            -0.05349612101064868,
            -0.0853460487810815,
            0.15389394370516904,
            0.26150125943353997,
            0.31720280839149734,
            0.23242739047481908,
            -0.01939844598966479,
            0.06235270478428794,
            0.13555641315189532,
            0.0214214374199823,
            0.023116061002151248,
            0.14562035639332618,
            -0.010479790252904601,
            -0.12892093453514458,
            -0.07326917886792848,
            0.11206058169001377,
            0.0005291441263886791,
            0.060141195417730046,
            0.11845439402337786,
            -0.06626323507119636,
            0.13368705119062743,
            0.06697054347694924,
            -0.21828617681325008,
            0.25496587459641024,
            -0.08852000098850889,
            -0.29258228516912993,
            -0.18473937342120486,
            -0.18049698925333738,
            0.009223026854937134,
            -0.048410387375777145,
            -0.05954404210976774,
            0.10954886552682316,
            0.060082043164397005,
            0.0558698981280359,
            0.07244812032508506,
            0.10891825046712621
          ],
          [
            -0.9692974149901992,
            -0.32821846532552945,
            -0.1400594966103305,
            -0.05211282293542791,
            0.5244537774039483,
            -0.1677899940998714,
            -0.3732456388099654,
            -0.23243583424378114,
            0.004401528986531033,
            -0.2154101201768609,
            -0.4193394053892231,
            -0.12877998794306048,
            -0.004456015857848387,
            -0.3439800866577569,
            0.3979902002763779,
            -0.11637576124634723,
            -0.31286362535021556,
            0.3023703880484393,
            -0.5668098295677911,
            0.0030220901509193637,
            -0.23062462908152784,
            -0.03664200197106905,
            -0.7137289388294856,
            0.4198552994190154,
            0.42090048255128554,
            -0.07313191228189406,
            -0.0941844401022357,
            -0.03711620644368552,
            -0.2769583088010243,
            0.2557799029653675,
            0.07063855857390249,
            -0.5174676532371939,
            -0.16584257745814773,
            0.23624970963421685,
            -0.6969498818753498,
            -0.9949512080229709,
            -0.7385511895782505,
            -0.07538052382547994,
            -0.15965182822072477,
            0.22052665961164433,
            -0.008687694770150784,
            0.2085594628876481,
            0.22142217672120035,
            0.4503013781206496,
            -0.2507818528333607,
            0.19472769539054902,
            -0.061315534127025846,
            0.2388269797423667,
            0.22091248795535162,
            -0.5771461807851083,
            -0.525503379550716,
            -0.3653316328661146,
            0.18147069953419023,
            0.3105723749864467,
            -0.1415326632624875,
            0.1367778687122317,
            -0.264613862615944,
            -0.21735406161036525,
            0.4029714857981779,
            0.10043906990072415,
            -0.20858505749015294,
            -0.13322096192836289,
            -0.2603360733995287,
            -0.2877737978663249
          ],
          [
            0.17611429605015197,
            0.051686575074268756,
            -0.5095580980318317,
            -0.28378088539729696,
            0.33798165287757803,
            -0.018711972295986014,
            -0.00011221926881586778,
            0.03807458428000137,
            0.3737050254165557,
            0.4216945281521702,
            0.3078202925825301,
            0.18868485759535125,
            0.3599871186615072,
            -0.176338881510635,
            0.3753892753915861,
            -0.15796628580244343,
            -0.2571328768821012,
            -0.17639104031483205,
            -0.04344421947844562,
            -0.04699515633266016,
            -0.03199954788758857,
            0.4210804267112865,
            0.14173811244989878,
            0.11372772389802188,
            -0.9714940690196073,
            -0.21611774351996302,
            0.10870851005681187,
            0.13528777810476403,
            0.3445307775236108,
            0.13832025935010175,
            0.0366456176216248,
            -0.17292649096326526,
            -0.05474488457431773,
            0.42530024467619304,
            -0.7536887292513007,
            -0.17424471234022582,
            -0.15470034971491234,
            -0.24290830250815382,
            0.17885000052262023,
            0.061658899939368905,
            -0.21147546557736543,
            -0.47368086536839765,
            -0.8936913238667765,
            -0.07438531542516114,
            0.09764794037928831,
            0.3368065926636024,
            -0.28386147179538596,
            0.4366093052360689,
            0.0003316433747198355,
            0.1168344922797958,
            -0.18391803369606954,
            0.1582224461698499,
            0.4210067273022238,
            -0.37245179074048124,
            -0.36540980442914867,
            -0.3577086025682936,
            -0.340627172479998,
            -0.5059572724259828,
            0.2104384356417943,
            0.013337187793580394,
            0.18958823178865558,
            0.24511475302096616,
            0.034147396452541195,
            0.17017542436650648
          ],
          [
            -0.571043449814588,
            0.04819065146192712,
            0.25897124182816106,
            0.13323765710921362,
            -0.22091271496128878,
            0.36298262403219134,
            -0.36816421814143857,
            -0.2420483675316168,
            -0.20221727122796868,
            0.17084984100808506,
            -0.32394961714524356,
            0.0177295144555488,
            -0.30811829684019243,
            -0.799921384380129,
            0.5247692823777189,
            0.27781093653722394,
            -0.12398579072413818,
            -0.048233480960680655,
            -0.44861762339071487,
            -0.3106377496406421,
            0.05694057341482319,
            -0.3902121694941555,
            0.07963185957550103,
            -0.3787357531877531,
            -0.11267447956250377,
            -0.11188641699400777,
            0.015121114252815853,
            -0.20277989659059406,
            -0.21496434639507067,
            0.021269747217818463,
            0.14576024098698345,
            -0.584026020209652,
            0.18528094582263507,
            -0.1097629849492334,
            0.10612666748970964,
            0.06377676152427496,
            0.09776950501075138,
            0.15165824645076087,
            0.36161422604706595,
            0.2314820809198344,
            -0.03857819464582922,
            0.05546859414549819,
            -0.011809513365945585,
            0.3754313397716911,
            -0.18298116199542686,
            -0.17437006233261948,
            0.017943048218009613,
            -0.022388536782144506,
            -0.18169818315233338,
            -0.061885740922427095,
            0.18361689531226894,
            -0.18980835418943628,
            -0.2871559563999266,
            -0.44826537453289,
            -0.17156445455437913,
            -0.014855352093154412,
            0.6168248752032712,
            -0.15343750215710683,
            0.1659761635163498,
            0.07647503570165957,
            0.08051267372118086,
            -0.1465268779217519,
            -0.20566101736328932,
            -0.26339685880704417
          ],
          [
            -0.8850153554031042,
            -0.047886311262517224,
            0.1930058734223447,
            0.1509550072102484,
            -0.2954398149705043,
            0.2881893635815897,
            0.23697325987386947,
            -0.9697625102670425,
            -0.27479361023105225,
            0.3732523907516438,
            -0.02703796173822186,
            0.13646241767330394,
            0.25627720770475565,
            -0.2561415355940514,
            -0.04764804875473008,
            0.061382983855662834,
            -0.09565404842121489,
            0.16079354762649825,
            0.09501564994712491,
            -0.003772965093494527,
            -0.07794798465378269,
            -0.2631341406187641,
            -0.26052707654826107,
            0.27358180629501094,
            0.15683297992965567,
            -0.10337074580552971,
            0.3231454089525482,
            0.10814538245141525,
            0.33177587368996087,
            -0.0391436431658937,
            0.11449449179841102,
            -1.7070011498580735,
            0.15619513379012295,
            -0.36561921397929736,
            0.21182605539620264,
            0.41254306593137274,
            -0.338594522436643,
            0.18712393577226002,
            -0.23652388280992315,
            -0.016154029329836388,
            0.0035253117153392004,
            -0.051808941408366706,
            0.2188150192002121,
            -0.11209213598196503,
            0.11252454005459353,
            -0.2587847121801599,
            -0.1688818466028026,
            -0.16227588334091944,
            -0.0022142900678459,
            0.12612556511418427,
            -0.041721332422153215,
            0.4263809828763071,
            -0.25067379043324023,
            0.3430080742211498,
            0.47213943570093864,
            0.4311327921449125,
            0.09820685134909445,
            -0.23859212321453535,
            -0.05665373023430211,
            0.13430445269672625,
            0.05436910823996366,
            0.3028870499378961,
            0.09490641849258473,
            -0.05823326953029342
          ],
          [
            0.441496546355184,
            -0.7088401253166807,
            -0.6980758616350808,
            -0.6814965275199695,
            -0.18828991518055918,
            -0.8481679720366878,
            -0.5868788251996773,
            -0.20066227235144657,
            0.09102365067784564,
            -0.846570843863447,
            -0.03111600617566958,
            -0.4501350269790107,
            -0.8062095145188778,
            0.2015002433148582,
            0.13740004196874195,
            -0.6192972776871324,
            0.12926963855623916,
            0.21522862690191064,
            -0.25627960438704084,
            -0.1475618509764917,
            -0.01734016580565839,
            -0.5487310645515721,
            -0.0858609877306939,
            0.21004871944394915,
            -0.32995411678815856,
            -0.5741788033152492,
            -0.179296199928427,
            -0.07256370285449887,
            -0.31372998722664674,
            -0.7189838161044191,
            -0.45077354604298414,
            0.2260708583509981,
            0.02674216696360416,
            -0.36483693128426875,
            -1.0518071584825006,
            0.0035558969774404105,
            0.4429978021966186,
            -0.8737556812255785,
            0.07148456308257485,
            -0.030165284545465323,
            -0.07030999959867536,
            -0.177627460806994,
            0.2439081409671763,
            -0.217831880352527,
            -0.027851880506013366,
            -0.30278112392650136,
            0.028573715804500684,
            -0.2791020531562912,
            0.16110461799447787,
            0.4051330448461403,
            -0.4088180016947184,
            -1.2328385259238723,
            0.06944338715683497,
            -0.3541675547797526,
            0.9862144160596433,
            0.2990943622399224,
            -0.19908554363773887,
            0.3621252173264646,
            0.5385244367894776,
            0.29770204400492584,
            -0.4707893986671765,
            0.5293426202552795,
            0.2061803696412174,
            -0.10774821392901536
          ],
          [
            -0.6867767271488724,
            -0.3064775938101954,
            -0.07063749656562852,
            -1.815309572289709,
            -0.7109438010373443,
            -1.0826977201005241,
            -0.5229549859816952,
            0.04891484123756088,
            -0.08322096815656074,
            -0.29206764308928734,
            -0.29098731447439663,
            -0.0837298945514655,
            0.18925348283697396,
            0.7390755579467831,
            -0.09853975551719567,
            0.32794039299413447,
            0.14536617570023833,
            0.39370492914085925,
            -0.5838291373832794,
            0.38840894128873416,
            0.43480194324132043,
            -0.16833506780236124,
            1.2889648048155076,
            0.6884647750240742,
            -0.1485889834026118,
            1.1569983395869243,
            -0.7854782541708816,
            0.08146479504345702,
            -0.5829887003055099,
            -0.49956867000559413,
            -0.5244605845699181,
            0.407854999240971,
            -0.9077167388607134,
            0.4630199426120943,
            -0.1516786864464473,
            0.9313943094795069,
            0.871221098268731,
            0.08053203833752572,
            0.6429941577136675,
            0.6413687059471334,
            0.6068078280780473,
            -1.1692262166906513,
            0.9501200881709163,
            0.34599295487512727,
            0.022037403285806348,
            -0.2975688680866919,
            0.33302758544495437,
            0.17120441659276728,
            0.22594748185593944,
            0.04018968872942054,
            -1.2665817729997702,
            -1.5450005975972956,
            -0.18714953908636253,
            0.10047722832756911,
            0.18944350649033023,
            -0.3714102482538921,
            -0.17314397301356008,
            0.9026740996511657,
            -1.119014958864188,
            -0.030357097225829,
            -0.2829208833433013,
            -0.3871773532057654,
            -0.42730277147636986,
            0.1152138826029546
          ],
          [
            -1.524080930601167,
            -0.6362104149402678,
            -0.06621448199773912,
            0.25979277411818696,
            -0.3281117922059255,
            -0.25449879480895365,
            0.05789331196254436,
            0.2966960137515255,
            0.7377040362286958,
            -0.12592748933540673,
            0.051629169370551856,
            -0.9025452174541949,
            -0.4364349661995229,
            0.08251560134311554,
            0.15560116984094954,
            -0.597268776015703,
            -0.004061393910811203,
            0.2948095782458878,
            -0.7072987511590357,
            0.5480591617695966,
            0.7671027658930183,
            -0.38109130647312567,
            0.2908852292263285,
            0.06437978116964431,
            -0.5716539710395999,
            0.01847183172485237,
            0.003965750138426307,
            -1.6955721621596556,
            -0.39216071208183945,
            -1.7565739052927976,
            -0.07702792635950914,
            -0.13770053391694795,
            -0.18607577285672408,
            -0.7556880973425404,
            -0.5254622613033082,
            0.5083600865594843,
            -0.04929241698200084,
            0.35180022458046,
            0.7102878519791775,
            0.183862558627725,
            0.5421561223929312,
            -0.39654249801863606,
            0.17965150764514604,
            0.3120885870163012,
            -0.32819109981852834,
            -0.1748850918568338,
            0.6453568693951786,
            0.11118596892128568,
            0.4421280194348543,
            0.24530403584424806,
            0.39297822204719085,
            -0.5791187488143471,
            0.07557151036984518,
            0.031966421669564406,
            -0.6546614578454649,
            -0.7907489323952642,
            -0.5277791611095283,
            0.07216235155270789,
            -0.6834310911488555,
            -1.0593452791459865,
            -1.0539404885805341,
            -0.44695310384035386,
            -0.8542419943541163,
            0.198881546543113
          ],
          [
            -0.002371598477371525,
            -1.800968658141028,
            -0.1621557104776913,
            -0.677036875779703,
            0.5960280415778899,
            0.13129879714878026,
            -1.5718278981345861,
            0.36223892412350656,
            0.1369882433399004,
            -0.2858025491804425,
            -0.35195927301302754,
            0.42108197468544567,
            -0.6188283544662411,
            -0.23466282489479373,
            0.3410913793855986,
            -0.5447466825312901,
            0.024850491495718094,
            -0.02690852312318932,
            0.11314569993284387,
            0.17032541491221048,
            -1.3312470659390627,
            -0.12798776084179875,
            -1.3128765244641811,
            -0.007783818298201833,
            -0.5232320583783701,
            -1.4929092133118154,
            -0.014504582062890892,
            -0.0628452197843897,
            -0.5574066904285687,
            0.18758614707223017,
            0.6410041772754124,
            0.07743727447894791,
            -0.6077261269116634,
            0.09576146875783387,
            -0.5487780229684086,
            0.1999768180372388,
            0.25870562198120217,
            -0.08300681640848451,
            -0.01739583628610568,
            0.19323251991544058,
            0.20869619879152346,
            -0.2454300897662796,
            -1.3379784352956294,
            -0.28290135477908457,
            0.13832241653334135,
            0.4062094090151534,
            -0.5399708200415727,
            -0.3395191270631432,
            -0.42433035661876933,
            -0.43375469620305845,
            0.17918884921665865,
            -0.5748156434398458,
            0.004020529053790127,
            -0.7609981148638909,
            -0.30208606076708283,
            -0.07572986626782215,
            0.49261929840968516,
            -0.004632920121072562,
            -0.47163009702109954,
            -0.16204917642474384,
            -0.20852249409384535,
            -0.05272421840583183,
            0.9245547637730139,
            -0.16960446757629696
          ],
          [
            0.31282987074029767,
            -0.715095873083126,
            0.5136331516570181,
            -0.9117612457873986,
            -0.9257492834493484,
            0.14117076456787078,
            0.19803839032073556,
            -0.20472067770398128,
            0.6233621095681421,
            -0.11804746255212602,
            -0.8651962645674124,
            -0.6384686943658228,
            0.01742628749846098,
            -1.1027733076585053,
            -0.22615476227880632,
            0.037668284627348586,
            -0.11584364476550585,
            -0.6862509713938287,
            -0.041159564117496356,
            -0.16669164225526992,
            -0.07955448948135928,
            0.13895600934555088,
            0.839221279962103,
            0.3414380587003685,
            -0.8339422166112027,
            0.2022012981151024,
            -0.6972426163373276,
            -0.22994852283678283,
            -0.10426648851665372,
            -0.6822048738983333,
            -0.6483648420016739,
            -0.5607174886842582,
            0.030702915539763873,
            -0.4757358048605077,
            -0.27367061527486714,
            0.6583652489575185,
            0.3840644325645321,
            -0.12929360011437813,
            -0.3234085596905863,
            -0.7755336330305189,
            0.8252503501835265,
            -0.261058467423985,
            0.12675509100537918,
            -0.9428075790043732,
            0.20351227962434162,
            0.06899637039736158,
            0.22588135497375922,
            0.03514662777852172,
            -0.15008526422401888,
            -0.047472640358827756,
            -0.5605154330469863,
            0.10435973118512698,
            -0.3123833989321953,
            0.18800731502716234,
            -0.34076945502526385,
            -0.6373460110448614,
            -0.8694545978285309,
            0.49621665126095765,
            -0.7081962517001692,
            0.10642150868022565,
            -0.16453305510903954,
            0.4265044488111123,
            -0.2463445454507523,
            -0.18872569841103595
          ],
          [
            -1.2697602412441962,
            0.08970392391149525,
            0.4868768499739432,
            -2.5073489435864045,
            -0.3036440349962517,
            0.5971845639650822,
            0.1486528062511404,
            0.23687894505209683,
            -0.3567724253935378,
            -1.735831044831499,
            0.15877013093980763,
            -0.4209259437480886,
            0.10515693005128639,
            0.6315667486204868,
            -0.31934168686918113,
            0.5481080091137824,
            0.921639254374271,
            -1.1518451141632862,
            -0.17684977198465462,
            -1.5019045611622128,
            -0.3201196567756752,
            -0.17905254622481848,
            -0.0004690656995832331,
            0.25035253377533456,
            -0.22151228804073714,
            -1.0103113826881875,
            -0.9645211248496848,
            -0.5151089932279246,
            0.44848268503765815,
            0.15481105123179278,
            -0.10895842931800272,
            -1.5699977225522035,
            -0.1670772864495006,
            0.10021112167441304,
            -0.28738439576382896,
            0.28327434394334794,
            -0.7197383691058808,
            -0.037713603803336555,
            -0.04269005598719092,
            -0.012142387020061748,
            -0.0778035849657136,
            0.2286256006173365,
            -1.5664565989911141,
            0.16609388388111812,
            0.03013020124227155,
            -0.4302404321817633,
            -1.2403758406326222,
            0.3159069464364868,
            -0.17938507021552827,
            -0.18911045660782344,
            0.3657666683197186,
            -0.5411913678292966,
            -0.23910753804371898,
            -0.23696245178361638,
            0.2475449163216609,
            -0.752097511763155,
            0.3430158832055046,
            -0.42441507950541435,
            -0.25909047560484777,
            0.3516810939371246,
            0.8950936670324315,
            -0.45646271512964043,
            -0.09109304993539073,
            0.31789535696176596
          ],
          [
            -0.0057518649329552285,
            -0.30042648250347276,
            -0.004018804829584604,
            -0.11726114148499502,
            0.18275809148061256,
            -0.22431099699259638,
            0.15054370651246302,
            -0.9070474200245666,
            0.2725861985274324,
            0.07960556363643485,
            -0.2235332998997472,
            -0.3450031084175233,
            -0.47741128532112187,
            0.08612644860110247,
            0.17148904007525378,
            0.03399344300371505,
            -0.40111899621449976,
            -0.3245743383520102,
            0.0327175670228988,
            -0.08038497168720127,
            0.09130153961708772,
            -0.34963519207623733,
            0.09540881146591318,
            0.017482480934050717,
            0.11884884326628435,
            0.3109960997487489,
            -0.48800486558238204,
            -0.9480172101293136,
            -0.3061521959461889,
            0.0557225086203861,
            0.11181146725023268,
            0.04527719652476011,
            0.03307580954515265,
            0.38931942609015474,
            -0.2151779636437356,
            -1.3719670209593868,
            -0.5610898313025159,
            -0.45566395183384223,
            0.4095759152752841,
            -0.5230839783424754,
            0.050917043346753565,
            0.3600889722090148,
            0.02531248230513449,
            0.10324681775030539,
            0.21037299391328712,
            0.0928191133799774,
            0.11294958611904496,
            -0.6419133009519681,
            0.33739579884535553,
            0.10337634237394913,
            -0.4959532158505092,
            0.09532730511837877,
            0.17021540831288018,
            -0.2900852034281066,
            0.16434326525756984,
            -0.5803277473458418,
            -0.28513763650490576,
            -0.16083842359150594,
            -0.17071795814895407,
            0.2922490985155461,
            0.03117486957255774,
            0.24193551008591616,
            -0.5712634146109823,
            -0.09856124405637744
          ],
          [
            0.0318568452866028,
            0.09880632726657675,
            -0.06858270785561539,
            -0.5148074675251368,
            0.1299349870654473,
            -0.5345060795442077,
            -0.956570250698216,
            0.19780278843303203,
            -0.6789721809502998,
            -2.099796534635772,
            -0.19161411456337157,
            0.34016712039194386,
            -0.5426913011324334,
            0.31596920823774055,
            0.3040126033603541,
            -0.5007407165642797,
            0.5426329153180981,
            -0.5769242615408637,
            -0.4133392397018455,
            0.19673185822544997,
            0.025619163054670737,
            0.21403306138612008,
            -0.1429996083989463,
            -0.24159570187196466,
            0.1027598201053194,
            0.19191670729311547,
            0.4312241357713447,
            -0.8679829864656354,
            -0.008499878450273154,
            -0.2961540333504392,
            -0.9712127600456457,
            0.4822769245712007,
            -0.04104041322027303,
            -0.0438671192639402,
            -0.13813303464011753,
            -0.041723412666122124,
            0.0484144643574228,
            0.00023946605295556975,
            0.10389256011285404,
            0.4695418553625228,
            -0.38724544012028267,
            0.8369542954492765,
            0.14071217817430984,
            0.14890406487889746,
            -0.2602030344657597,
            -0.19286620968726015,
            -0.1527312414067012,
            0.4211201283868561,
            -0.006433642433355258,
            0.08215135774225814,
            -0.34659642369178983,
            -0.8365349763318225,
            -0.029858398737049898,
            -0.06153780768200376,
            -0.007572605670650082,
            -0.1083642324723919,
            0.0884132306535967,
            0.4283233533286239,
            -0.6159984458235288,
            -0.2648146634205306,
            -0.15965718929152706,
            0.3268363950716058,
            -0.5739004357252913,
            -0.016341703365354752
          ],
          [
            -0.7336803656063021,
            -0.9236724440674459,
            0.15900357260576126,
            -0.1797425301976125,
            0.17831064381423448,
            -1.0745120571396327,
            -0.39334555087796685,
            -0.3405395659192142,
            0.4640282384674234,
            -0.1862342103358759,
            -1.05151028274645,
            -0.32521424077655675,
            -0.62417124537375,
            -0.6696161782866937,
            0.4051130936303199,
            -0.2050034852291472,
            0.13658883159198582,
            -0.07373826933014786,
            -0.6508856360084121,
            -0.5102740435732113,
            0.1704989097394617,
            -0.935399952990973,
            0.07563179217167396,
            -0.3582728874600116,
            -0.12491035534984544,
            0.1408772325870757,
            -0.5093704349387688,
            -1.3908629585200893,
            -0.7055099861607815,
            -0.48399642094256257,
            -0.1333158302631872,
            -1.0493993093218388,
            -0.31007253872089713,
            0.28497954575849643,
            -0.9402566706930768,
            -0.7129844985463797,
            -1.5480541813593316,
            -0.06615606643345182,
            0.06508178883252116,
            -0.10462353104085322,
            -0.4514274076126643,
            -0.03355786022229425,
            0.30895583515787106,
            -0.17270017720404685,
            -0.30604558626525163,
            0.2840312432949617,
            0.25727994584493036,
            0.38808058809741874,
            0.0026524213078352277,
            0.29533348506839546,
            -0.27807737941722166,
            0.13226165359829387,
            0.04324722613541181,
            -2.0104213507382,
            -1.3992874829610096,
            -0.053833590742848575,
            0.0890777902633304,
            0.27289303057204767,
            0.31159192572472266,
            -0.18118186615958418,
            -0.1468196692634564,
            0.016431397902680688,
            -0.696251457908375,
            -0.13724554148521767
          ],
          [
            -1.10298582870751,
            -0.9867734406613766,
            0.06851559840487453,
            0.592755830219003,
            0.20823726261207826,
            -0.6192249498404291,
            -1.254238300349862,
            0.287140341729937,
            0.34179209037955616,
            0.3068086808086032,
            -0.05998327041814516,
            0.800666195651766,
            -1.3649230684543474,
            0.05996770386922775,
            0.4807858682306419,
            -0.1964811134343669,
            0.2465050134675352,
            -0.9851407799829219,
            -0.3443013469158436,
            -0.6613965153281309,
            -0.06477546616041782,
            0.3335069644234074,
            -0.4463180312973512,
            -0.2686706058646396,
            0.7758883867876996,
            0.2535807942359064,
            -0.07294439552661063,
            0.6584507761777081,
            -1.0347256738663653,
            0.06444519228185215,
            -0.5258194863639712,
            -0.20857101326345934,
            0.03676155426710893,
            -0.23535297749647552,
            -2.2747736743601794,
            -0.2890099532861769,
            0.043063613648704334,
            -0.12363584899168191,
            0.2878297535690945,
            0.06684066632928465,
            -0.970208173231079,
            0.07765488962842519,
            0.021315432067029034,
            -0.23324640371481936,
            -0.2079188095485878,
            -0.16502271249177586,
            0.07489986123358809,
            -0.5909695776268925,
            -0.1558537909135611,
            0.19642245781275186,
            -0.5602646515656571,
            -0.32756978728546615,
            -0.11029738407885521,
            0.23498513231205642,
            0.09518818262756079,
            -0.6923762105046112,
            -1.8291211122343953,
            -0.5996268308536011,
            0.7277165857664948,
            -2.5291930452018976,
            -1.1422176637349875,
            0.3008445434576618,
            -0.19422629180998835,
            -0.2675640347410451
          ],
          [
            -1.1534973554234123,
            0.6222688167350736,
            -0.3885955961748118,
            -0.4292052356609174,
            -0.08803329921575688,
            0.05177803197436719,
            -0.10338398914615635,
            -0.16825397254072078,
            0.3830843094676622,
            0.237703580148357,
            -0.7500829154860936,
            0.0505381236061167,
            -0.39820670237195216,
            -0.06543977897384064,
            -0.2451019369294377,
            0.4159739848187942,
            -0.15064751280259664,
            -0.26742735517005206,
            -0.08603235000548612,
            0.07930981722884017,
            -0.193327902443914,
            -0.560634254354135,
            0.06544999883290888,
            -0.3859240297513557,
            -0.004887129253114819,
            -0.41458154786191576,
            -0.03853931926865303,
            -1.0067121653078708,
            -0.2903659184916245,
            -0.11977847662399238,
            0.2762512518058793,
            -0.3878676521831079,
            -0.1724281819112625,
            -0.06992013066552531,
            0.1967385948906277,
            -0.1330788140721076,
            0.22527674167114056,
            -0.9062865844899958,
            0.10211479178821413,
            -0.09802894819601124,
            -0.3109486071768205,
            -0.26668028957661954,
            0.10232015026469618,
            -0.02896715822282403,
            -0.5013662476938978,
            0.16388420966330605,
            -0.0046734074287723025,
            -0.10824354652035897,
            0.02738467828535415,
            0.27724289111732,
            -0.37622842852476635,
            0.20673297751463623,
            0.03351291007059202,
            0.2652163916517384,
            -0.4344255604340931,
            0.2691121144974599,
            -0.2317311671181544,
            0.032433334903519,
            0.10343013368225634,
            -0.008961498694012887,
            0.10484022062784411,
            0.2783475611001024,
            -0.11795473664502067,
            -0.04949654512813223
          ],
          [
            -0.0853518082890763,
            -0.53634263052725,
            -0.014065482871502367,
            -0.016272209797961783,
            0.09000150799663661,
            -0.4316933943656808,
            0.03390923255334165,
            0.1605670681746449,
            0.2153456914471255,
            -0.6029166705918532,
            -0.3989269675554045,
            -0.14517547912354617,
            -0.2668767518122,
            -0.15292064380138212,
            0.23910080238361595,
            0.48865781596014,
            -0.543864408758796,
            -0.36619138405561336,
            0.0371822207629227,
            0.5167627457300759,
            -0.23717186737136053,
            0.06767631015725782,
            -0.052461724148081514,
            0.1274903222854864,
            -0.15773858008678157,
            0.4397784397331738,
            -0.47740192279957994,
            -0.010054425582306046,
            -0.10107496367012589,
            0.22551961794019754,
            0.9354802383927786,
            0.09139239329116071,
            -1.62488209941224,
            0.30884384822694255,
            -0.3954299305820338,
            0.4354803419038329,
            -0.4305025919405817,
            -0.726470721876365,
            -0.06892654079902226,
            -0.6727590833124998,
            0.1926575814899376,
            -0.2357903070721121,
            0.2625409555883665,
            -0.3727031890773868,
            -0.014570116627495919,
            0.2316418556222468,
            0.4187741127763803,
            -1.559658159704388,
            0.3194714505981259,
            -0.1479110536027453,
            -0.08632935748412017,
            0.6598602461830757,
            0.44309902803781526,
            -1.0689505295793345,
            -0.31496301563786006,
            0.4638797623135775,
            -0.42702640876353404,
            -0.8269900997372158,
            0.4089265336924776,
            -0.09487496239037052,
            -1.13976378002216,
            -0.4464788389121367,
            0.007584645005663904,
            0.0830246415675348
          ],
          [
            -0.5629193570411254,
            -0.07774033234885698,
            0.02957316466578884,
            0.263104950797632,
            0.19078009410962446,
            0.6857256056160689,
            0.07723055265733918,
            0.03400751021214519,
            -0.35320145363936317,
            -0.1845080033671728,
            0.03247218447038181,
            -0.5960482427599084,
            0.15546922981554376,
            0.12841190339018782,
            0.020948388584854104,
            -0.014095144688505194,
            -0.3851984550279103,
            0.3698554050495937,
            0.21809467702861682,
            -0.07789154310061697,
            0.07193010760672373,
            -0.20551603260957932,
            -0.04532592986034333,
            -0.17581412459000112,
            -0.5521831317932303,
            -0.08200262959226268,
            0.11318889365581404,
            -0.16075358208859986,
            -0.0017555094187174402,
            0.1886820498909397,
            -0.30987831738259186,
            0.1603571620874067,
            -0.1836612175382882,
            -0.5718841376315171,
            -0.45446090246161175,
            -0.09577386452176287,
            0.4104834174606204,
            0.09666629025114068,
            -0.09477685552834814,
            0.23106347592170876,
            0.16794785815216137,
            -0.1294777423234264,
            0.13866506288002917,
            0.29238003978033045,
            -0.24015778140086844,
            0.3953356785453888,
            -0.22124974666201322,
            -0.8804968265937877,
            0.16101085601951165,
            -0.5957360850553367,
            -0.2305436338298415,
            0.18896152051201973,
            -0.1372506067710629,
            -0.3224319937165514,
            0.13160990034084405,
            -0.506938839518367,
            -0.44346085027637233,
            0.11138876484323923,
            -0.23755462070053027,
            0.2389296389332683,
            -0.29045243626418005,
            0.20210882348171552,
            -0.1209098215090727,
            0.08285045023310024
          ],
          [
            -0.04822681221987255,
            0.5194139230396886,
            0.024664147360429052,
            -1.027781004626853,
            -0.10926465421625595,
            0.09420767918120582,
            0.13811051021930668,
            -0.19246611258322344,
            -0.19531947690718138,
            0.05543459581919411,
            0.2896261086898528,
            -0.31082129897815725,
            0.4839089737143263,
            0.32796256431745824,
            0.2500642423916747,
            -0.05887135061835556,
            0.21137567472956142,
            0.3000776697604368,
            0.2626451772157368,
            0.34862158136023913,
            -0.2939368056266186,
            0.2210674771816781,
            -0.35183832706853085,
            -1.2233025632623924,
            -0.9613964676201245,
            -0.051616880473159106,
            0.2935141639887141,
            0.13960801122538594,
            0.0631441711020993,
            -0.13518172817965654,
            -0.2546107617201734,
            0.3364677230501364,
            -0.5973890793369878,
            -0.944672126014618,
            -0.47057688981147794,
            0.282385343002538,
            0.02348716243492373,
            -0.4419210419496939,
            -0.28503796426145955,
            0.5968344845162269,
            -0.03798720770120626,
            -1.0498171569134684,
            0.19989783246387705,
            -0.13043574686106932,
            0.037800512308079945,
            -0.5636855461573987,
            -0.19204807551250222,
            0.19709007155407435,
            -0.6541859446745041,
            -0.2975902912784043,
            0.09833739881109262,
            -0.5698360161214971,
            0.2225526877367351,
            0.5151900135666393,
            0.5787207957704141,
            -0.4001713727189852,
            -0.03487549193366097,
            -0.014739351504708408,
            -0.23159634139903895,
            -0.26348953699395106,
            0.19978679612219855,
            -0.18243208366074584,
            0.05814737751333709,
            0.009139058414533803
          ],
          [
            -0.6801066694351778,
            -0.1527702863359754,
            0.32028591247271676,
            -1.249088491290092,
            0.17276456200394433,
            0.28423283563724205,
            -0.5425045800342172,
            -0.06679397222575421,
            -0.2647601755683844,
            0.05990784118808515,
            -0.13559270330358522,
            -2.0072053219271297,
            0.5565980858745913,
            0.08050495760018181,
            0.008248136004634558,
            -0.407973482685014,
            0.1044515250295404,
            0.29074013718777125,
            -0.06198141534454911,
            -0.4256088883052911,
            0.01815906445549686,
            0.1342430389576895,
            -0.23595046102443556,
            -0.21918446906839378,
            -1.684162915418002,
            -0.715723949528621,
            0.07214211225138055,
            0.2342017957960045,
            0.2909403623926568,
            -0.168361679422805,
            0.09305123106462618,
            -0.02868553837113299,
            0.20431542197232,
            -0.008403363120572861,
            0.2908190404963666,
            0.1763896134370728,
            0.4195169135591992,
            0.18559511838557494,
            0.03657365199586999,
            0.16012040167854044,
            0.2448906508538474,
            -0.3004071060623876,
            -0.2585822979086295,
            -0.1688123336610843,
            0.3691241629628248,
            -0.135270622843952,
            -0.3078288455480287,
            -0.4084851558489059,
            -0.7304282004400502,
            0.2224942967241553,
            0.12823592297064448,
            0.0445245306755192,
            0.09080624392621132,
            0.0749157456730536,
            0.31635649885064665,
            -1.405400808483022,
            0.058281164026406575,
            0.14420280848303824,
            -0.14733985905581334,
            -0.10349989069186766,
            -0.18505193598343916,
            0.01679098410461516,
            -0.5012546669314625,
            -0.05391215775808028
          ],
          [
            0.41497957460337004,
            -0.025962898645641105,
            0.12704552305307365,
            0.05317261906868024,
            -0.005381261215186335,
            0.03622711714288447,
            -0.5187321694554483,
            -0.11892064919027807,
            -0.012393077684493149,
            0.130627830197521,
            -0.7332225431037713,
            0.37698608742926293,
            -0.3356742017152146,
            -0.40758107171116736,
            0.23264895995491497,
            0.29358952979770464,
            0.3544980540764851,
            -0.030545574919296402,
            0.20519454288110256,
            0.23368810892066738,
            -1.4062274681814158,
            -0.22871069277699183,
            0.8051043320660426,
            0.007243941598229874,
            0.09245312764292629,
            -1.187503266347008,
            0.22238303197108739,
            -0.8030463042046068,
            -0.04837964337804062,
            -0.41047303367798454,
            0.23400570808692803,
            -0.689952966986769,
            0.12456252971267961,
            0.37534463935933654,
            -0.05485066230644537,
            0.08002885717994833,
            0.10952629466629457,
            0.5937188008092034,
            -0.23952274702573548,
            -0.2478723469641283,
            0.1624852323250232,
            -0.049048620106179525,
            0.20231326143209483,
            -0.08544973167853401,
            0.1394403748870814,
            -0.08669720896519938,
            -0.24826495985007502,
            0.6045562630820236,
            0.1481241416602511,
            -0.14572994299617134,
            0.12945208038752232,
            -0.6310405522366587,
            0.11835849255284495,
            -0.05523706519215477,
            -0.4329693376295816,
            0.28857562384897006,
            0.6101308569100719,
            -0.22445607444551854,
            -0.07004148529133407,
            0.15541978468126927,
            0.09243754362921495,
            -0.11152328435319321,
            -0.0592851257132596,
            -0.09170137832657449
          ],
          [
            -0.36670606171240044,
            0.28646661248793026,
            0.7931396401862346,
            -0.6991113419446738,
            0.19119531493086345,
            0.28862734026758013,
            -0.2968644320815269,
            -0.24192520947971408,
            0.11847185748687254,
            -1.4215702585592898,
            0.042174168816125124,
            -0.07436706860518143,
            -0.2906885570871825,
            0.11478868925821764,
            0.20961777746343188,
            -0.05585271107912708,
            0.12603410430169154,
            -0.17635355610179787,
            -0.10344239214697529,
            0.3116010353152405,
            -0.5838450728477984,
            -0.4274510087381778,
            -0.15257011188972786,
            0.3780832703669888,
            0.3828645517871453,
            -0.2263744700209398,
            0.024582157211313526,
            -0.5341421425371167,
            -0.5454749691806653,
            -1.213649344275919,
            -0.9368992163012524,
            0.5424492796444726,
            0.46158754870002106,
            0.4394660515847284,
            -0.026400293789342427,
            0.2803423576066492,
            0.4209642904476728,
            -0.1879997408775473,
            -0.6489158975926123,
            0.2117960315358091,
            -0.4127981823593055,
            -0.056025188639784985,
            0.01427399730369819,
            -0.19637480427873105,
            0.6796629881540163,
            -0.692841901248621,
            -0.5914703805727831,
            0.31029481270890186,
            0.027246526224063303,
            -0.051244488865111085,
            -0.9034267286135217,
            -1.2052013756299935,
            -0.6925194711404995,
            0.07097634314177877,
            0.27205826438231506,
            0.3898284474173655,
            0.35464067872542565,
            -0.2538952175494726,
            -0.23007134386709283,
            0.004365222528499662,
            -0.3242964119689344,
            0.23553156631189134,
            0.26372870445263835,
            -0.08346144139151679
          ],
          [
            -0.3110285231916811,
            0.09017630278738917,
            -0.14476123285114986,
            0.18838769584007173,
            -0.23745090691385953,
            0.3471797165808969,
            -0.02495543483775389,
            -0.4904348152142545,
            0.11430352724121942,
            -0.1953294212212073,
            -0.7078725732517078,
            0.22333485857806912,
            -0.4889277853302406,
            -1.3685626422232806,
            -0.020778353885515067,
            0.08976170365880998,
            -0.16579209290417868,
            -0.017665199166656775,
            -0.5663786195577546,
            0.2547979680981752,
            0.11596296527610815,
            -1.1983347291876973,
            -0.14939441124507657,
            0.18095441426058112,
            -0.3029613969320127,
            0.12774216018280193,
            -0.5923885692617002,
            -0.8654529926791192,
            -0.1283658422435472,
            -0.4087606781869293,
            0.22506596003631119,
            -0.1643302016343881,
            0.14581643266953928,
            0.31357870256274195,
            0.13182277832744616,
            -0.2015330324030883,
            0.2703655930335011,
            0.136816425872903,
            -0.012599817646471865,
            -0.16786142330900167,
            -0.47230133723699275,
            -0.24416960569820967,
            -0.5056631757854079,
            0.17820369850018053,
            -0.6329264406441856,
            -0.6035758510644735,
            0.2905873382202188,
            0.20810928711021554,
            -0.14930915442844972,
            -0.24535393219540447,
            0.23165317412369782,
            -0.28156665227928473,
            -0.33256795610507356,
            -0.47547847363752155,
            -0.12145959828034052,
            0.12748816623336479,
            -0.3521128504570188,
            -0.1889267441031727,
            0.39403921196284253,
            -0.2061690407588117,
            -0.040778975973606524,
            0.28422513627440255,
            -0.08327749638158922,
            0.17667233895758447
          ],
          [
            0.41870533130887444,
            -0.5246287084371369,
            -0.10413605364461537,
            -0.8781780075317276,
            -0.42379014075455684,
            0.27528219939625276,
            -0.23372861506867018,
            -0.4424387448987065,
            -0.001372828223285331,
            0.7747509631636391,
            -0.5306152003941931,
            0.06302315114041362,
            0.10079659966043385,
            0.25031202026929944,
            -0.30387241215409894,
            0.15766357742275142,
            -0.2899051351632513,
            -0.2989652320334934,
            0.052806377265191724,
            0.14925499633476993,
            0.10670542441333547,
            -1.5944805097025792,
            0.08734590427746522,
            -0.15778304337264887,
            0.5142671324118161,
            -0.5636008453051857,
            -0.3750705725091743,
            -1.0918752993067287,
            -0.007824050486419381,
            0.33964462236838255,
            0.2494816325950681,
            -0.5250827247006087,
            0.045216524481477144,
            -0.8433962577790753,
            -0.08686887186186727,
            0.5312857318928913,
            -0.36831747260322956,
            -1.193847898390006,
            0.19437053172536456,
            -0.2274247283725869,
            -0.09669912903208695,
            0.08687365325357528,
            -0.13488247755425337,
            0.03709191753000107,
            -0.7689503672960225,
            -0.1033365606716502,
            0.05967971313192878,
            -0.01396240244755698,
            0.43024101619945376,
            -0.25864181385562696,
            -0.05422400583647202,
            -0.40294633774732286,
            -0.3576693986966891,
            -0.3215984621107405,
            0.37119126281623893,
            -0.30406555317423556,
            0.032353351006837415,
            -0.07236088699452839,
            0.2531568323774707,
            -0.11434856907392488,
            0.012893767955473921,
            0.01046236626320108,
            0.7723126673503067,
            0.38579247240760456
          ],
          [
            -0.02158158626454748,
            -0.5134078519582478,
            -0.14500493516382187,
            0.3221869030103391,
            -0.27139175996571757,
            0.2941760272007238,
            -0.3558034937996516,
            -0.2922972738200786,
            -0.7411809542710165,
            0.12397620626468146,
            0.008180413619817898,
            0.06376129682900063,
            0.3610245202647124,
            -0.012309204568905068,
            -0.23904035727169148,
            0.47453615857867476,
            0.0018853582074559558,
            -0.5568092162851601,
            -0.3889853589665765,
            0.4737233618057939,
            0.10963233890684605,
            -0.6392216656405726,
            0.615527047728636,
            -0.2275527308046831,
            -0.12562847013709616,
            0.6023707473064016,
            -0.38896993069830793,
            -0.40343352459902804,
            0.11088124792248762,
            -0.27194392856603306,
            0.03390085210526607,
            0.05351031290963388,
            0.12353030336054836,
            0.010015362180392104,
            0.7995967532385266,
            0.05690935784115975,
            -0.126977758139145,
            -0.1632908143551651,
            0.10138157482256663,
            0.2082743676166806,
            -0.17126368524909202,
            -0.3133243244613637,
            -0.20820627829708901,
            0.2569465953532916,
            -0.02908881183659843,
            -0.13378041357493792,
            -0.5226190458091722,
            0.4136855138995391,
            -0.11037388473034454,
            -0.40645414398187657,
            -0.054370058928181246,
            -0.1717893192141536,
            -0.32906996096440533,
            -0.714101691145991,
            -0.5103501335213764,
            0.5087449747596217,
            0.7611876086150889,
            -0.21968044334489553,
            -1.423475196120132,
            0.7873772671023497,
            -0.9560319141684513,
            0.02186280609540926,
            -0.37758447067226214,
            0.24851383628655227
          ],
          [
            0.3273715126267072,
            -1.8891128254440994,
            0.7416130647734013,
            0.835022270296083,
            -0.1915087839191743,
            -1.0211573366447877,
            -0.6244050045196031,
            0.9754573393241441,
            -0.3772396023022398,
            -0.79099322126034,
            0.8675684652438549,
            0.5238975483129465,
            0.4719644511647504,
            -0.4424365451209707,
            -0.3508815368663731,
            0.3712652495275812,
            0.23170391852414501,
            -0.9720986940089051,
            0.4180382374090973,
            0.22686625717574613,
            -0.0040925538221968085,
            -1.0527057167992253,
            0.10394994098122147,
            0.15246286347743862,
            0.12254608808789652,
            0.2719809886270085,
            -0.07148031219067097,
            -1.476475058307318,
            0.20629548039970558,
            -0.9016412268401072,
            -0.634296406488352,
            0.00031145131365270333,
            -0.00818342058556642,
            0.5980338387716397,
            0.08206302688667362,
            -0.9323475540599395,
            -0.4938307796626118,
            0.26631193527925834,
            -0.0441618845545377,
            -0.13390647417655896,
            0.26668459946666223,
            0.4020536169652656,
            0.02750340410757355,
            -0.04576167190934293,
            0.3753629971055132,
            0.0895007154283541,
            -0.12222415244726534,
            -0.6267305389358823,
            0.4299119182654983,
            -0.2471418132787032,
            -0.15643391255672773,
            -0.01207768504562581,
            -0.361311354290675,
            -0.342125243131819,
            -1.7988085338066517,
            -0.005140817347865461,
            -0.03475202563649868,
            0.26039955392483477,
            -0.21241793801151465,
            0.3172737938162066,
            -0.5624985837775207,
            -0.7903627574613163,
            0.49845235355162115,
            0.032387540008516055
          ],
          [
            0.03262819712299131,
            -0.34858523322219553,
            0.376222482188587,
            0.4769795590678045,
            -0.035301803199333626,
            -0.6849070569108353,
            -0.29955490901933063,
            -0.479598150225728,
            0.1946300857394616,
            -1.1496028227110935,
            0.2294033501951812,
            -0.08451560170148331,
            -0.8290114917914122,
            -0.7288056177412429,
            0.43637074633638256,
            -0.38037891388352174,
            0.2951304126387382,
            -0.4466680286884873,
            -0.28019946992434736,
            -0.12370714473117132,
            0.5757126904706179,
            -0.1763846697381525,
            0.4268065972952491,
            0.08287398880575361,
            0.1310734621190361,
            0.4621725675609556,
            -0.36342307600165624,
            -0.5328195554633534,
            -0.2089864020096753,
            -0.22108232340524978,
            -0.7230585627427746,
            -0.14206673234353998,
            -0.02399584213648855,
            -0.0694586044619712,
            -0.15781466812383058,
            0.17313190061252443,
            -0.44634467063982114,
            -0.17996145961649326,
            0.1008673004972995,
            -0.3164310048174174,
            0.09415946799464694,
            0.15392858524204864,
            -0.45822762216837903,
            0.05677778012635832,
            -0.03754450628291048,
            -0.2248245851613507,
            0.3337828944878195,
            0.3803642541922656,
            0.26116855088736524,
            -0.013694395077711943,
            0.02267867357880717,
            -0.2937439562852118,
            0.4524339973966776,
            -0.25907004867036915,
            -0.6951312953171095,
            -0.23756461996264894,
            -0.34586836595812775,
            -0.25315242105849917,
            -0.604062714666708,
            -0.4241911295105376,
            -1.235927577210228,
            -0.1953459595809113,
            -0.8931602661414614,
            -0.06227283839249859
          ],
          [
            0.22447647575939933,
            -0.1921775511566602,
            -0.031983965997479845,
            -0.21779697130770512,
            -0.11620790042937519,
            -0.0883196324522476,
            0.39514429453723204,
            0.3872361895464882,
            0.08455767443242293,
            0.31128196008786463,
            0.004267252188496418,
            -0.04502424779939428,
            0.36730080899153417,
            -0.2849016403735765,
            0.21291995230553973,
            0.45491698438492556,
            -0.10749389424572367,
            0.10731982868930966,
            0.11929166243309677,
            -0.44530946420476847,
            -0.0780596776374325,
            -0.07305150034125885,
            0.04204363585876565,
            0.23206860847537414,
            -0.3320974343026463,
            -0.2562851514164899,
            -0.042343544725894716,
            0.09677358536975901,
            0.14653147358251473,
            0.07206982968917061,
            0.34745267235853955,
            -0.2646209758400008,
            0.21273436136715956,
            0.35131833313020217,
            -0.11178097174658604,
            -0.15782334194727254,
            -0.47059849128736303,
            0.09085298047223975,
            -0.2759272554973934,
            0.05313750263893531,
            0.5414021922671232,
            -0.2871779747774245,
            -0.5117540014074561,
            -0.11741475037024031,
            0.15356138799833557,
            -0.18188104717146802,
            -0.2803143272310176,
            0.05354990008068365,
            -0.05407081146318871,
            -0.09023480248916273,
            0.4974663784104534,
            0.3982187407351818,
            -0.4030955058400441,
            0.42755516412067157,
            -0.00276101985288968,
            -0.09902004654079796,
            0.3415873860622109,
            -0.05638162599300576,
            0.5852559328059966,
            0.03929507615314481,
            0.1525901603327597,
            0.06604538294262141,
            -0.03459000180276345,
            -0.089207679700445
          ],
          [
            -0.36833882080918207,
            0.218667897606759,
            0.27539220374896145,
            -0.1570003122633038,
            -0.030498831428509506,
            0.07437926450222425,
            0.26185619761394474,
            -1.0462363499240728,
            -0.09251311793265352,
            -0.2555813154605531,
            -0.184792391279446,
            0.15454109347354622,
            0.13793564994442525,
            -0.05617337766489785,
            -0.3880258506608469,
            0.4467860509425036,
            0.09723977548488155,
            0.08736792166348306,
            0.21022113619053628,
            0.022090480107591164,
            0.2874899793952509,
            -0.42200060596084865,
            0.07005513928753208,
            0.4195482810732727,
            0.11009390978105005,
            0.24121063287270425,
            -0.14474980137806834,
            -0.6893823306774134,
            0.42939103362368747,
            -0.03541759035992668,
            0.2962736989467538,
            0.1344704396446516,
            0.052965324119812314,
            -0.07780293010234744,
            -0.07130755326349165,
            -0.1441407282922434,
            -0.24696489186171552,
            -1.1290973626477951,
            0.49198720461542106,
            -0.2754014323385957,
            0.024695846949373466,
            -0.1316713943717612,
            0.49075882209363486,
            0.2090309138802511,
            -0.4845925446266568,
            -0.3645850716206968,
            0.2345530991634979,
            -1.2900634763777752,
            0.1828842073028749,
            0.2849968653553859,
            0.33881603016157597,
            -0.0644401021397452,
            -0.28253199356668035,
            0.2561195777798387,
            0.3552664765078282,
            -0.2326641380203315,
            -0.07352497520215451,
            -0.06841990892326091,
            -0.22758841574245373,
            -0.34626178344487174,
            0.222453895173316,
            -0.0792725104435621,
            -0.13329296404966304,
            -0.09961943994720415
          ],
          [
            -1.4018178484463353,
            -0.04318305365916957,
            0.0539469366606089,
            -0.1012019517505396,
            -0.27934227820908936,
            -1.4905912310334715,
            0.5239688986770622,
            0.01896640350994094,
            -0.11938350666201328,
            -0.22334199378753583,
            -0.7259484997240117,
            -0.27299198202029634,
            -0.4637294466051739,
            1.0475361896288027,
            0.004172341935966383,
            -0.15278390576871081,
            0.33174182834612764,
            -0.19645443116554995,
            -0.30474981018365993,
            -0.1095488146190186,
            0.984244712247081,
            0.15719608177072594,
            0.1586325914522967,
            -0.9497861439555226,
            -0.10312496493185995,
            0.265676936299911,
            -0.1645040117517288,
            -0.36040381720490594,
            -0.6287346879975506,
            -0.4856923514955744,
            -1.6857153952339148,
            -0.7874390355513208,
            -0.23039985657077183,
            0.5973221778315199,
            -2.173784647246132,
            -0.3496629235882616,
            0.28081541668522686,
            -0.33992010870218115,
            0.08399303352728665,
            0.506486510034642,
            0.3475530592027248,
            0.29586826818725026,
            0.6459608500996812,
            0.04865375310772264,
            -0.7348633601672412,
            0.002083043132135896,
            -0.1924678985965043,
            0.5403223411387633,
            0.16916467523775985,
            -0.973421998582283,
            -0.3782843878498401,
            -1.3456326578464164,
            -0.15996688700138,
            -0.7970442955138678,
            -0.801623058298247,
            -0.7622901226966614,
            -0.9136716180734789,
            -0.19615146627843283,
            -0.3202019670070712,
            -0.04868958208818822,
            -0.8736922576648884,
            0.010304518072020402,
            0.05573196625591041,
            0.07007578500765502
          ],
          [
            0.19070233324783104,
            0.3116961573868034,
            0.35305538525297553,
            -0.5240125967197073,
            -0.3296668632765898,
            0.3449509757047236,
            -0.01048026464468602,
            0.2605981154912437,
            0.14902895787966508,
            -0.006906931796401246,
            -0.28775237936991893,
            -0.03566378893566284,
            -0.267252851845942,
            0.02925669036021874,
            -0.14399067693784856,
            -0.13071356177721155,
            0.5004717442512552,
            -0.053040344692658885,
            -0.16525000434845635,
            -0.0021852995770532406,
            -0.07788732428723923,
            0.0359248424851169,
            -0.07960797256023949,
            -0.0766709633913507,
            -0.2957604580490382,
            0.09515379321224593,
            0.3207527661305595,
            -0.853366949410162,
            -0.06831854393907512,
            -1.0999523148358343,
            0.060581490886950085,
            0.5219203794547584,
            -0.1465669985477575,
