{
  "engine": "nn",
  "version": 2,
  "feature_encoding": "ray_wall_body_inverse_v1",
  "feature_profile": "green_wall_body",
  "state_size": 12,
  "epsilon": 0.005,
  "epsilon_decay": 0.995,
  "min_epsilon": 0.005,
  "gamma": 0.95,
  "learning_rate": 0.0005,
  "hidden_layers": [
    64,
    64
  ],
  "batch_size": 64,
  "replay_capacity": 10000,
  "target_sync_interval": 200,
  "seed": 42,
  "training_steps": 262407,
  "last_loss": 0.049515051595135515,
  "network": {
    "layers": [
      {
        "weights": [
          [
            0.2369389156441862,
            -0.44929299804816186,
            0.3122057780773879,
            0.6017551209207116,
            -0.6980613815472532,
            -0.4634220240869646,
            0.41059174483193156,
            0.04436548933619961,
            0.06169886203441649,
            -0.4259856590295907,
            0.12572834916579378,
            0.4852970378553881,
            -0.2812969545459436,
            0.39450546127006997,
            0.13712154798731876,
            0.5628921062703633,
            0.225334749196127,
            -0.7481620708665222,
            0.4926183469405589,
            -0.13671231200786974,
            -0.3331568453724552,
            -0.2624037212977421,
            0.1166566986104679,
            -0.14120127022341367,
            -0.19439742015282901,
            0.39848819319057516,
            0.12259372696316699,
            0.38846368976852985,
            0.13928516960688078,
            -0.4226692174916679,
            0.6195078909028556,
            -0.056507542432543745,
            -1.0174442989481014,
            -0.7633209521518639,
            0.27235827673819313,
            0.48192191493672437,
            -0.06669294707396305,
            -0.2797489073886795,
            -0.8875684544471452,
            0.33796117868072,
            0.9078765391541617,
            -0.47127648504309955,
            -0.16984418448862718,
            -0.13411180648535023,
            0.1711506130492187,
            0.385762349473635,
            0.45718201818165405,
            0.22090682518513155,
            0.3599084427529221,
            -0.07628317402850031,
            -0.13838338188879568,
            -0.6828727704689767,
            -1.0200550856889743,
            0.18858067762149275,
            -0.36051883454368644,
            0.032268905810358434,
            0.2961026832123537,
            0.6431771593973425,
            -0.2542828868225555,
            0.07436398893585144,
            -0.2500688844664793,
            0.22517697776349802,
            -0.09774368896448023,
            0.4006330004204293
          ],
          [
            0.2685608197879961,
            0.5878586892431901,
            0.09515860335363506,
            -0.19410260104251212,
            0.7262933391669834,
            -0.32554777703360427,
            0.007663296601125391,
            -1.3112684745256993,
            -0.916317110394839,
            -0.12438147153734888,
            -0.1452971870886603,
            0.21916255072280796,
            -0.616648980755287,
            -0.5609892351152266,
            0.699050692802835,
            -0.08212142783327166,
            0.5891527434368009,
            -1.1490309512163823,
            0.09277676191930997,
            -0.18493908582628646,
            -0.5723095638456285,
            0.5008816013778327,
            -0.05884862085110728,
            0.5330260116018678,
            0.1922320662613072,
            0.0058734068041104,
            -0.047846848677151464,
            -0.24011274453994563,
            -0.1418086426920933,
            -0.025951476837265185,
            -0.08939071911331142,
            -1.0985781775571177,
            -0.8649749249378379,
            0.0006335621962724683,
            0.2685203721392409,
            -0.5268560747949483,
            -0.26708686806050974,
            0.646183888087997,
            -0.25974061645859425,
            0.2725061722256897,
            -0.36165022733623997,
            -0.1810311730291906,
            -0.7313914865989912,
            -0.23435359758528568,
            0.23471588103512767,
            -0.1989865220199877,
            0.15026571741377875,
            0.13064771455577964,
            -0.9618651464294594,
            -0.8857401434006393,
            0.10587967535620683,
            -0.0847759451304454,
            -0.10824415385743459,
            0.20592565926495962,
            0.670220667215579,
            -0.9405053902792034,
            -0.017001877158664084,
            0.14149381130993985,
            0.3955602587393988,
            0.6438883989484326,
            0.5560206198251879,
            0.4822538365777461,
            0.6810095804038453,
            -0.5795173058226056
          ],
          [
            -0.5969291580488808,
            -0.6233039675986616,
            -0.7194552377729682,
            -1.7418430168466894,
            -0.11806078735530291,
            0.15911463262939407,
            -0.3047825246363752,
            -0.2776424597835428,
            -0.08570222184595631,
            0.5429672008041465,
            0.517349210459312,
            0.8261234876445444,
            0.3028432362132747,
            -0.3210173507123437,
            -0.6419652523352677,
            -0.36650424193191894,
            0.03551354958623635,
            -0.5572824205204042,
            -0.397150913159137,
            -0.2912166386056652,
            0.3555743111814661,
            0.4990585321922778,
            0.29730131468188425,
            -0.6633503795203584,
            -0.7189482965489147,
            -0.40752060397801637,
            -0.07515259358339907,
            0.7912425939975041,
            0.22489354455210386,
            0.6423155352160839,
            -0.6289071665103849,
            -0.6075466842475891,
            0.1406361876503423,
            -0.6458720552738777,
            0.6534653242306082,
            0.034740300878135004,
            0.30821055412562215,
            -0.39204653612485024,
            0.7659068377254376,
            0.3207017799864564,
            -0.2819136832246966,
            -0.07842030562885956,
            0.4359491205163979,
            -0.31547479210975016,
            -0.14504507706286543,
            -0.08071469047977717,
            -0.3403947088931168,
            0.1289713994031164,
            0.7179801189818553,
            0.7712921965033689,
            0.4961899080232309,
            0.030925109321226652,
            -0.03991099517988362,
            -0.107535804509506,
            -0.08310871803968639,
            -0.22251311042344266,
            -0.10453270875861245,
            0.6147334506483547,
            -0.04495198064267345,
            -1.025930345164636,
            -0.6757097781171552,
            0.2630468675144413,
            0.22489799760097287,
            0.27709827324233616
          ],
          [
            -0.742866552183226,
            0.5885947577184564,
            -1.1411758853061371,
            -0.001198732308232471,
            -0.41775466261060445,
            -0.11226279304307984,
            -0.2164896166152595,
            0.2140916463853654,
            0.3890428789279535,
            0.6191765859689119,
            -0.556902696675071,
            0.08643947750067443,
            -0.14256975039882266,
            -0.5400100690536429,
            -0.7807092575237369,
            -0.38698422693402373,
            -0.04219023329412558,
            0.09551703826413756,
            -0.12086087376908068,
            -0.9646422407585711,
            -0.26641952734372815,
            -0.12897751698605356,
            -0.23147158092365336,
            -0.1316686635979604,
            0.06983912700451911,
            1.273383453354249,
            0.1677601186179914,
            -0.876713882462642,
            -0.24731808475640535,
            -0.12115703094192448,
            -0.11787936331339545,
            -0.8102998626711834,
            0.10288296296482795,
            -0.01735910802145156,
            0.7566684379530602,
            0.6350924811873456,
            -0.2078830659851468,
            0.2522016175037079,
            -1.0389747527191329,
            -0.09383200426922002,
            0.25796743315994486,
            0.6850469430776157,
            -0.17047633593012576,
            -0.2439680451325588,
            -0.8293290505127877,
            -0.2898487034074138,
            -0.29655326634155493,
            -1.3123576390589182,
            0.04924694826932548,
            -0.06375488841133735,
            -0.7855463902315115,
            -0.5621388893650471,
            0.7189919140590281,
            -1.0344621623690533,
            -0.5206948662903238,
            0.2639806574689429,
            0.9377180768845071,
            -0.6258220343461813,
            -0.15535657751224322,
            -0.11100035839212398,
            0.9854361446073656,
            -0.42237381611485664,
            -0.3113487361522449,
            0.7008967625023972
          ],
          [
            -0.16953111330086537,
            -0.36196022055752897,
            -0.24822194007925424,
            0.12162948909905714,
            -0.2601496910325092,
            -0.4842286852117581,
            0.25944213504289815,
            -1.2223754360699037,
            0.24533176088373812,
            0.2508646746531565,
            -0.1769518100865611,
            0.4066488487908234,
            0.3602558352353511,
            -0.48445141948136283,
            -1.4458091768076926,
            0.5316510256632845,
            -0.0063905877653153125,
            0.8445272574391356,
            0.3434597096636251,
            0.36721744692135383,
            -0.677597796330943,
            0.14528274543981082,
            0.40428128517458184,
            0.20886808591706343,
            -0.13656639337277784,
            -0.613923754612881,
            0.5001590658084709,
            -0.011903618783761932,
            -0.23585281025905896,
            -1.106274929340549,
            0.42146261316963657,
            0.24936109518305702,
            -0.42144110704220233,
            -0.8318229857058581,
            0.03638591522351182,
            0.20257224975069457,
            0.383395918136006,
            -2.876170958165524,
            -0.28686173665839537,
            0.16737531569229017,
            0.41223325306353015,
            -0.28747304828507986,
            -0.8199595801217991,
            0.3592095749053756,
            0.5923376358765455,
            -0.41525462169506877,
            0.6289700904714308,
            0.09861420546659806,
            -0.3567166378752979,
            -0.3774655489320069,
            -0.305845328755148,
            0.7084922843737586,
            0.2547194408802079,
            0.3800510586571037,
            0.41984827399118346,
            0.10390736320077251,
            0.25844023318918447,
            0.14788770248529806,
            0.18574045025043964,
            -0.186109260699811,
            -0.254851185319729,
            -1.2173710003007185,
            0.36953032115162376,
            -0.34807982351739164
          ],
          [
            0.42859800400548254,
            0.046825055033186194,
            0.38111390353159635,
            0.1987152577140467,
            0.39975299199655623,
            0.632467315173189,
            -1.4175370205146585,
            0.26357743038861875,
            -2.6647721861192744,
            -0.035489610696723614,
            0.41353323283756627,
            0.09911553246672967,
            -0.04318482956193111,
            -1.5181305497578443,
            -0.295608694059797,
            0.09070331009268312,
            0.25272587815356845,
            0.21755895802721117,
            0.4245897366114528,
            0.3388221676688311,
            -0.9359061013091136,
            0.30134120680957704,
            0.4835218189415517,
            0.004507172571695898,
            0.7994340746569526,
            -1.2690949433016758,
            -0.28850157049609465,
            0.34973950477947763,
            -0.8202929044604009,
            0.44651045378203374,
            -0.2379720696937986,
            0.5879726212722531,
            -0.896482603931813,
            0.5638316622158551,
            0.08462393892832623,
            0.09604774770180828,
            0.1270405474341691,
            0.13915113529801315,
            -0.31363674788382156,
            -0.1254604389655473,
            -0.22269938277210038,
            -0.43618470769868584,
            0.40003372980241453,
            -0.507809745711928,
            -0.2285947646824071,
            0.9837311063444247,
            -1.0198338207423645,
            0.0416397509214968,
            0.3213429984011618,
            0.9287922105100495,
            0.08384648875533361,
            0.6168629338278552,
            0.12004007712953894,
            0.25506763947184175,
            0.1817980807515631,
            0.6402937437518119,
            -0.28761091547388384,
            -0.43259736455590503,
            0.2011091717482516,
            -1.0325703333481606,
            0.4104608532350526,
            0.14938831762603744,
            -0.8696961545485966,
            -0.021472055163098868
          ],
          [
            -0.7515340775387948,
            -0.7123382615382309,
            0.20027398014942707,
            0.44902556423574314,
            -0.03733330722073281,
            -1.1118294936532513,
            -0.6856347072808632,
            -0.11884093033583745,
            0.25190484827857346,
            0.45449682766123634,
            0.38006698178078224,
            0.07310275167551152,
            0.15784002450855542,
            0.2926076179458538,
            0.5428632455494096,
            -0.4768592572168946,
            -0.08683885587487149,
            0.4370520680047003,
            -0.06215357287363759,
            -0.14709325904284856,
            0.518689400821462,
            0.004286893646763818,
            -0.42592096269808644,
            0.24144576423492325,
            -1.1487941494401044,
            -0.5973526573646992,
            -1.97110197389369,
            -0.4817264783389412,
            -0.20376507853567824,
            0.34114080779785677,
            0.022451299224815122,
            -0.08645022071755744,
            0.5807864064178427,
            0.6434060292632247,
            0.03315414264938297,
            0.19414660638739933,
            0.5092182744070768,
            -0.20514626401859687,
            -0.3361303310540273,
            0.19952579416079932,
            -0.44440788400372283,
            -0.12062677548187486,
            -0.12252488466328885,
            0.46887433736114137,
            -1.477850392183327,
            -0.14876551882067604,
            -0.2823926621759955,
            0.44893967975593346,
            0.1669658468008246,
            -0.114136181095956,
            0.2307599428502695,
            -0.18198867998477009,
            -1.301732072786442,
            0.30356482978193444,
            -0.9716275431031539,
            0.258757724713894,
            -0.02026237279012025,
            0.2020149852903056,
            0.35588695858223723,
            0.37228625691723594,
            -0.12718367989152513,
            -0.3683052171480138,
            0.5666496070547147,
            -0.2776101317525664
          ],
          [
            0.8137525635975765,
            0.05215750803591975,
            -0.33775103997540973,
            0.0459333748770377,
            0.611705428355819,
            0.5436733178614099,
            0.23461219658435478,
            0.006132249057527925,
            0.2326956067962124,
            -0.34155717444129363,
            -0.07412080414131075,
            0.19612001579876043,
            -0.023776722203413387,
            -0.31513847874847317,
            -0.1482609721512751,
            -0.5396306102118983,
            -0.03192024074501116,
            0.25775996146401575,
            0.2407617464276015,
            0.7585224492112982,
            0.2778032028352983,
            -1.2192841586410175,
            -0.12473162666010641,
            -0.15269976409181243,
            -0.9059446815495243,
            -0.11634232301883814,
            0.12432293889040638,
            0.21375800333298553,
            0.36383461529103944,
            -0.8533527433174902,
            0.12881071514827758,
            1.0337505930087125,
            -0.23006715029573613,
            0.42525534335305487,
            -0.003434643830294238,
            0.2074992355170834,
            -0.000585211531994269,
            0.1204178143967905,
            -0.16166055153090012,
            0.1229840908540687,
            -0.5628323071306534,
            0.26522650698525024,
            0.36247724596077396,
            0.2625640257799461,
            -0.024875122977390342,
            -0.030774301674575816,
            -0.06381920649619316,
            0.3614543538736139,
            -0.8256960469626825,
            -0.60079436846264,
            -1.970859909722666,
            -0.6843104428574311,
            0.23430288762238427,
            0.1764925355662694,
            -0.1105346733155293,
            -0.014698234100997033,
            -2.0161825512746243,
            -0.5192628107811132,
            0.7070973172217271,
            0.049198046231425895,
            -0.6005963192466197,
            0.27239383695455,
            -0.641365460889739,
            -0.03573159389675098
          ],
          [
            -0.3685675066198559,
            -0.17385074254980107,
            0.7741669023698711,
            -0.015199207814825597,
            0.6950343102388155,
            -0.0908549716324668,
            0.16949799043347696,
            1.3094257175352177,
            -0.02247909538912426,
            -0.6998580398309281,
            0.7010710527111107,
            -0.6989229219732938,
            1.103539967174962,
            0.28526123852394863,
            0.0044291390150798535,
            -0.7247726531436959,
            0.44306504169543676,
            0.5315020311420431,
            0.1873891094739573,
            0.3341531183323949,
            0.09451061992542278,
            0.6352404481264835,
            -1.5447834997817498,
            0.37794643934390176,
            -0.5822932903280449,
            0.03797732402060623,
            -4.88505611425154,
            -1.0309782439394477,
            0.17786731777951065,
            -0.10636670803677153,
            -1.4058490916624282,
            -0.0947116438692724,
            0.04401178349290095,
            -0.15753319393386747,
            0.08448452192092794,
            -3.185703914434664,
            0.41104318647658455,
            0.37741841791458264,
            0.4241747365866781,
            0.1790577216214018,
            0.8751079274109688,
            1.6437477387566657,
            0.3247758830655083,
            0.13018207399591136,
            0.01599603889093426,
            -2.00500422361065,
            -0.8521577953480378,
            -1.779289544596785,
            0.34806975043810945,
            0.3836157351020349,
            -0.0953145335477058,
            0.29050989406419736,
            -0.17121071434595322,
            -0.00014045780102159798,
            -0.8886975775619462,
            -1.293307263830226,
            0.43893581339109716,
            -0.42704998574466485,
            -1.7022889845715654,
            -1.7747119758619943,
            -0.0448292195828741,
            -0.27514580900120345,
            -0.1682389969258997,
            -0.7055829229326711
          ],
          [
            0.6555935333865218,
            0.42019178797627554,
            0.41165297323417255,
            0.11968216696811877,
            -1.8296301417075551,
            0.16079416157640572,
            0.693004715042293,
            -0.3438337366739678,
            0.3656596048717344,
            0.318356760482172,
            -0.17169191322419822,
            0.12074757262385788,
            0.5153399705681894,
            0.9244679902223477,
            -1.8019195645146502,
            -0.12071923046497683,
            0.9593546031122958,
            -0.39967868799730694,
            -1.7400531823909162,
            0.3244506460302298,
            0.40495977608096334,
            0.6400583853219242,
            -0.6559200027322666,
            -1.3757483733530027,
            0.03381246199896825,
            -0.611548534803701,
            0.42995547624711766,
            -0.10404427110640578,
            -2.463013527684631,
            0.34242613702883096,
            0.07420730220655734,
            -0.0740146592599984,
            -0.940702036343508,
            -0.08320049842547238,
            0.188195104011402,
            -0.9468061086278702,
            0.15753504614353092,
            0.5964696236736923,
            -1.8233632552231978,
            -2.5972241090310373,
            0.26435682955106526,
            -0.32321486892658363,
            -0.6028110988253865,
            0.6442522069102092,
            -1.7170513076817502,
            -1.0755809347595695,
            0.17447166869778466,
            -0.9453231827639523,
            0.40702316710199066,
            -0.23670388619553326,
            -0.16558235992781126,
            0.09793485761300107,
            -0.8323877402663978,
            -2.515572143217711,
            0.7383980406319747,
            1.2935451235365134,
            0.1848108416986423,
            -3.230016254532056,
            -1.0681483449309153,
            0.29223893304401916,
            0.19874116055385374,
            -2.1235233349522398,
            0.11621469078627432,
            1.2321079329830256
          ],
          [
            -0.48895481264795415,
            0.6970685470114905,
            0.9631068367851215,
            -0.6430135634136936,
            0.020871782430601758,
            0.09947103285911904,
            0.3056734070632358,
            -0.4053214035047161,
            0.013249607196358178,
            -2.5493896565787884,
            0.21585749779378038,
            -0.22918392474312715,
            1.4104423847672143,
            -0.5590496662955029,
            -0.7941594218581086,
            0.5416361989472281,
            -0.22982636588325908,
            -0.013830617851404178,
            0.5346084025196075,
            0.5918017091783928,
            -1.3507922132679533,
            -0.4168513000797843,
            -1.5523772681853618,
            -0.6999972640989749,
            0.13966218389226107,
            -0.31690008370099637,
            -0.41539183557167364,
            0.5571876018989933,
            0.06621602813242405,
            -0.5553838477637485,
            0.5832408988005259,
            0.2436010703211694,
            -0.7458821514788594,
            -1.6083539368806343,
            0.23167316549832276,
            -3.7457707207250337,
            0.7747065579766057,
            -0.041358242370991116,
            0.24768159413548252,
            -0.65063053959201,
            0.514438082200632,
            0.32291177059267145,
            0.8584816221861857,
            -1.6191983183664886,
            0.16218544606365537,
            -0.5070228259492674,
            0.3711674610441053,
            1.0145230039011934,
            -0.39740427089727676,
            -0.8688710852307635,
            -0.14398174360834895,
            0.12002249880596423,
            0.475601270585382,
            -2.21805610748078,
            0.14229213039211902,
            -0.8362354602468465,
            -6.250351511113932,
            -1.148979255956663,
            -3.490693609281607,
            -0.7676895290350167,
            0.6697151617580878,
            -2.7676151783611513,
            -1.2174523276087572,
            -0.5784771569718826
          ],
          [
            0.39247846980353535,
            -1.8246367473061706,
            -0.03756834712638863,
            -0.8754663488422856,
            0.008446021421841155,
            0.2967809492234714,
            0.34620130431783575,
            0.3491299114191621,
            -0.30238099782167466,
            0.3441306960011164,
            -0.2863048637116794,
            -3.9718932854409585,
            -1.5228120285838882,
            0.1815142826954818,
            0.28719398790404194,
            -1.7073074589709836,
            0.2722498086129545,
            -0.23090633824427617,
            -4.567848131426478,
            -0.548190311440547,
            -0.6827090490464903,
            0.8349112586924854,
            0.0225656554066454,
            0.010973591207825461,
            0.05729595471205508,
            -1.552781469724555,
            -0.2747971082601089,
            0.5569580818544504,
            0.8491729628948863,
            0.022663258308483515,
            0.18421130401119112,
            0.30232449389136173,
            0.5059031833272126,
            -0.05724195161787733,
            -1.6963199615733748,
            -3.13967834912093,
            0.6047053377953077,
            0.5550593787061865,
            -2.4456287757592503,
            -0.9756582307001785,
            0.1436021628624644,
            0.08373257516178297,
            1.4049391174348653,
            0.4265214324413212,
            0.4908996702393831,
            0.10352678898390075,
            0.4937285571094966,
            -0.06791870413399502,
            -0.5127413300954147,
            -0.17386310897742124,
            0.9775871166132579,
            0.64905828930895,
            -0.6770818044077256,
            0.5225369005973467,
            -0.010581879316514978,
            -0.3533511636957196,
            0.3102217351978327,
            -0.06427548651863114,
            0.48756329643324015,
            -0.2201657438150417,
            -0.5966210427985905,
            -1.0446948753250367,
            -1.0672456090446278,
            0.17796427363081266
          ]
        ],
        "biases": [
          -0.13294643916975918,
          0.23070287293533642,
          0.07864493840293381,
          -0.2637093217702879,
          -0.6188587871275186,
          0.22397225051839614,
          -0.11353923338057012,
          -0.06713840176733044,
          0.01027217652247195,
          -0.2295613940242162,
          0.016683044569904215,
          -0.6184749246869492,
          0.26410053362470814,
          0.11455439716358964,
          -0.07843721090832824,
          0.09434798964448553,
          -0.46493558141695224,
          -0.16881138284420574,
          -0.248352595453422,
          0.036536909625747835,
          0.23719410933020363,
          -0.3277408856114957,
          -0.2510216086456879,
          -0.06266095823220734,
          0.20131852403803652,
          0.27625487311160524,
          0.18406809565397697,
          -0.099353700912093,
          -0.17238102729557758,
          0.32222666778840237,
          0.09075152968732887,
          -0.27502221893580625,
          0.21649071776102907,
          0.002647347306342634,
          -0.49615731773451965,
          -0.48835213669146516,
          -0.38759820006169576,
          0.34117678784622474,
          0.056993380560883045,
          -0.30260944787799254,
          0.40138029310455664,
          0.22131840804625832,
          0.050165368314408695,
          0.15378637215339347,
          0.15029214762442417,
          0.005047806408958548,
          0.3085910804237942,
          -0.4047266052901008,
          -0.5425595451898112,
          -0.032667748288910496,
          0.5791848393344993,
          0.3878287487546885,
          -0.27788825355664365,
          -0.2840154495622431,
          -0.02469138738553402,
          -0.38347746532027915,
          -0.10035310047447127,
          -0.08266970966514309,
          -0.5603282972307514,
          -0.31085184057106674,
          -0.3248492957007635,
          0.012116395407225599,
          -0.13465592520432107,
          0.22081510677918775
        ]
      },
      {
        "weights": [
          [
            -0.2671619372482266,
            -0.6756331597650969,
            -1.379308224787614,
            0.36719727640282,
            -0.412594559103228,
            0.4703581231612082,
            -0.09092816902834618,
            -0.07098738599463743,
            -0.1552065521825088,
            0.39284363535788974,
            0.028749937236469833,
            -0.3466572509504944,
            -0.1905125043683061,
            0.11229233457613534,
            0.20613036972028678,
            0.25747451813032524,
            -0.2601880586850222,
            -1.0913336358605052,
            -0.08306731819244224,
            -1.0944875017772162,
            -0.8182455192400008,
            0.04291722431885536,
            0.13821167155174488,
            -0.9888660408421531,
            0.16824207066900873,
            -0.39968202789717283,
            -0.2480647760145109,
            0.043453066355948824,
            0.12440688826505256,
            0.2672219662769389,
            0.4223123691902162,
            0.20101191507581348,
            0.04116204582671604,
            0.34741147284546714,
            0.5443775606717994,
            -0.2557556563665015,
            -0.3760664641171952,
            0.4138367937904883,
            -0.9613446601602629,
            -0.3107535456901176,
            -0.07512495616307756,
            -0.21412513002710193,
            -1.1301647281728002,
            -0.6436899510175306,
            -0.10534024939324599,
            -0.2479469505058968,
            0.19240618291889305,
            0.13613607867364363,
            0.23600741129190905,
            -0.16084304403850194,
            0.21042024827886077,
            0.06763970436407094,
            -0.00917267704264103,
            0.7734703026159104,
            -1.3060531909271667,
            0.11029182305074076,
            -0.34245694912686375,
            -0.03422986263453599,
            0.03732416706192339,
            0.023748854249030317,
            -0.5589011351137383,
            -0.27528564058358695,
            0.2789959265505342,
            0.10884816201302822
          ],
          [
            -0.5253514568464882,
            0.04485883802034902,
            -0.38125269232177894,
            -0.032476322118292246,
            -0.2028221720274153,
            0.13603314359113017,
            0.06647545510519336,
            -0.11190734492093801,
            0.4499617626290597,
            -0.27674573846224626,
            0.5648670862287777,
            -0.29351731863406433,
            0.1852744876422502,
            0.18112723784068727,
            0.8557227950481662,
            0.5243193568886015,
            -0.3897559936708857,
            -0.4878397345795279,
            -0.13318655804939902,
            -0.01666202755057715,
            0.15920322097973755,
            -0.29747730929248667,
            0.024940616708112814,
            -1.3443252005869757,
            -0.27769022559482925,
            0.7297499300020167,
            0.36707516868809487,
            -0.0008885239320803569,
            -0.12414757855400954,
            -0.3729269524388204,
            -0.08770184592472592,
            0.18632659555664252,
            -0.16398998828541447,
            0.1959838536977293,
            -0.1929139651463293,
            -0.545639794063972,
            0.029756914069026565,
            -0.035310514935234696,
            -1.022890695347489,
            -0.6441602064633285,
            0.5196231361292171,
            0.07540653274732553,
            -0.5912847079670674,
            -0.1915495265815617,
            -0.16513850674543912,
            -0.2277317485774039,
            0.12099212386330366,
            0.050794437052376094,
            0.1184647965639032,
            0.2634153800929356,
            0.34137566001908176,
            0.04114604014776539,
            -0.03663541126566658,
            -0.4942293700664679,
            -0.05912447080833673,
            -0.19265452685536055,
            -0.2977200504796905,
            -0.35478042823756334,
            -0.1337415910938654,
            -0.8083955014247042,
            0.1282021567100878,
            0.07815938063571029,
            0.22039031241387405,
            0.17150203490870006
          ],
          [
            -0.4028856169966142,
            -0.6105877255153166,
            -0.06798518506099707,
            -0.02534931258389283,
            -0.20040257023686528,
            0.042143727423274976,
            0.27288411151522335,
            0.29592121514278463,
            0.017813430046868375,
            0.25788046031591627,
            -0.39798054739926403,
            -0.16078606461370767,
            0.37304989935010263,
            -0.6526421584605135,
            -0.4897364174529238,
            -0.19104165825672692,
            -0.3183932834460924,
            -0.44489406407845594,
            0.5799522772456666,
            0.5153973623150286,
            0.14161985872538693,
            0.2539339131676534,
            0.45342015288028786,
            -0.9676450717010953,
            -0.054480393698080797,
            -0.46074556785746207,
            -0.10201239275885543,
            -0.033518540070597125,
            -0.6724422767865871,
            0.09041150816358155,
            -0.5666541104488748,
            -0.5631509927729298,
            -0.024936642263629252,
            -0.05029222817029175,
            0.1815745385277168,
            -0.07303568679738989,
            -0.07865578163882021,
            0.1594954100348526,
            0.35267782618389143,
            0.013136394345557672,
            -0.3456019934066454,
            -0.3277476113719031,
            0.07874328635114497,
            0.7240353040201014,
            0.30745297337880867,
            -0.032808926011365654,
            0.15142374149257395,
            0.15198653618712402,
            0.058684015196198105,
            -0.32520977697492437,
            0.5425907657919046,
            0.025818266930492828,
            0.24100318566351212,
            -0.39125495476957256,
            -0.5239522670887291,
            -0.49492561765783655,
            0.2443033919780572,
            -0.21680069106027314,
            -0.6110906519579338,
            0.40424946527012967,
            -0.1609435016759806,
            0.3569791098916755,
            -0.039179709611358964,
            -0.36256470727569173
          ],
          [
            0.7071125022774163,
            -0.3029960666129751,
            -0.8714920921738822,
            0.012412314595449444,
            0.3596422821240943,
            -0.6795444627003933,
            0.2146509646584731,
            -0.12725620323279158,
            0.44085603704148,
            0.30953271406456867,
            -0.1712635648047678,
            1.344841845311488,
            0.11202366275798498,
            0.041728313791700763,
            -0.37642584655216255,
            -0.856831969268254,
            0.626990890249901,
            -0.1171071069499102,
            0.15720903771505326,
            0.2008996286027557,
            0.16917838271097327,
            0.15338210836921226,
            -0.22218615952729978,
            -0.21316698389663336,
            0.5120612635458203,
            0.35329188850023885,
            0.014555315101811009,
            0.19880295064535267,
            -0.8874109346634631,
            0.1694515503026357,
            -0.23327908410169979,
            0.562400982816948,
            -0.3850820837303039,
            0.8038635422768519,
            -0.367736216546417,
            -0.17745793705502297,
            0.19569479631312944,
            0.46710082890321036,
            0.5179545476315701,
            0.8275686637938464,
            -0.5972767030368462,
            -0.3930230632314381,
            -0.21624216186966397,
            0.5192974673647822,
            0.42666779735299326,
            0.6078377308002958,
            0.047348730513925574,
            -0.2038092256180977,
            -0.3382271653678794,
            -0.062152766761851684,
            0.2618733475827002,
            0.01469227814384582,
            -0.5092812711780098,
            0.5295211326707027,
            0.5868965959249065,
            -0.26949255776963965,
            0.003805362587069857,
            0.47224835704132295,
            0.15221070781621918,
            0.06254413949442737,
            0.15777425041193738,
            -0.16116027465525418,
            -0.6519980414664915,
            0.1053536098966071
          ],
          [
            -1.77994893181054,
            0.3521546668454169,
            -0.1328817230392185,
            0.2005555762166648,
            0.09355222102497127,
            0.09638999762890774,
            -0.6794601007592154,
            0.3491417814386417,
            -0.18137498430548574,
            0.3549345331799786,
            0.12486815660295804,
            0.2551135363624048,
            0.47297006785326684,
            -0.22441188775700743,
            0.5352705275754897,
            -0.18881017006267864,
            -0.9233274092005473,
            0.20994762202507777,
            0.4005629690879023,
            0.19805911303382215,
            -0.23674914569815692,
            -0.7197127644464864,
            0.1532712346954671,
            -0.5906885670552646,
            -1.1040941681960925,
            0.03781875693002492,
            -0.04651431723152257,
            -0.12837924664174621,
            0.3137307805504602,
            0.10968121901183504,
            0.224159433855221,
            0.19486432792528494,
            0.09862446255382136,
            -0.7341592808598595,
            -0.11457485891525931,
            0.8301122899352303,
            -0.18929928900941703,
            0.5090661386035173,
            -0.43211559340992495,
            0.23180860270590747,
            0.5411250993010236,
            -0.19765559316981976,
            0.1367435203002382,
            -0.20071486133677158,
            0.28452464516977205,
            0.23967769359374044,
            -0.09072870419937848,
            0.017806812960352143,
            -0.3497422671385925,
            -0.45451062552398896,
            0.2516781053632568,
            -0.5338787267988622,
            0.38035392621180475,
            0.2853449115380674,
            0.16057130762733485,
            0.3000794592667595,
            -0.4326364409748169,
            0.2946890314067052,
            -0.332187087994579,
            -0.10710928408156921,
            0.04822303296473844,
            -0.47831768054571633,
            -0.42914354608377553,
            0.01667481764905802
          ],
          [
            0.23306857863623,
            -0.3540205251076476,
            -0.5667496017947736,
            0.03319589601956809,
            -0.058752443512847516,
            0.05409113964606199,
            -0.007503288651075901,
            0.23317060554672991,
            0.11086428150112151,
            -0.15025940631584522,
            0.31830136140233195,
            0.11090709721485138,
            0.14150661939901,
            -0.4635306771814981,
            -0.06603075792614324,
            0.38011171850196285,
            -0.9617263076441748,
            0.14219424502054887,
            -0.30754109744525276,
            -0.035292810371540466,
            -1.1504965675261938,
            0.0070976841338072525,
            0.3289464718797256,
            -0.21318785342907898,
            -1.078140342861137,
            0.11052997253408213,
            -0.10165133317874477,
            -0.2694931368043292,
            0.10589776290249432,
            -0.27554966188383523,
            -0.0034748193765799327,
            -0.3281081364242769,
            0.19890943628560048,
            -0.2964486049430654,
            -0.365673248952032,
            0.02559388639058248,
            0.26877841252005985,
            0.2048492569821968,
            0.009674122485681176,
            -0.8348945970982944,
            -0.4481676872370047,
            0.055531294257393914,
            -0.12345695264826971,
            -0.3065667600675806,
            -0.39076044813048094,
            0.040273972188699395,
            0.15618231299616336,
            0.3214406275381833,
            -0.09416049814659923,
            -0.09954167131556266,
            0.11628455767676854,
            0.11838275955486237,
            0.2692679992537823,
            -0.27231522651439577,
            -0.5577048620066221,
            0.22345899135057382,
            -0.048129563693713504,
            -0.041137870977454964,
            0.04337229954013526,
            -0.14979601999531766,
            0.2039926516147318,
            0.10775740104487726,
            0.038370701144592595,
            -0.16126393438217618
          ],
          [
            0.22830595298811665,
            -0.5227792836271752,
            0.4967038152818701,
            -0.1185031196646495,
            -0.4463389588069236,
            0.4063037345426341,
            -0.5375298970804273,
            -0.6212948637738931,
            0.20399128349730378,
            -0.030252623267408508,
            -0.1814546467066307,
            -0.015046995589098396,
            -0.3770675205406545,
            0.15493724728859853,
            0.4158781080933042,
            0.28293210165834637,
            -0.8472491057535146,
            -1.1785785041730559,
            -0.7560937270775241,
            0.46812908891158267,
            -0.3957517389785819,
            -0.17883557188644694,
            -0.06967396172914997,
            -0.3950758753025702,
            0.2989220208058628,
            1.339619916056794,
            -0.09042310942202622,
            0.7677626430147674,
            -0.7399223390797596,
            -0.8575955530692511,
            0.23001688214022029,
            -0.25564054867954594,
            -0.07408264801470135,
            0.06729695894566123,
            -0.4362260673274535,
            -1.8450771325296986,
            -0.7507483635531926,
            -0.40967134099834857,
            0.3215602358326462,
            -0.805970010247376,
            0.03549063503341719,
            0.20457240081197997,
            0.7330928827813987,
            0.5662318484142596,
            -1.8486454003164567,
            -0.13574465761114804,
            0.43056927194471833,
            -0.6299519883058347,
            0.16250140617801156,
            0.1356121522683547,
            1.188691888968462,
            -0.4375353653154916,
            0.2572113320858719,
            -0.8344007898432727,
            0.6606269396635781,
            0.6906938933330186,
            0.0045315428447092855,
            -0.9112211368278218,
            0.07274851502915136,
            0.36024588104182,
            -0.7578589436941404,
            -0.33624190453478336,
            -0.3003135152498765,
            -0.11164074441845129
          ],
          [
            -1.2525989541745353,
            0.3085968291648102,
            -0.19221604433127026,
            0.3723477850119133,
            -0.4771637208977436,
            0.24248021262158148,
            -0.9822885810821635,
            0.2968145220840092,
            -0.3446296628153401,
            -0.33008598731487104,
            0.12099867161194791,
            0.24156030999567435,
            0.2900558715795522,
            -0.80840668428538,
            -0.046121267302152116,
            -1.6275128737648767,
            -0.32632344872420055,
            0.07789079961055669,
            -0.6106238343880326,
            0.1383646614469486,
            -0.12893091310013177,
            -0.449161004138622,
            0.23383485664013692,
            0.02048976334469582,
            0.282152062449887,
            -0.23513475529945785,
            0.5345394178920506,
            0.16920018220538802,
            0.6896767990337168,
            -0.18751583481605774,
            0.08184399553268937,
            -0.10663816448299067,
            -0.19487940688469577,
            -0.7676824281765219,
            0.2922436580319622,
            -0.24003609093364497,
            -1.957033063320841,
            0.11565992920640168,
            -1.4076732872739814,
            0.05460155500775193,
            -0.5372878363937963,
            -0.07248133405567542,
            -1.2521045846118,
            0.3724961702525487,
            0.5188399709046903,
            0.25601405356646445,
            -0.004660867546129324,
            0.15624049274829743,
            -0.3123898124181947,
            0.46596351026312355,
            -1.122216822203385,
            -0.2274945355724533,
            0.282627844503733,
            0.6889384540719181,
            0.06724341498568488,
            0.27817186015787865,
            -0.3626247022591595,
            -0.6262309139294189,
            -0.3816802893078412,
            0.422642728038846,
            -0.7204983381460685,
            0.2198109752780756,
            -0.8476166275256564,
            -0.2038862910883645
          ],
          [
            -0.07648554279607561,
            -0.8110034786351727,
            -1.021242901081105,
            0.20115930710287114,
            -0.7260210939067151,
            0.19597694348026778,
            -0.551790130179638,
            -0.9163390047335118,
            0.6357391081396635,
            0.5925788062976003,
            0.3798762992745116,
            -0.19123377880301323,
            0.08519839110723781,
            -0.26824528806136505,
            0.28932451432715056,
            0.3901099383729779,
            0.07654605658361462,
            -0.02568869020648854,
            -0.8837370548350274,
            -0.14258741326082885,
            -0.10118543497609175,
            0.2807988846351487,
            -0.03762525835775049,
            0.458420888104649,
            -0.034956572977652985,
            -0.09652565673360276,
            0.2803984169149037,
            0.3406784595555545,
            -0.5801452628816047,
            -0.7663300818324718,
            0.13416776927366272,
            0.05540876029988397,
            0.2941064459218372,
            0.4878777021797865,
            -0.9026689355321675,
            0.4590832321092322,
            -0.46373532326640493,
            -0.2870066976795468,
            0.1277257756221372,
            0.553473162507248,
            -1.2010897296872782,
            -0.4115569169519576,
            -0.08473438575324126,
            -0.4447396710386776,
            -0.7383934161845425,
            0.2665945678300996,
            -0.06616777205096722,
            -0.38716969978766314,
            0.1812481850936417,
            0.37572193885456895,
            -1.223463984334606,
            -0.38750009831610144,
            0.49108497194020734,
            -0.01926998062286992,
            -0.6757265008459641,
            0.17701369396029057,
            0.2743593712583008,
            -0.26055777371224254,
            0.4133596629124767,
            -0.18734124044235426,
            -0.20401929271031408,
            0.0295087677215493,
            0.3955827499025356,
            -0.24397754104520808
          ],
          [
            0.0923499807546684,
            0.24242615916222646,
            0.10547990352439116,
            -0.35359304562312216,
            0.23448361328689496,
            -0.13747948357317305,
            -0.5057643175949742,
            0.18487229913597233,
            -0.48905400064857835,
            -0.10080731489396477,
            0.22742989214572795,
            0.24062078362706305,
            -0.33400359265477864,
            0.06599541989478012,
            0.05053142548980052,
            -0.5861830457780489,
            -0.1552647500169583,
            0.22797321157369296,
            -0.4551953489233023,
            0.10372868458203338,
            0.20984270943013092,
            -0.4197610678723112,
            -0.3669551157472989,
            0.5264580973562791,
            0.20337002912306423,
            0.3474804369079899,
            -0.39245249341130517,
            0.2855794273476964,
            0.14382203249360692,
            -2.6111964420502165,
            0.0986838114321487,
            0.16349053804587685,
            -0.007642381157824167,
            -1.0875445444204859,
            0.019289220625705854,
            0.3609226744190702,
            0.27944595487984186,
            -0.4682766045398292,
            0.18512719425821805,
            0.07598550549249884,
            -0.039020319568793004,
            0.24592084987319462,
            -0.03881027018544784,
            0.096579146652744,
            0.5199132835842697,
            -0.08842758947378074,
            -0.33185377762886853,
            0.24157243717406396,
            -0.13744801256008166,
            0.19692132329657003,
            -0.7187145896070901,
            0.03478001598791381,
            -0.16814943626159623,
            -0.48358933392194986,
            0.33570076363697393,
            -0.04635247858527258,
            0.20762537272971165,
            -0.0939127122446117,
            -0.05141132347766816,
            0.02681809357040618,
            0.07285569834843203,
            0.174687956332096,
            0.05053376322067865,
            0.9060253497172835
          ],
          [
            0.0396906709231197,
            0.29628718578576846,
            -0.23172754603794932,
            0.4505601714733119,
            -0.560896249833739,
            0.351877423405376,
            0.10755041833590047,
            0.11376086422880408,
            0.32572416322376263,
            0.27532975726369313,
            0.11193870923692911,
            0.18349938617303976,
            0.057607475365493474,
            -0.21569419384832605,
            -0.4337231151708457,
            -0.23333099040846933,
            0.02068399170315904,
            -0.21033859036481306,
            0.6514025902743487,
            0.3584666980675921,
            0.012092865326462395,
            0.041653478973089256,
            0.16547060738393182,
            -0.5366554879655305,
            -0.17574583998844154,
            -0.33920985330909553,
            -0.022207031114533468,
            0.014317963821760885,
            -0.07728100787929058,
            -0.5012458836674446,
            -0.2349047373053148,
            0.3398674679728382,
            -0.18442585966780103,
            0.0668771915719924,
            -0.10561809693299151,
            0.3415307978056068,
            -0.48149432833449496,
            -0.03159627828608901,
            0.6879747235824243,
            0.2206796476785786,
            -0.018810813268480085,
            0.021804824428535263,
            -0.09397044383267358,
            0.3804026123776391,
            0.2968326420005491,
            -0.3243380322268222,
            -0.05027473242987466,
            0.13532686914029016,
            0.3049975999908072,
            -0.31490123172411144,
            0.4581869987252922,
            0.05753438494146758,
            0.21695908019015542,
            0.09245977608616332,
            0.09583934318394659,
            0.04602960172904365,
            0.024385097910948193,
            0.011205514847600026,
            -0.4488943312243976,
            0.0024916164560951637,
            -0.4513664052366685,
            -0.5396366840386843,
            -0.051166579527638145,
            0.4587644634755918
          ],
          [
            0.22051879174905706,
            -0.04426576172566025,
            0.259728711131113,
            0.20833292747005774,
            0.5944781094344083,
            -0.2288768138229504,
            0.2019126865336865,
            0.12307282786535217,
            0.08434350875904717,
            -0.175114792732405,
            0.10744780299483846,
            -0.07719539789252179,
            -0.029980769387809508,
            0.23676051406850465,
            0.46891906194102145,
            -0.6843974624087689,
            -0.12620111933673966,
            0.6652853071890032,
            0.040166378408377224,
            0.023182244068012454,
            0.1969690325940353,
            -0.7998427445655968,
            -0.22213641037557413,
            0.2837985034220885,
            0.36483439351549496,
            -0.44382614484116495,
            -1.1056369833452917,
            0.04797664382342748,
            -0.29318843951258944,
            0.6386243541442942,
            0.500945586468952,
            0.15702060124553377,
            -0.14421421509336108,
            0.14984501126113406,
            0.054357235085554755,
            0.32749759199629436,
            0.43862589532135793,
            0.40250542146715235,
            0.42833461126270406,
            0.4221870311267359,
            0.3408351000620829,
            -0.2603186621254748,
            0.07337010172442365,
            0.1820066295828334,
            0.3444356984909611,
            0.24396444736993791,
            -0.5155107440762424,
            0.2198254936688744,
            -0.11193560275925332,
            -0.2078744301741163,
            -0.22342754743174928,
            -0.19137944766404524,
            0.13036518516545878,
            0.05658246153373974,
            0.20732050889490683,
            0.6454938993170274,
            -1.225787197684256,
            0.3594199652044295,
            0.096753058994619,
            -0.07487716518088494,
            0.7406111448641723,
            0.14246066398777918,
            0.43221673620967993,
            0.27193490794491126
          ],
          [
            -0.3315006160062612,
            -0.08536382078933925,
            -0.15175622655370147,
            0.7001859592566242,
            -0.40003961901005014,
            -0.06565230457462537,
            0.6710780791541312,
            0.3022947344074978,
            0.6806774098504209,
            -0.29916368274341604,
            -0.09254545016345009,
            -0.4221436023135289,
            0.25767564369249013,
            -0.22437376135319753,
            -0.8073169870061518,
            -0.04586928076775111,
            -0.2970288255211942,
            -0.16281166575633213,
            -0.7031676133572203,
            -0.29510565319788623,
            0.1766576536112063,
            0.13818040575591847,
            0.09016663663054394,
            0.19999147953446908,
            -0.05135100636850689,
            0.0985879308621875,
            -0.007865992543666461,
            -0.18072054729772577,
            -0.3725296352130043,
            -0.31401656646516224,
            0.03672420824207813,
            -0.6534946984693645,
            0.06641371157750964,
            -0.3305963706349917,
            -0.12216208357514727,
            -0.5218895850193652,
            0.012654095644087184,
            0.2423338054801528,
            -0.28206310443858335,
            -0.6043789709263645,
            -0.16544503235681807,
            -0.10986083677221642,
            -0.2152871338886172,
            0.300231406844991,
            0.4472053281466633,
            0.08981300596116495,
            0.22136912469354186,
            -0.24425679245642457,
            -0.30754335227803314,
            -0.23834845672976385,
            -0.10331291341640646,
            0.3339368961983487,
            -0.0726200621632655,
            -0.3913933697384823,
            -0.38266924717665846,
            -0.1273274837585038,
            -0.4141343938522052,
            -0.35789863313062226,
            0.32721740173421177,
            0.32525738109605257,
            -0.07879994420337628,
            -0.0386505431850372,
            0.26390166854878067,
            -0.025896120215796393
          ],
          [
            -0.9718086149198972,
            0.2740233531699725,
            -0.11104239683423497,
            -0.5727989701362824,
            0.10799081478958927,
            0.5215208540655469,
            0.15609191799409178,
            0.3863780759008827,
            0.013987621358024763,
            0.6919258630394086,
            0.2887917953792523,
            -0.4279670314132434,
            0.7665089339864473,
            0.0498451080542418,
            -0.19501091456308128,
            -0.34518244550376476,
            0.893634485458758,
            -1.2373808446793675,
            -1.297524922294576,
            0.43824369433585364,
            0.40539880567355724,
            0.558648451043016,
            -0.03817855727987978,
            -0.18646520716773532,
            -0.7615212465286972,
            0.9777752049070491,
            0.25186002757518383,
            0.6443571948344591,
            -0.6684248477424185,
            0.37018222623930586,
            0.29009420799394237,
            -1.6569224056105631,
            -2.3086057979538173,
            0.4900041233488857,
            0.06867912781170925,
            0.43348252527747566,
            -1.1892190310787947,
            0.6798253610642406,
            0.1836096212440792,
            0.2041146515625546,
            -0.835457272233189,
            0.24383171260734993,
            -0.008751041953195529,
            0.05031882299453084,
            -0.4633146459753778,
            0.09771616949439196,
            0.021572146109865513,
            0.06927012115607661,
            0.0006607928369691352,
            -0.03224183929536879,
            -0.7508181720904362,
            -0.07392333005055907,
            0.1750634599017715,
            0.07764195151481645,
            0.04945304487141529,
            -0.8137708917841401,
            0.6922269557360486,
            -0.37527435897999295,
            0.15605897691502857,
            -0.054047707805681494,
            -0.03526074767137485,
            0.03577545129903954,
            -0.6141286521573465,
            0.5882951746921059
          ],
          [
            -0.43039331038899753,
            0.010352896549647913,
            -0.2541707267327014,
            0.10112511508206885,
            -0.0030009005593165695,
            -0.1300481575012578,
            -0.0017814090886243284,
            0.5085545827508808,
            0.09083221340139881,
            0.1544860400483138,
            -0.11496730826418924,
            -0.03510558036293974,
            0.6381960802957266,
            -0.31313275845173827,
            -1.4849042429185637,
            -0.38287255103187884,
            -0.09414324082363834,
            -0.21961143355090293,
            -1.1753076715382114,
            0.40888072283406324,
            -0.3610361430780594,
            0.3410418105143751,
            0.03185077707942627,
            -1.76092571812178,
            -0.1471325146197604,
            -1.4363967945503473,
            -0.14163605490793502,
            0.27680527946698064,
            -0.3349698754251059,
            -0.18497663971810002,
            -0.24324109049952283,
            0.2085439957792309,
            -0.8462671294859256,
            0.770243856147679,
            0.2552965180771952,
            0.28350907396502095,
            -0.6344249239396034,
            0.2055490434989733,
            -0.24597235321638633,
            -1.9034251220096803,
            0.08089047746626905,
            0.20140328035165833,
            0.7340818190468588,
            0.21140913611316559,
            0.5135388512452881,
            -0.3211484765032859,
            -0.16466636548508437,
            -0.2992991126643744,
            -0.00667365499758137,
            -0.24682718762850123,
            -1.4481235774609778,
            0.30044624954676824,
            -0.00933500811696969,
            -0.3223501307997238,
            0.3636191611333182,
            0.12421075242426244,
            0.06403550958253128,
            -0.3130080942276222,
            0.059883311262652617,
            0.38124721747509405,
            -0.17749586044801577,
            0.22794711721308872,
            -1.3862970938160333,
            0.17300658734775878
          ],
          [
            -0.4031773357412309,
            -1.8492959828514743,
            -0.7107596534147891,
            -0.7713889963650746,
            -0.5294411789004295,
            -0.6223363449285658,
            -0.34814724340719777,
            -0.061990363665698364,
            -0.18845447576960367,
            0.4312479287919508,
            -0.5869818931199826,
            0.1688231251497432,
            0.05246282952115512,
            0.010959478499923903,
            -0.27229789326426257,
            -0.22666752189886996,
            -0.5394365626399098,
            -1.740315046707037,
            -0.2784658956398934,
            -0.5810783623548367,
            0.030820144776130414,
            0.311657342860425,
            -0.25052418186417963,
            0.25181227173107035,
            0.14889057695061467,
            0.7129932609815337,
            0.5964913724960199,
            0.46927602325259055,
            0.5646979289177662,
            -0.5719493090629327,
            -1.770401989321871,
            -0.21004096013190263,
            -0.16485467273185309,
            -0.748627991337616,
            -0.14763191922939756,
            -0.5518467455187517,
            -0.4128654896404401,
            -1.434778692157265,
            0.6876612177236284,
            0.1577580739488014,
            -1.0754613246117997,
            0.4165286152062808,
            0.5824026584534747,
            -0.2469324467365288,
            -0.6992237648724042,
            0.7425086595209115,
            -0.12716781502322883,
            -0.1218204364527976,
            -0.3428034905914054,
            -0.18283020837806824,
            0.14039557991372276,
            -0.29173367285594154,
            -0.059131807404770136,
            -1.4138900246263792,
            -0.0451032573981367,
            -0.6145278476621933,
            0.24029911456366537,
            -0.19949724747872635,
            -0.9663499278519834,
            -0.6179477069024972,
            -0.24794052572780328,
            -0.13239514302897867,
            -0.05160234880906071,
            0.5416919531364978
          ],
          [
            0.4474249959323636,
            -0.007710774990709435,
            0.11027359371314745,
            -0.2741343817029539,
            -0.07189966366124183,
            0.24185526869761215,
            0.3750952386278015,
            -0.14312385595816393,
            -0.06616722510621856,
            -0.35399788923075953,
            -0.2973263948551358,
            0.3639366561148653,
            0.09815473589297234,
            -0.04797350605847068,
            -0.19329896034724028,
            0.06014064047755897,
            -0.9282067169133971,
            -0.4146269343807683,
            -0.07791744003987698,
            -0.5863192783755692,
            -0.31631199379825026,
            -0.2609354912950346,
            -0.5596721450196169,
            -0.5185810211471215,
            -0.29426553775955866,
            -0.3938711355660839,
            0.4677475253453786,
            0.4413937677514782,
            -0.030541552519328583,
            0.3033519173982695,
            0.3439212014310676,
            0.23582291514792728,
            -1.3649964268195376,
            -0.4372705162945093,
            0.6280132060114125,
            0.25905371169158703,
            -0.2788705166175917,
            -0.4859133765429938,
            0.16790998790266376,
            0.34960623094267695,
            0.4659019828560991,
            0.6052097989660603,
            0.3045550917015998,
            0.09591098007801535,
            0.7006182964239261,
            -0.5293179993129202,
            0.2860431257278354,
            0.24164820303182416,
            0.013993251834548758,
            0.15752732167724606,
            -0.3722286052815757,
            -0.5330913312700251,
            -0.2999482042663076,
            -0.7832086262920612,
            0.6183268499848044,
            -1.0282317050209628,
            -0.15779130008453235,
            -0.06209157235818605,
            -0.2658477426564908,
            0.327908884570642,
            0.25098765525606276,
            0.10332410880926164,
            -0.006729167659609842,
            -0.25541161505266485
          ],
          [
            0.5063579169138432,
            -0.11690732096126204,
            0.10687020354022811,
            -0.9040369777800153,
            -0.002670171072239054,
            -0.31605994393550846,
            0.2414284977971691,
            0.8707162354650593,
            -0.08263474902626987,
            0.2253180954730778,
            0.47691912398748254,
            0.07056259958059201,
            0.35430860662576785,
            0.13406474932025136,
            -0.5295293806712461,
            -0.41590008941653694,
            -0.18209126388258737,
            -0.14487372753321148,
            -0.5594653428843067,
            -0.01889986679140963,
            0.5129940480992217,
            0.6285711667340625,
            0.5325592462244267,
            0.11827779685594152,
            0.7316401874351961,
            0.5268405645813934,
            0.5428437661244675,
            -0.09804461994745474,
            -0.4685961595116921,
            -0.0034639610056296406,
            -0.25463989873871545,
            -0.1792693517361957,
            -0.15618930071206,
            0.5184098605746174,
            0.47485335696256253,
            0.22267015908436746,
            -0.26034921002104944,
            -0.33101734330658145,
            0.14345427140926872,
            -0.09890721379855327,
            0.24475669863992744,
            0.17896912217145175,
            0.2191483216762626,
            0.20389228032993245,
            -0.21040158758170488,
            0.3131902253129511,
            -0.011815115727814608,
            -0.40372221830445526,
            0.25946478841331616,
            -0.12480594789505967,
            -0.15760437680849332,
            0.2861946013904092,
            -0.14549518790729346,
            0.21995109207651023,
            0.19356851499073943,
            -0.1653150631048273,
            0.04860963032438129,
            -0.8930975386366768,
            0.09484989344251431,
            -0.5202077213223095,
            -0.2507800403036907,
            0.3673223902956747,
            0.0799475038078346,
            -0.2128869856227567
          ],
          [
            -0.1957416776039908,
            -0.450225152706975,
            -0.3964612190552384,
            -0.11787939583211851,
            0.11174361664141123,
            -0.20530888429198527,
            0.15191856168236442,
            -0.34191812160355306,
            0.04787120078009331,
            0.27650210277644977,
            -0.11412848670274175,
            -0.02061444010035283,
            0.016966833527192342,
            0.2659306997563476,
            -0.20926044328681465,
            0.36933161548886584,
            0.3369972773118128,
            -0.2504416141701022,
            0.047958747022487154,
            0.0900787160213769,
            0.0520523471753425,
            0.04986875201112762,
            0.20394874618922104,
            -0.6946560669816184,
            0.12376454238517418,
            -0.348085859514074,
            -0.5194833841829382,
            0.09032878412584934,
            -0.9579979706741764,
            0.08510620940651785,
            0.2689363737315571,
            0.06417941620902136,
            -0.21085251149062295,
            -0.09644675536755087,
            0.5507939687123792,
            -0.36935568980725386,
            0.27137307955400636,
            0.2677542895537643,
            0.0665128090670144,
            0.2915834027737222,
            -0.3986328039103519,
            -0.061050469228446126,
            0.3832992144885797,
            0.3524656626060261,
            -0.35741395434224804,
            -0.072084724379107,
            0.07765153574926559,
            -0.37468985805856203,
            0.198403038697405,
            -0.6939948594501347,
            0.3455607195683563,
            -0.07154638545117298,
            0.13839493705812952,
            0.37854624458580394,
            0.015292973521992975,
            0.08929351602607156,
            -0.5585789493192739,
            0.5182211672391595,
            -0.5293431773645277,
            0.11920046140760199,
            -0.058717964085035226,
            -0.03958312931046366,
            0.13204260974947493,
            -0.3462223862566399
          ],
          [
            -0.5245158005242118,
            0.0422427211331272,
            -0.18755431574322473,
            0.08106650501630933,
            -0.31776438844887495,
            -0.8059867070754979,
            0.17960172079570505,
            -0.2603883351931798,
            0.09832406796094308,
            0.3369586051842385,
            0.24005383029654132,
            -0.19059330171150152,
            0.017587736816232147,
            -0.24541601998239304,
            0.09243755112468457,
            0.5142701441777072,
            0.2257830171021928,
            0.1448939262912204,
            0.227014177195191,
            0.15589760276307252,
            -0.22450908852994822,
            0.30819049972053464,
            -0.07978704537974862,
            0.013272798037083524,
            0.3758705168757486,
            0.5940488819037409,
            -0.47907589639266496,
            0.3767263367699541,
            0.09469196641139059,
            -0.013342262916440369,
            0.319236772644539,
            0.266117523098141,
            -0.14462874652154883,
            0.5292931427875482,
            -0.17042382906602954,
            0.006454176978303006,
            -0.12273202231524812,
            0.4209366848823008,
            -0.12758804741300153,
            -0.3023900808991419,
            -0.5535697619197198,
            -0.39486286363282797,
            0.2229697278367947,
            -0.17660758297075507,
            0.2196617852595502,
            -0.1238538025626454,
            0.2436760358948381,
            -0.28753258713725793,
            -0.10131644769210632,
            -0.0262468331850261,
            0.15952417419740914,
            0.19163769460987912,
            -0.11459675758005113,
            0.42664181285933334,
            -0.8090385930362499,
            0.42235895337614426,
            -0.4869309889667948,
            0.5835290268053748,
            0.391479779690223,
            -0.028206520683801133,
            -0.18047002111847676,
            -0.3511140908678421,
            0.07581866148383894,
            -0.1560487289790823
          ],
          [
            -0.1973169684408101,
            -0.02149204900875218,
            0.03283049376894481,
            -0.0774546704549457,
            0.465038082955721,
            0.3590900416985308,
            -0.127518408813655,
            0.021322227370056675,
            0.06691019699495303,
            -0.811602434304299,
            0.2075658566571193,
            -0.15027240771082273,
            -0.41857070605496316,
            0.28511846582284417,
            0.594493047488481,
            0.3933766832755432,
            0.09891092635261886,
            -0.14936032024095883,
            0.3036575316698654,
            -0.1926851924311272,
            0.06166187870014788,
            0.019087217046567205,
            -0.37751941335756595,
            -0.1643429536418604,
            -0.2100634720363835,
            0.0429019560691553,
            -0.10342996685189583,
            -0.44816208211031766,
            0.014454333318391495,
            0.4204107597260923,
            -0.4155846387402226,
            -0.19663088362135794,
            0.10418040049019872,
            -0.0030931068686055863,
            -0.3109018259966601,
            0.26229191758220843,
            0.11066438923045373,
            -0.18298745233987648,
            0.14150025420464957,
            -0.8214308898348204,
            -0.401296380031634,
            0.1557780221008092,
            -0.9658567982798814,
            0.14598113530918322,
            -0.32512412224052195,
            0.20451666353902073,
            0.25246990814468767,
            0.04449218315931864,
            -0.23502268459335837,
            0.1152018198219699,
            0.19648752142471176,
            0.25348343187851213,
            0.0932350435192211,
            -0.3352341018950796,
            -0.13502470246306486,
            0.15004634077349477,
            -0.10819504017989072,
            -0.38327938377262605,
            0.28138508345508595,
            -0.07213224628934678,
            -0.10339694084722265,
            0.34601392816902327,
            -0.0696822606863167,
            0.48139476330491027
          ],
          [
            0.32446993271978625,
            0.1926831839611508,
            -1.312238177081541,
            -0.6144065487945315,
            -1.806729170156553,
            0.034407415888919754,
            -0.7994132213676315,
            -0.4859034992896899,
            0.18649466381200328,
            0.03764942649455572,
            -0.08919181397458972,
            0.06961464648339848,
            0.19648098099299,
            -0.20449342164545087,
            -0.7493406058982828,
            -0.8326653185247544,
            0.22537044327319136,
            -0.3799136151072281,
            0.017633371144473428,
            0.21493604254348814,
            0.18457488529920188,
            -0.06918007226390399,
            -0.23285132441470682,
            0.22521363405333317,
            -0.6055095215244887,
            -0.04026128505796094,
            0.23515458205144485,
            0.28877017396478816,
            -0.1464811016446477,
            -0.5988295319940977,
            0.6914902418831106,
            0.1435256166159649,
            -0.264148419573621,
            -0.947256985563011,
            0.1911063851990278,
            -0.17993710802799245,
            -0.9239140398945,
            -1.4576617892561676,
            0.14089492778014273,
            -0.5450211442135378,
            0.01888987555972107,
            0.25911236216307726,
            -0.24208891487030681,
            -0.3452763783004111,
            -2.2795187849420975,
            -0.24804379720240854,
            0.28943264643135663,
            -0.013338122465982523,
            -0.024227010977774542,
            0.4007773263542527,
            0.8468462970898547,
            0.018230752346227105,
            0.18745127863021535,
            0.39027361969022084,
            0.5406739930745778,
            -2.6920501809236157,
            0.013025511868977165,
            -0.47896948107236736,
            0.22307950247984926,
            0.22165591552701192,
            0.31372956996242685,
            -0.3087841782833179,
            0.2773029270670372,
            0.3305078849154929
          ],
          [
            0.5169108935496882,
            -0.2811574633185084,
            0.4024928969334689,
            -0.5774185480504336,
            0.5145878216660678,
            0.1939315033364864,
            -0.22154254613144247,
            -0.455985754795016,
            -0.8029999555172432,
            0.43828293106529226,
            -1.039073767500542,
            0.09729219516074719,
            0.5719079572909311,
            0.07059516768163106,
            0.05323479161669492,
            -0.6057689569650783,
            0.15324006716848024,
            0.6788670005787799,
            0.15636999502042992,
            -0.6589052319656259,
            -0.10808158170264266,
            -0.14000208474687645,
            -0.1526314239678347,
            -0.14117879656451962,
            0.016045522839429692,
            0.037956208238828504,
            0.0525918993319939,
            0.24106012895490705,
            -0.07528981448001248,
            0.03330315182794265,
            0.19891049074505426,
            0.4622644098235003,
            -0.22163851503719884,
            1.338178488123028,
            0.30114065955989805,
            0.10103934075077495,
            0.400642396591321,
            0.872214119063685,
            -0.0360316127807109,
            0.049298048459439865,
            -0.5082538411168703,
            -0.3082280811641895,
            0.02429058921540718,
            -0.35322195375814563,
            0.7075345618454884,
            -0.08355742290073852,
            -0.12173913734029156,
            -0.2261608940056868,
            -0.06870415222054513,
            -0.22905513108353223,
            0.1148430519704473,
            0.24729928759163203,
            0.05698018595376357,
            -0.03649336773788631,
            0.5222669874496779,
            0.1439594927253193,
            0.028101564980346213,
            0.16344776292464205,
            -0.4172445906412925,
            -0.6618336863830974,
            -0.028326645775161585,
            0.08419730079564464,
            -0.20033136966266374,
            -0.29474530228034485
          ],
          [
            0.132641925165064,
            -0.4308671855967524,
            -0.46586320699012074,
            0.14732683484133607,
            -0.09692136801651556,
            -0.00068267661498992,
            -0.9725224356082073,
            -0.3356466442616973,
            -0.078059862604161,
            0.5791797016318679,
            -0.14116176967590616,
            -0.20118887642075461,
            0.41969478845269986,
            -0.4514055682991696,
            -0.11909316081556835,
            0.25295438664167974,
            0.011607823062074408,
            0.14965397954400997,
            0.15909438691086442,
            0.32158405604559936,
            -0.060687225559978984,
            -0.12140392954939931,
            0.38647842261932613,
            -0.21539327869125977,
            -0.0409279770101757,
            -0.1774444130413863,
            -0.013600789547448531,
            0.7790038622283647,
            -0.29565987532098303,
            -0.11735761150643664,
            0.13126871635459592,
            0.06904741256594073,
            0.42465189466923237,
            -0.5156891394642785,
            0.28615011156815784,
            -0.6389991432973038,
            -0.6611838359220026,
            0.2251071192573327,
            0.18574043825089506,
            0.018930982100219654,
            0.7741993438998784,
            0.1671322742788695,
            -0.14205070500518807,
            0.17825954007551148,
            0.1241993008208848,
            -0.03130330060603117,
            0.1499574117167025,
            0.3153716753581231,
            0.2974372716874048,
            -1.0217378976513323,
            0.1567813475972755,
            0.2853725430778328,
            0.3663096623758739,
            -0.0026371578365273875,
            0.5891801173173531,
            0.11225960528434982,
            0.527084212361454,
            -0.09545178979687677,
            -0.026267370797474123,
            -0.08571619300636425,
            -0.2850256397606639,
            0.1535228386858312,
            -0.4606323388130327,
            -0.263464349433767
          ],
          [
            -0.05745997351743421,
            0.0993102576627076,
            0.07848852593195976,
            0.05911686110775856,
            0.34370535197037055,
            0.2657650612434345,
            0.1823884372527242,
            -0.09028863213891786,
            0.5696992346399549,
            -0.03569473615936665,
            0.11354997036716141,
            -0.015107094229536384,
            0.34139174819690066,
            -0.4756685241476545,
            0.36148783315727623,
            0.2154997234212319,
            0.12679699824960275,
            0.06350951945241644,
            0.39464671401670937,
            -0.21127654886592726,
            -0.2474286781990715,
            0.1775383638895565,
            -0.19999171221472264,
            -0.3151303922746865,
            0.0782212112384868,
            0.1645604001058758,
            0.26875926537012435,
            -0.6496291391516218,
            0.011752501192921639,
            -0.2018178156979473,
            -0.21918064631989792,
            -0.12070107409470036,
            0.5717395130292723,
            -0.9083150595543651,
            0.3097759093394034,
            -0.20512454295852547,
            0.4842986019910068,
            -1.2706564817474832,
            -1.5178960486453472,
            -0.07052060469265369,
            -0.20981987832747157,
            -0.3476374157051306,
            -0.8620266522920975,
            -0.6802843318030126,
            -0.4512052271200878,
            0.3659135821746856,
            0.549017889433412,
            -0.012554076835846034,
            0.15419617581492176,
            -0.022009855572512643,
            0.42024226530454145,
            -1.521996237472717,
            0.27490062297865353,
            -0.20895733459613822,
            -0.053393105544859175,
            0.3390175788391424,
            0.5473376841804157,
            0.02330501494758809,
            0.04125829589047301,
            0.22648105076833414,
            0.5471657281576052,
            0.563107742543628,
            0.6933667954920951,
            -0.7791874386062497
          ],
          [
            -0.694812863701038,
            -0.2765782068379961,
            -0.15107072333431867,
            0.19743556734268491,
            -0.8385402013871325,
            0.35210391690250875,
            -0.18319513544172383,
            -0.7560897745825989,
            0.10046810112587644,
            -0.7037875364760837,
            0.07996270323084995,
            -0.33939600364800193,
            -0.04755815442129926,
            -0.19882827357950636,
            0.1210774590230463,
            0.024648616770762976,
            -0.0687725327904366,
            -0.122555704470657,
            -0.2752185088818245,
            0.09035798683258413,
            -0.002798788145134674,
            0.4033172474126318,
            -0.22307258772075278,
            0.12424603742826724,
            -0.41700642319804476,
            0.5716428246437466,
            0.40317817423894736,
            -0.5342808420944288,
            0.17139508378334972,
            -0.8788169728048467,
            0.4273138628830931,
            0.00714222445536444,
            -0.027191977857094565,
            0.25023969906914656,
            -0.4637496676653565,
            0.5772581484893771,
            -0.7658479219518866,
            -0.5802696517653041,
            -0.49179333359276617,
            -0.17570830729494807,
            -0.24766528537316349,
            0.30090186785891243,
            0.22695371315682977,
            -0.2809621032879776,
            -1.5515184253913812,
            -0.12825974054674508,
            0.2662874878625402,
            0.1507085392012875,
            0.19907524987761333,
            -0.4949456080258018,
            -1.3201647522056792,
            -0.5151589567896457,
            -0.18173051034039392,
            -0.6601076688120889,
            -1.0866390769768,
            -0.5274544320939082,
            -0.18927885473625547,
            0.3833557089887764,
            0.3127578302232289,
            0.17843303687970824,
            -0.10074257633552755,
            0.021695377212196165,
            -0.14030113258293336,
            -0.051082952853053774
          ],
          [
            -0.20107121114399182,
            0.3102799597397902,
            0.3618057356238772,
            -0.6206533449337052,
            -0.009768208575287953,
            0.30365381444241946,
            -0.049726368111208716,
            -0.524457461031894,
            0.020111404287599926,
            0.16792034047658022,
            -0.3747146947922599,
            0.3044756670694528,
            0.23980196153491676,
            0.5400820080738813,
            -0.25401789656337326,
            -0.1301386370411556,
            -0.06316286940495985,
            0.26454202309794894,
            -0.13079730441450343,
            -0.2163635618226856,
            0.11651996236624666,
            -0.30991707637944127,
            -0.2148234534262477,
            -0.09650249953434824,
            0.18330718264941523,
            0.025538062859833833,
            -0.16495166986134888,
            -0.2331883608208162,
            0.09080253162808609,
            -1.1368665618357798,
            -0.2736247061683097,
            -0.7347380289946996,
            -0.47359658140101785,
            -0.7309918095574063,
            -0.01597071661782189,
            0.3193589984808612,
            0.04386614475621547,
            0.29533214452995615,
            0.051440051178999115,
            -0.01517666088715241,
            0.2787629235170987,
            -0.0898710677433287,
            -1.5921314495620318,
            -0.2009815672566324,
            -0.3491566579909458,
            0.19762134191718317,
            -0.0959116285672693,
            0.10864354313238515,
            0.4833288117583026,
            -0.19860427305250047,
            -0.40099260971289447,
            -0.061050112766562865,
            -0.009194208255657485,
            -0.32926370711572467,
            -0.15138604456694282,
            -0.0036191608608524507,
            0.35226199039022044,
            -0.47421238683323086,
            0.05757792571360504,
            -0.4331437891177344,
            -0.2789476257443636,
            0.18635933693743012,
            0.3515746802692226,
            -0.0590047301199456
          ],
          [
            0.38356391013050434,
            -0.22593608107119884,
            0.0974326600489763,
            0.01524236365476059,
            -0.13667785786086364,
            0.1622119724298376,
            0.3733891041884054,
            -0.9813799033854592,
            0.17453871128793816,
            0.24308797535077897,
            0.21795930791919668,
            -0.01569778097214854,
            0.13145585865503998,
            -0.08812036748824628,
            0.3628000443522619,
            0.18940796038559915,
            0.08577215261600431,
            0.5577779128731467,
            -0.04380426564700291,
            -0.3095005385533221,
            0.13194789953432337,
            -0.3349663160218571,
            0.0542461535355826,
            -0.42083145570796904,
            0.03579421974535854,
            0.15845705467076932,
            0.15771442921528528,
            -0.9179535408579818,
            0.027800996524948714,
            -0.37154845725071434,
            0.28407142572770927,
            0.07642774755478979,
            -0.025599993613518085,
            -0.22886107566600103,
            0.31213625816790996,
            0.2931628545800467,
            0.19594866392534194,
            0.6624791274568947,
            0.5268716893416373,
            0.2665277936878836,
            0.13848461797155423,
            -0.30029643813065454,
            0.4388208395598562,
            -0.0866607114013101,
            0.39709568606110374,
            -0.06003902127608696,
            -0.5040651859668807,
            0.1425898749266717,
            -0.054747935041790714,
            -0.0853843481337177,
            0.4547149290472423,
            0.45904871895453814,
            -0.24495697048899379,
            -0.4078721590583337,
            -0.2861906965679984,
            0.25020856130504215,
            -0.42078497751270005,
            -0.6333494441504064,
            -0.12467162198436059,
            -0.6893337865235079,
            -1.7470906508504427,
            -0.18290382612517253,
            0.46955454227599436,
            0.7576662473541584
          ],
          [
            -0.6505676587155325,
            0.01870604867351399,
            0.3364930210402989,
            0.42073484699495606,
            0.14349455503428274,
            -0.02249458225662831,
            0.018619760023693272,
            -1.3147606658357873,
            -0.05990429195631843,
            -0.08149224340150088,
            0.7785815993282338,
            0.26959457253361274,
            0.1854647962510378,
            -0.33727636543100437,
            0.3892724455001515,
            0.2100627877753174,
            0.42484129686051847,
            -0.11045286946464554,
            0.1116240501715366,
            0.18656267592610903,
            -1.0603287188828132,
            0.18947547138864326,
            0.14930226871705857,
            0.36290877649518605,
            0.44788431077465424,
            0.4279470941369827,
            0.39455819310095475,
            -0.3936018031940202,
            0.05677111389595386,
            -0.47098745970218997,
            -0.04042337633751288,
            0.5852289144003452,
            0.2585861214259077,
            0.34733806656160765,
            -1.1183089814968408,
            0.12757848414353767,
            0.32162815921819776,
            -0.5016877362862777,
            -0.5780789828206102,
            0.10727990650276971,
            0.17319106554699706,
            0.020939800408627314,
            0.2712131145067321,
            -0.2072547169890267,
            -0.16212595467097546,
            -0.22591137873799758,
            -0.03197260682018176,
            0.1856249819456082,
            -0.1519937806014593,
            -0.09475372141788672,
            -0.8240822375945475,
            0.24126682847126749,
            0.021536262499364738,
            -0.5157136443406387,
            -0.3426800619867255,
            -0.6847859361813098,
            -0.1319045485393949,
            0.5039713564923973,
            0.16207003383110707,
            0.19492973125057936,
            0.24667638778447296,
            -0.3171130158085194,
            0.16695168616725134,
            0.2167029658977161
          ],
          [
            -0.465678902788482,
            -0.0027734742954164285,
            -0.2996050440421304,
            0.2600050707874931,
            -0.5527624765170251,
            0.18328198264922224,
            0.0947806384455205,
            0.10117122109930607,
            -0.07085540641829363,
            -0.5794885107421767,
            0.3888078907395755,
            -0.5450062756781788,
            -1.0172367326380662,
            0.1330590966901464,
            -0.22022992173458117,
            -1.0230623458816246,
            0.08408896427996251,
            -0.9186791930673688,
            -0.08495418968312146,
            0.0207442671501401,
            0.2026992980450918,
            -0.6688634850672597,
            0.17829266581177342,
            -0.14605671807721685,
            0.09039023776326317,
            -0.007779878750947841,
            0.031092829566861036,
            -0.5936114964287837,
            0.2967843979935461,
            -0.29759566195948667,
            -0.34795651570346703,
            0.2985523084143661,
            0.07257660243499095,
            -0.4323453599384124,
            -0.09119753589490467,
            -0.19157338133294993,
            -1.1956519084503576,
            -0.5604032364494286,
            -0.4307032031789224,
            -0.28038188342099485,
            -0.12214767735339757,
            0.42249103614237554,
            -0.7016726029719461,
            -0.07046670222613287,
            -0.023978476724257288,
            0.17216151988488845,
            -0.02543118556986363,
            0.43485641599933167,
            -0.13977619847223957,
            -0.48733552044312467,
            -0.31286958440068835,
            0.05664627200919773,
            0.27833387552868233,
            0.0004074526850109936,
            -0.41581830882646204,
            0.20629138324173274,
            0.17206729005535415,
            -0.227749711076802,
            -0.03852103844657328,
            -0.026583020549369982,
            -0.2584684589366026,
            0.0925213398892043,
            -0.14364969418780968,
            0.33255513755947563
          ],
          [
            0.3380497100991869,
            -0.8747645676544188,
            -1.0701016489854334,
            -0.37723804588194093,
            0.40043138748804796,
            -0.09505797916104065,
            0.596763768354568,
            0.24712278982016408,
            -0.02281684716560889,
            0.40941687315429653,
            -0.0007366137996328309,
            -0.6926120599445296,
            0.1381676141298055,
            0.06262106806516612,
            0.1343785483053888,
            0.3115453456857686,
            0.26174203588484607,
            0.0611452051946755,
            0.07334921033834255,
            -0.5241498428459423,
            0.01246833958121644,
            0.025503115551966916,
            -0.01950332909543579,
            0.10668517810618101,
            0.1963939602782808,
            -0.8319257930059524,
            0.1267981342610498,
            0.11813892624849522,
            -0.5571698594107435,
            0.4300156906070337,
            0.55943088021346,
            -0.24437118431457183,
            -0.1138522389260063,
            0.7041007292100274,
            0.07578161549677141,
            -0.4640447876683306,
            0.03528776865056296,
            0.11580557031719611,
            0.04318761593512002,
            -0.47935699484027705,
            0.051472868758244944,
            -0.41829258514880074,
            0.04935543953352608,
            0.20740858917806565,
            0.4766009196094443,
            -0.08139797032828348,
            -0.1096083375784711,
            -0.3172966159391401,
            -0.02989355902885584,
            -0.06359667318341287,
            0.2789175323333754,
            0.30554072901778706,
            -0.25049671239014804,
            0.5447629522454681,
            -0.05162879965415091,
            -0.1275993109856177,
            0.24442930783381683,
            0.40995122576068915,
            0.17752079251206399,
            -0.10561241045523395,
            -0.1303607795659761,
            0.159514303596479,
            -0.06792817678107539,
            -0.16090902219909173
          ],
          [
            -0.1684198048835375,
            0.17712463100756076,
            -0.3045273738592294,
            0.055878420918739354,
            -0.5067909987391205,
            -0.09510051905809311,
            0.011834532969887556,
            0.4912287666318347,
            -0.2473316018204122,
            -0.2519153985043693,
            0.11810893475317592,
            -0.7014185633758114,
            -0.4283414034205335,
            -0.15428988738718946,
            -0.6353562459477228,
            0.5345030916034208,
            0.4357441017059697,
            0.7542614393638426,
            -0.005509740267322798,
            -0.03941321098617939,
            -0.8683720460054531,
            0.15255023881301538,
            -0.22179790342896674,
            0.4311043139907294,
            0.4686668954925683,
            0.13508338439905862,
            -0.038078606567391204,
            0.030168709360097995,
            0.3963372683450828,
            0.036014789532154395,
            -0.2450620180722801,
            0.0827351564973392,
            -0.23640030477653287,
            0.2850963483041074,
            -0.1089406692895348,
            -0.20059490587439952,
            0.35962134357359465,
            0.45399963571121743,
            0.10618065568083801,
            -0.6744791213937154,
            -1.80088537826558,
            -0.7259032971331205,
            0.4900784391776686,
            0.23633264832722348,
            -0.04917030433462561,
            0.21305084786971665,
            0.2579623748542394,
            0.05276968118727896,
            -0.19964065318624372,
            0.32541377121780596,
            -0.09299030136292598,
            0.39639299376483644,
            -0.002037054559034718,
            -0.1094604455399025,
            0.5856503994024178,
            0.3832366203635231,
            -0.5788912870559568,
            -0.5141680887259249,
            0.03847852417580367,
            0.40407294252209514,
            -0.4018814936023282,
            0.002411597800379394,
            0.14250224226164002,
            -0.2543564189061289
          ],
          [
            0.11566541174396842,
            0.3369521593680518,
            0.15847635898948814,
            0.16156024633585894,
            -1.1639549201037667,
            0.2554352030179492,
            -0.8220943793448965,
            -1.0928961252641518,
            0.07940900499953658,
            -0.75616129297733,
            0.5669348072748658,
            0.5845121201345862,
            -2.368336670581866,
            0.31253392719668205,
            0.06574844660493784,
            -0.8014474245890725,
            0.16340797551726163,
            -0.7490532136131163,
            -2.1265951942860553,
            -0.1559240059272234,
            0.1865983001870031,
            -1.3153498669442316,
            0.010161424692832034,
            -0.38196658781039755,
            -1.12148180239579,
            0.013944347447455279,
            0.15863244962930265,
            -0.6203559510011444,
            -0.5406670068628124,
            -2.4831777857129507,
            0.1377164447299038,
            -0.24463080010038654,
            -0.15024483983483758,
            -0.5572899972494408,
            0.03491225259256804,
            0.4015806352813026,
            -0.4798609385844413,
            -0.0847238014493671,
            -0.5903002206059538,
            -0.49825099224918046,
            -0.6185527740260642,
            0.2382812738949445,
            -1.7109438147256166,
            -0.15297752027308895,
            -1.0569954606368455,
            -0.0005997295835631113,
            -0.05277637954101406,
            0.43960277498024225,
            -0.06603124212664377,
            -0.11801271280710121,
            0.30936866614234154,
            0.08407082684013714,
            0.02507259628931625,
            -0.7356270696523569,
            -1.6286741448631579,
            -0.1312623201199214,
            -0.4575603979986481,
            -0.4427006291721604,
            -0.0661934805114623,
            -0.1872912739569165,
            -1.0897329734812014,
            0.20692506555738868,
            -1.1529048335956844,
            0.2978651106618339
          ],
          [
            -0.08174717795180908,
            0.6002674396855208,
            0.1515995229461503,
            0.24056319660895223,
            -1.0829118717535944,
            -0.015889274953839173,
            -0.3012244288832844,
            0.2695604581394458,
            0.045946281721332506,
            -0.42858671106649504,
            0.2583426728448987,
            0.26826056010923627,
            -0.18660136938316785,
            0.10555820402414368,
            0.33644012998753664,
            -0.6889045456762937,
            -0.04264000393694013,
            -2.0688730553088153,
            -0.06974160471784668,
            0.3333677639436158,
            -0.08078704659430318,
            -0.6574519915308519,
            0.1806282827615529,
            -0.4417310592691071,
            -0.4043090993589023,
            0.036209728721127696,
            0.11109506309420986,
            -0.2967986625482898,
            0.21634452285084296,
            -0.21276835834074712,
            -0.011566436289337205,
            0.5803691024245093,
            0.17288263184356006,
            -0.8272386480283865,
            -0.00795884952632751,
            0.7309637504816422,
