{
  "engine": "nn",
  "version": 2,
  "feature_encoding": "ray_wall_body_inverse_v1",
  "feature_profile": "green_danger",
  "state_size": 8,
  "epsilon": 0.8348120719364951,
  "epsilon_decay": 0.995,
  "min_epsilon": 0.005,
  "gamma": 0.95,
  "learning_rate": 0.0005,
  "hidden_layers": [
    64,
    64
  ],
  "batch_size": 64,
  "replay_capacity": 10000,
  "target_sync_interval": 200,
  "seed": 42,
  "training_steps": 0,
  "last_loss": null,
  "network": {
    "layers": [
      {
        "weights": [
          [
            0.15235853987721568,
            -0.5199920531202478,
            0.3752255979032286,
            0.47028235819560693,
            -0.9755175943269182,
            -0.651089753431159,
            0.06392020158364269,
            -0.1581212961717911,
            -0.008400578752144398,
            -0.42652196378679,
            0.4396989874314143,
            0.38889596771447416,
            0.03301534878060802,
            0.5636206034840164,
            0.2337546711260228,
            -0.4296462314416191,
            0.18437539204124942,
            -0.47944130041449945,
            0.43922515065363626,
            -0.024962955493126448,
            -0.09243118177263028,
            -0.3404647722019707,
            0.6112706693370151,
            -0.07726474103440108,
            -0.2141639110815536,
            -0.1760667752441148,
            0.26615459277667436,
            0.18272203218203917,
            0.2063663057979942,
            0.21541050150394137,
            1.0708238004352306,
            -0.2032075081923078,
            -0.25612136453576867,
            -0.40688636412393886,
            0.3079897112877478,
            0.5644861463604458,
            -0.056973728827437536,
            -0.420078238481264,
            -0.4122406078456198,
            0.32529639391235055,
            0.37162708560172114,
            0.2715771341525975,
            -0.33275485364434715,
            0.11608066153335989,
            0.05834290457036411,
            0.10934429836450647,
            0.4357143889740949,
            0.11179777438734113,
            0.33945678153594744,
            0.03378953474444573,
            0.14455969934499208,
            0.3156441129192702,
            -0.7285779099278332,
            -0.15983560817865067,
            -0.23518632714639776,
            -0.31943892412167096,
            -0.13757112561334187,
            0.7474706556171979,
            -0.4329155578466216,
            0.4841391772957404,
            -0.8414348858079024,
            -0.16744251499288743,
            0.0813765325525028,
            0.2931111656796391
          ],
          [
            0.3556132898964275,
            0.3966736175999626,
            -0.1743625361242188,
            -0.23117589633228358,
            0.4289879406285769,
            -0.09565216244080745,
            -0.6378431616689609,
            -0.5666436070017403,
            -0.45972614300080566,
            0.24858037202688202,
            0.07121286803528262,
            0.3452426770338841,
            -0.21362632316826713,
            0.07926984553835711,
            0.31279519698366837,
            -0.1546732698601192,
            0.22838761877870573,
            -0.33096297053332563,
            -0.1815269232825359,
            -0.19086894699916454,
            -0.5979198227945198,
            0.2434862403927909,
            -0.23470117010136193,
            0.006247059363843715,
            0.24037332945295448,
            0.22326558801497204,
            0.3326925544863931,
            -0.049242742254711806,
            -0.21164915602207687,
            -0.039859105453199525,
            -0.8436672169790149,
            -0.7235562362115436,
            -0.6613498061772012,
            -0.4986234138007409,
            0.1998871133617183,
            -0.4527395276800304,
            -0.18908127701969485,
            0.6496141488930327,
            -0.17813198553071297,
            0.3687577842335433,
            -0.4668088400049385,
            -0.10271877893381501,
            -0.4750110274552906,
            -0.16951653795028124,
            0.42015406872869776,
            -0.8636602115961743,
            0.21721182177292866,
            0.11886780116613894,
            -0.2970749778483972,
            -0.7230289271942273,
            0.03606475385693476,
            -0.2647463545319012,
            0.11633810567735198,
            0.01092607276172144,
            0.8008894456604577,
            -0.11967781373651214,
            -0.5117487463109325,
            0.08963781747815808,
            0.10999834198588258,
            0.6795937876202183,
            0.41755562295728926,
            0.17843552957475467,
            0.7316514456097809,
            -0.5943815271614254
          ],
          [
            -0.31987576637487386,
            -0.46328797070276245,
            -0.19490490157788398,
            -0.6883430737781544,
            0.31757547340720216,
            -0.11111134854938669,
            -0.7354031472513289,
            -0.5077895406037708,
            0.15675692372509764,
            0.41906328394719056,
            0.9983654458458933,
            1.4569312330036648,
            0.2072047166379982,
            -0.49476906001593207,
            -1.0660231403656546,
            0.1338557311719179,
            -0.406470547655163,
            -0.20767863008984266,
            -0.30604839952990404,
            -0.07039544320819263,
            0.5329901153938218,
            0.07852428372267231,
            -0.07931741851934415,
            -0.5178268764129058,
            -0.8373414723521785,
            -0.24315395453666544,
            -0.026891275409160247,
            0.8839649567899415,
            0.06513726073644292,
            0.4913697555115288,
            -0.24964779926957603,
            -0.5924718832085123,
            -0.48255838111618593,
            -0.3626130322678766,
            1.0642348662175822,
            -0.41069333961219306,
            0.4192446018681725,
            -0.4514635890435132,
            0.46578650643712205,
            0.19247548305293158,
            -0.0783189488290452,
            -0.020381263067717013,
            -0.3273938477146952,
            0.22303610074104027,
            -0.22749174017039,
            -0.6128028818836241,
            -0.6389687871598096,
            0.08629395886105974,
            0.7895456282052175,
            0.07999580678671912,
            -0.05931916305494128,
            0.14291306980127144,
            0.6530008708534124,
            0.10969125068192817,
            -0.20546361541686858,
            0.5531443550299444,
            0.21437821923080674,
            0.767877995997996,
            0.09161721861095307,
            -0.6122345158602501,
            -0.6840795996228325,
            0.8254639661156248,
            0.8618328603916485,
            -0.08975960664130032
          ],
          [
            -0.19159366056799387,
            0.7307221461211011,
            -0.553522841021744,
            -0.4473635094779132,
            0.3216633973445222,
            -0.1973025614297948,
            -0.002560933360035648,
            -0.08172144926225629,
            0.16878727439946678,
            0.7037409306568584,
            0.04529245345087277,
            0.32196939663842894,
            -1.0250860505155113,
            -0.024359200965058975,
            -0.42161513514643556,
            -0.609406530211814,
            -0.4390761834643754,
            -0.16706172035040603,
            0.45795127117800655,
            -0.663196358869782,
            0.015315746297208723,
            -0.24208471666678924,
            -0.16383654718098042,
            0.5013789126523021,
            0.26905771850196303,
            0.6686990537213718,
            -0.07725283962495023,
            -0.3479713058353515,
            -0.11192940844024976,
            0.1212483956356108,
            0.08828667922685551,
            -0.5421940361166833,
            0.04524489081393711,
            0.11411416506945257,
            1.2587370187669602,
            0.9384223056408351,
            -0.42662167527941003,
            -0.14369168077458805,
            -0.7317210009185016,
            -0.29535350698174323,
            0.15780250179517025,
            0.6029268104441168,
            -0.36454191887180426,
            -0.32707322003389827,
            -1.0736445148693274,
            -0.08133296027245383,
            -0.5312072059297815,
            -0.2647197136830369,
            -0.4384303890837941,
            -0.047131277126278494,
            -0.8788641956783156,
            -0.7335226226954953,
            1.064623556014149,
            -0.6437112906370155,
            -0.5483927892273198,
            0.918456764160657,
            1.4525335846202034,
            -0.5857833144126708,
            -0.18412447839401527,
            0.17077777547025477,
            0.8643488222027962,
            -0.4934285392141187,
            -0.12263892297105487,
            0.388668788030872
          ],
          [
            0.21738303723330932,
            -0.18807803561504963,
            -0.06691148225802057,
            -0.6874479041849909,
            -0.11908687198733262,
            -0.13319374500447756,
            0.11608494481312798,
            -0.277663609409508,
            0.2357692612725695,
            0.5063579089099143,
            0.07771466383423302,
            0.17587820419960173,
            0.026577673788933682,
            4.2196545707090214e-05,
            -0.3607790167714237,
            0.158247130836654,
            -0.04864329920674473,
            1.0465841544652974,
            0.7866774512376212,
            0.1929232762782504,
            -0.38152860484738377,
            -0.556205735991709,
            0.5955714765444325,
            0.13137461257356925,
            0.2400717016958054,
            -0.8722929934870963,
            0.4637192407790904,
            0.22721016910718148,
            -0.555215342207239,
            -0.23576240372497448,
            0.1318586021782598,
            0.026233399178121813,
            -0.1460855929017775,
            -0.05174413403298043,
            -0.12598868910344269,
            0.07628125605123429,
            0.7357459864965785,
            -1.2833292204656488,
            -0.11842513225484212,
            0.08825621068622348,
            0.14799699484354975,
            -0.18595729066064492,
            -0.8783608912392913,
            0.16399774185705482,
            0.8636751070820925,
            -0.7669307024580688,
            0.43191400684909415,
            -0.16426261156144695,
            -0.03066217291442365,
            -0.5264492553519745,
            -0.16722808617793833,
            0.6500222973494792,
            0.2913276209938535,
            0.866155802704972,
            0.5887059444888468,
            0.2195433394647881,
            0.871967263083896,
            0.21949657936914937,
            0.41399408839852947,
            -0.14828547676735418,
            0.03327290792960241,
            -0.34871191165013843,
            0.4947919672974265,
            -0.5891518115574328
          ],
          [
            0.39117517120883066,
            -0.09532552875257973,
            0.5856235467336597,
            0.3754344943656299,
            0.9103230788234008,
            0.3653873455693224,
            -0.7860201278266203,
            -0.03347658644910042,
            -0.586003596297408,
            -0.25913992118313733,
            0.7556142166383608,
            0.318766905448848,
            -0.34946521428937316,
            -0.5068586832201994,
            0.016391046438130396,
            -0.6082800746905639,
            -0.33557013869829055,
            0.15600473577562193,
            0.5776560180533481,
            0.3043807361122199,
            -1.14564475429905,
            0.1521833645151299,
            0.03601678661628896,
            0.20694514268634653,
            0.8081048408256036,
            -1.0316191384023714,
            -0.2955517125955528,
            0.2954531613966773,
            -0.7907971997269712,
            0.7379745240267545,
            0.1841783063503292,
            0.423291992921702,
            -0.28547183076089727,
            0.40688184498310526,
            0.5342357779945192,
            0.11643901006858418,
            0.11720044634934797,
            0.13517161964086294,
            -0.43167263236969083,
            -0.07376434012017646,
            -0.0762612662261794,
            0.19169693217674755,
            0.4999121234551473,
            -0.5292680409892047,
            -0.06250451515978882,
            0.7407277738294866,
            -0.3717941144062821,
            -0.41112500864516016,
            0.10115309591559679,
            0.42219259524266006,
            0.005713027780329665,
            0.6644802952184946,
            0.4283969912832634,
            0.4209100334450309,
            0.27705825066204665,
            1.1638265501730425,
            -0.1025808444330221,
            -1.001761146033257,
            0.8021271807585705,
            -0.22884971547841282,
            0.05394022217151652,
            0.6547753424302635,
            -0.8011297705294627,
            -0.6258236070530697
          ],
          [
            -0.8006389685594268,
            -0.3970681450127119,
            0.21981830300849678,
            0.2620939214063855,
            0.13813708966427687,
            -0.7063829419461832,
            -1.155051718316322,
            0.027176792695191132,
            -0.23588801681916788,
            0.22969288585830588,
            0.35097681311063506,
            0.06912071602934096,
            0.3800665426879269,
            0.11460568705753421,
            0.26503235280073334,
            -0.3523366314349412,
            -0.08980570691572927,
            0.09838804832847863,
            0.4102642377087094,
            -0.19687058611228606,
            0.2605836278660563,
            -0.1329193959576895,
            -0.05877108366406518,
            0.4147595210120365,
            -0.996530185527078,
            -0.6482361640373805,
            -0.7410926987214104,
            -1.1668080599241524,
            -0.33913222007758836,
            0.3747169498638702,
            -0.14244203319128737,
            0.09889504097092607,
            0.5446087483553963,
            0.6638430661338458,
            -0.034568967363069775,
            0.6767929447846986,
            0.046063329217054604,
            -0.41869911191373105,
            -0.2972001760993676,
            -0.7402682562825081,
            -0.4440669268668262,
            -0.17900834403721458,
            0.4017925096893008,
            0.8603849155829919,
            -0.69109075768852,
            0.19641373412995947,
            -0.5202719695787672,
            0.23734854423160098,
            -0.0655433253438633,
            -0.9154529129237652,
            0.46414849578424217,
            -0.3025003564043655,
            -0.2669501191867773,
            -0.534876205644845,
            -0.32714163834377774,
            0.2139452203474586,
            -0.09462217046820276,
            0.16433100114124052,
            0.18096092696442184,
            0.6603308277640835,
            -0.17139307543218965,
            -0.7384289084228659,
            0.5336112082859915,
            -0.16574408604862734
          ],
          [
            0.5572962222886885,
            0.1916885565912352,
            -0.06556876510167246,
            0.17438794702314755,
            0.9755062800631498,
            1.0384902645268765,
            0.03469056756638935,
            0.08009529665853765,
            0.5381200787331928,
            -0.4228305163836736,
            0.16653518630912756,
            -0.0129314239769282,
            0.1569541057287768,
            -0.4166844029747029,
            -0.7947837466544845,
            -1.0364917179956459,
            -0.5586920564948039,
            -0.2293376424696665,
            -0.1465957933243809,
            0.9686155812147584,
            0.5529966849536491,
            -0.4810455581708136,
            0.17385422622547847,
            -0.20353911817516254,
            -0.14218191902004756,
            0.09266282470769101,
            0.30958555848769664,
            -0.16962924194200768,
            0.5319257663671793,
            -0.570969113071202,
            0.003169531181134221,
            1.2988368632979161,
            0.11153987131263755,
            0.7166072533030864,
            0.04576008908660409,
            0.29038854766489836,
            -0.028391597196345767,
            -0.08520379058210222,
            -0.3897411983627098,
            0.2151506794787766,
            -0.42576859459288396,
            0.33279261815671457,
            0.542643502222955,
            0.18326570361861497,
            -0.14312436677784593,
            0.22698278965434804,
            -0.1543365277732063,
            0.46777356273257464,
            -0.9157030421075618,
            -0.1678036840593231,
            -0.9954059975619989,
            -0.7475304151136025,
            0.6819311149069547,
            0.447592490985843,
            -0.3597401166423952,
            -0.7512517280204485,
            -1.4822644189208256,
            -0.2717477539663173,
            1.2102075061237012,
            0.2174421357318237,
            -0.27978614302474475,
            0.23254010475015313,
            -0.7804791764972214,
            -0.14866168134881771
          ]
        ],
        "biases": [
          0.0,
          0.0,
          0.0,
          0.0,
          0.0,
          0.0,
          0.0,
          0.0,
          0.0,
          0.0,
          0.0,
          0.0,
          0.0,
          0.0,
          0.0,
          0.0,
          0.0,
          0.0,
          0.0,
          0.0,
          0.0,
          0.0,
          0.0,
          0.0,
          0.0,
          0.0,
          0.0,
          0.0,
          0.0,
          0.0,
          0.0,
          0.0,
          0.0,
          0.0,
          0.0,
          0.0,
          0.0,
          0.0,
          0.0,
          0.0,
          0.0,
          0.0,
          0.0,
          0.0,
          0.0,
          0.0,
          0.0,
          0.0,
          0.0,
          0.0,
          0.0,
          0.0,
          0.0,
          0.0,
          0.0,
          0.0,
          0.0,
          0.0,
          0.0,
          0.0,
          0.0,
          0.0,
          0.0,
          0.0
        ]
      },
      {
        "weights": [
          [
            0.01758529893618262,
            -0.015220588691811317,
            0.13979609281272254,
            0.060925244143771116,
            0.118144464861892,
            -0.12168817718655749,
            0.15871284088521706,
            0.2879580904475601,
            -0.17149982602759642,
            -0.15692390444640103,
            0.23613554060370215,
            -0.03382515763283642,
            0.2481629064762504,
            -0.07823000069904489,
            0.25721814847912694,
            0.02324362817324684,
            0.04564883801732517,
            0.2766056809418972,
            -0.0639525894584671,
            -0.16636845398825864,
            -0.07929569832360564,
            0.07996210096516612,
            -0.2767897144107997,
            0.11268999951842938,
            -0.09524221304907937,
            0.2029065289841192,
            -0.4232494243802236,
            -0.13904649835635266,
            -0.2981282664981934,
            -0.14605811462052334,
            0.04378155953570265,
            -0.03168309055617579,
            -0.044791249300925845,
            -0.02814017550378734,
            0.035954301038990805,
            -0.17828566858225298,
            0.12495454358974871,
            0.11714390033028489,
            0.06806573418267804,
            0.09838214283162836,
            0.05239979460939067,
            0.3597535331432104,
            -0.015396219738262716,
            -0.054285156518242096,
            -0.13320611547044825,
            -0.18247998358283093,
            -0.21999361000201634,
            -0.15711865182149162,
            -0.012494644290758215,
            0.059095588069590546,
            0.009040724101518268,
            -0.13532879647701876,
            0.15913165238449298,
            0.13071092866981662,
            -0.028222100195765713,
            -0.1154203583596487,
            0.09694927545269758,
            0.033229349598846804,
            -0.2559951512883677,
            -0.01201732499834252,
            0.046321824907879665,
            -0.15904507113091845,
            0.0335598876097044,
            -0.2571787111871122
          ],
          [
            0.23620656306145313,
            0.22060847425429372,
            -0.04463917986319419,
            0.06425025673441877,
            -0.4260180410368767,
            -0.20441531799570375,
            -0.05193326665230807,
            -0.18952813244623856,
            0.12628864933098913,
            0.35307548023306806,
            -0.20799806173809163,
            -0.1480440130060524,
            0.04162178446281489,
            0.2848077884708087,
            -0.21608729138630245,
            0.04402378271091028,
            0.32196319199430384,
            -0.29199252364111883,
            -0.22646318083248995,
            -0.07488377599596999,
            -0.0920278992343008,
            0.14364897024288079,
            0.04271980665623893,
            -0.31377192718044755,
            0.0911125477463135,
            -0.10209541591202853,
            0.2252925673408683,
            -0.11094285070067635,
            -0.11253874592214615,
            0.09565945787857096,
            0.13486762230181168,
            0.07921352472116706,
            -0.2979743233681628,
            0.09511195024629313,
            -0.1828415592937034,
            0.041591333488815996,
            -0.25168306846986904,
            0.07889935428036078,
            -0.14258788873334557,
            -0.22673991474601268,
            0.1261867647635529,
            0.04271711997855263,
            -0.10853678993903593,
            0.2565346012143209,
            -0.07789707885955954,
            0.005675888498243676,
            0.047537630601448146,
            -0.1095424960231598,
            0.08328591698154623,
            -0.09430194303001425,
            -0.07276806225883366,
            0.24088346273472017,
            -0.1839513635349206,
            -0.4265233333784412,
            0.2847761183092975,
            0.4506617706892073,
            -0.07164216145142839,
            -0.3423878281456497,
            -0.05488633125447861,
            -0.05059754719088857,
            -0.03357410897395844,
            -0.19682105863373775,
            0.102452903489335,
            0.09272068046178723
          ],
          [
            -0.2641760869043793,
            0.12360168759123157,
            0.3628668675934314,
            0.030398579290334515,
            -0.05963122739087295,
            -0.02510285896446139,
            0.10876305802359527,
            -0.30594240706529086,
            0.029060445209818497,
            -0.0690249266185086,
            0.326652399276835,
            -0.030789680292821288,
            0.29484366001991097,
            -0.19511563301830728,
            0.10381373479005405,
            0.0564625231098875,
            -0.1536273005341735,
            0.03135949890398169,
            0.21434507296001243,
            -0.05723882744825117,
            -0.2990995656855738,
            -0.003104698424751162,
            -0.15952737245678408,
            -0.06051789980174979,
            -0.01442281630155882,
            -0.30151956207260855,
            -0.2856107419535619,
            0.08521818209630976,
            -0.0924044836786429,
            -0.45338702902778794,
            0.13874213511485883,
            0.048148625236133856,
            -0.1261964322486378,
            -0.23278489297764882,
            0.14775135781328266,
            0.06175704855605547,
            0.42118855773911396,
            0.07427955188391908,
            0.06853688006842416,
            -0.02950896783730012,
            0.14438693860180057,
            0.11050049615548181,
            0.2212758104343097,
            -0.09215774273909672,
            -0.0769698941744935,
            -0.08469427525995966,
            0.13979531490491418,
            0.26487768187260424,
            -0.08111230604721253,
            -0.07509009584809587,
            0.055521533703645105,
            -0.043444905803425096,
            0.16830089854716035,
            -0.3980617479796498,
            -0.14614218617901978,
            -0.1383129738638142,
            -0.410184867781305,
            -0.17034881965630927,
            -0.16177827383974902,
            -0.0355506162346107,
            0.1967464323055762,
            -0.04332101206473421,
            -0.18222384293596644,
            -0.01006823557786376
          ],
          [
            0.1854694455908065,
            -0.172526774258411,
            -0.16096841879975243,
            0.09873843918187304,
            -0.03916242242774421,
            0.11446020387878593,
            -0.0024124347549738198,
            0.12403778091905605,
            -0.18297768837397996,
            -0.002136284630163816,
            -0.03724508447111982,
            -0.21494117940430216,
            -0.2763864647933943,
            0.12122444825871159,
            -0.06204020233497636,
            -0.1807153298565301,
            -0.017002194626450366,
            0.19940744583449818,
            -0.4031812991428206,
            -0.26457084165419814,
            -0.16314481533231712,
            0.2583023712961048,
            0.049954792974320414,
            0.13564380601287057,
            -0.2015538793895111,
            -0.1979078522963515,
            0.07916302895074505,
            0.010301543643390816,
            0.09700423497978013,
            -0.03317585757937689,
            0.049169328780140714,
            0.02795176929285354,
            0.1374911487519267,
            0.14266025715916011,
            -0.2863556179721494,
            -0.3972647086572038,
            0.17708524092544883,
            0.209962116907735,
            -0.18042236453324276,
            -0.32877555696481336,
            0.01750704837694693,
            0.16455050551002945,
            0.31777281915927436,
            0.09126937858577162,
            -0.06571084920900182,
            -0.15788467975200318,
            0.002024321498416192,
            -0.05290302537176224,
            -0.17944034987641827,
            0.3621722534299222,
            0.3155761706662893,
            0.20082693197502344,
            -0.162784890187291,
            0.15114749056403642,
            0.11307104289549248,
            0.07823175296477985,
            0.22091169613498815,
            0.11231881092186398,
            0.13081727116634498,
            0.11259018798820265,
            0.06024397889210013,
            -0.3153008812051745,
            0.01478225772178256,
            -0.09832177643591142
          ],
          [
            -0.22624605499688585,
            0.2973059840549617,
            0.3056460825450568,
            0.2402785258993693,
            0.04511578442714452,
            0.23875904546663115,
            0.0021307214346042483,
            0.035849832425146444,
            -0.19330025527175393,
            0.07017881087080584,
            0.010674824869287705,
            -0.23027853633516518,
            -0.0090504562356704,
            -0.014094328816048786,
            0.31776692263300665,
            0.15807607710480645,
            0.0020232868988083043,
            0.04397979845837605,
            0.00781571809246552,
            -0.03587046366162895,
            -0.1913479028535018,
            -0.026702451741705022,
            -0.13189278417761335,
            -0.2210266490488674,
            0.09037210293926336,
            0.06916647356935973,
            -0.3158482493213271,
            -0.021687784780054457,
            0.17601680050166985,
            0.1872460721418394,
            0.1813440469987878,
            0.006878948119434347,
            -0.1493843204542492,
            -0.1915726973971986,
            0.060918116244780524,
            0.06704787106706839,
            0.2275701396620895,
            0.1944507674810237,
            -0.023374944925094666,
            -0.21994660353367224,
            -0.05641060966694219,
            0.03840141273394449,
            -0.03572360829475819,
            -0.10215821065736552,
            0.04470414188108022,
            -0.08908798409572481,
            -0.11102744670887248,
            0.055057602788933076,
            -0.07106291984900932,
            0.043151967190997884,
            0.048296104301545115,
            -0.20142449333811663,
            -0.08507221551776706,
            0.25416545601214346,
            -0.20542857593309335,
            -0.3741751785739344,
            -0.3291308333442717,
            0.00514596015608523,
            0.00546545423818782,
            -0.020790858353063418,
            0.2146404654207694,
            -0.47249483815899723,
            0.0699918818778746,
            0.2760258852247589
          ],
          [
            -0.1993653566366706,
            -0.06714094000636081,
            -0.1330937450432247,
            -0.1580995384771993,
            -0.057675519048827756,
            0.25234613103432896,
            0.32480714447475806,
            -0.05938622602311053,
            0.3367702489834207,
            0.006289092031638845,
            0.3100117042715833,
            -0.01649302696138299,
            0.023167969381198892,
            0.06460736948908143,
            0.5619472482701479,
            0.15048745067475966,
            -0.125027886305349,
            0.17129624125684542,
            -0.0639635601565677,
            -0.08657641885419924,
            0.16061954574375767,
            0.005495207477537938,
            0.04924572955663551,
            0.0024722613043366695,
            0.05950005281391829,
            0.07512406696253199,
            -0.3424106132625266,
            0.11783451353185363,
            -0.17359814775472118,
            -0.2549648748133888,
            -0.010325746657503859,
            0.014845884233625135,
            -0.12259572794093339,
            0.14690706548476962,
            -0.23726529042026276,
            -0.0719381710796378,
            -0.10339211673793515,
            -0.008235543693479445,
            0.04929670667619955,
            -0.17817198484722996,
            0.12803629818131199,
            0.0111373504700697,
            -0.3344520063393334,
            -0.34623332226966713,
            -0.0021777638924348657,
            -0.03906187220683345,
            -0.018282265904926567,
            -0.004946646191693731,
            0.03987372302024954,
            0.16752236632812972,
            -0.1964174525121031,
            -0.20717726517453797,
            -0.19327417848630135,
            0.051073733638202355,
            0.22007768341532954,
            -0.07625076044308847,
            -0.44224223107465527,
            -0.3012262270613184,
            -0.1472614789166195,
            -0.09859346960287386,
            -0.07219359192282059,
            0.006820243421399651,
            -0.055109486133644296,
            0.18549878859572352
          ],
          [
            -0.11950410526168877,
            -0.15243771917102575,
            0.08465403515804454,
            -0.27146573028002635,
            0.06888841185098084,
            0.0181290129112783,
            -0.02606439611404134,
            0.2807702014404538,
            -0.10999177596816322,
            0.36421270191095345,
            -0.03985102661047498,
            -0.2257467469812965,
            0.012360152464790755,
            -0.19025506984121882,
            -0.13289291444639206,
            0.0701862346994567,
            0.09821396559757221,
            -0.1099847499712563,
            0.17455021846019914,
            0.2046203962431953,
            0.2539046779740132,
            0.09358795255741816,
            0.24102242199505963,
            -0.33248133061636365,
            -0.056198469079699206,
            -0.1532663240176689,
            0.021076353723996136,
            -0.1010189044994427,
            -0.02937283419749459,
            0.3327246552928153,
            -0.03000250473761246,
            0.07314883837202377,
            -0.04105980456277055,
            0.013384344835051713,
            0.0010636088841446407,
            0.07925324680468655,
            0.20599921513829816,
            0.2912208667478323,
            0.054733614877376546,
            0.10421815023579675,
            -0.20344602466801054,
            -0.015534560117667205,
            0.16622126422436398,
            0.15308307412991262,
            0.03740766925611334,
            0.1566937949033234,
            0.08675611697753359,
            0.21218617367895445,
            0.05115195552069896,
            -0.06287917274922779,
            0.05936890754488866,
            -0.5180607890181639,
            0.06768527515436833,
            -0.644954362319336,
            -0.30466816562581117,
            0.0798621603131323,
            0.08441605814921721,
            -0.2054903182708378,
            -0.12588304567734612,
            0.2422797067357919,
            -0.08556524708341404,
            0.39649604064030014,
            -0.0003393852999692237,
            0.07213128691054434
          ],
          [
            0.2858257128763214,
            0.023162540594921167,
            -0.17719105645699587,
            -0.019397256293837966,
            -0.006295148260764625,
            -0.24125451920986493,
            -0.045225148122524206,
            -0.13120226565215776,
            0.1634049095874057,
            0.006118572736492464,
            -0.049991697978244154,
            -0.0187704907956758,
            0.03944277306175744,
            0.10903837583319914,
            -0.176725824031809,
            -0.18412841955663595,
            0.19528154106174095,
            -0.07289154961730397,
            -0.25046466288644703,
            0.07845574409539195,
            0.08191298301070203,
            -0.2705947846179819,
            0.04056701929065946,
            0.1300339481955685,
            0.06618279969646713,
            0.11171959818800466,
            -0.24824205046767145,
            0.05852018461071392,
            -0.05349612101064868,
            -0.0853460487810815,
            0.15389394370516904,
            0.26150125943353997,
            0.31720280839149734,
            0.23242739047481908,
            -0.01939844598966479,
            0.06235270478428794,
            0.13555641315189532,
            0.0214214374199823,
            0.023116061002151248,
            0.14562035639332618,
            -0.010479790252904601,
            -0.12892093453514458,
            -0.07326917886792848,
            0.11206058169001377,
            0.0005291441263886791,
            0.060141195417730046,
            0.11845439402337786,
            -0.06626323507119636,
            0.13368705119062743,
            0.06697054347694924,
            -0.21828617681325008,
            0.25496587459641024,
            -0.08852000098850889,
            -0.29258228516912993,
            -0.18473937342120486,
            -0.18049698925333738,
            0.009223026854937134,
            -0.048410387375777145,
            -0.05954404210976774,
            0.10954886552682316,
            0.060082043164397005,
            0.0558698981280359,
            0.07244812032508506,
            0.10891825046712621
          ],
          [
            -0.37263702559891854,
            -0.06442418987499354,
            -0.3854103302529168,
            0.006374554691952911,
            -0.0008190015192208747,
            0.18482574036329494,
            0.20994608316586796,
            0.035845902918669584,
            -0.08845217771728871,
            0.08576517816227526,
            -0.09332353531500064,
            -0.0002461883198553099,
            0.1743259192243214,
            -0.09860097527516737,
            0.14242520731638061,
            0.11974877534684393,
            -0.1687849421286575,
            0.1721617855550713,
            0.12349024998022376,
            0.018018121534915593,
            -0.13476102165723283,
            -0.15188760054277006,
            -0.0950462135295902,
            0.09591805610700505,
            -0.16893225903551454,
            0.0773419694628212,
            -0.2195134387614498,
            -0.036074569970962415,
            0.019383167700289947,
            0.4322420266137017,
            -0.24347730996321168,
            0.26021787049263734,
            0.026488646759941926,
            0.07268561286564168,
            0.020921153024019402,
            0.07861733723034153,
            -0.02716794486543625,
            0.2570421858735247,
            -0.08069346037432094,
            0.2001526859704489,
            -0.11390909006906895,
            -0.010651122292340071,
            -0.18949799747561327,
            0.08043758956461565,
            0.25546459095286267,
            -0.013674769829502973,
            -0.034804803168046475,
            -0.19703830325272167,
            -0.040533597550773695,
            -0.2815689055210248,
            -0.16137555370120146,
            0.040090487770563676,
            0.23317079414937344,
            0.4966030124395708,
            -0.10369457284913045,
            0.25372761845052616,
            0.043089757955761566,
            -0.02673705916321746,
            0.0764726175798097,
            0.010945391369331335,
            0.01951539154860229,
            -0.07218378710452213,
            -0.2471532053215461,
            -0.2728769620784554
          ],
          [
            0.11547847168589259,
            -0.04891412751363414,
            -0.10537462578422573,
            0.0015035965835458502,
            0.14052549665513497,
            0.031884141798877566,
            -0.1159752236324347,
            0.21678001616516665,
            0.27916319447745025,
            0.08742609116493191,
            0.17212101786632777,
            0.2195495839273672,
            0.19977522251097835,
            0.10855842311435372,
            0.10577381362239902,
            0.09186387883215032,
            -0.19398372773092282,
            0.12387152398746448,
            -0.2396763132527621,
            -0.14046666576151554,
            0.23043992479125008,
            0.14853134368268284,
            0.2629373542405366,
            -0.04802569974499008,
            -0.20369074232028606,
            -0.042503693124481434,
            0.018036755543017573,
            0.013963364240310376,
            0.2004082885569189,
            -0.0638641918405206,
            0.06223149055581805,
            -0.17476624035758406,
            0.07960560024756204,
            0.0005495192289806109,
            -0.13254952403127626,
            -0.04168913529918418,
            -0.03255797982275197,
            -0.04775713098164738,
            0.31313185105072056,
            -0.01740295895315205,
            -0.04311514835285421,
            -0.37078044883308725,
            -0.1580750205928886,
            -0.04650525059576351,
            -0.12124276955486135,
            0.24425370222359627,
            -0.029157154864122473,
            0.22776691646843678,
            0.010907941291912394,
            0.006581013895650094,
            -0.01569714258069653,
            0.0006710888161560448,
            0.30384290053152707,
            -0.41005311864971056,
            -0.35382664218691656,
            -0.09601994449562767,
            0.0025681909585831292,
            0.1219943796193687,
            0.0836307914544427,
            -0.06792572266026664,
            0.18014317645415853,
            0.18211453887912632,
            0.032537135155653346,
            0.17017542436650648
          ],
          [
            0.04819732865781273,
            -0.09925711393983123,
            0.12335775472076616,
            0.019553822265900456,
            0.00023685368146212371,
            0.2603838648170492,
            -0.4332570754779508,
            -0.2506135225751638,
            -0.20984638705883085,
            -0.06421601680852974,
            -0.0450087908467639,
            -0.26646004674918183,
            -0.1741529812968453,
            -0.1521767471030066,
            0.4344153099395145,
            0.3185059873000664,
            -0.07278770134860692,
            -0.06427305252551367,
            -0.20315248484463222,
            -0.33731298864496884,
            -0.020661693098953774,
            -0.17639697599307394,
            -0.014999596581372742,
            -0.2828791017882549,
            -0.13469932664053239,
            0.026273806739172744,
            0.06473732248215505,
            0.07379931324542727,
            -0.23343167879489415,
            0.15108851889055783,
            -0.14145877926299014,
            0.11187453073660086,
            -0.0018806700948937854,
            -0.2433132335346025,
            -0.05589638527624467,
            0.06458779490324568,
            0.1083579942915453,
            -0.02492337458704548,
            0.2707828102056028,
            0.17810442457077064,
            -0.045370466531426686,
            0.13260405501949374,
            0.3418496216977336,
            0.34656798890637,
            -0.21708176075646504,
            -0.1637894614732726,
            0.2624990359027017,
            -0.1870794268621297,
            -0.23379445093717197,
            -0.08594779169759867,
            0.0742862889762972,
            -0.01810135140396891,
            -0.1150044868955163,
            -0.11918505091146898,
            -0.12592459218418622,
            -0.15547680563590016,
            0.40333951992501926,
            0.052593023978344894,
            0.15675833516204032,
            -0.08645749855810962,
            -0.03287280686129323,
            -0.12613971474240937,
            -0.46876023633756414,
            -0.2435999260492742
          ],
          [
            -0.32007518668929313,
            -0.3977093413982679,
            -0.21131160916959613,
            0.2342212864155951,
            -0.007855278878422918,
            0.2281415969727315,
            0.07265214176903267,
            0.13833816308514268,
            -0.1592575936326126,
            0.09262231817969992,
            0.12881969411528277,
            -0.10193780267282626,
            0.09891369760258131,
            0.10008880087826906,
            -0.09714809625498079,
            -0.19847929304025239,
            -0.2093262933200958,
            0.0152921638257207,
            0.05780772393396191,
            -0.14010009724557285,
            0.004699668782960828,
            0.10085765179289934,
            0.1092817116015981,
            0.27433623913180144,
            0.22574045147311933,
            -0.1770049905115366,
            0.29761880636912286,
            -0.09386427175551892,
            0.18470916279099636,
            0.01201845107767973,
            -0.07285840509218564,
            -0.31955867696912066,
            -0.03032860714623213,
            -0.27566261503830347,
            0.17099596227524747,
            0.2681335933792811,
            -0.14087529113344247,
            0.05338138993882839,
            -0.12823231605676755,
            -0.11110145363798032,
            0.13691261427406778,
            -0.006812666571154941,
            0.30752923183182945,
            -0.08524746394980821,
            0.1766593743447014,
            0.017220421220243285,
            0.14067500675232045,
            -0.07904705293937396,
            -0.008760847525111663,
            -0.02041751019293083,
            -0.14779541384167907,
            0.11704058570028826,
            0.11494887032606763,
            0.10492663744320964,
            0.2716997090839957,
            0.25621038430791476,
            -0.06628148319055263,
            0.06594695602554268,
            -0.1102380690317718,
            0.004128675600339403,
            -0.10602172562121139,
            0.28639067539727203,
            0.06429335710312838,
            -0.03854246874470684
          ],
          [
            0.21100394657746163,
            -0.3837142189035881,
            -0.35604640070866705,
            0.14068572745907124,
            0.010689412427904471,
            0.04427306930936652,
            -0.2344759197989896,
            -0.004107178623605353,
            0.35417377256646265,
            0.14569928505225724,
            0.03000016222055585,
            -0.07761449928541757,
            -0.06975128480724088,
            -0.37639256648535396,
            0.04554482218527728,
            0.14946170984655008,
            -0.2785327777027319,
            -0.11692309243537051,
            -0.20461277260896155,
            -0.17065159401895316,
            0.009454305248663497,
            -0.36847372462805084,
            0.10858869811117827,
            0.13326400799549143,
            -0.04438908569359822,
            -0.43853145238931146,
            -0.17614359183671802,
            0.2179483295355067,
            -0.4910846485001548,
            -0.061434040345781295,
            -0.20859663806490097,
            0.1422292790479859,
            -0.11934441340857298,
            0.07140965683743054,
            0.09996022422176334,
            0.32460193576576496,
            -0.03587540614000817,
            0.06647588094679226,
            -0.2625231999323119,
            0.21043737575536198,
            -0.13444024090590795,
            -0.09912826800125973,
            -0.003932891651081015,
            -0.2762815297000264,
            0.04044120969697368,
            0.17102549053863758,
            0.051783873258459526,
            -0.28088006056039105,
            -0.021886597898605864,
            0.13117341728330315,
            -0.33198464785166243,
            -0.18999358413983505,
            0.1549524816129348,
            0.047746578272106564,
            0.07282697484449459,
            0.32871534701290456,
            0.08282921175638357,
            0.11629926835965682,
            0.47919663609179536,
            -0.037795663218594774,
            -0.14104707818662526,
            0.07562443354193212,
            0.07760338344023765,
            -0.09311100635012352
          ],
          [
            -0.18250373335100337,
            0.40832666358645403,
            0.05777830857447889,
            -0.12945098973829627,
            0.16191513195903712,
            -0.019294319200663282,
            -0.0447035463819001,
            0.09939674015199332,
            -0.22837467809032158,
            0.06233627178017103,
            0.33816582916263255,
            0.08240934654435253,
            -0.06650553243743623,
            -0.08964439564157894,
            -0.0725385444360585,
            -0.044894682953970484,
            -0.06678739032248791,
            0.16198250841566095,
            -0.3063909775233317,
            0.15238152025739146,
            -0.0671197291633654,
            0.0666355838546128,
            -0.19922519840457167,
            0.23487100926608837,
            0.22019923180514164,
            0.16963324198006036,
            -0.26777334344958004,
            0.14656928294386484,
            0.07156894446627093,
            -0.2837745461228062,
            -0.0042952112073589,
            0.06444120229294827,
            0.09830114924262906,
            0.03133567865298321,
            0.051482927436837085,
            0.26050015207397836,
            0.2167342229156246,
            -0.5068284999635654,
            -0.056115738683945676,
            -0.029106464526415243,
            -0.3097301955206282,
            0.016649369787238858,
            0.22075127223271915,
            -0.19207987543396474,
            0.059467846236282186,
            -0.16189624779153883,
            -0.1187783870761689,
            0.26116876430086733,
            -0.09591157844671562,
            0.08170839633213133,
            -0.33078775473646005,
            0.3292143440962786,
            0.10653490787049678,
            -0.032261719075869486,
            0.10174321002729418,
            -0.24922321961438568,
            0.20904387661371548,
            -0.05727295793868175,
            -0.0360747344810496,
            -0.08691325483763407,
            -0.10264563609672102,
            0.12280157504336357,
            0.04523836726519634,
            0.1152138826029546
          ],
          [
            -0.0015546961434194009,
            0.09072176662908245,
            -0.07404269678021559,
            0.39416462632206484,
            -0.2771735574716632,
            0.22290433303565052,
            0.2418141586101004,
            -0.1506418175865257,
            0.3940836217860869,
            0.17597948241898737,
            0.17167474429981242,
            0.004953669617418775,
            -0.038400522381882,
            -0.037018600410006944,
            0.0690367082295892,
            0.24769707919549672,
            0.032052128243836214,
            -0.1611219916474035,
            0.14573949160153102,
            0.16283798481770184,
            0.11572854798345428,
            0.13178683304274286,
            -0.04789377951219442,
            -0.16422363493171896,
            -0.15347636554692698,
            -0.2891117883414827,
            0.04188699250421954,
            -0.014751800125322644,
            -0.07777957237791502,
            -0.5224845283242525,
            -0.22049666027829823,
            0.19813850630918162,
            -0.11749038789938268,
            0.06374420512764656,
            -0.24584077450820835,
            0.2543296006766188,
            -0.025460733775773133,
            0.05127238279288566,
            0.4111436655965442,
            0.26807126959749444,
            -0.05419365742268639,
            -0.1048675038646421,
            -0.05754877130672842,
            0.09013812730322539,
            -0.01860117471831866,
            -0.06986995378905848,
            0.259363452901531,
            -0.020189647238672545,
            0.4065137604073278,
            0.016041170542853537,
            0.3156026857833457,
            0.06316574671208666,
            0.17022898783999243,
            -0.12809434706272443,
            -0.1509247339480285,
            0.08126529953573391,
            0.17475317532779344,
            0.007116411387844277,
            -0.22740436262771524,
            -0.24046197874222947,
            -0.2522844569160158,
            -0.31247439565868246,
            0.019354460026420554,
            0.198881546543113
          ],
          [
            -0.002371598477371525,
            -0.39958865080193495,
            -0.0337220037712067,
            -0.028779068622320603,
            0.3705237324107342,
            -0.2575880248373578,
            -0.06906269551389861,
            0.3015549995295777,
            0.07954568413830479,
            0.09958062355362503,
            0.020255858109506798,
            0.05832632839830939,
            0.1374632429938097,
            -0.1430983163417028,
            0.15522029385625286,
            -0.24271493595733815,
            0.05804780507841516,
            0.03159723680389442,
            -0.10894625546475963,
            -0.0040102280039621685,
            -0.1100505908776803,
            -0.18945181890764004,
            -0.06251084543063419,
            -0.19515946260604616,
            0.05706306895253921,
            -0.20330831296485444,
            0.12586094525149571,
            -0.2088579651906076,
            -0.10010774373969826,
            -0.11041532637529561,
            0.2342550595136425,
            0.05838756507580703,
            -0.037429601896388665,
            0.08816197467249154,
            -0.37250249951530534,
            -0.007625013433000869,
            0.3531139551605047,
            0.02339577803591965,
            0.012005465612876576,
            0.09689632355144781,
            0.1583221352034504,
            -0.3531055609341717,
            -0.2973961158610355,
            0.037174599487872106,
            -0.12637351615726344,
            0.2319354900009399,
            -0.05571548708604366,
            -0.34197995040913665,
            -0.22415530980982634,
            -0.4860786398867036,
            -0.041387938765422835,
            -0.033301923464138766,
            -0.07503511511189935,
            0.19072067114448854,
            0.2118703759468866,
            -0.03012070239769764,
            -0.3773640920072165,
            0.10912099786690642,
            0.09817474589493108,
            0.05469321932498233,
            0.17350274658326034,
            -0.20591446148105483,
            0.35510113882912847,
            -0.16960446757629696
          ],
          [
            0.13244515311103983,
            -0.29828374923479184,
            -0.164449117166759,
            0.26805863821953835,
            -0.04612100851356774,
            0.14847874244031808,
            0.04188819055051832,
            -0.018554155962139406,
            0.2410969533208453,
            -0.041835764934749206,
            -0.31479299784385745,
            -0.14199412898498917,
            0.09743785227472594,
            0.06991679278249026,
            -0.27701937881395106,
            -0.12804687684382185,
            -0.10283477769547406,
            -0.06460650707891592,
            -0.24322945720671868,
            -0.11108136791324714,
            -0.12880135374265822,
            0.13638909997215382,
            0.1430337914509377,
            -0.02577589092062967,
            -0.06930349953879603,
            0.02473535747392989,
            -0.1443514489574927,
            -0.20273318554572134,
            -0.16620919816169705,
            -0.11222017325767619,
            -0.2056750533914986,
            0.02864835329236514,
            0.1289967253176427,
            -0.28056199272602095,
            0.004442170525833909,
            -0.03887952306462052,
            0.06037077684429439,
            -0.0022872726665618313,
            -0.2569624769918847,
            -0.2231610084298082,
            0.005201402455722288,
            0.18186449117684575,
            -0.3914167262205304,
            0.06111640225353232,
            0.21029744674690787,
            -0.027051408690606613,
            0.09726297899151519,
            -0.12428622868635733,
            -0.021101162238286092,
            -0.2865397351281598,
            -0.4144252627030729,
            0.1666590227792902,
            -0.17412414820707653,
            -0.08052670705530507,
            -0.2450906797527276,
            -0.2492497845795479,
            -0.03073045414069414,
            -0.12897224534309248,
            0.06681646394347457,
            0.07999824620197712,
            0.056718740164358794,
            0.04217905931549405,
            0.2789126492119658,
            -0.18872569841103595
          ],
          [
            -0.009711204103914708,
            0.2002331632675937,
            0.22354116856581738,
            -0.25133467942402005,
            -0.05521716273384616,
            0.2400841591400613,
            0.08981654516636309,
            0.034517953418597404,
            -0.03848158072204013,
            -0.06784705929840529,
            0.0509504134946004,
            -0.04461386379313737,
            -0.00752690791852468,
            0.013894419521607873,
            -0.11986724398182014,
            0.09406807218502919,
            0.5151705382327874,
            -0.3141298256863404,
            0.05727786326102627,
            -0.13438389166330766,
            0.1020713195096132,
            0.00823027627626057,
            0.13467816925119272,
            0.2078021678946853,
            0.03401556930434407,
            0.20012046244885368,
            -0.41441723445482864,
            0.2811549012525368,
            0.06630224774237314,
            0.1905375864760706,
            -0.21564560284560763,
            -0.14686075422216954,
            0.025798489356141704,
            -0.0030119017719065183,
            0.05003992953069117,
            0.19171700614829976,
            -0.3120498138097251,
            0.17214851731502454,
            0.0014640486731066474,
            -0.03602388397099575,
            -0.2600588895350983,
            0.088927281169036,
            -0.4267580079949326,
            0.11462095055691006,
            -0.26376953862774294,
            0.009450113129973448,
            -0.021066273245172278,
            0.20674708870196412,
            -0.031582070375937625,
            -0.1227075209172933,
            -0.08955555042215613,
            0.2250160093604827,
            0.0948048059094007,
            -0.0681703937409676,
            -0.04179821673604743,
            -0.2770403870182935,
            0.06867318543453739,
            -0.31109440513751674,
            0.13290009476608292,
            0.0227373000643967,
            0.42195745096103837,
            -0.1944783275657185,
            -0.018148265186405565,
            0.31789535696176596
          ],
          [
            0.2106099234213652,
            -0.12307406570398638,
            0.03959222184194432,
            0.0003534396197792521,
            0.04984322645743588,
            -0.12351041854181168,
            -0.01578976561200065,
            -0.28249841781235846,
            0.02388667727831372,
            0.07955316746267854,
            -0.04020245221348801,
            -0.2855033591734691,
            0.17474939591030983,
            0.0644395315692486,
            -0.12834254970704365,
            -0.04960361969079259,
            -0.2652833777565512,
            -0.18126861371228012,
            -0.0950725125020501,
            0.2171561716284955,
            -0.11304929607208136,
            0.11317485497990488,
            -0.09516175936650406,
            0.04383135041425622,
            -0.024995429598789885,
            0.1543360605713127,
            -0.09454218097744863,
            -0.27798634729603516,
            -0.2442963828328514,
            -0.09402354568185767,
            -0.22080469384378035,
            0.07251592450280328,
            -0.08233695695799016,
            0.41977509854342065,
            -0.30718744349707555,
            0.035997600385068135,
            -0.19939580794518194,
            -0.08722185840778099,
            0.02499966714773224,
            -0.4110714669876734,
            0.04186533828572288,
            0.3363896926361371,
            -0.08015732390653026,
            0.04592797433817982,
            0.18118226984854188,
            -0.028983157917089518,
            -0.10270022222750673,
            -0.40229716081618444,
            0.11331222109045729,
            -0.020005537483850224,
            -0.1790189046286698,
            0.022379348078316454,
            -0.10318108458575863,
            -0.09341342516698997,
            0.10717814696447482,
            -0.2365948197169734,
            0.1851409352057709,
            -0.24707834097790757,
            -0.1171501649374706,
            0.33993207342033493,
            0.19929004919007517,
            0.017254111241101665,
            -0.1662638233229388,
            -0.09356300929043518
          ],
          [
            0.012953367959280865,
            0.006633233009842102,
            -0.01606386263781097,
            -0.005450469947489119,
            -0.03789652344752406,
            -0.2549082355744643,
            -0.09130706208440532,
            0.16168421770260755,
            -0.24188961518213156,
            -0.033508996905177175,
            -0.14491339048454446,
            0.019684160928859603,
            -0.06870128943161163,
            0.26116876974640874,
            0.08955209589069972,
            -0.23189622852576175,
            0.11865746968360225,
            -0.13694039515541287,
            -0.10199951173027139,
            0.05547588929576584,
            -0.08692948378054144,
            0.15783610058595307,
            -0.136915329148333,
            -0.10941532613234725,
            -0.11603107745033533,
            -0.09999174866592979,
            0.19431145068771205,
            0.11115653079920318,
            0.30227824133271836,
            0.40086664847388326,
            -0.18220675069095718,
            0.012448460614591225,
            -0.20792480498308397,
            -0.13746260615041406,
            -0.11138390392720657,
            -0.18688034506689624,
            -0.18594915592757322,
            -0.025506115617739713,
            -0.21508746110889984,
            0.1488684208565567,
            -0.16223743744146654,
            0.49666631774161585,
            -0.07979425154977263,
            0.012731040741153044,
            -0.22898613387153702,
            0.30159726287463323,
            0.19790163073467468,
            0.05248780640985339,
            -0.2380833037903392,
            0.03724099445261906,
            -0.19824287431798107,
            0.25851033082646346,
            0.1430467705484521,
            0.01687139782615053,
            -0.4306944382500135,
            -0.17384502680925143,
            0.12158013999770083,
            0.2144095708020044,
            0.19607537379837273,
            -0.28143079740552185,
            0.053307420257462705,
            0.1795194239933011,
            -0.29315508097650855,
            -0.0013973341056021838
          ],
          [
            0.048408954205074246,
            -0.05316816937147075,
            -0.32741905195231186,
            -0.05757583556319404,
            -0.05785997231312702,
            -0.026175750340578695,
            -0.09960861648072918,
            -0.07831422442627388,
            -0.007019145375813944,
            0.07821566288532447,
            -0.05381555709765459,
            -0.0724163837887041,
            0.016326041679922285,
            -0.33957316932242965,
            0.08432869333150399,
            -9.954244852770211e-05,
            0.007016890456586139,
            0.16983543595465198,
            -0.3452122759258796,
            -0.3489278285782397,
            0.048402138935803314,
            -0.0012580941305239404,
            0.03008331763315329,
            -0.08169329715608542,
            0.11744224704031349,
            0.1648688125692492,
            0.08555679050683644,
            -0.046108392916078524,
            -0.37259036465426654,
            0.13598303475931978,
            0.215973156163114,
            0.11394290599617618,
            -0.15550028135273974,
            0.11911114622198743,
            0.15212159797800437,
            0.2755623848606258,
            -0.1548758171216053,
            -0.040031893090485667,
            0.13210028368867943,
            0.010148762705581377,
            -0.19751748105434017,
            0.07329449668318903,
            0.10229389132079779,
            0.015549790122115197,
            0.03881749776382319,
            -0.04573317435374002,
            0.2613252649825145,
            -0.1592213877162383,
            -0.1038246235204809,
            0.0019419827775324795,
            0.15537858833463244,
            -0.26470068063516117,
            -0.23162992928145873,
            -0.3602229115090908,
            0.0057797538722523575,
            -0.19769040669677773,
            -0.06797949762492546,
            0.11691625075032773,
            -0.11340980207160467,
            0.0408852716620936,
            -0.05291596610935897,
            0.11881414748431061,
            0.08399156958845892,
            -0.12231775217413476
          ],
          [
            -0.02981369962211536,
            0.18450950858671233,
            0.06953986312965317,
            -0.24695033602403463,
            0.11589799423066537,
            -0.19173388151790655,
            0.24969939257101392,
            0.1810368085642162,
            0.05124499644734771,
            0.027795102454743776,
            -0.03695203143092782,
            0.11994722180811282,
            -0.06554493948563968,
            0.04164326324317669,
            0.1541376758288751,
            -0.09931430416047994,
            -0.10892851624133482,
            -0.21113598265884895,
            -0.18817397429352067,
            -0.32321768085249397,
            0.12901672145451176,
            0.3197739348234214,
            0.2519649403373276,
            -0.2874538421725173,
            0.12813741340803417,
            0.25139526089984904,
            -0.08075335877350137,
            0.017933541536650496,
            -0.35494869803033186,
            0.047152738290999315,
            -0.18801257422005463,
            0.03529081873188245,
            -0.2759842932720028,
            0.09596468293774928,
            0.1811099650514462,
            -0.1384479477768844,
            -0.20098141674985823,
            -0.38113462844538604,
            -0.04709570413610776,
            -0.10281225370687157,
            -0.2741840860558209,
            0.08008315864825817,
            -0.07954427708739843,
            -0.19016504778106383,
            -0.09803547717182423,
            0.18938167604826475,
            0.10658520038930241,
            -0.022985577454140305,
            0.10944333920577999,
            -0.20522217918040117,
            0.005722279432943721,
            0.026043154726797246,
            -0.08305614530211519,
            0.07697888556992499,
            -0.13796244701098384,
            0.09012441991445455,
            0.09755576990176355,
            -0.515685883361559,
            0.2104183086592571,
            -0.5387504133814717,
            -0.10890311087852524,
            0.18125763702498876,
            -0.05608889875161845,
            -0.2591875126712184
          ],
          [
            -0.19334722329372683,
            0.1815330042156857,
            -0.3396772209079039,
            0.19957931584737715,
            -0.00974076697260389,
            -0.21078770600275473,
            -0.10308115545932922,
            -0.17982155739524708,
            0.1531284283904362,
            0.1294761677532284,
            -0.3039076239290267,
            -0.07134568095961648,
            -0.15259110881665996,
            0.2286624175575045,
            -0.2386660604252925,
            0.28359031962489933,
            -0.005885734022566568,
            -0.2054029245113314,
            -0.1197262920588865,
            -0.14170752955856766,
            -0.22532282887258134,
            0.016763178888493546,
            -0.21706685315465407,
            -0.3854379329171942,
            -0.06711795179842993,
            -0.31870296049781777,
            -0.13296451258842595,
            -0.16070820433192787,
            -0.1540106981020402,
            0.3537236445096161,
            0.009972250420740975,
            0.04337587609179618,
            -0.3140258203579667,
            -0.11560544161016797,
            0.038060487409735236,
            -0.18111283546061716,
            0.16052434859877657,
            -0.21260872790013188,
            -0.05062285914311347,
            -0.10360027218805368,
            0.02904806313449942,
            -0.1132237182729077,
            -0.04788768017051988,
            -0.04174229728460386,
            -0.1298226408179425,
            0.08575329098158094,
            0.042141509100895994,
            -0.01566488039905202,
            -0.07609500165230268,
            0.14081042137358854,
            -0.04168999825925231,
            -0.054216932998310645,
            0.01850675751412906,
            0.29991698709986997,
            -0.23694374097432003,
            0.136092757405662,
            -0.3346685415145687,
            0.03840883088831943,
            0.27843793708315384,
            0.0863852068508143,
            0.03016253751899369,
            -0.0990744049757633,
            0.005488421500578749,
            -0.044558831514171546
          ],
          [
            -0.13894234733056546,
            -0.051243253350726145,
            0.03506916598465328,
            -0.13562609795001998,
            -0.14253183573839404,
            -0.24045933969648173,
            0.06907107888168729,
            0.09640044411891913,
            0.040952167763082394,
            0.17061965010240027,
            0.015532950506655242,
            0.06929839802765539,
            0.053711376011646016,
            -0.01618214212014076,
            -0.09383692856807842,
            0.3914105823020982,
            -0.07989440065458016,
            -0.11771166124355939,
            0.07672282231578673,
            0.04452199123171777,
            -0.24833440736720183,
            0.19846335172317417,
            -0.016651405745390365,
            -0.19638672771450855,
            0.21014932715661713,
            0.11060485987460243,
            -0.22354155440037868,
            0.31416450943865143,
            0.1164600216498967,
            -0.0018024356250580585,
            0.28111362525638317,
            0.028160135793481905,
            -0.004964433210658031,
            -0.11672567241435314,
            0.10285759781760175,
            0.08425229753210418,
            0.0025951066161954968,
            -0.13965117696615442,
            0.022968570239852507,
            -0.012338798682748685,
            -0.23572718332876633,
            -0.2601821235638623,
            0.09990594664171942,
            -0.45995321786577237,
            0.03631179413535227,
            -0.08451394302703229,
            0.23126751179726898,
            -0.08723367924817177,
            0.11658143999574941,
            -0.0701651171715108,
            0.020108022669375065,
            0.13025552690988484,
            -0.08176907092242791,
            0.17616767916334955,
            -0.17566262683816772,
            0.052077149165512704,
            0.16310120114384177,
            0.1166792465705765,
            0.3387827920274565,
            -0.13495827957369913,
            -0.2438014469742342,
            -0.1757752744971901,
            0.11675085434766189,
            0.0880211708325453
          ],
          [
            0.018076594364543123,
            -0.1985126361012216,
            0.13556426584578804,
            -0.216499263307065,
            0.2048752771880058,
            0.5051285214562985,
            0.06478002267858221,
            0.10307992922215886,
            -0.08712612119002118,
            -0.32000352868367726,
            -0.10654673718777669,
            -0.19319840902685814,
            -0.2557966870977564,
            0.3044730986572981,
            0.04823573420691516,
            0.06711991574611545,
            -0.05462795249214345,
            -0.030559578666703145,
            0.17051008205238588,
            -0.00571644897835528,
            0.09381432057797048,
            -0.03464899203697963,
            -0.060484657309802604,
            -0.2487096367611225,
            -0.3496199433712831,
            -0.0462380484860244,
            0.00998729850575564,
            -0.22735781761112234,
            -0.006094352711619978,
            0.009502200449185257,
            -0.38113197034426854,
            -0.16177271308724636,
            0.07199476524819683,
            0.06842296306829485,
            -0.20394283916777353,
            0.02800992274353778,
            0.18073777054662815,
            0.13736838969479004,
            -0.01684430653706255,
            -0.08272730614657191,
            -0.11125343814381976,
            0.08269963521715927,
            0.034489835611443545,
            0.11126396020521126,
            0.02331221687972352,
            0.14473838537044048,
            0.016721755376000444,
            0.13871467807432034,
            0.15394117153447653,
            -0.14222155896928193,
            -0.3196377292260978,
            0.2728535663002205,
            0.045371282234343065,
            -0.3030811507384995,
            -0.12618665175663063,
            0.13644938658956837,
            -0.049440345958708394,
            -0.09052052549614074,
            0.24764326576713117,
            -0.18513596076437522,
            -0.14109491292381388,
            0.03736820248943773,
            0.06902333255075821,
            0.08774188134425967
          ],
          [
            0.16108565014746795,
            0.03510407232064294,
            0.08651167545678311,
            -0.0458221562520094,
            0.011083598846892776,
            0.019009536981315023,
            0.03802433761455636,
            0.1365670341695802,
            0.0981368190624051,
            0.007816535648616178,
            -0.1430346176965134,
            0.011962701366891688,
            -0.004952891423401641,
            0.03415000127156071,
            0.39006225188467697,
            -0.09259082087685684,
            0.07465085726103936,
            0.18887919329726005,
            0.017324454507233793,
            0.4132765342826276,
            -0.06682853668457168,
            0.05729142170299497,
            -0.14121023976614974,
            -0.06214138099365692,
            0.04400571402719031,
            0.14960683535087954,
            0.0564085302449163,
            0.2225821620643175,
            -0.016787653774391217,
            -0.05871965498648169,
            0.4780015513961721,
            0.06969202882987623,
            -0.12718757002500297,
            -0.12272965355442363,
            -0.1666438400133665,
            0.1655636356444629,
            -0.06441341367880203,
            0.02251471755135189,
            -0.011226853589867141,
            0.12931081051037782,
            -0.14968462250198564,
            -0.190136114297011,
            0.039650536727496855,
            0.10623559635707855,
            0.058783963388747494,
            -0.14309255522536474,
            0.11976353149848049,
            -0.13149727645225875,
            -0.09219587809482344,
            -0.1668689846139678,
            0.2300144729323353,
            0.11197416675251788,
            0.10694872962886796,
            0.2204779133657844,
            0.4972108391322116,
            -0.30215134216398337,
            -0.1305277718518851,
            -0.10892539510449939,
            -0.15040508113834494,
            -0.19049160541840193,
            -0.052971678399218985,
            -0.21506718427447152,
            0.05922768251762512,
            0.009139058414533803
          ],
          [
            0.08503465769987278,
            0.08975455778868861,
            0.10659755878999137,
            -0.06600999784595658,
            0.3749687209678434,
            0.041441958046406185,
            -0.3292438996093855,
            -0.17719667178205378,
            -0.3076803665542559,
            0.003064358455560855,
            -0.021532324978014748,
            -0.08280674686668694,
            0.3554848726358763,
            0.09704737825376604,
            0.128357268796786,
            -0.16459209427671811,
            -0.17662553201201373,
            0.006506354499103014,
            0.03058363041044423,
            -0.3281526242754149,
            -0.03187407963811583,
            0.002487616306318582,
            -0.03803335852084848,
            -0.14378846908061427,
            -0.09537724645628892,
            -0.031264583772627086,
            0.01605132810664085,
            0.10691305730651257,
            0.19107018800207948,
            -0.05203381783323536,
            -0.08063778488835756,
            0.07736732364521845,
            0.10798314566186122,
            -0.07675651768787374,
            0.1397231468420984,
            0.17316785937058154,
            0.22834006475853308,
            0.3143656930668491,
            -0.15316218174388832,
            0.002456879516342206,
            0.0019936339388047955,
            -0.01733712134112493,
            -0.11477455330732589,
            -0.26261274158944065,
            0.01638356619093031,
            -0.13582737430734781,
            0.015201643343620116,
            -0.1403683932231606,
            -0.1943939683337289,
            0.041418489860848465,
            0.026679408757975153,
            0.10240355253503572,
            0.3864097729959676,
            0.049018326967807155,
            0.08575115173024983,
            -0.1904877306966183,
            -0.22749524449067354,
            0.279807358818794,
            -0.1632497036698749,
            -0.18454498302874267,
            -0.006911778082325798,
            -0.0159439167776829,
            -0.15954211769275803,
            -0.05391215775808028
          ],
          [
            0.21732497664411682,
            -0.14248088659949543,
            -0.24636881611210568,
            0.16662858531035624,
            0.0870266211971456,
            -0.10969323112829787,
            -0.27969025651825735,
            -0.1316320561918989,
            -0.009670469564277749,
            0.20606365984918582,
            -0.18324353592151948,
            -0.014941145340461594,
            0.11934984182339194,
            -0.4209525710045658,
            0.18274930241161277,
            -0.2090297045062713,
            0.05868906618669313,
            0.043607831973553196,
            0.19172959804668305,
            0.0973905914127057,
            -0.42024955688814297,
            -0.1387306818496188,
            0.02443144604011708,
            -0.03446789991757054,
            0.08443044644461699,
            0.13954161108897928,
            0.107560087213539,
            -0.037878816229655075,
            -0.32638935522974843,
            -0.08051846994213968,
            0.07360418525478506,
            -0.19276566170117063,
            0.11159466061516858,
            0.16058276512052957,
            0.022427124811855815,
            -0.5416048798830773,
            -0.225936237057282,
            0.33343428615388837,
            -0.09661514490627399,
            -0.35075028197996155,
            0.21836295117929153,
            0.0023609573368221968,
            0.19532772813739682,
            0.048959839339013954,
            0.08106256869766758,
            0.06417157517309048,
            0.12329967878942426,
            0.4025966284636845,
            0.1716512911829612,
            -0.27936716205607515,
            0.07895934658719284,
            0.20178719792995356,
            0.21260947401005972,
            -0.07541381910226538,
            0.20593502922453136,
            0.16400323547923415,
            0.4547611311004833,
            -0.13258282840075175,
            -0.0896965970876759,
            -0.0541147137541017,
            -0.08665985164506679,
            -0.15733492688864475,
            -0.48837664606996956,
            -0.07684473641196289
          ],
          [
            0.06529389717492702,
            -0.0871901278966433,
            0.3421302897635699,
            0.0023645319688169204,
            0.22822384990739092,
            0.04621303664548667,
            0.14608955321191383,
            0.04936339909387273,
            0.2419692238007354,
            0.009888773453447287,
            0.08770257924416301,
            0.06475912538897688,
            -0.05096215058982441,
            0.07159143599307301,
            0.39498741661908393,
            -0.04779987784194832,
            0.07415161755155511,
            0.22234600634837112,
            0.20157020680647753,
            0.0020711896051443484,
            -0.42132757851614017,
            0.09134101673113335,
            -0.39235132473533646,
            0.2598506459792802,
            0.02995903088867251,
            0.17671906960687472,
            -0.159472225797934,
            -0.2744471405533153,
            0.04609529831258532,
            -0.005940305066045743,
            -0.08689296285144245,
            0.014966141427518818,
            0.48921817143876334,
            0.14752466840451903,
            0.18552689526294514,
            0.14918837472771843,
            0.26153442860666826,
            -0.03360024220489702,
            -0.36323391359423457,
            -0.03333763337157443,
            0.14349595626745082,
            -0.17143810894581543,
            -0.0311773898903541,
            -0.12228876907415272,
            0.26552376737970856,
            0.13248653445045303,
            0.11517719776895884,
            0.10988462592557532,
            -0.006584799768434819,
            0.0349233467603008,
            -0.20951301346303391,
            -0.3865119874613649,
            0.026530846248777166,
            0.05727392681210017,
            0.21376979414555208,
            0.277775552768285,
            0.27753914379884037,
            -0.1764273126505665,
            -0.06227224874697451,
            0.08491190946354726,
            0.44758174173735854,
            0.26164704594372984,
            0.19788333102250774,
            -0.06855187325784272
          ],
          [
            -0.15612911208281155,
            0.13946052851795368,
            -0.19457126093236862,
            -0.04214999016488693,
            -0.020290066517485807,
            0.2815897350131919,
            -0.06270221704784182,
            -0.4312024901103829,
            0.08917405777384751,
            -0.12357077313184327,
            0.007536171617215049,
            -0.015327370481554147,
            -0.0483844878701496,
            0.13971379620672134,
            -0.2709747875314729,
            -0.09139606610878381,
            0.12092196173849869,
            -0.1085558772173551,
            -0.28439953343580293,
            0.11818500420383447,
            0.19853695727485296,
            -0.007954104111316638,
            -0.34663180488440015,
            0.12479899880082056,
            -0.29342949424030834,
            0.05458851567121001,
            -0.15688292213323274,
            -0.20503255601309578,
            -0.07811939243782799,
            -0.03240273628115982,
            -0.11388100558614472,
            0.10406902003317095,
            -0.07885467059697746,
            0.17327490305407459,
            0.04970486302854818,
            -0.12331185776244874,
            -0.15307799098942515,
            -0.29123895125904603,
            0.0513948503963862,
            -0.06268281479643517,
            -0.41934888604852855,
            -0.09470190482943285,
            -0.15928181804150365,
            0.2785430775968913,
            -0.30101157583229393,
            -0.25479723114015074,
            0.1962167653878131,
            0.23984410727671,
            -0.13169562196029583,
            -0.11173804290001486,
            0.10893605692750719,
            -0.41137701172946667,
            -0.32901566885386363,
            -0.04962712286177491,
            0.2739845323517406,
            -0.07702692502742846,
            0.017843272476785525,
            0.20042752076664394,
            0.37244812051984694,
            -0.10197336677006948,
            -0.002976340381217513,
            0.32209690067696994,
            -0.26908935745127666,
            0.1816523858018849
          ],
          [
            -0.18001445458005874,
            0.018114726415719856,
            -0.042889393415438584,
            -0.16935412482780457,
            -0.17378950991118325,
            0.04886361784529956,
            0.17598815247043306,
            -0.022934337259996603,
            0.012394372497666527,
            0.10097026387807352,
            -0.1717595557814042,
            0.13076039717291632,
            0.14484076501233367,
            0.4602604528805117,
            -0.06648645589433953,
            -0.08097818707442105,
            0.13593524557270484,
            0.14479852808398608,
            -0.09459093866961982,
            -0.0712697656946397,
            0.09565932130328425,
            -0.14629760715664983,
            -0.07257284170824348,
            0.015837913337872246,
            0.17605874942095762,
            -0.106878945349139,
            -0.3256906366636544,
            -0.3388097665217727,
            -0.22263487994571318,
            -0.23213744959361024,
            -0.027331578966133533,
            -0.2101663046567427,
            -0.12423069940051329,
            -0.13684034462289932,
            -0.07787152389289906,
            0.23378794524214547,
            0.11701690731910175,
            0.002851304729559057,
            -0.08149870232598065,
            -0.07658543733240034,
            0.05793793785324414,
            0.10326747828171652,
            -0.16044562332183931,
            0.006448947419408074,
            -0.3591429934482288,
            0.03742606311442358,
            0.13473022431629342,
            -0.049509606316268,
            0.3211196392947745,
            -0.15578242050608404,
            0.0384383980412388,
            -0.00633298032544682,
            -0.017730290196606813,
            -0.020209495059026205,
            0.018933673254721527,
            0.14989934441740155,
            0.2435516588390758,
            -0.0003977907870543628,
            0.1441288808607356,
            -0.12405604162945437,
            0.13540307367738286,
            -0.1347023434261839,
            0.1928032591941012,
            0.3907897887932347
          ],
          [
            -0.02158158626454748,
            -0.38759059259908585,
            -0.09688652192055408,
            0.2177668152577638,
            0.09777108665560465,
            0.04400212338816506,
            0.17830905861598825,
            0.08564007801542609,
            0.21526543441708956,
            0.16253267913513778,
            0.2690011772662358,
            0.0634267859983225,
            0.1600287653823127,
            -0.05429290901623381,
            -0.10632425461783432,
            0.3017167431125048,
            0.038219948188003824,
            0.14228412654163847,
            0.021874350823603776,
            -0.10368229850938718,
            0.001941519455514852,
            0.2538502769267166,
            0.09815350542737578,
            -0.30254856926604373,
            -0.03805020371445309,
            0.3150680067220482,
            -0.037794302702626854,
            -0.31828267307678065,
            0.3346469259999791,
            0.12063109277988335,
            -0.012376641809196873,
            -0.06565799995914655,
            0.19133459729652055,
            -0.09581003439762084,
            0.2029849760790686,
            0.09584749081574978,
            0.043254062186471674,
            0.025723626403959973,
            -0.030930271312873042,
            0.18484480492017216,
            -0.15297244615759475,
            -0.28671856393962303,
            0.10861869438259111,
            0.1115882255802847,
            0.08489544388647831,
            0.07207687375976259,
            -0.0566640687916454,
            0.1392085900845316,
            -0.008053615091573034,
            -0.08611032551508455,
            -0.05513511547224106,
            0.3572020083347834,
            -0.30670333820269835,
            0.08835088942598221,
            -0.29682759243344353,
            -0.01913313186965805,
            -0.07665523381534878,
            -0.3685844118870446,
            0.06877277958304714,
            -0.06718187272127416,
            -0.3710907599837166,
            0.14841607256357914,
            0.25367564987514146,
            0.2634192568122626
          ],
          [
            0.06345513333381043,
            0.008142005529177022,
            0.23478713827830716,
            0.2974062104377301,
            0.20038852918604827,
            -0.16644190581970367,
            0.03559307776632033,
            0.07769621151735857,
            -0.31989810751790465,
            0.08297202631001009,
            0.40181198343290475,
            0.1131258005910646,
            0.2604650953441082,
            0.032335061513228666,
            -0.012943293349018451,
            0.0673998963496698,
            -0.1442191387656207,
            -0.1703729926081927,
            0.22385313485547165,
            0.2425981441875873,
            -0.1752044991571575,
            0.17111962972012726,
            -0.015372497110708535,
            0.060070236831879384,
            0.08135593019324501,
            0.17577798972168088,
            0.014622650366254642,
            0.24928377736238785,
            0.05469697929510735,
            0.11034123294329953,
            -0.14730140724626584,
            0.3816006061847081,
            0.08305409729217017,
            0.1260413286075172,
            -0.2842897731289175,
            -0.14543454485378096,
            0.21882898751188656,
            0.050715663801723196,
            -0.3383116570487316,
            0.18354546240553932,
            -0.09612812711261211,
            0.24948795277929553,
            -0.015527300992699543,
            0.03618737145983554,
            0.20841169430827078,
            -0.15865584143964806,
            -0.17551217762469895,
            -0.03473634138898668,
            0.14622487395630687,
            -0.23526808256248027,
            -0.2948696442088425,
            0.14561466332948375,
            -0.1065925134311375,
            -0.06933641837342365,
            -0.32824080664740257,
            -0.12002771936591977,
            -0.001337721690784183,
            0.16446912304773983,
            -0.13633552010003536,
            0.2929854733982623,
            -0.12101355169990982,
            -0.12075471126845318,
            0.27176898751382145,
            0.03738122692181659
          ],
          [
            -0.09758510731668803,
            -0.027423922261124965,
            0.239191875531083,
            0.259190489088039,
            -0.14438999897222934,
            -0.007501308714629873,
            0.015937626053501967,
            -0.17434426750611406,
            -0.009843819584885227,
            0.0009409576801767761,
            0.20156246363233643,
            0.21344460632330234,
            -0.058196549502499514,
            -0.037821929720040226,
            0.11743139786839057,
            -0.10344768012708187,
            0.10405786074304894,
            -0.015539818332265332,
            -0.17136707699789333,
            -0.16914643204136093,
            0.2558062541846388,
            -0.02765167215636414,
            0.2899763758356526,
            -0.0907989207537036,
            0.05147829310921787,
            0.4229694840083513,
            -0.1869213343720433,
            -0.33548937557832215,
            0.2274391516102233,
            -0.14616058129255632,
            -0.0036604026183089076,
            -0.10357668495775059,
            0.0474049302188367,
            -0.16803264946609486,
            -0.031809214087397265,
            0.07951686692244167,
            -0.17824551275379652,
            -0.12375854119075301,
            -0.06140918932632997,
            -0.2525812706513507,
            -0.07469893410046141,
            0.021000459736710046,
            -0.07063094150327139,
            -0.04797303960166141,
            -0.0035181516137473825,
            -0.11592016225115882,
            0.12216375663716102,
            0.25384746742071956,
            -0.08209163109286753,
            0.08577173992440172,
            -0.042358728874117464,
            0.06460964502864855,
            0.27679333108922866,
            0.08991915304583702,
            -0.3134983615617848,
            0.08025584740630332,
            0.2179415782932079,
            -0.03917303862265635,
            0.1760050307478182,
            -0.12199634473769123,
            -0.26260870335409103,
            0.024955392627502824,
            -0.31050415005900717,
            -0.042385927287256465
          ],
          [
            0.22748372255851887,
            -0.33760157527793017,
            -0.22618521522429433,
            -0.18243924973923226,
            -0.011193475546350164,
            -0.0646502047810454,
            0.24733470582552827,
            0.16870654377869754,
            0.08755271467583622,
            0.025744045704722374,
            0.0695138604676113,
            -0.15237839217630988,
            0.1515348134757996,
            -0.19658350830923227,
            0.14767518430887516,
            0.20968235167545107,
            0.03727594751217237,
            -0.031150362231409517,
            0.07076546268548377,
            -0.5058497609970157,
            0.053432208990108684,
            -0.020038345136783202,
            -0.008949870515319385,
            0.12489848274970643,
            -0.013217402865106032,
            -0.20156200007335792,
            -0.024996696854628502,
            0.011942235224972711,
            0.020317637066807295,
            0.02862357065317671,
            0.1837362249543236,
            -0.19198559926333675,
            0.03105974600293378,
            0.22802950928671945,
            -0.30663888805210976,
            0.03175734654930772,
            -0.10348127707649045,
            -0.06553295667930119,
            -0.15994888029784668,
            -0.029972615206704113,
            0.3254910827147668,
            -0.22352182068164084,
            -0.2067597910240984,
            -0.23015169080595177,
            0.3053672961050944,
            -0.08173088524647337,
            -0.00453238835877289,
            -0.07120263725062098,
            -0.16695195540663604,
            -0.041569154205367186,
            0.43456018085619785,
            0.24608569702837457,
            -0.15077952872284292,
            0.11447600989892856,
            -0.1469938478158587,
            -0.31402040082712473,
            0.18022577084359487,
            0.20507737966691508,
            0.18491766004785562,
            -0.08306122599176677,
            -0.029482063112542083,
            0.1325410768229363,
            0.06920737570412712,
            -0.06958593132081625
          ],
          [
            -0.2862141658084001,
            0.02013048049668787,
            0.1907437582173765,
            -0.2117057000614119,
            0.11291777258240238,
            0.058608845218779265,
            0.1326087309567236,
            0.15414494721995964,
            -0.12276527046594335,
            -0.2858407391899914,
            -0.0943138186264486,
            0.1571769888903879,
            -0.09581365890319836,
            -0.12269068518424744,
            -0.3219722944228372,
            0.30982724271324713,
            0.1459669287925185,
            0.1360996672919143,
            0.17107129582953512,
            0.10194859830358062,
            -0.04319164758424773,
            -0.028949677134937162,
            -0.07558341539920221,
            0.4657607635288517,
            0.09827229176875603,
            -0.08198910929922826,
            0.08228898140835984,
            -0.1786980666767273,
            0.2659617257637908,
            -0.11686161011952208,
            0.0885802268402851,
            0.1884400026461333,
            0.06801811169865657,
            0.016700092958575965,
            0.0019095568631602073,
            -0.009977470586620098,
            -0.10194685305516799,
            -0.07945819530528629,
            0.2615570966467285,
            -0.019186747244706943,
            -0.13891046767791249,
            -0.09126938296277277,
            0.19451989253496593,
            0.11943150793130375,
            0.09905314040617863,
            -0.04552374651210083,
            0.10135712268428977,
            -0.11376660889016156,
            -0.045893710513943524,
            0.1714388323649617,
            0.1545519188509264,
            -0.1735787776464128,
            -0.15123713908403186,
            0.01921600734598458,
            0.3051399768386122,
            -0.3386272794001875,
            0.04920277724947228,
            -0.2432523927404755,
            -0.11213493675967831,
            -0.06442245141757781,
            -0.07433607529743681,
            -0.09436268217571787,
            0.0012740403161380514,
            -0.09462071020808248
          ],
          [
            -0.258528383506679,
            0.13786277286404514,
            0.13309025368939634,
            0.1490535680848294,
            -0.27236595257909296,
            0.052841763178002044,
            0.11949730821994975,
            -0.18229249384180624,
            0.0016216164987726718,
            -0.02055323333119268,
            0.32564930566022093,
            0.34020604953455685,
            -0.29421942300874243,
            0.4408681743836308,
            -0.1617905784359659,
            0.17336018413686846,
            0.1715614258491491,
            -0.17601482784025335,
            0.08719825049113872,
            -0.019009459944228462,
            0.09799262632268345,
            0.04077748731131356,
            0.21148494067663154,
            0.013328882064237074,
            -0.029676223219181487,
            0.19375861295269117,
            0.1026004806312069,
            0.12936755342186118,
            -0.11748343566006385,
            -0.18477810021219324,
            -0.10036004433093645,
            -0.10974675293009331,
            0.13898170855709502,
            0.17253123507320914,
            -0.0274234199239482,
            0.2529531353848752,
            0.24191349704439175,
            0.04302725608006972,
            -0.1452913112648771,
            0.27848987793470326,
            -0.010786445670556855,
            0.02230306648651874,
            -0.060034254132858955,
            -0.1572941933897348,
            -0.25962122507347274,
            0.11187637079638012,
            -0.13848704939974707,
            0.5408538198189164,
            -0.191992498783213,
            -0.22227591865111282,
            0.09018063628901499,
            0.27034698288444126,
            0.011417946104766201,
            0.10115912394925586,
            -0.32589622008100017,
            -0.11976825207270693,
            -0.18979024061542832,
            -0.3349999427893928,
            0.02067937918576994,
            -0.3964796550683084,
            -0.23373343341948336,
            -0.09496334363955433,
            -0.1469519629263335,
            0.07007578500765502
          ],
          [
            0.05401945647263253,
            0.15800278856674843,
            0.1330039098638954,
            0.20166911485544323,
            -0.00033912841385763215,
            0.05364587585828315,
            0.09042370182422363,
            0.02504160283142125,
            -0.07021469749776853,
            -0.05876809259662331,
            -0.1445252718687828,
            0.07453202987290393,
            -0.016619691782511815,
            -0.11723366404504323,
            -0.11706945063751988,
            -0.21397028708869495,
            0.17303633752363984,
            0.013897771811752503,
            -0.15252293616203633,
            0.14293239916417744,
            -0.09907428847838268,
            -0.2486365327758702,
            0.18052830145142465,
            -0.09494623086926973,
            -0.07228382987691122,
            0.007279667909575855,
            0.2019831468863893,
            0.003542126062044068,
            -0.21197596283355427,
            0.09614477943478661,
            -0.08573488070781474,
            0.333740960658281,
            -0.00019794075443797216,
            -0.39510218918919965,
            0.0631737987924547,
            0.3437595713968992,
            0.2785859806599764,
            0.3236700484055899,
            -0.18026983556682094,
